{
  "test_accuracy": 0.9403,
  "layers": [
    {
      "has_bias": true,
      "bias": [
        12.567484855651855,
        13.31453800201416,
        12.538283348083496,
        10.837069511413574,
        12.771515846252441,
        12.734618186950684,
        11.673018455505371,
        13.943842887878418,
        10.548396110534668,
        11.537528038024902,
        14.42415714263916,
        10.417937278747559,
        12.121476173400879,
        12.425015449523926,
        10.350138664245605,
        12.720625877380371,
        12.353100776672363,
        11.341221809387207,
        12.846869468688965,
        11.324807167053223,
        12.962014198303223,
        13.379364967346191,
        11.425358772277832,
        15.739161491394043,
        13.251276969909668
      ],
      "in_features": 2,
      "type": "dense",
      "name": "trainable_0",
      "out_features": 25,
      "weights": [
        [
          -6.1125335693359375,
          -11.976696014404297,
          -21.03147315979004,
          -5.852926731109619,
          -6.5391340255737305,
          -7.873323440551758,
          -33.2101936340332,
          0.15886428952217102,
          9.292608261108398,
          -5.75630521774292,
          -29.47037124633789,
          -1.9546042680740356,
          -9.966451644897461,
          -9.481119155883789,
          14.122406959533691,
          -9.646200180053711,
          -2.4485836029052734,
          -4.202188014984131,
          -7.713470458984375,
          49.336246490478516,
          -5.968182563781738,
          -10.323513984680176,
          -6.8372039794921875,
          -18.389074325561523,
          -6.904586315155029
        ],
        [
          -6.303884983062744,
          -4.552611827850342,
          11.511855125427246,
          -9.2867431640625,
          -5.828607559204102,
          -4.641767501831055,
          57.616268157958984,
          -15.972076416015625,
          -16.450315475463867,
          -5.249619483947754,
          -28.984127044677734,
          -7.676648139953613,
          -1.455108642578125,
          -2.1546027660369873,
          14.18522834777832,
          -2.589153528213501,
          -14.189291000366211,
          -7.261859893798828,
          -0.13310331106185913,
          -30.54602813720703,
          -6.402539253234863,
          -2.2266318798065186,
          -8.83719253540039,
          -0.010918401181697845,
          -6.294220924377441
        ]
      ]
    },
    {
      "name": "activation_1",
      "type": "tanh"
    },
    {
      "has_bias": true,
      "bias": [
        2.4353561401367188,
        0.193072110414505,
        1.6510329246520996,
        -0.03130754455924034,
        1.644378662109375,
        2.482731342315674,
        2.0586018562316895,
        0.6772753596305847,
        1.8490464687347412,
        -0.3402155041694641,
        1.0284297466278076,
        3.2002320289611816,
        1.2035341262817383,
        1.2924225330352783,
        2.224562168121338,
        1.5750877857208252,
        1.6649086475372314,
        0.34061047434806824,
        2.558100700378418,
        2.272817611694336,
        2.4025869369506836,
        1.2670118808746338,
        0.2960211932659149,
        0.3126890957355499,
        2.7646565437316895
      ],
      "in_features": 25,
      "type": "dense",
      "name": "trainable_2",
      "out_features": 25,
      "weights": [
        [
          0.8866322636604309,
          0.008846264332532883,
          -2.785869598388672,
          -1.0412756204605103,
          -0.7713647484779358,
          -3.4189772605895996,
          0.7224121689796448,
          -1.206196904182434,
          -0.3545122742652893,
          -1.9508863687515259,
          -2.4251458644866943,
          2.017103672027588,
          -0.5673509240150452,
          -2.39605712890625,
          -1.6961731910705566,
          2.1201608180999756,
          3.935894012451172,
          -0.8194631934165955,
          3.482689619064331,
          -0.3659079670906067,
          -1.8816797733306885,
          -1.4018553495407104,
          -1.6866813898086548,
          -0.4098574221134186,
          -0.15232014656066895
        ],
        [
          -0.532053530216217,
          -1.8092457056045532,
          2.6399974822998047,
          0.4059476852416992,
          -2.5373151302337646,
          5.148734092712402,
          -5.655277252197266,
          -1.1837317943572998,
          -1.7751952409744263,
          2.7433536052703857,
          1.9334453344345093,
          -0.6776323318481445,
          3.514108896255493,
          1.588629961013794,
          -0.40932101011276245,
          -2.667449474334717,
          -1.0972694158554077,
          0.42083388566970825,
          -4.5831170082092285,
          -1.9815332889556885,
          3.0188941955566406,
          3.166170358657837,
          0.5068824291229248,
          3.8314743041992188,
          -2.2327682971954346
        ],
        [
          1.5680882930755615,
          0.23783878982067108,
          2.829014539718628,
          2.502284288406372,
          -0.74485182762146,
          6.790180683135986,
          -4.151972770690918,
          -3.0202770233154297,
          -2.1706626415252686,
          0.6786707639694214,
          3.3161940574645996,
          -1.553932547569275,
          4.002661228179932,
          -1.953009843826294,
          0.7558989524841309,
          -2.710226535797119,
          -6.05239725112915,
          0.10554873943328857,
          -4.793126583099365,
          -3.842289447784424,
          4.655996322631836,
          5.094491004943848,
          -0.8498094081878662,
          2.58671236038208,
          -3.4850308895111084
        ],
        [
          1.044945240020752,
          -1.5006848573684692,
          1.596832275390625,
          4.80039119720459,
          -1.0801451206207275,
          3.578871965408325,
          -2.4512345790863037,
          -3.3927149772644043,
          -0.17217275500297546,
          2.708366870880127,
          -0.10671667754650116,
          -0.19664135575294495,
          0.9268390536308289,
          -1.826294183731079,
          0.627555251121521,
          0.10255568474531174,
          -1.6873283386230469,
          -3.434920310974121,
          -1.828015923500061,
          -2.293020486831665,
          -1.111295223236084,
          3.086940050125122,
          -0.574034571647644,
          -0.42741161584854126,
          -0.031870726495981216
        ],
        [
          -0.37193042039871216,
          1.0396826267242432,
          -1.3248289823532104,
          0.08522628992795944,
          -0.05958161875605583,
          -5.467748165130615,
          1.2610293626785278,
          1.1893349885940552,
          2.670527935028076,
          -2.811854124069214,
          -3.0227251052856445,
          1.6515341997146606,
          -0.8086351156234741,
          -0.8290608525276184,
          -1.4631602764129639,
          1.7113703489303589,
          3.696223497390747,
          -0.9344856142997742,
          3.5775980949401855,
          3.584642171859741,
          -6.829419136047363,
          -3.1871585845947266,
          -0.33710378408432007,
          -3.543198347091675,
          -0.22144508361816406
        ],
        [
          -1.653955340385437,
          -0.4916687607765198,
          -2.4058544635772705,
          -0.5027400851249695,
          -0.7033724188804626,
          -2.8481783866882324,
          0.24730151891708374,
          -0.2843814492225647,
          2.2668187618255615,
          -2.3483595848083496,
          -2.186176061630249,
          0.299735963344574,
          -2.413849115371704,
          -0.48374834656715393,
          0.4219686686992645,
          -0.5561851859092712,
          1.298590064048767,
          0.12141148746013641,
          3.2901875972747803,
          2.093900203704834,
          -2.9900705814361572,
          -0.5037428736686707,
          -0.3006986975669861,
          -1.7243950366973877,
          0.8283374309539795
        ],
        [
          1.0558679103851318,
          0.6381826400756836,
          6.073117256164551,
          6.006158351898193,
          -1.9061684608459473,
          17.37436866760254,
          -9.176863670349121,
          -5.810699462890625,
          -8.255744934082031,
          9.379136085510254,
          6.104172229766846,
          1.7848613262176514,
          10.96259880065918,
          2.803359031677246,
          1.3068279027938843,
          -4.114013195037842,
          -9.308295249938965,
          -1.8659555912017822,
          -12.003162384033203,
          -4.8460164070129395,
          13.501490592956543,
          9.888777732849121,
          0.9639028906822205,
          7.301629066467285,
          -5.040286064147949
        ],
        [
          0.3150442838668823,
          1.6753742694854736,
          4.543665885925293,
          0.8932803273200989,
          -0.8257190585136414,
          5.472896575927734,
          -2.1840877532958984,
          -3.2709646224975586,
          -5.163603782653809,
          2.724764585494995,
          3.228365421295166,
          0.4078620672225952,
          3.0894887447357178,
          1.926943302154541,
          -0.5533957481384277,
          -4.037022590637207,
          -5.517390251159668,
          0.23111751675605774,
          -5.142721652984619,
          -3.055142641067505,
          8.124131202697754,
          1.3856816291809082,
          2.418161153793335,
          4.045003890991211,
          -0.42701059579849243
        ],
        [
          0.8222742080688477,
          -2.111985445022583,
          -0.1104387491941452,
          2.642493724822998,
          -2.934995651245117,
          3.365783452987671,
          -1.0113717317581177,
          -2.911529779434204,
          -2.3154854774475098,
          5.592844486236572,
          2.1142117977142334,
          -1.2660514116287231,
          0.18713904917240143,
          -2.4454801082611084,
          0.4039662778377533,
          0.8178264498710632,
          -8.156317710876465,
          -0.7683681845664978,
          -4.575417518615723,
          -2.3868515491485596,
          4.339502334594727,
          2.3002476692199707,
          -0.943231463432312,
          1.8717633485794067,
          0.006883611902594566
        ],
        [
          0.9606303572654724,
          2.2121872901916504,
          -2.8278489112854004,
          -0.3535051643848419,
          0.5638082027435303,
          -4.553769588470459,
          1.523072361946106,
          -0.8301057815551758,
          1.8205771446228027,
          -2.5967485904693604,
          0.321987122297287,
          0.26070278882980347,
          -1.6598259210586548,
          0.0073040081188082695,
          0.38356539607048035,
          2.4638845920562744,
          2.9378654956817627,
          1.6963605880737305,
          2.7246720790863037,
          1.5387042760849,
          -2.0513393878936768,
          -1.9885997772216797,
          -0.19128096103668213,
          -2.512340784072876,
          1.4942309856414795
        ],
        [
          1.0796970129013062,
          0.9892723560333252,
          -4.9081807136535645,
          -8.19227123260498,
          1.965052843093872,
          -19.90776252746582,
          12.865991592407227,
          2.6743576526641846,
          6.5713114738464355,
          -7.290804386138916,
          -10.580775260925293,
          -2.2062056064605713,
          -8.161515235900879,
          -1.091567873954773,
          -1.219990849494934,
          6.740179538726807,
          10.35422420501709,
          -1.94560706615448,
          10.357921600341797,
          7.1897735595703125,
          -15.101210594177246,
          -11.007500648498535,
          -0.6739547252655029,
          -0.6710954308509827,
          5.595483779907227
        ],
        [
          -0.424714595079422,
          0.9346632957458496,
          -3.3880252838134766,
          1.8648401498794556,
          1.9265358448028564,
          -1.975383996963501,
          1.6567485332489014,
          2.0055959224700928,
          2.6558122634887695,
          0.08894587308168411,
          0.6498252749443054,
          -1.6605618000030518,
          -4.3121466636657715,
          -0.8233229517936707,
          0.717751145362854,
          0.951907217502594,
          3.2661502361297607,
          4.227010726928711,
          3.0213186740875244,
          3.163532257080078,
          -0.8187617659568787,
          -1.816292643547058,
          -1.8424550294876099,
          -1.124249815940857,
          1.634637713432312
        ],
        [
          -1.7132558822631836,
          0.15212714672088623,
          -1.4130136966705322,
          -3.703765869140625,
          1.0239969491958618,
          -3.802572011947632,
          3.203564405441284,
          1.5156923532485962,
          3.424534797668457,
          -3.5101776123046875,
          -1.6616544723510742,
          1.3285192251205444,
          -1.5012927055358887,
          0.31128501892089844,
          -0.7356917858123779,
          -0.12458831816911697,
          4.045454025268555,
          -0.8581055998802185,
          3.721700429916382,
          3.8973076343536377,
          -4.443624973297119,
          -3.0877597332000732,
          0.4603559970855713,
          -1.138264775276184,
          0.8912640810012817
        ],
        [
          -1.5070350170135498,
          0.9994104504585266,
          -2.504715919494629,
          -1.9322788715362549,
          0.952989935874939,
          -1.974320888519287,
          3.0738420486450195,
          0.8549668788909912,
          1.2761753797531128,
          -4.914721965789795,
          -1.3688634634017944,
          0.1957937777042389,
          -2.2181313037872314,
          1.798231601715088,
          3.085115909576416,
          1.3130348920822144,
          3.0593888759613037,
          0.6752474904060364,
          2.9640111923217773,
          2.9441568851470947,
          -3.762371778488159,
          -3.4149351119995117,
          1.1479326486587524,
          -3.1333487033843994,
          0.714888334274292
        ],
        [
          -2.6556038856506348,
          -1.9213582277297974,
          -5.0752949714660645,
          -2.173248767852783,
          1.7841627597808838,
          -5.488306999206543,
          4.532046318054199,
          1.1518042087554932,
          4.911869049072266,
          -3.1951684951782227,
          0.6962255835533142,
          -1.7025755643844604,
          -2.655667304992676,
          -2.1531970500946045,
          0.6916957497596741,
          5.452042102813721,
          8.439841270446777,
          2.611433267593384,
          8.062387466430664,
          4.877813339233398,
          -4.35809850692749,
          -1.3699147701263428,
          2.2707979679107666,
          -3.3340399265289307,
          2.7612059116363525
        ],
        [
          -0.42777496576309204,
          1.1462082862854004,
          -1.7283682823181152,
          -2.949061393737793,
          0.6337153315544128,
          -4.140040397644043,
          3.249084949493408,
          -0.30956757068634033,
          2.1691362857818604,
          -2.318138837814331,
          -0.5783960819244385,
          1.026432752609253,
          -2.0722155570983887,
          0.16019512712955475,
          -0.5242994427680969,
          1.6452363729476929,
          4.398970603942871,
          0.6045130491256714,
          1.6288725137710571,
          3.805997610092163,
          -4.389149188995361,
          -1.6215065717697144,
          -0.41273048520088196,
          -2.8542017936706543,
          1.6004127264022827
        ],
        [
          0.7398625612258911,
          -1.5808624029159546,
          2.059962272644043,
          2.7612476348876953,
          1.9261956214904785,
          5.037781238555908,
          -1.9049713611602783,
          0.05765437334775925,
          -2.156484365463257,
          2.5012171268463135,
          5.268537998199463,
          1.2013773918151855,
          3.11003041267395,
          2.105041027069092,
          0.5330599546432495,
          -3.7484569549560547,
          -3.0550122261047363,
          -0.40348488092422485,
          -2.9964640140533447,
          -2.2520644664764404,
          4.073138236999512,
          0.5644009709358215,
          0.07635301351547241,
          2.6695237159729004,
          -3.5200068950653076
        ],
        [
          0.7737681269645691,
          1.5123003721237183,
          -2.467052698135376,
          -0.014190481044352055,
          1.4552205801010132,
          -0.3832929730415344,
          1.5588538646697998,
          2.552703619003296,
          2.1285293102264404,
          0.49595656991004944,
          0.5833585858345032,
          -1.1613988876342773,
          -1.86812162399292,
          2.1984949111938477,
          -0.5456872582435608,
          1.491301417350769,
          3.9539034366607666,
          2.9716248512268066,
          0.6205326318740845,
          2.2336373329162598,
          2.1015453338623047,
          0.2615700364112854,
          -0.3221696615219116,
          0.12261790037155151,
          1.554945468902588
        ],
        [
          -2.1080315113067627,
          0.4713134169578552,
          -2.2353591918945312,
          -2.4972987174987793,
          -0.39624467492103577,
          -3.5188634395599365,
          2.573359966278076,
          2.6639461517333984,
          2.628908157348633,
          -1.867134928703308,
          -1.7149322032928467,
          -2.2894933223724365,
          -1.0857876539230347,
          -0.18730972707271576,
          -1.1295956373214722,
          1.7002475261688232,
          5.418494701385498,
          -1.4750088453292847,
          3.4237027168273926,
          2.1504604816436768,
          -2.2268764972686768,
          -3.8307929039001465,
          1.0105462074279785,
          -2.506504535675049,
          1.2528361082077026
        ],
        [
          0.4729115962982178,
          -0.43183332681655884,
          6.065126419067383,
          7.152642726898193,
          -2.517634391784668,
          14.772761344909668,
          -12.477354049682617,
          -2.5538344383239746,
          -8.879423141479492,
          7.9808244705200195,
          5.8449482917785645,
          1.0485442876815796,
          6.523183822631836,
          1.3280280828475952,
          1.1866692304611206,
          -7.185511112213135,
          -7.502154350280762,
          -2.177786350250244,
          -10.966710090637207,
          -5.301240921020508,
          14.411030769348145,
          10.596450805664062,
          0.1293693631887436,
          6.986390590667725,
          -4.829691410064697
        ],
        [
          -0.1826864629983902,
          1.0937144756317139,
          -2.3756449222564697,
          -3.331380844116211,
          0.8795283436775208,
          -5.120471000671387,
          2.550956964492798,
          1.718807578086853,
          1.4897834062576294,
          -4.863597869873047,
          -2.76971173286438,
          0.666961669921875,
          -1.9614008665084839,
          -2.047205924987793,
          -1.9741562604904175,
          1.8961516618728638,
          4.874701499938965,
          0.31947585940361023,
          4.2790422439575195,
          1.3521301746368408,
          -5.6329345703125,
          -3.4732775688171387,
          -1.65727961063385,
          -2.2348246574401855,
          1.139737844467163
        ],
        [
          0.9389727115631104,
          -0.03226305544376373,
          -2.713960647583008,
          -3.250905990600586,
          0.5344254374504089,
          -2.9593422412872314,
          0.756328284740448,
          1.2314329147338867,
          1.919959545135498,
          -4.145470142364502,
          -3.933748483657837,
          -0.3369258940219879,
          -1.6688807010650635,
          0.9712477922439575,
          1.4261646270751953,
          2.7140469551086426,
          4.384454727172852,
          -0.003157757455483079,
          4.092026233673096,
          1.6929389238357544,
          -2.9105215072631836,
          -2.699293613433838,
          0.1736765056848526,
          -2.853243112564087,
          -1.4940502643585205
        ],
        [
          0.7942630052566528,
          0.43950843811035156,
          0.2844941020011902,
          0.6566111445426941,
          0.46401408314704895,
          3.169396162033081,
          -2.2242040634155273,
          0.3447531759738922,
          -0.38312095403671265,
          1.4400547742843628,
          1.4535342454910278,
          -0.5256883502006531,
          0.6302063465118408,
          1.3424750566482544,
          -0.5168666243553162,
          -2.8704166412353516,
          -2.926734447479248,
          -0.04997510462999344,
          -4.091238975524902,
          -1.7620702981948853,
          2.0680110454559326,
          4.228870868682861,
          -0.15655985474586487,
          0.3932051658630371,
          -2.0365331172943115
        ],
        [
          2.157334089279175,
          0.1021391823887825,
          6.102457523345947,
          2.0893163681030273,
          -0.10736045986413956,
          6.150166034698486,
          -0.3412724435329437,
          -3.411259412765503,
          -5.262863636016846,
          2.9165425300598145,
          3.586735725402832,
          0.2440909445285797,
          6.469951629638672,
          2.8203182220458984,
          1.2144825458526611,
          -4.924790859222412,
          -7.949494361877441,
          -2.012598752975464,
          -6.52297306060791,
          -4.076173782348633,
          4.4819865226745605,
          6.041614532470703,
          0.02829684689640999,
          3.080698013305664,
          0.09085957705974579
        ],
        [
          -0.29474836587905884,
          -0.689825713634491,
          -0.7331395149230957,
          -0.6725572347640991,
          -2.8455421924591064,
          -3.223503828048706,
          0.49243175983428955,
          0.7146240472793579,
          -0.4987250566482544,
          -2.2026069164276123,
          -4.12593936920166,
          -0.05489194393157959,
          -2.1536779403686523,
          -2.082876682281494,
          -1.3172863721847534,
          1.999877691268921,
          4.877194881439209,
          -0.4157204031944275,
          2.9198272228240967,
          0.6422924399375916,
          -5.41259241104126,
          -1.744239091873169,
          -0.3962632119655609,
          -2.4446804523468018,
          1.4065358638763428
        ]
      ]
    },
    {
      "name": "activation_3",
      "type": "tanh"
    },
    {
      "has_bias": true,
      "bias": [
        0.026553701609373093,
        -0.8913745880126953,
        -2.1515848636627197,
        -0.02566346526145935,
        2.4332408905029297,
        0.9519085884094238,
        2.1293158531188965,
        -0.36095425486564636,
        0.8183690309524536,
        -0.6467605829238892,
        1.0405219793319702,
        -0.02719518169760704,
        -1.9893521070480347,
        -0.4907982647418976,
        0.565270185470581,
        0.7515212297439575,
        1.279863715171814,
        -0.4596305787563324,
        -0.060980793088674545,
        -0.6623778343200684,
        0.5798549652099609,
        -1.2303444147109985,
        -0.18791159987449646,
        -1.6691042184829712,
        1.731131911277771
      ],
      "in_features": 25,
      "type": "dense",
      "name": "trainable_4",
      "out_features": 25,
      "weights": [
        [
          -0.8233574032783508,
          1.4946702718734741,
          -0.24229027330875397,
          0.3657289445400238,
          0.47887977957725525,
          -0.4246777594089508,
          2.200026273727417,
          -0.31369298696517944,
          1.8625503778457642,
          -1.2816282510757446,
          1.7452056407928467,
          1.211639165878296,
          0.1388193517923355,
          -0.20700456202030182,
          -0.07331635802984238,
          0.8094982504844666,
          0.2290680706501007,
          0.8214895129203796,
          0.8221120238304138,
          1.9295017719268799,
          -1.3361713886260986,
          -1.2106783390045166,
          -0.19695578515529633,
          -1.0634313821792603,
          -1.6881248950958252
        ],
        [
          0.8281310200691223,
          0.934712827205658,
          -0.22747372090816498,
          0.2779601216316223,
          2.2481937408447266,
          1.073499321937561,
          0.3008075952529907,
          1.9074862003326416,
          1.111650824546814,
          -0.731562614440918,
          0.6389610171318054,
          -1.5154047012329102,
          0.18903465569019318,
          -0.5783087611198425,
          -0.3103274703025818,
          3.0980000495910645,
          0.15392832458019257,
          0.5917080640792847,
          1.2126716375350952,
          -0.1469314843416214,
          -0.2825573980808258,
          -0.7491777539253235,
          -0.4995526969432831,
          -1.7669435739517212,
          -2.2064638137817383
        ],
        [
          -0.7665728330612183,
          1.166634440422058,
          -0.022172871977090836,
          0.35217973589897156,
          -1.0209285020828247,
          -2.2286183834075928,
          1.4937852621078491,
          0.7050847411155701,
          1.0726536512374878,
          -0.7780677676200867,
          -1.087465763092041,
          -0.9178590178489685,
          0.09342814236879349,
          0.6631075739860535,
          2.075491428375244,
          -0.32516178488731384,
          -3.0115652084350586,
          -0.6318023204803467,
          3.8274240493774414,
          1.7220724821090698,
          -0.8486356139183044,
          -0.138002410531044,
          1.717686414718628,
          -2.1302483081817627,
          -1.0637166500091553
        ],
        [
          -1.4076637029647827,
          1.254871129989624,
          1.0748456716537476,
          -0.19740338623523712,
          -2.4471025466918945,
          -2.854623317718506,
          0.24653637409210205,
          -0.9679253697395325,
          1.4743390083312988,
          -1.7595603466033936,
          0.17808105051517487,
          0.21062365174293518,
          0.0858362540602684,
          -1.1582242250442505,
          1.7340049743652344,
          -1.2531087398529053,
          -0.8083866834640503,
          -1.9961572885513306,
          0.6350586414337158,
          1.1188710927963257,
          0.39461731910705566,
          0.7017290592193604,
          0.9177796840667725,
          0.2305498719215393,
          -0.3361808955669403
        ],
        [
          1.588533639907837,
          0.9030573964118958,
          0.9018789529800415,
          -0.3850788474082947,
          1.1072651147842407,
          -0.3358641564846039,
          -1.1830356121063232,
          -0.7845044136047363,
          0.7845991849899292,
          -0.6273868083953857,
          1.241862177848816,
          -0.015306630171835423,
          0.5586116313934326,
          -1.5047849416732788,
          1.446901798248291,
          -0.8510915637016296,
          0.9260727167129517,
          0.8811133503913879,
          -0.3411271572113037,
          -1.3925197124481201,
          0.002482700627297163,
          0.047298774123191833,
          1.730794072151184,
          -0.23070281744003296,
          1.6781479120254517
        ],
        [
          -0.5237041711807251,
          0.1821567714214325,
          1.7706763744354248,
          -1.2231109142303467,
          -2.903062582015991,
          -1.9431564807891846,
          -0.9566534757614136,
          -2.5897254943847656,
          1.4264522790908813,
          -1.259529709815979,
          -0.8964574337005615,
          -0.35709643363952637,
          0.03023567795753479,
          0.7291049361228943,
          2.127922296524048,
          1.1698672771453857,
          -2.789034605026245,
          -1.6432607173919678,
          4.7881999015808105,
          2.554731845855713,
          0.2671596109867096,
          -0.9514270424842834,
          1.5572949647903442,
          -1.7891731262207031,
          -3.638744831085205
        ],
        [
          0.2375883013010025,
          -0.8102236390113831,
          -1.7333428859710693,
          -1.4361329078674316,
          2.0984489917755127,
          3.0195980072021484,
          1.0556080341339111,
          1.0328787565231323,
          -0.8661863207817078,
          1.7476940155029297,
          1.9714024066925049,
          0.19905419647693634,
          -0.30007198452949524,
          2.3115906715393066,
          -1.2528384923934937,
          0.650180459022522,
          2.2459957599639893,
          0.3626464307308197,
          -1.2677427530288696,
          -1.5690038204193115,
          0.5478474497795105,
          1.2420523166656494,
          0.6368097066879272,
          -1.0453083515167236,
          1.8143601417541504
        ],
        [
          0.34980347752571106,
          1.1291704177856445,
          0.4743172526359558,
          -0.6224299073219299,
          1.471544623374939,
          2.340280771255493,
          -0.8058246374130249,
          0.08134378492832184,
          1.4058709144592285,
          -0.03641882911324501,
          -0.36566162109375,
          -0.5621623396873474,
          0.17391523718833923,
          -0.6928284168243408,
          0.25403523445129395,
          0.41708582639694214,
          1.4607529640197754,
          3.119257926940918,
          -1.2682032585144043,
          -1.374092936515808,
          -2.313603162765503,
          1.4769326448440552,
          0.02464979887008667,
          -0.47829291224479675,
          1.256724238395691
        ],
        [
          1.0723423957824707,
          -1.8056961297988892,
          0.1308017522096634,
          0.18570484220981598,
          0.9089398384094238,
          0.7784886956214905,
          -0.3475419580936432,
          1.5516626834869385,
          -0.549166738986969,
          -0.37202581763267517,
          0.15085604786872864,
          0.3935302793979645,
          0.5163552165031433,
          1.429419755935669,
          -2.079042911529541,
          -1.1941874027252197,
          0.15437711775302887,
          0.25695574283599854,
          -0.5790566802024841,
          -0.6795728802680969,
          -0.7754828333854675,
          0.4604418873786926,
          -0.1345110535621643,
          -0.25727570056915283,
          2.0901668071746826
        ],
        [
          -0.48145636916160583,
          1.1886985301971436,
          2.9320478439331055,
          -0.2387239784002304,
          -2.030578136444092,
          -0.5642520189285278,
          -0.304055780172348,
          -0.8251321911811829,
          1.6075379848480225,
          -1.676714301109314,
          -1.3443838357925415,
          -2.5331501960754395,
          1.302800178527832,
          -1.0036088228225708,
          1.7775883674621582,
          -0.3088645339012146,
          -1.6976540088653564,
          -0.5306966304779053,
          0.4526188373565674,
          2.5617516040802,
          0.49172985553741455,
          0.05136440694332123,
          0.4332055449485779,
          0.5739902257919312,
          -1.1546881198883057
        ],
        [
          -0.7182801961898804,
          -0.9241542816162109,
          1.5009026527404785,
          1.5104974508285522,
          -0.2645830810070038,
          -1.8909859657287598,
          1.057456135749817,
          -1.089839220046997,
          0.8972522616386414,
          0.23988960683345795,
          -0.8451592922210693,
          1.3344780206680298,
          -0.7657813429832458,
          -0.4309774339199066,
          1.4497108459472656,
          -0.17173737287521362,
          -2.004439353942871,
          -0.4847975969314575,
          0.9638022184371948,
          0.07808111608028412,
          0.06480541080236435,
          -2.271620988845825,
          0.9361606240272522,
          -0.649768590927124,
          -0.34471797943115234
        ],
        [
          -0.33066898584365845,
          1.6664936542510986,
          -0.08445839583873749,
          -0.4285586476325989,
          -0.291604220867157,
          0.6474577188491821,
          0.014375581406056881,
          0.6067938804626465,
          0.8670810461044312,
          -0.40669673681259155,
          1.894829511642456,
          -2.8925533294677734,
          -0.914606511592865,
          -0.13323844969272614,
          -1.9509317874908447,
          -1.5212918519973755,
          -1.3453069925308228,
          -0.1748087853193283,
          1.8760687112808228,
          1.6348614692687988,
          -0.7576953172683716,
          0.9222032427787781,
          -1.1307541131973267,
          0.516607403755188,
          -0.8864381909370422
        ],
        [
          -0.7682672142982483,
          1.5421249866485596,
          1.931915521621704,
          0.8284996151924133,
          -1.7866630554199219,
          -0.7344114780426025,
          -2.355849266052246,
          -1.334207534790039,
          -0.19581308960914612,
          -2.154978036880493,
          -0.28605613112449646,
          1.4055496454238892,
          0.2340257465839386,
          0.1976807564496994,
          -0.38412317633628845,
          -0.9711600542068481,
          -1.0908777713775635,
          -0.5042599439620972,
          2.0695478916168213,
          1.5733438730239868,
          -0.8852641582489014,
          -0.15338051319122314,
          1.7902963161468506,
          -0.34005117416381836,
          -2.923508644104004
        ],
        [
          -0.1369716376066208,
          -0.9125372171401978,
          0.4097232222557068,
          1.441983699798584,
          0.5244410634040833,
          0.9544000625610352,
          -1.7873961925506592,
          0.7964797616004944,
          0.17946892976760864,
          -0.06360623985528946,
          0.9750002026557922,
          -1.397827386856079,
          -0.2000579833984375,
          -1.271842360496521,
          1.1910173892974854,
          0.5256227254867554,
          -1.0336287021636963,
          1.6136634349822998,
          -0.11620252579450607,
          -0.48275020718574524,
          -0.2303774356842041,
          0.06101307272911072,
          0.9540109634399414,
          -1.3499099016189575,
          -1.9676344394683838
        ],
        [
          2.0268733501434326,
          0.5589567422866821,
          1.390891432762146,
          -1.7096452713012695,
          -1.7038596868515015,
          0.515927791595459,
          -1.505376935005188,
          -0.23383775353431702,
          0.7981462478637695,
          0.26981741189956665,
          0.7987771034240723,
          0.0408446341753006,
          1.1768571138381958,
          -0.931586503982544,
          1.0730971097946167,
          -0.5629217028617859,
          -0.723125696182251,
          -0.9545249938964844,
          -0.100675068795681,
          0.1882181167602539,
          1.0517277717590332,
          2.594144344329834,
          -1.2250170707702637,
          -1.1450574398040771,
          -0.8104990720748901
        ],
        [
          0.5824573040008545,
          1.0857659578323364,
          -0.5449103713035583,
          0.8014793992042542,
          1.7331398725509644,
          0.5576562285423279,
          -0.9610571265220642,
          -0.6593770980834961,
          0.9969565868377686,
          0.7002332210540771,
          0.0003012274391949177,
          1.4114099740982056,
          0.6983544826507568,
          -0.3050500750541687,
          -2.5659327507019043,
          0.5658383965492249,
          0.7232046127319336,
          0.5437512397766113,
          -1.6619373559951782,
          -1.3232799768447876,
          0.582836389541626,
          -0.18065831065177917,
          0.45730921626091003,
          -0.2153514325618744,
          0.5003623366355896
        ],
        [
          4.887153148651123,
          0.8884879350662231,
          -1.9906315803527832,
          -0.18976977467536926,
          1.7833073139190674,
          3.0167527198791504,
          -3.712395668029785,
          0.6139438152313232,
          -1.1759939193725586,
          0.5740217566490173,
          2.3102903366088867,
          -1.9627984762191772,
          -1.005230188369751,
          -0.5477533340454102,
          -3.7039730548858643,
          0.9313050508499146,
          0.4830293357372284,
          0.9066565036773682,
          -1.5000096559524536,
          -1.569588303565979,
          -1.4809499979019165,
          2.4675772190093994,
          -3.2027390003204346,
          -0.4185117781162262,
          0.20661351084709167
        ],
        [
          1.5377426147460938,
          -0.59888756275177,
          -0.46754759550094604,
          -0.0007911591092124581,
          1.5238370895385742,
          0.15518879890441895,
          0.5740061402320862,
          -0.22095359861850739,
          1.018726110458374,
          0.668335497379303,
          1.2039456367492676,
          0.2685432434082031,
          1.1065484285354614,
          1.582819938659668,
          -2.0097293853759766,
          2.1043715476989746,
          0.26493898034095764,
          -2.0623176097869873,
          1.5709148645401,
          -0.5260723829269409,
          1.3367773294448853,
          -0.46020597219467163,
          0.8526614308357239,
          0.5167081952095032,
          -0.7253815531730652
        ],
        [
          1.957457184791565,
          0.3177884817123413,
          -0.7973648905754089,
          -0.904941737651825,
          1.6356757879257202,
          1.4421510696411133,
          0.7301807403564453,
          0.7589350342750549,
          -1.781670093536377,
          0.9012841582298279,
          2.449711561203003,
          0.8674439787864685,
          -0.19386586546897888,
          0.7387003302574158,
          -0.888484001159668,
          0.24147377908229828,
          2.272404432296753,
          2.4069766998291016,
          -2.993046283721924,
          -0.9119173884391785,
          -0.8135635852813721,
          0.09056827425956726,
          0.6181798577308655,
          1.3777358531951904,
          0.7218911051750183
        ],
        [
          2.6051111221313477,
          -0.9811225533485413,
          -2.672452926635742,
          -0.6084632277488708,
          2.3155949115753174,
          2.6474437713623047,
          -1.990026593208313,
          2.229215383529663,
          0.22038505971431732,
          -1.1212158203125,
          1.7643605470657349,
          -0.9683958888053894,
          -0.1586260050535202,
          -0.37262293696403503,
          -1.6175100803375244,
          -0.04862552136182785,
          -0.6550998687744141,
          0.21884356439113617,
          -2.993155002593994,
          -1.2841196060180664,
          -0.3114064037799835,
          1.4508126974105835,
          0.6745344996452332,
          -0.6955733895301819,
          0.8155896663665771
        ],
        [
          -2.267617702484131,
          0.6371057033538818,
          1.6662920713424683,
          -0.4495355188846588,
          -0.8062326908111572,
          -1.0489771366119385,
          -0.3848455846309662,
          -1.1197597980499268,
          0.5578283071517944,
          -1.0491141080856323,
          -0.8538509011268616,
          -0.9591419100761414,
          1.2421444654464722,
          2.014420509338379,
          2.5094780921936035,
          -1.841524600982666,
          -0.679047703742981,
          -0.5399870872497559,
          2.3036186695098877,
          -1.014469861984253,
          0.35690176486968994,
          -0.6235987544059753,
          2.369985342025757,
          -2.7249362468719482,
          -4.047885417938232
        ],
        [
          -0.7749045491218567,
          -0.5355533361434937,
          0.9241194128990173,
          1.5015830993652344,
          -2.3317508697509766,
          -0.6614344120025635,
          1.0978878736495972,
          -2.3371570110321045,
          1.0876721143722534,
          -0.4582744538784027,
          -0.629306972026825,
          1.9219400882720947,
          0.8507276177406311,
          0.6390905976295471,
          2.151272773742676,
          -0.8163250684738159,
          -1.5256539583206177,
          -1.5312544107437134,
          2.604221820831299,
          0.7749989628791809,
          -0.32098862528800964,
          -0.41067078709602356,
          0.6405159831047058,
          0.6681368947029114,
          -3.414994716644287
        ],
        [
          0.6574580073356628,
          1.3844705820083618,
          1.999529242515564,
          0.09656579792499542,
          0.6923968195915222,
          2.237643241882324,
          -0.4612814486026764,
          -0.9916771650314331,
          1.0135126113891602,
          -0.4555818736553192,
          0.07611294835805893,
          0.7611742615699768,
          0.15711085498332977,
          -1.7938851118087769,
          1.1032294034957886,
          -1.4004135131835938,
          -0.3634220361709595,
          -1.565205693244934,
          -0.6858343482017517,
          -0.5133427381515503,
          -0.08330323547124863,
          0.33720365166664124,
          0.8925297260284424,
          0.3047911524772644,
          0.3320612907409668
        ],
        [
          -1.2083908319473267,
          0.7280982136726379,
          2.059391736984253,
          -0.27525830268859863,
          -0.6453084945678711,
          -3.574150323867798,
          0.8664928078651428,
          -1.1050636768341064,
          2.3134772777557373,
          0.1929609328508377,
          -1.234287977218628,
          -0.8486809134483337,
          -0.14918233454227448,
          -1.428993821144104,
          2.1213643550872803,
          0.5703430771827698,
          -0.07622078061103821,
          -1.4527192115783691,
          2.3265879154205322,
          0.3124520480632782,
          -0.7260735630989075,
          -0.5749342441558838,
          -1.2421305179595947,
          -1.4043666124343872,
          -0.9236953258514404
        ],
        [
          -0.09641419351100922,
          0.07391540706157684,
          -0.5147933959960938,
          -0.7773780822753906,
          0.8965721726417542,
          0.00397219555452466,
          0.05319345369935036,
          1.6284914016723633,
          -0.7058068513870239,
          -1.5224045515060425,
          -0.7270370721817017,
          -0.791705846786499,
          0.7280756831169128,
          2.101107120513916,
          -1.3764400482177734,
          0.8814245462417603,
          1.708750605583191,
          2.030839443206787,
          -0.6444141268730164,
          -0.443986177444458,
          0.00916824396699667,
          0.520547091960907,
          0.7316573262214661,
          -0.17196327447891235,
          -0.2556169331073761
        ]
      ]
    },
    {
      "name": "activation_5",
      "type": "tanh"
    },
    {
      "has_bias": true,
      "bias": [
        -0.9307923913002014,
        1.0784951448440552,
        1.6730557680130005,
        2.405484437942505,
        1.9786807298660278,
        0.5871815085411072,
        2.4171249866485596,
        1.1149455308914185,
        3.1460397243499756,
        2.480361223220825,
        0.6156033873558044,
        3.4009206295013428,
        1.868641972541809,
        2.819993257522583,
        1.3254731893539429,
        2.169386148452759,
        1.1749781370162964,
        2.1776416301727295,
        1.8382676839828491,
        0.713722288608551,
        2.8833696842193604,
        0.5119073987007141,
        1.9823843240737915,
        2.1341450214385986,
        2.129786252975464
      ],
      "in_features": 25,
      "type": "dense",
      "name": "trainable_6",
      "out_features": 25,
      "weights": [
        [
          1.8589892387390137,
          1.6818699836730957,
          1.3009741306304932,
          0.6151788830757141,
          -0.286917507648468,
          0.4933156967163086,
          2.8553926944732666,
          2.203981637954712,
          -1.4197725057601929,
          0.21301329135894775,
          0.7687534689903259,
          0.36361247301101685,
          2.2085258960723877,
          0.20823636651039124,
          2.30623197555542,
          0.8083370327949524,
          0.6046914458274841,
          0.22001583874225616,
          0.25493934750556946,
          1.1015379428863525,
          0.8441983461380005,
          3.520033597946167,
          0.7345460653305054,
          0.982468843460083,
          1.7369132041931152
        ],
        [
          2.363163471221924,
          -0.2203693687915802,
          -0.7158889174461365,
          2.491521120071411,
          1.2931289672851562,
          -0.3052244782447815,
          1.3721985816955566,
          2.075263023376465,
          1.2970424890518188,
          -0.24057744443416595,
          1.7821059226989746,
          -0.0693434402346611,
          1.6512491703033447,
          0.4813261926174164,
          0.4717983305454254,
          1.5323734283447266,
          0.44466733932495117,
          1.4874707460403442,
          0.71858149766922,
          1.1549731492996216,
          0.6494768261909485,
          -0.008017508313059807,
          -0.1704455018043518,
          0.9938389658927917,
          -0.07931041717529297
        ],
        [
          0.26561325788497925,
          0.9844555854797363,
          1.262304425239563,
          0.41816866397857666,
          1.7864667177200317,
          -1.3063360452651978,
          0.8126866221427917,
          2.2563891410827637,
          1.4078381061553955,
          -0.06194552779197693,
          0.24357812106609344,
          1.4614670276641846,
          0.09276893734931946,
          -0.011965775862336159,
          0.5975310802459717,
          0.8327770233154297,
          1.237738013267517,
          0.3055803179740906,
          0.8094907402992249,
          2.800874948501587,
          -2.64176344871521,
          -0.35779479146003723,
          2.996063470840454,
          -0.293219655752182,
          2.5588982105255127
        ],
        [
          1.6310029029846191,
          1.9370026588439941,
          0.5799533128738403,
          0.9992673993110657,
          0.46852558851242065,
          0.1736237108707428,
          1.0525219440460205,
          1.3877251148223877,
          1.7925443649291992,
          0.27338260412216187,
          0.4829794764518738,
          1.6264853477478027,
          1.1092067956924438,
          0.47475892305374146,
          0.9362999200820923,
          0.7532313466072083,
          0.424677312374115,
          0.5504662394523621,
          1.262649655342102,
          0.5810678005218506,
          -1.6249921321868896,
          1.480930209159851,
          0.9665260910987854,
          0.2826233208179474,
          1.1090314388275146
        ],
        [
          1.8975398540496826,
          -0.001025101519189775,
          0.9940728545188904,
          1.3009295463562012,
          0.17630544304847717,
          -0.029737349599599838,
          -0.20992998778820038,
          -0.7830442786216736,
          1.0176026821136475,
          1.1525168418884277,
          -0.4521446228027344,
          2.6304876804351807,
          2.0689234733581543,
          0.7362945079803467,
          1.1642752885818481,
          0.7976678013801575,
          2.067868709564209,
          -0.799383282661438,
          -0.9090128540992737,
          0.674896776676178,
          1.2087727785110474,
          2.3814754486083984,
          1.2657556533813477,
          2.114299774169922,
          0.2950344979763031
        ],
        [
          1.2854214906692505,
          1.0895541906356812,
          0.6130332946777344,
          0.34128838777542114,
          1.4392644166946411,
          0.9504722356796265,
          -0.3522607386112213,
          -0.26115500926971436,
          1.7188581228256226,
          0.08141297847032547,
          0.44546711444854736,
          -1.1502488851547241,
          0.17675699293613434,
          -0.25723156332969666,
          1.6020915508270264,
          1.3418605327606201,
          0.3481113910675049,
          1.76936674118042,
          1.6667770147323608,
          0.6026818752288818,
          1.5310640335083008,
          1.7769397497177124,
          1.6804087162017822,
          -0.19957871735095978,
          -0.5666682720184326
        ],
        [
          1.4012935161590576,
          -0.563970148563385,
          0.6772366762161255,
          -0.18859794735908508,
          1.3310062885284424,
          3.1710281372070312,
          1.9750508069992065,
          1.449594259262085,
          0.15899528563022614,
          2.3198351860046387,
          0.5892221927642822,
          0.30919936299324036,
          1.352912187576294,
          2.8400447368621826,
          -1.470233678817749,
          0.4139425456523895,
          0.8565777540206909,
          1.4261654615402222,
          1.4327657222747803,
          1.4117473363876343,
          -0.9304332733154297,
          -0.16825233399868011,
          -0.23058949410915375,
          -0.0463387556374073,
          0.6748654246330261
        ],
        [
          -0.9923165440559387,
          1.3615868091583252,
          0.11912280321121216,
          1.1758406162261963,
          -0.6009405851364136,
          1.5898394584655762,
          1.9691580533981323,
          1.3048542737960815,
          0.29396820068359375,
          0.13316509127616882,
          1.0593180656433105,
          0.8333298563957214,
          -0.011023842729628086,
          -0.6411663889884949,
          2.2886979579925537,
          0.9966163635253906,
          3.625978469848633,
          -0.5639209747314453,
          -0.11568117886781693,
          3.1053102016448975,
          0.2147885262966156,
          -0.10688599944114685,
          1.181910514831543,
          1.2153420448303223,
          1.0027614831924438
        ],
        [
          1.2181010246276855,
          -1.0806176662445068,
          0.6188614368438721,
          2.0644888877868652,
          2.0690126419067383,
          0.18772147595882416,
          1.2714027166366577,
          0.9663642048835754,
          -0.05056868493556976,
          1.034523844718933,
          2.013920545578003,
          -0.0930757150053978,
          0.19955036044120789,
          0.03114204667508602,
          0.5437834858894348,
          2.0837090015411377,
          1.0995432138442993,
          1.0936298370361328,
          2.2145884037017822,
          -0.6199052929878235,
          1.0225027799606323,
          -1.5496588945388794,
          1.1555875539779663,
          -1.4888256788253784,
          0.06607553362846375
        ],
        [
          0.6556068062782288,
          0.2855353355407715,
          0.6639304757118225,
          1.8465261459350586,
          0.953282356262207,
          1.765220046043396,
          0.24820132553577423,
          -0.6410639882087708,
          -0.5676679611206055,
          0.31760239601135254,
          -0.8276419043540955,
          2.2665281295776367,
          1.452413558959961,
          1.5937010049819946,
          0.6653802394866943,
          -1.048836588859558,
          -0.06350857019424438,
          2.3757221698760986,
          0.6037013530731201,
          1.1677969694137573,
          -1.523546576499939,
          2.24947452545166,
          1.2684293985366821,
          -0.9731638431549072,
          1.2175301313400269
        ],
        [
          0.12117708474397659,
          1.591971516609192,
          0.32828831672668457,
          0.48785117268562317,
          2.350823163986206,
          -0.8867056369781494,
          1.3533105850219727,
          -0.22011636197566986,
          -0.4594699442386627,
          0.3207026720046997,
          -1.3873496055603027,
          0.39493563771247864,
          -0.26633092761039734,
          0.1187538355588913,
          2.891340732574463,
          1.0945162773132324,
          1.2261605262756348,
          0.6318387985229492,
          -0.41852256655693054,
          0.46017491817474365,
          2.7429206371307373,
          -0.9924973249435425,
          0.39230164885520935,
          1.5155224800109863,
          0.6257442235946655
        ],
        [
          1.2675875425338745,
          0.03854956477880478,
          2.3570668697357178,
          1.4688034057617188,
          -0.05900178477168083,
          3.770287275314331,
          1.7639826536178589,
          1.977993369102478,
          0.4828370213508606,
          0.6722577214241028,
          0.6172776222229004,
          0.269842267036438,
          -0.3429834842681885,
          0.1457589864730835,
          -0.5164276957511902,
          1.2854646444320679,
          0.48136255145072937,
          1.2923489809036255,
          0.7729594707489014,
          2.304534435272217,
          -1.0260381698608398,
          0.8383530378341675,
          1.189391016960144,
          0.09234190732240677,
          0.019959332421422005
        ],
        [
          0.36801770329475403,
          0.19453364610671997,
          0.1774868220090866,
          2.519728899002075,
          -1.3127676248550415,
          0.3862190544605255,
          3.937213182449341,
          -0.4194137156009674,
          -0.12730439007282257,
          0.645473837852478,
          1.0824956893920898,
          -0.8099629878997803,
          -0.3466228246688843,
          0.3122965097427368,
          0.9244174361228943,
          1.5087240934371948,
          -0.31480103731155396,
          1.0310471057891846,
          1.1116682291030884,
          -0.4157160222530365,
          -1.305168867111206,
          0.9860860705375671,
          1.3179460763931274,
          1.2986032962799072,
          0.3075684905052185
        ],
        [
          1.445338249206543,
          0.024153074249625206,
          0.19489574432373047,
          0.8971790671348572,
          0.21401502192020416,
          1.5399527549743652,
          1.5789169073104858,
          -0.9094395041465759,
          1.7910648584365845,
          0.28003740310668945,
          1.866026759147644,
          -0.46256959438323975,
          0.3632751405239105,
          -0.20439785718917847,
          -0.11931464821100235,
          0.16821926832199097,
          1.0693604946136475,
          0.4106197655200958,
          0.5552847385406494,
          1.9872006177902222,
          -1.3786859512329102,
          1.5565824508666992,
          1.191180944442749,
          1.8149340152740479,
          1.5556304454803467
        ],
        [
          1.0811452865600586,
          1.171413779258728,
          1.0229605436325073,
          2.6248669624328613,
          1.5557280778884888,
          -0.542373776435852,
          1.4083242416381836,
          1.2822521924972534,
          2.364614486694336,
          2.0538618564605713,
          2.0027339458465576,
          1.823417067527771,
          0.22011615335941315,
          -0.8675544857978821,
          0.41659700870513916,
          0.34202274680137634,
          2.0246684551239014,
          1.0856209993362427,
          1.7389367818832397,
          0.22512352466583252,
          -1.8796565532684326,
          0.3113212585449219,
          2.4720163345336914,
          1.6590207815170288,
          -1.4752473831176758
        ],
        [
          -1.068088173866272,
          -1.7596189975738525,
          1.5114892721176147,
          1.220571756362915,
          1.0436677932739258,
          0.30340397357940674,
          1.8202272653579712,
          0.9357561469078064,
          1.3018684387207031,
          -0.12334447354078293,
          -0.778624415397644,
          2.196239709854126,
          -1.1489506959915161,
          -0.6364501714706421,
          -0.28249120712280273,
          -0.1485907882452011,
          1.2413854598999023,
          0.6328940391540527,
          1.410022497177124,
          0.937894344329834,
          0.7320226430892944,
          0.5706831812858582,
          1.3026080131530762,
          1.7894504070281982,
          1.8684085607528687
        ],
        [
          0.14339450001716614,
          -0.7909581661224365,
          0.055832862854003906,
          1.1834250688552856,
          1.8361763954162598,
          1.619573712348938,
          -0.9528533220291138,
          2.7189786434173584,
          -1.0950427055358887,
          0.6247937083244324,
          0.30740147829055786,
          -0.9777264595031738,
          0.5863816142082214,
          0.17919114232063293,
          1.17276132106781,
          2.5533699989318848,
          1.237405776977539,
          1.0887088775634766,
          1.029214859008789,
          -0.23772288858890533,
          1.370864748954773,
          1.9707423448562622,
          0.45432764291763306,
          -0.3400587737560272,
          1.4281694889068604
        ],
        [
          1.3026165962219238,
          0.5974615812301636,
          0.8902187943458557,
          1.1974267959594727,
          1.0035067796707153,
          1.5216717720031738,
          1.181687355041504,
          -0.11808236688375473,
          0.23598453402519226,
          0.7821590304374695,
          1.74254310131073,
          1.9652020931243896,
          0.9939145445823669,
          0.9443361163139343,
          2.781142234802246,
          1.3404537439346313,
          2.191795587539673,
          1.157823085784912,
          0.49747174978256226,
          1.9248775243759155,
          -0.1107698604464531,
          1.8080044984817505,
          1.0107630491256714,
          0.1897318810224533,
          -1.3079911470413208
        ],
        [
          0.19678187370300293,
          1.8851042985916138,
          0.18358533084392548,
          1.0734145641326904,
          1.0037862062454224,
          -1.1176400184631348,
          0.8941295146942139,
          2.0632739067077637,
          0.2760167419910431,
          0.843845009803772,
          -0.2180173546075821,
          -0.6802137494087219,
          0.7035319209098816,
          0.45585665106773376,
          -0.7561625242233276,
          0.7286397218704224,
          0.9469672441482544,
          2.538193941116333,
          -0.45861929655075073,
          -0.0782589390873909,
          -1.2194836139678955,
          -1.2541017532348633,
          0.8004859685897827,
          2.3860855102539062,
          -0.964864194393158
        ],
        [
          2.1062402725219727,
          0.5386338829994202,
          1.7450635433197021,
          0.8949954509735107,
          2.0982577800750732,
          0.9747623801231384,
          -0.9158220291137695,
          1.605312466621399,
          0.9392973184585571,
          1.6165742874145508,
          1.9275227785110474,
          1.3501306772232056,
          2.0315349102020264,
          0.7954332828521729,
          0.3980885148048401,
          0.910529613494873,
          1.2372430562973022,
          -0.2841893136501312,
          1.4065277576446533,
          2.0475454330444336,
          -0.24652792513370514,
          -1.5459007024765015,
          0.8267143368721008,
          -0.1487458497285843,
          -0.5119053721427917
        ],
        [
          0.2844334840774536,
          1.1406220197677612,
          1.2458587884902954,
          0.11744839698076248,
          0.5516262054443359,
          2.346148729324341,
          0.9779761433601379,
          -0.5681518912315369,
          0.49876588582992554,
          1.4923856258392334,
          1.829735279083252,
          -0.1948428750038147,
          1.457112431526184,
          0.5062178373336792,
          0.943310022354126,
          1.86955988407135,
          0.6137682795524597,
          1.04347562789917,
          0.3330431878566742,
          3.329042673110962,
          -0.4623199999332428,
          0.7430069446563721,
          1.5710598230361938,
          -0.2252420037984848,
          0.2558884024620056
        ],
        [
          1.7369308471679688,
          2.1191184520721436,
          1.4442732334136963,
          0.16596929728984833,
          1.1908918619155884,
          0.7667770981788635,
          0.9012563824653625,
          0.6674873232841492,
          -0.7455773949623108,
          0.2946053743362427,
          -1.3819520473480225,
          -1.9926456212997437,
          1.5155562162399292,
          -0.09775939583778381,
          0.2931753098964691,
          0.46892720460891724,
          -0.25552114844322205,
          1.0325806140899658,
          0.8585338592529297,
          1.9253171682357788,
          -0.31045177578926086,
          0.8020051121711731,
          1.7067986726760864,
          0.5337655544281006,
          2.9477286338806152
        ],
        [
          0.013197495602071285,
          -0.010765324346721172,
          2.4147534370422363,
          0.7278911471366882,
          0.28504398465156555,
          1.8188016414642334,
          -0.9926331639289856,
          0.6841562986373901,
          -0.5555415749549866,
          0.9777230620384216,
          1.0157967805862427,
          0.7139506340026855,
          0.8542458415031433,
          0.4818710684776306,
          -1.6565747261047363,
          2.0213375091552734,
          1.4020620584487915,
          0.24731475114822388,
          -0.67280113697052,
          -0.47579848766326904,
          -0.3929382264614105,
          0.11878428608179092,
          1.23762047290802,
          1.6747848987579346,
          -0.14283999800682068
        ],
        [
          0.7347154021263123,
          1.6710126399993896,
          2.012275218963623,
          1.0133438110351562,
          1.1012704372406006,
          1.7430438995361328,
          0.12849639356136322,
          1.5787794589996338,
          1.3535051345825195,
          0.053306642919778824,
          -1.27216637134552,
          1.3778735399246216,
          1.08480703830719,
          -0.43231627345085144,
          -1.4164013862609863,
          1.7930161952972412,
          -0.12654373049736023,
          0.2735553979873657,
          1.363991379737854,
          0.08531101793050766,
          -0.4896412491798401,
          2.8648393154144287,
          -1.0758271217346191,
          1.5786150693893433,
          0.37428924441337585
        ],
        [
          1.73580002784729,
          1.4647555351257324,
          1.1476894617080688,
          0.5262700319290161,
          1.1053661108016968,
          1.9836399555206299,
          1.342551589012146,
          1.1852728128433228,
          0.2394808828830719,
          0.92391437292099,
          -0.35600823163986206,
          0.9778456091880798,
          0.09719697386026382,
          -1.0142574310302734,
          1.7881653308868408,
          2.4383232593536377,
          -0.53566974401474,
          0.8083030581474304,
          -0.10055655986070633,
          0.8425112962722778,
          1.0928528308868408,
          0.7386496067047119,
          1.3899849653244019,
          1.0542171001434326,
          -0.10672061145305634
        ]
      ]
    },
    {
      "name": "activation_7",
      "type": "tanh"
    },
    {
      "has_bias": true,
      "bias": [
        1.295232892036438,
        1.027830958366394
      ],
      "in_features": 25,
      "type": "dense",
      "name": "trainable_8",
      "out_features": 2,
      "weights": [
        [
          0.10925258696079254,
          -0.09652264416217804
        ],
        [
          0.055202778428792953,
          -0.04567372053861618
        ],
        [
          0.08764711767435074,
          -0.04706461727619171
        ],
        [
          -0.01844618283212185,
          -0.009477095678448677
        ],
        [
          0.09046826511621475,
          -0.023219672963023186
        ],
        [
          0.27815213799476624,
          -0.025715461000800133
        ],
        [
          0.039664044976234436,
          0.01329472754150629
        ],
        [
          -0.064217209815979,
          0.0012517590075731277
        ],
        [
          -0.19462071359157562,
          0.01564106158912182
        ],
        [
          -0.010801773518323898,
          0.0707269012928009
        ],
        [
          -0.051091160625219345,
          0.022018849849700928
        ],
        [
          0.015640389174222946,
          0.03372514247894287
        ],
        [
          0.030315667390823364,
          0.020075615495443344
        ],
        [
          0.01723797619342804,
          -0.03772253915667534
        ],
        [
          0.0013803524198010564,
          0.022150132805109024
        ],
        [
          0.02230803482234478,
          0.004949949681758881
        ],
        [
          0.07719681411981583,
          -0.10191124677658081
        ],
        [
          -0.010924887843430042,
          0.0458037368953228
        ],
        [
          -0.05457437038421631,
          0.0687718614935875
        ],
        [
          0.1407112181186676,
          -0.0753517895936966
        ],
        [
          0.012875674292445183,
          -0.6192466616630554
        ],
        [
          0.10420018434524536,
          -0.03733846917748451
        ],
        [
          -0.046581096947193146,
          0.046936262398958206
        ],
        [
          0.06705998629331589,
          -0.08924535661935806
        ],
        [
          0.12216950207948685,
          -0.13449785113334656
        ]
      ]
    },
    {
      "name": "activation_9",
      "type": "tanh"
    },
    {
      "name": "criterion_10",
      "type": "mse"
    }
  ]
}