{
  "layers": [
    {
      "in_features": 2,
      "weights": [
        [
          -10.5457181930542,
          -5.920647144317627,
          -2.1043334007263184,
          -8.03170108795166,
          0.8893143534660339,
          -5.433829307556152,
          -4.6000447273254395,
          -10.35698413848877,
          -3.2116549015045166,
          -13.20594596862793,
          -10.619193077087402,
          -0.07587873190641403,
          -7.01408576965332,
          -6.049130916595459,
          -7.859222412109375,
          -5.2907915115356445,
          -4.115348815917969,
          -8.915377616882324,
          -6.848803997039795,
          -12.420217514038086,
          -7.325054168701172,
          -3.0201728343963623,
          0.14578136801719666,
          -11.573561668395996,
          5.337390899658203
        ],
        [
          13.753637313842773,
          20.353939056396484,
          27.960155487060547,
          14.825321197509766,
          33.35736083984375,
          23.525177001953125,
          11.464478492736816,
          20.801956176757812,
          30.15629768371582,
          17.294248580932617,
          28.306142807006836,
          9.904027938842773,
          26.385169982910156,
          13.59889030456543,
          18.940174102783203,
          28.42156219482422,
          18.946983337402344,
          13.105195999145508,
          28.680734634399414,
          17.841638565063477,
          19.51195526123047,
          21.812747955322266,
          29.599096298217773,
          20.86898422241211,
          7.203682899475098
        ]
      ],
      "out_features": 25,
      "has_bias": true,
      "type": "dense",
      "name": "trainable_0",
      "bias": [
        -6.877144813537598,
        -5.650580406188965,
        -5.963726997375488,
        -6.1844587326049805,
        -6.215210914611816,
        -6.0764312744140625,
        -8.666489601135254,
        -6.665081977844238,
        -6.438671112060547,
        -5.519775390625,
        -6.1831159591674805,
        -6.665020942687988,
        -4.837774276733398,
        -6.240967750549316,
        -6.757420539855957,
        -7.144743919372559,
        -4.092326641082764,
        -6.287396430969238,
        -6.742775917053223,
        -6.1816205978393555,
        -6.619114875793457,
        -5.325756072998047,
        -5.82957649230957,
        -7.7834858894348145,
        -6.6904401779174805
      ]
    },
    {
      "type": "tanh",
      "name": "activation_1"
    },
    {
      "in_features": 25,
      "weights": [
        [
          -1.0771945714950562,
          -0.4363653063774109,
          0.0065763890743255615,
          2.624842882156372,
          0.5336599349975586,
          0.30890917778015137,
          0.9081398844718933,
          -1.2692198753356934,
          1.0853644609451294,
          -1.2202680110931396,
          0.31778910756111145,
          0.3032163977622986,
          -3.8244214057922363,
          -5.132205963134766,
          -0.9081426858901978,
          -0.7612788081169128,
          0.7250356674194336,
          -0.4803485870361328,
          -5.134639739990234,
          -0.16004908084869385,
          -0.11103639751672745,
          -3.037335157394409,
          -1.675876259803772,
          -1.916642189025879,
          1.4138697385787964
        ],
        [
          -1.3606120347976685,
          -0.3974464535713196,
          0.815577507019043,
          -0.3314198851585388,
          1.252401351928711,
          -1.7953304052352905,
          -1.1488161087036133,
          -1.1362885236740112,
          0.44560906291007996,
          0.7403438091278076,
          0.21012812852859497,
          0.4090454876422882,
          -1.1582615375518799,
          -0.38943272829055786,
          0.17125704884529114,
          0.9740166664123535,
          -0.052245963364839554,
          -0.30416762828826904,
          -3.091731071472168,
          0.2656710147857666,
          -0.4885980784893036,
          -1.0545234680175781,
          0.5975065231323242,
          0.2124854475259781,
          -0.20567047595977783
        ],
        [
          1.006421446800232,
          -0.5005278587341309,
          0.08258900046348572,
          0.25306960940361023,
          -1.1087278127670288,
          -2.0526304244995117,
          -1.038840651512146,
          -0.19070371985435486,
          -0.9263959527015686,
          -0.3125046491622925,
          -0.011366688646376133,
          0.5523844361305237,
          1.3386167287826538,
          0.24638012051582336,
          1.0299195051193237,
          -1.0021072626113892,
          -1.2574851512908936,
          0.061433833092451096,
          -1.2801772356033325,
          0.5952373147010803,
          -2.217154026031494,
          1.7239774465560913,
          1.9296622276306152,
          3.0023319721221924,
          0.25278082489967346
        ],
        [
          0.7149397730827332,
          -0.7487182021141052,
          0.48640042543411255,
          -0.2392806112766266,
          0.5485707521438599,
          -0.7085187435150146,
          0.820188045501709,
          0.0599525086581707,
          0.9601277709007263,
          1.1717389822006226,
          1.641115665435791,
          1.5258407592773438,
          -2.569971799850464,
          -3.25602126121521,
          1.7099117040634155,
          -1.2216144800186157,
          0.21040226519107819,
          0.0001436735037714243,
          -3.9041061401367188,
          -1.2582119703292847,
          0.5412465333938599,
          -1.107395052909851,
          -0.11395605653524399,
          -0.7862366437911987,
          0.7498374581336975
        ],
        [
          -1.47316312789917,
          0.11107483506202698,
          0.7864164710044861,
          0.5468705892562866,
          -0.34269845485687256,
          -3.039642572402954,
          -2.8870670795440674,
          3.3252220153808594,
          0.8968268036842346,
          0.2786628305912018,
          0.2104925960302353,
          -1.0300865173339844,
          3.399615526199341,
          2.658801794052124,
          -0.7766228318214417,
          -0.016196606680750847,
          0.5659167766571045,
          -1.9451541900634766,
          0.7920628190040588,
          -1.5639513731002808,
          -0.3382411599159241,
          4.23261833190918,
          0.6642091274261475,
          3.063323974609375,
          0.9596800208091736
        ],
        [
          0.5223199129104614,
          1.0279717445373535,
          0.3625161945819855,
          -0.7108036279678345,
          -1.5871245861053467,
          2.582043170928955,
          1.079337239265442,
          -1.2516238689422607,
          1.7798597812652588,
          0.10945644229650497,
          0.25353437662124634,
          0.9127762317657471,
          -0.05767572671175003,
          1.402518391609192,
          0.4395346939563751,
          0.813754141330719,
          -1.6571964025497437,
          -0.28799837827682495,
          -1.1120035648345947,
          -0.8536585569381714,
          -0.696003794670105,
          -0.8686020970344543,
          -0.12414717674255371,
          0.31839293241500854,
          1.6407088041305542
        ],
        [
          1.2602912187576294,
          3.3941142559051514,
          1.194819688796997,
          -1.2583683729171753,
          -2.4496824741363525,
          4.118688106536865,
          0.08953990787267685,
          0.4427110552787781,
          1.0466358661651611,
          1.602591872215271,
          1.3834153413772583,
          1.9949688911437988,
          -0.4641503691673279,
          -0.020163578912615776,
          2.3910727500915527,
          0.8843522667884827,
          0.3903416693210602,
          0.9771575927734375,
          -1.141842246055603,
          2.910396099090576,
          0.7252904176712036,
          -0.9363741874694824,
          1.6822841167449951,
          -2.867621421813965,
          1.6041767597198486
        ],
        [
          1.0984290838241577,
          -0.47751274704933167,
          1.1121569871902466,
          -0.7202059626579285,
          1.027146577835083,
          -0.29605716466903687,
          -0.31747233867645264,
          1.3200629949569702,
          -0.05614972114562988,
          -0.3941504657268524,
          0.24483583867549896,
          0.6675982475280762,
          -0.7683051824569702,
          -2.0538973808288574,
          0.7145964503288269,
          0.3279443085193634,
          0.7385284304618835,
          2.1720824241638184,
          -2.9309186935424805,
          -0.6467443108558655,
          0.6750104427337646,
          0.8397805094718933,
          -0.9808815121650696,
          0.14159923791885376,
          0.6547648906707764
        ],
        [
          -0.4715900123119354,
          1.9945541620254517,
          0.8508672714233398,
          -0.4470040202140808,
          -1.2882708311080933,
          -1.0439962148666382,
          -1.7678850889205933,
          1.0244319438934326,
          1.2914199829101562,
          -0.6398885250091553,
          0.6265685558319092,
          -1.8594504594802856,
          2.7908732891082764,
          1.298852562904358,
          0.4272129535675049,
          -0.6690859794616699,
          0.5727224349975586,
          -0.38128554821014404,
          -0.8855333924293518,
          -1.5604066848754883,
          -0.048558030277490616,
          4.546175956726074,
          -0.16784027218818665,
          -0.6782092452049255,
          -0.037246450781822205
        ],
        [
          0.5669692158699036,
          -0.4146861135959625,
          0.8929488658905029,
          -0.17967355251312256,
          0.9687018990516663,
          0.2028292864561081,
          0.25759631395339966,
          -2.2552237510681152,
          1.614678978919983,
          -0.49304673075675964,
          -0.6551874876022339,
          -0.08766601979732513,
          -0.3954150676727295,
          -4.084989547729492,
          -0.8198713064193726,
          0.28502172231674194,
          -1.1211200952529907,
          -0.21941164135932922,
          -3.4066805839538574,
          -0.59986811876297,
          0.7666006088256836,
          -2.6459569931030273,
          -1.3782763481140137,
          0.6546306014060974,
          1.0072072744369507
        ],
        [
          1.1148842573165894,
          -0.3684622645378113,
          -0.11739140003919601,
          -0.18599697947502136,
          -1.0680338144302368,
          -1.2820522785186768,
          0.09418042004108429,
          0.9585188627243042,
          -0.755969226360321,
          1.2926205396652222,
          0.4424183964729309,
          1.243225336074829,
          0.37168943881988525,
          0.26361674070358276,
          0.6549493670463562,
          0.9038907289505005,
          -0.2344304621219635,
          0.3211767077445984,
          -0.7572227716445923,
          -1.8928961753845215,
          -0.07659527659416199,
          0.30499130487442017,
          -0.4797579050064087,
          1.6403381824493408,
          -0.9109456539154053
        ],
        [
          0.6622064709663391,
          -0.7043496966362,
          -2.0759499073028564,
          3.1749517917633057,
          0.14255861937999725,
          0.3541645407676697,
          -0.24457477033138275,
          -0.043837837874889374,
          0.604995608329773,
          -1.01803719997406,
          -0.20248116552829742,
          -0.962060272693634,
          -3.6118569374084473,
          -1.4726022481918335,
          1.7116010189056396,
          0.35749727487564087,
          -1.3848599195480347,
          1.7543622255325317,
          -2.767176389694214,
          0.2314796894788742,
          -2.4272055625915527,
          -0.24953177571296692,
          0.5328412055969238,
          -1.139564871788025,
          -3.4561264514923096
        ],
        [
          1.32106351852417,
          0.08901448547840118,
          -0.6015151739120483,
          -0.727159857749939,
          -0.10631964355707169,
          1.1715177297592163,
          -1.4664735794067383,
          -2.2315962314605713,
          0.4495929777622223,
          0.09539710730314255,
          -0.9328539967536926,
          0.27193963527679443,
          0.2453879714012146,
          -0.32028403878211975,
          0.7597739696502686,
          -0.5202623605728149,
          0.14715389907360077,
          -0.7294864654541016,
          -0.9176434278488159,
          -1.1908446550369263,
          -1.2495074272155762,
          1.0656592845916748,
          0.8673555850982666,
          0.5322917699813843,
          0.5033911466598511
        ],
        [
          -1.5659042596817017,
          -0.8669121265411377,
          -0.7434433698654175,
          0.07851362228393555,
          0.3999089002609253,
          1.4329453706741333,
          -0.14528264105319977,
          -1.312804102897644,
          -1.451982855796814,
          1.1636476516723633,
          0.9275986552238464,
          0.8017419576644897,
          -3.378671169281006,
          -1.6765351295471191,
          -1.6540707349777222,
          0.5701271891593933,
          0.41161903738975525,
          0.21636901795864105,
          -4.853365898132324,
          -1.5715376138687134,
          0.8305726051330566,
          -2.0212321281433105,
          -1.6445575952529907,
          -0.569105327129364,
          0.9253344535827637
        ],
        [
          -1.6241918802261353,
          0.1122668981552124,
          0.042000070214271545,
          -1.4481641054153442,
          0.540429949760437,
          -0.8732951283454895,
          2.220654010772705,
          -0.27931642532348633,
          0.6963478922843933,
          -0.7134039998054504,
          -0.03936934098601341,
          -1.6177442073822021,
          -0.16388145089149475,
          -1.0883218050003052,
          0.8348243236541748,
          0.37211379408836365,
          -0.3532637357711792,
          -1.0555617809295654,
          -2.713701009750366,
          -2.236707925796509,
          0.6101518869400024,
          0.43238550424575806,
          1.5154346227645874,
          -0.6017680168151855,
          -0.4772873520851135
        ],
        [
          -0.30391308665275574,
          0.0009583025239408016,
          -0.30559298396110535,
          0.49059587717056274,
          -1.2067309617996216,
          1.0840290784835815,
          -0.5102705955505371,
          0.889885663986206,
          -0.7198081016540527,
          -0.02627457119524479,
          0.1326913833618164,
          -3.6560001373291016,
          2.035640001296997,
          -0.9856821894645691,
          -0.15990906953811646,
          1.3961249589920044,
          0.7322262525558472,
          -1.4236886501312256,
          -1.0144445896148682,
          0.019367020577192307,
          -0.496071994304657,
          -0.5255923271179199,
          -0.7159003019332886,
          0.9215332865715027,
          -1.8031529188156128
        ],
        [
          0.26677975058555603,
          -0.3570796549320221,
          -0.2304893285036087,
          -0.36309951543807983,
          -0.15199469029903412,
          1.1860764026641846,
          0.1441236436367035,
          -0.2543802559375763,
          -0.08634451031684875,
          0.016189953312277794,
          0.3930131494998932,
          0.3647075295448303,
          -1.0776113271713257,
          -0.7610774040222168,
          -0.271535724401474,
          -0.533335268497467,
          0.11150377988815308,
          2.2206594944000244,
          -2.6502561569213867,
          0.769932210445404,
          -0.7119444608688354,
          -2.0363354682922363,
          1.4451262950897217,
          -0.9229200482368469,
          -2.314328670501709
        ],
        [
          -1.1164661645889282,
          -1.1562106609344482,
          -0.10225996375083923,
          0.7335624694824219,
          0.23972205817699432,
          0.19686739146709442,
          0.2926424741744995,
          -1.5323728322982788,
          0.885767936706543,
          -1.3908509016036987,
          -0.3860301971435547,
          1.5349608659744263,
          -2.1501290798187256,
          -3.3595638275146484,
          1.4534350633621216,
          1.9053946733474731,
          0.29954639077186584,
          0.738147497177124,
          -6.047506809234619,
          0.5187169909477234,
          0.35730496048927307,
          -2.012727737426758,
          1.125146508216858,
          -3.0019679069519043,
          -0.6387995481491089
        ],
        [
          -0.204055517911911,
          0.9609513282775879,
          -0.6724087595939636,
          -1.5914576053619385,
          -2.114962339401245,
          -1.7536388635635376,
          -0.08982033282518387,
          1.259207010269165,
          1.1557754278182983,
          1.227285623550415,
          1.3712456226348877,
          0.001742156338877976,
          0.38158223032951355,
          2.176966905593872,
          -1.7345054149627686,
          1.0578216314315796,
          0.38578537106513977,
          -0.8661073446273804,
          0.060727428644895554,
          -0.040247537195682526,
          0.4249722957611084,
          2.139617443084717,
          -1.953453540802002,
          -0.03854076564311981,
          0.2994038462638855
        ],
        [
          1.68068528175354,
          1.3684723377227783,
          -0.5577529072761536,
          -0.11828658729791641,
          -0.7388156056404114,
          -1.5575963258743286,
          2.0291318893432617,
          -2.2712130546569824,
          -0.022107165306806564,
          -2.3693225383758545,
          -2.954488754272461,
          1.8665940761566162,
          0.4260875880718231,
          -2.769473075866699,
          0.13329853117465973,
          0.872735321521759,
          -1.205567717552185,
          1.134665608406067,
          -2.5657548904418945,
          0.2765197157859802,
          -0.938114583492279,
          -1.1319209337234497,
          0.6608583331108093,
          -1.612640619277954,
          0.48131653666496277
        ],
        [
          -0.35027027130126953,
          0.09450073540210724,
          0.0904882401227951,
          -0.4563916325569153,
          -0.19746999442577362,
          0.3342314660549164,
          -2.223548650741577,
          0.44666215777397156,
          1.1934893131256104,
          0.5859734416007996,
          -1.1753594875335693,
          -0.23440395295619965,
          2.0016605854034424,
          -1.9259076118469238,
          0.865508496761322,
          -0.19392189383506775,
          1.6109554767608643,
          1.7644779682159424,
          -2.9618875980377197,
          1.0417228937149048,
          -0.5869624018669128,
          -1.5991504192352295,
          -1.5880417823791504,
          -0.20426076650619507,
          -0.9837968349456787
        ],
        [
          0.986291229724884,
          0.29844585061073303,
          -0.8500556945800781,
          -0.835870623588562,
          -0.9325734376907349,
          0.20944848656654358,
          1.600460410118103,
          -0.49531179666519165,
          -1.3111505508422852,
          1.7002332210540771,
          -2.4648597240448,
          -0.9645153284072876,
          0.337377667427063,
          -0.0412694588303566,
          0.389532208442688,
          -0.23511825501918793,
          1.0360459089279175,
          1.0452972650527954,
          -0.6439993977546692,
          0.2569897770881653,
          -0.14248225092887878,
          -0.0578448623418808,
          0.673065721988678,
          -0.7597497701644897,
          0.673677921295166
        ],
        [
          -0.7296017408370972,
          -1.759379506111145,
          1.0756102800369263,
          -1.8623887300491333,
          -2.1518006324768066,
          -2.700585126876831,
          -0.46612033247947693,
          0.2945687472820282,
          2.0631914138793945,
          0.336254358291626,
          0.07059048116207123,
          0.1334914267063141,
          5.905096530914307,
          0.032773423939943314,
          -2.4656314849853516,
          -0.90742427110672,
          0.9199738502502441,
          -0.728965163230896,
          1.5670251846313477,
          -1.2926149368286133,
          0.07380552589893341,
          5.172422885894775,
          -1.5950778722763062,
          4.280080795288086,
          1.5049291849136353
        ],
        [
          0.09086212515830994,
          1.0785659551620483,
          3.2389371395111084,
          -1.1020450592041016,
          -3.263216495513916,
          1.166429877281189,
          0.0866800919175148,
          3.9162557125091553,
          0.5824787020683289,
          -0.20332954823970795,
          1.5023821592330933,
          0.7548627257347107,
          4.147648334503174,
          1.4960763454437256,
          2.668022632598877,
          -1.4859075546264648,
          3.095323324203491,
          -1.5442004203796387,
          -0.11555996537208557,
          2.386253833770752,
          0.7554950714111328,
          3.8680226802825928,
          2.1225175857543945,
          1.3100917339324951,
          1.6539032459259033
        ],
        [
          -2.657569646835327,
          -1.8664308786392212,
          -3.8711512088775635,
          2.050924062728882,
          -0.4613021910190582,
          3.6608426570892334,
          -2.0148212909698486,
          -0.3653518259525299,
          -0.16744574904441833,
          -0.6427143216133118,
          -0.07457341253757477,
          0.9783743023872375,
          -4.523441314697266,
          -1.4013397693634033,
          -0.00212929118424654,
          0.4342080056667328,
          -2.164309501647949,
          0.4801287055015564,
          -4.551105976104736,
          2.942643404006958,
          1.154274821281433,
          -2.6462953090667725,
          1.3591320514678955,
          -2.1922247409820557,
          -1.3324977159500122
        ]
      ],
      "out_features": 25,
      "has_bias": true,
      "type": "dense",
      "name": "trainable_2",
      "bias": [
        4.513934135437012,
        2.789470911026001,
        5.000001907348633,
        3.4710123538970947,
        4.161372184753418,
        6.487783432006836,
        3.555377244949341,
        2.8563883304595947,
        3.941964626312256,
        2.678664445877075,
        3.6782426834106445,
        3.6085455417633057,
        3.631209373474121,
        3.2521398067474365,
        4.948598861694336,
        2.4241936206817627,
        4.466194152832031,
        4.110284805297852,
        3.636270523071289,
        1.9466596841812134,
        3.098552942276001,
        3.740156888961792,
        4.559347152709961,
        2.717087507247925,
        3.019691228866577
      ]
    },
    {
      "type": "tanh",
      "name": "activation_3"
    },
    {
      "in_features": 25,
      "weights": [
        [
          0.9360556602478027,
          0.6316169500350952,
          0.4142402708530426,
          0.5328155159950256,
          -1.1428877115249634,
          1.5659123659133911,
          -0.011271155439317226,
          1.7035348415374756,
          -2.35306715965271,
          -0.6450669765472412,
          0.18212009966373444,
          1.4996702671051025,
          -0.21985667943954468,
          -2.961972951889038,
          1.2832615375518799,
          0.13076409697532654,
          -1.2106393575668335,
          -1.5115604400634766,
          -0.4690365493297577,
          -2.010313034057617,
          0.01931001991033554,
          -1.4747105836868286,
          -0.3487473726272583,
          1.5825163125991821,
          0.6692872047424316
        ],
        [
          -0.8099392056465149,
          -0.8201510310173035,
          0.34923815727233887,
          -0.27757593989372253,
          -2.9299890995025635,
          -0.8313471078872681,
          2.0003485679626465,
          2.234081983566284,
          0.9871536493301392,
          0.8316051363945007,
          0.5277770757675171,
          -1.6104893684387207,
          0.7350552678108215,
          -0.08197125047445297,
          1.1920008659362793,
          0.008364226669073105,
          0.8075097799301147,
          -0.14065143465995789,
          -0.5664671659469604,
          0.08077403903007507,
          -0.2787154018878937,
          0.9900458455085754,
          -0.9492901563644409,
          0.9164395332336426,
          -0.240296870470047
        ],
        [
          -0.8811168074607849,
          -0.07731034606695175,
          -0.017335496842861176,
          0.5771746039390564,
          0.16773951053619385,
          -0.08178948611021042,
          0.20044031739234924,
          -0.26931631565093994,
          0.7187126278877258,
          2.7363576889038086,
          0.26857879757881165,
          0.15352100133895874,
          2.2468860149383545,
          -0.8921018242835999,
          1.2460360527038574,
          2.136279821395874,
          -1.2725588083267212,
          -0.32869285345077515,
          1.039730429649353,
          0.4975464642047882,
          -0.8169004917144775,
          -0.21155360341072083,
          1.393080234527588,
          1.2671452760696411,
          0.3980444073677063
        ],
        [
          1.0005486011505127,
          1.6511025428771973,
          -0.5929141640663147,
          -2.0559566020965576,
          0.34682580828666687,
          1.2042409181594849,
          0.6411617994308472,
          1.2662768363952637,
          -0.6631952524185181,
          -0.6645245552062988,
          -0.212710902094841,
          -1.5175203084945679,
          0.6855933666229248,
          1.5346020460128784,
          1.1707335710525513,
          0.7740142345428467,
          0.7454288005828857,
          0.9452939629554749,
          -0.9956650137901306,
          0.43854379653930664,
          -0.4860745668411255,
          -1.7522237300872803,
          -1.5980126857757568,
          1.2962913513183594,
          1.705877423286438
        ],
        [
          -0.7555161714553833,
          -1.3930683135986328,
          1.3600984811782837,
          0.8433219790458679,
          -1.2938612699508667,
          -0.2199351042509079,
          -0.22447000443935394,
          0.20997394621372223,
          -0.6195756196975708,
          1.9599051475524902,
          0.26970160007476807,
          -0.7836396098136902,
          -1.6948250532150269,
          -0.7635907530784607,
          1.0961334705352783,
          -0.9402385354042053,
          0.2735506594181061,
          0.8426644802093506,
          0.5420196056365967,
          -0.4042064845561981,
          0.38387614488601685,
          0.2795856297016144,
          -0.5465472936630249,
          -0.21619777381420135,
          1.042894959449768
        ],
        [
          -2.1538989543914795,
          -0.24452552199363708,
          -0.8239722847938538,
          -0.27020999789237976,
          2.4031505584716797,
          0.40537765622138977,
          1.301459550857544,
          -0.15564531087875366,
          1.1192597150802612,
          -0.5536764860153198,
          -1.107267141342163,
          -2.516704559326172,
          -0.45377323031425476,
          -0.466983437538147,
          -0.5983555316925049,
          -0.4971783459186554,
          0.5801071524620056,
          1.9945131540298462,
          0.06079433113336563,
          -1.0909662246704102,
          1.9402973651885986,
          0.29685288667678833,
          -1.5001670122146606,
          0.7528290152549744,
          0.32092225551605225
        ],
        [
          -0.7837427258491516,
          -0.31141507625579834,
          0.6668795943260193,
          0.187761589884758,
          1.0996681451797485,
          1.1754443645477295,
          -1.4758182764053345,
          -0.74009770154953,
          -0.4815193712711334,
          1.2589551210403442,
          -0.7096291780471802,
          -0.3028644323348999,
          1.1718147993087769,
          0.022575514391064644,
          0.06714875251054764,
          -2.067195415496826,
          -0.8719328045845032,
          0.6082664728164673,
          0.2257731705904007,
          -0.35336461663246155,
          -0.6753677129745483,
          -0.8867071866989136,
          0.6980419754981995,
          -3.255239486694336,
          -0.3698325753211975
        ],
        [
          0.9423826932907104,
          0.5713557004928589,
          0.9915685057640076,
          1.1277107000350952,
          0.008922445587813854,
          0.6440096497535706,
          0.7442695498466492,
          1.2400822639465332,
          0.8777205348014832,
          -1.4195871353149414,
          0.2901168465614319,
          -0.7917043566703796,
          2.872647523880005,
          1.2479029893875122,
          -0.021890789270401,
          -1.6067272424697876,
          0.2565358281135559,
          -0.2412504255771637,
          0.2448771446943283,
          1.7283742427825928,
          0.8190179467201233,
          -0.2893390953540802,
          -1.0805844068527222,
          0.7333719730377197,
          0.1987251490354538
        ],
        [
          0.5294684767723083,
          2.5098559856414795,
          0.8232060074806213,
          2.240586996078491,
          -0.7106630206108093,
          0.4342826008796692,
          0.5368039011955261,
          -0.4209022521972656,
          -1.2232948541641235,
          0.20237049460411072,
          1.0009567737579346,
          0.5793260931968689,
          -0.8810097575187683,
          -0.9877719283103943,
          0.46630120277404785,
          0.6755249500274658,
          0.07601029425859451,
          -0.5790719389915466,
          1.297022819519043,
          -0.8690772652626038,
          -2.8644940853118896,
          -1.8642147779464722,
          0.5069144368171692,
          -0.7536503672599792,
          0.9579498767852783
        ],
        [
          -1.0514456033706665,
          -1.0437966585159302,
          0.7447250485420227,
          -1.8950350284576416,
          0.6724858283996582,
          0.6293026804924011,
          0.3197796940803528,
          -0.19044369459152222,
          0.4680124521255493,
          -0.9327789545059204,
          0.9770572781562805,
          0.2465759962797165,
          -0.008304329589009285,
          0.12666332721710205,
          0.0012652549194172025,
          1.1728100776672363,
          0.7363729476928711,
          0.1682991087436676,
          -1.1337761878967285,
          1.2715656757354736,
          0.38734573125839233,
          0.04934719577431679,
          -1.7377347946166992,
          -0.32576441764831543,
          0.21013839542865753
        ],
        [
          1.2656446695327759,
          0.9224585890769958,
          -0.9058367609977722,
          2.022998332977295,
          -1.2347776889801025,
          0.4794425070285797,
          0.8169580698013306,
          0.5289285182952881,
          0.47908204793930054,
          -0.7899055480957031,
          0.569774329662323,
          -0.04013637453317642,
          -0.25498098134994507,
          -0.7456104755401611,
          0.31400105357170105,
          1.7433069944381714,
          1.3227603435516357,
          -0.3633619546890259,
          -0.3385690450668335,
          -0.1392577886581421,
          -1.3274863958358765,
          -0.3790874779224396,
          0.2592724561691284,
          0.8911831378936768,
          0.32510828971862793
        ],
        [
          0.43049830198287964,
          0.10025203973054886,
          0.810482382774353,
          -0.012013731524348259,
          0.1920529305934906,
          1.3106335401535034,
          0.3930123448371887,
          0.6393043398857117,
          -1.2733078002929688,
          1.44671630859375,
          2.0131618976593018,
          0.8043978214263916,
          2.3265960216522217,
          0.13192938268184662,
          -0.3007799983024597,
          -0.6566252112388611,
          0.04658814147114754,
          -1.042024850845337,
          1.0205774307250977,
          0.323678582906723,
          -0.8464722037315369,
          -0.9849942326545715,
          -0.3290456533432007,
          -0.22497311234474182,
          0.5425148010253906
        ],
        [
          1.9217156171798706,
          1.2189202308654785,
          4.1811747550964355,
          3.7808496952056885,
          -0.7935324311256409,
          0.9651463031768799,
          0.8115578889846802,
          -0.6217129826545715,
          -0.07730260491371155,
          0.6835521459579468,
          3.285645008087158,
          0.866776704788208,
          -0.07336577028036118,
          -0.7214764356613159,
          0.8783829212188721,
          0.16572171449661255,
          0.1495644748210907,
          0.6604663729667664,
          -0.15562427043914795,
          0.24063681066036224,
          -0.2330424040555954,
          0.4921862483024597,
          1.8663603067398071,
          -0.16953904926776886,
          2.467860460281372
        ],
        [
          0.38724979758262634,
          -1.9839223623275757,
          1.347487211227417,
          0.705359935760498,
          -0.8316511511802673,
          -0.7178956866264343,
          3.1483705043792725,
          1.055332899093628,
          0.8399941325187683,
          -1.5439172983169556,
          0.7980396747589111,
          -1.073632001876831,
          -0.19498653709888458,
          -0.18846698105335236,
          0.4784902334213257,
          -2.2138969898223877,
          1.7587525844573975,
          1.8235666751861572,
          -1.0777970552444458,
          1.834869623184204,
          0.5677781105041504,
          0.9981136918067932,
          -0.8510968089103699,
          -1.075824499130249,
          2.3166275024414062
        ],
        [
          -1.5609886646270752,
          0.9939137101173401,
          -0.10021788626909256,
          0.420803964138031,
          1.090889573097229,
          -0.5037205815315247,
          -0.18188011646270752,
          -0.024814100936055183,
          -0.22613343596458435,
          -0.21805539727210999,
          -1.0053379535675049,
          -0.051566530019044876,
          0.7965651750564575,
          -0.20931988954544067,
          -0.10252700746059418,
          0.19363026320934296,
          2.216993808746338,
          1.9998148679733276,
          -1.3177900314331055,
          1.114724040031433,
          0.0794796273112297,
          0.18668487668037415,
          -0.8106648325920105,
          -0.4452185332775116,
          -1.0912714004516602
        ],
        [
          0.8409023880958557,
          -1.2646564245224,
          0.2594853341579437,
          -1.0338952541351318,
          -0.07648954540491104,
          -0.9033867716789246,
          -1.466817855834961,
          -0.8242550492286682,
          -0.2555699646472931,
          0.07824264466762543,
          1.5501623153686523,
          1.2669942378997803,
          0.7510275840759277,
          0.20423074066638947,
          -1.8965697288513184,
          0.7401123642921448,
          -0.4026986062526703,
          0.2510811686515808,
          0.655344545841217,
          -0.08210185915231705,
          0.27130386233329773,
          0.20813190937042236,
          -0.1889418214559555,
          1.3154034614562988,
          0.34895461797714233
        ],
        [
          -0.25004151463508606,
          -0.21306388080120087,
          2.5396621227264404,
          -0.43651270866394043,
          -0.1368194967508316,
          -1.3653050661087036,
          1.3616939783096313,
          0.33712196350097656,
          -0.8527128100395203,
          -0.049824971705675125,
          1.1167147159576416,
          1.1240659952163696,
          1.1781169176101685,
          1.000407099723816,
          0.7580883502960205,
          0.7725971341133118,
          0.2953687310218811,
          -0.5315198302268982,
          -0.09521161764860153,
          0.008962350897490978,
          -0.46803048253059387,
          2.0622754096984863,
          0.6694808006286621,
          -0.20285272598266602,
          -0.799349308013916
        ],
        [
          -0.2927747666835785,
          -0.23602086305618286,
          -1.332444667816162,
          -0.19707275927066803,
          -0.6304541826248169,
          0.0065987370908260345,
          -1.0007641315460205,
          -0.26675301790237427,
          1.066325306892395,
          2.209829568862915,
          1.6075243949890137,
          1.8441591262817383,
          -0.4080617129802704,
          -0.696280837059021,
          -1.078700304031372,
          0.7870283126831055,
          2.800830602645874,
          0.821464478969574,
          1.2374573945999146,
          -0.279325008392334,
          0.4932783544063568,
          -0.6165431141853333,
          -0.8112125396728516,
          -0.1468634009361267,
          0.5008757710456848
        ],
        [
          -2.1441566944122314,
          -0.9970009326934814,
          -1.018633246421814,
          0.2276039570569992,
          -1.166942834854126,
          -0.16458040475845337,
          3.297651529312134,
          1.2086375951766968,
          2.6903345584869385,
          -1.331600308418274,
          1.0443986654281616,
          0.7850577235221863,
          -0.6536256670951843,
          1.451328992843628,
          1.0631599426269531,
          -1.9078450202941895,
          2.9103527069091797,
          0.9374953508377075,
          0.20300504565238953,
          2.0060312747955322,
          2.4129889011383057,
          1.6134189367294312,
          -1.3535875082015991,
          -0.5070999264717102,
          0.317553848028183
        ],
        [
          0.3754079043865204,
          -2.436755895614624,
          -0.80287104845047,
          0.2346426546573639,
          -0.8519561290740967,
          1.2023922204971313,
          1.4252707958221436,
          0.4034980535507202,
          -0.1977844536304474,
          0.10913403332233429,
          1.4672479629516602,
          -2.4103102684020996,
          1.4355052709579468,
          0.524433970451355,
          -0.08361846953630447,
          0.8668822646141052,
          0.7565101981163025,
          -0.37922799587249756,
          -1.0043277740478516,
          1.5129731893539429,
          -0.05489492788910866,
          0.21111446619033813,
          -2.7282018661499023,
          -0.8556075692176819,
          0.260108083486557
        ],
        [
          -0.2661900818347931,
          -0.8964148163795471,
          1.775526762008667,
          -0.8660944700241089,
          -0.9159291386604309,
          -0.31717002391815186,
          1.9247286319732666,
          1.026150107383728,
          0.3172460198402405,
          2.483724355697632,
          -1.113254427909851,
          0.10567484050989151,
          -0.9529955983161926,
          1.9914544820785522,
          0.9192206859588623,
          -0.5706037282943726,
          -1.058575987815857,
          -0.1311977207660675,
          -0.44098880887031555,
          -1.115774393081665,
          -0.008779329247772694,
          -0.04176713898777962,
          -0.06112516298890114,
          0.03723197802901268,
          0.084666408598423
        ],
        [
          3.0154953002929688,
          0.04768919199705124,
          1.6883270740509033,
          0.7799237370491028,
          0.22873839735984802,
          2.817650556564331,
          2.959963321685791,
          -0.041488371789455414,
          -0.41124460101127625,
          0.8174203634262085,
          -0.4372735321521759,
          1.4932180643081665,
          1.207149863243103,
          1.106899619102478,
          0.71958988904953,
          1.2467570304870605,
          0.1850062906742096,
          2.338019371032715,
          1.1809583902359009,
          1.212512493133545,
          1.0817631483078003,
          -1.4307531118392944,
          1.329124927520752,
          0.7397298812866211,
          1.8935524225234985
        ],
        [
          -1.06391179561615,
          -1.2328901290893555,
          -1.592362880706787,
          -1.019713044166565,
          -0.5889676809310913,
          -0.1588117480278015,
          1.2054204940795898,
          0.8863239884376526,
          1.2808245420455933,
          -0.18764588236808777,
          0.11982769519090652,
          2.605360269546509,
          0.8687968254089355,
          1.3868321180343628,
          -0.5403598546981812,
          0.5113222599029541,
          1.8925021886825562,
          1.0440168380737305,
          -2.0561602115631104,
          1.8461174964904785,
          -0.907871663570404,
          -0.8965597152709961,
          0.20427070558071136,
          -1.194311499595642,
          0.16829709708690643
        ],
        [
          0.052322208881378174,
          0.446239709854126,
          0.9910644292831421,
          0.6105079650878906,
          1.6341841220855713,
          1.005096673965454,
          1.417954683303833,
          -1.0342562198638916,
          1.9044944047927856,
          2.6577141284942627,
          0.8712748885154724,
          0.906882643699646,
          -0.046054404228925705,
          -1.0784353017807007,
          0.7947960495948792,
          2.2944014072418213,
          -0.2617034912109375,
          -0.8372694253921509,
          -1.2616761922836304,
          1.1840786933898926,
          -1.6469365358352661,
          -1.0383222103118896,
          1.716109037399292,
          2.412838935852051,
          1.406753659248352
        ],
        [
          0.3469601273536682,
          0.6948927044868469,
          0.4959942102432251,
          0.4010196924209595,
          -0.28998249769210815,
          -0.6819819808006287,
          -1.4785796403884888,
          -0.8859564661979675,
          -0.5645909309387207,
          0.6293386220932007,
          1.8460971117019653,
          1.2858715057373047,
          -1.5973179340362549,
          0.02977612055838108,
          0.5128419995307922,
          0.7122547626495361,
          -0.5139729380607605,
          -0.9458034634590149,
          1.1462420225143433,
          0.3109312653541565,
          -0.16582223773002625,
          -0.5554671883583069,
          0.889456033706665,
          1.748584270477295,
          1.2702932357788086
        ]
      ],
      "out_features": 25,
      "has_bias": true,
      "type": "dense",
      "name": "trainable_4",
      "bias": [
        -3.2866017818450928,
        -0.6980965733528137,
        -2.997410535812378,
        -2.4277923107147217,
        -3.224146604537964,
        -3.831195592880249,
        -3.647015333175659,
        -3.2348763942718506,
        -2.6316263675689697,
        -2.8181679248809814,
        -2.6090352535247803,
        -3.4780290126800537,
        -2.184295892715454,
        -2.9398343563079834,
        -3.997743844985962,
        -2.2732040882110596,
        -4.973491191864014,
        -3.0985934734344482,
        -2.9357378482818604,
        -2.0045461654663086,
        -1.688209891319275,
        -3.0788562297821045,
        -3.01324200630188,
        -2.3403031826019287,
        -3.360034227371216
      ]
    },
    {
      "type": "tanh",
      "name": "activation_5"
    },
    {
      "in_features": 25,
      "weights": [
        [
          0.8399214744567871,
          1.7600280046463013,
          1.7644779682159424,
          1.0397764444351196,
          0.8967061638832092,
          1.0110145807266235,
          0.8514265418052673,
          2.037276268005371,
          1.2505695819854736,
          0.8611000776290894,
          -0.3562365174293518,
          0.9247298836708069,
          0.43603986501693726,
          -0.7597410082817078,
          1.2890543937683105,
          2.8507442474365234,
          2.7293922901153564,
          0.21222633123397827,
          2.0965280532836914,
          1.0880995988845825,
          1.4006398916244507,
          0.9850618243217468,
          0.33247923851013184,
          -1.037640929222107,
          1.8784030675888062
        ],
        [
          2.182814836502075,
          1.7132036685943604,
          0.24198873341083527,
          1.7723709344863892,
          1.9002525806427002,
          -0.03073941171169281,
          1.1499730348587036,
          1.6891297101974487,
          1.1858056783676147,
          0.23600752651691437,
          1.6450592279434204,
          0.12120427936315536,
          0.48020800948143005,
          1.3327685594558716,
          0.7793328762054443,
          -1.0534077882766724,
          0.5704927444458008,
          0.7613954544067383,
          1.1941545009613037,
          2.2980716228485107,
          0.5084035396575928,
          -0.07154712080955505,
          -0.4877456724643707,
          -0.1864372044801712,
          0.11149270832538605
        ],
        [
          -1.000909447669983,
          -0.0030033676885068417,
          1.207005500793457,
          -0.2880423367023468,
          -0.06073009595274925,
          0.07705458253622055,
          -0.2748689353466034,
          1.0280780792236328,
          0.8305878639221191,
          0.4997253715991974,
          0.5075879693031311,
          1.900469183921814,
          1.259820818901062,
          0.37615495920181274,
          0.31410303711891174,
          -0.2639163136482239,
          0.43846309185028076,
          -0.16687248647212982,
          -0.7886782288551331,
          0.8793001174926758,
          0.27427732944488525,
          0.5814616084098816,
          0.5125728845596313,
          -0.9857856035232544,
          0.8759636282920837
        ],
        [
          1.4833648204803467,
          1.4114450216293335,
          1.5192749500274658,
          -1.9715923070907593,
          0.44729048013687134,
          0.9141775965690613,
          1.152928113937378,
          1.2099823951721191,
          1.1470552682876587,
          2.2745449542999268,
          0.495874285697937,
          0.9436370134353638,
          0.9450796842575073,
          1.4068374633789062,
          2.2262141704559326,
          0.3866256773471832,
          0.301374226808548,
          1.7306050062179565,
          2.2156381607055664,
          0.7526645064353943,
          1.656538724899292,
          1.2706406116485596,
          0.9217729568481445,
          0.5702587962150574,
          -0.12992456555366516
        ],
        [
          -1.3598145246505737,
          0.6029188632965088,
          -0.5893450379371643,
          1.3848544359207153,
          1.108389139175415,
          1.713464379310608,
          2.0387609004974365,
          1.4959442615509033,
          2.4140894412994385,
          2.681514024734497,
          1.3938995599746704,
          0.39451533555984497,
          1.7778379917144775,
          0.3104652464389801,
          0.7780492305755615,
          1.1952470541000366,
          1.3357661962509155,
          1.5313754081726074,
          0.2824539244174957,
          2.5020852088928223,
          1.635550856590271,
          0.09709013998508453,
          1.0923517942428589,
          1.62437903881073,
          2.2788736820220947
        ],
        [
          0.989569365978241,
          1.0762226581573486,
          0.37059271335601807,
          0.7195619940757751,
          -0.262675940990448,
          0.8072077631950378,
          0.30476775765419006,
          0.962317705154419,
          1.1090662479400635,
          1.571523666381836,
          0.12446460872888565,
          0.3527587354183197,
          -0.6373306512832642,
          -0.4167473018169403,
          0.5952309966087341,
          -0.2278672605752945,
          1.000857949256897,
          -1.8823601007461548,
          0.32540684938430786,
          -0.8064089417457581,
          1.4876726865768433,
          0.7497225999832153,
          0.34546324610710144,
          2.8801169395446777,
          -0.03791290894150734
        ],
        [
          0.3537408113479614,
          2.6079840660095215,
          1.8151845932006836,
          0.8278440833091736,
          -0.699878454208374,
          0.6506434082984924,
          -0.548156201839447,
          0.913983941078186,
          0.8436418771743774,
          -0.413115918636322,
          0.8810381293296814,
          -0.12823481857776642,
          1.0597752332687378,
          0.5211342573165894,
          0.8867822885513306,
          -0.1469130665063858,
          0.32890138030052185,
          -0.07518108189105988,
          0.24677550792694092,
          -2.2529690265655518,
          0.823646068572998,
          2.622013568878174,
          1.6909420490264893,
          1.2748382091522217,
          1.8460420370101929
        ],
        [
          1.2385104894638062,
          -0.2872248589992523,
          2.0030927658081055,
          1.980749249458313,
          1.3474618196487427,
          1.8500044345855713,
          1.5083913803100586,
          0.3756645917892456,
          1.589248776435852,
          0.50453120470047,
          0.3299805819988251,
          0.9687186479568481,
          -1.0558619499206543,
          1.7688019275665283,
          -0.3325192332267761,
          1.4428584575653076,
          1.7720386981964111,
          0.7899023294448853,
          2.5409207344055176,
          0.010476619936525822,
          2.156015396118164,
          0.9986065626144409,
          2.122310161590576,
          -1.6700352430343628,
          0.7352914214134216
        ],
        [
          0.8142631649971008,
          0.9704775214195251,
          1.2481104135513306,
          0.7350291609764099,
          2.4980039596557617,
          0.8050251007080078,
          0.49431803822517395,
          0.037851765751838684,
          -0.3919889032840729,
          0.08839339762926102,
          2.3065946102142334,
          0.8747667074203491,
          1.4510198831558228,
          0.7596336007118225,
          2.592827558517456,
          0.8471871018409729,
          0.6459919810295105,
          -0.780140221118927,
          1.8854178190231323,
          1.425093412399292,
          1.234755516052246,
          1.08657705783844,
          0.9878348708152771,
          1.1429176330566406,
          1.3603376150131226
        ],
        [
          -0.9817398190498352,
          1.0159010887145996,
          -0.49273037910461426,
          1.9052035808563232,
          0.8551014065742493,
          2.568481206893921,
          2.048078775405884,
          -0.5714576840400696,
          -1.1932549476623535,
          0.5963786840438843,
          1.8620169162750244,
          0.25090405344963074,
          1.9983599185943604,
          0.9207265973091125,
          -0.45892640948295593,
          1.3929293155670166,
          0.2697990834712982,
          0.28968411684036255,
          1.2704048156738281,
          1.4098656177520752,
          1.1100646257400513,
          -0.45531296730041504,
          1.7278616428375244,
          0.7961294054985046,
          0.7055127024650574
        ],
        [
          0.6335174441337585,
          2.5921967029571533,
          -0.5129503011703491,
          -0.2459484338760376,
          0.33413898944854736,
          0.7139874696731567,
          -0.025111589580774307,
          2.6596438884735107,
          1.0996836423873901,
          1.9006778001785278,
          1.41908860206604,
          -0.07365383952856064,
          1.3037034273147583,
          0.3933248519897461,
          0.46525394916534424,
          1.9327560663223267,
          0.20519283413887024,
          0.7859224677085876,
          1.3162271976470947,
          -0.7841635346412659,
          0.3205525577068329,
          1.8843085765838623,
          1.0756908655166626,
          -1.1769979000091553,
          0.09592100232839584
        ],
        [
          1.9255605936050415,
          1.5377517938613892,
          0.4739347994327545,
          0.2172149270772934,
          2.7241833209991455,
          2.14056658744812,
          0.9527066349983215,
          0.4585096538066864,
          0.1384534388780594,
          -0.17299102246761322,
          0.47849053144454956,
          -0.15606090426445007,
          1.55516517162323,
          0.5095491409301758,
          2.1736555099487305,
          3.0349080562591553,
          1.0669665336608887,
          0.14709720015525818,
          0.32402586936950684,
          -0.549124002456665,
          -0.21343551576137543,
          3.5808284282684326,
          0.9994431734085083,
          -0.28556427359580994,
          1.1098051071166992
        ],
        [
          0.0751309022307396,
          -0.6206344962120056,
          1.9031823873519897,
          0.07822436839342117,
          0.8483392596244812,
          0.6227673888206482,
          0.5809870362281799,
          0.6331058144569397,
          0.5524076223373413,
          1.7610112428665161,
          -0.6332390308380127,
          0.8643924593925476,
          0.9883639216423035,
          0.7393947839736938,
          1.4785888195037842,
          1.106286644935608,
          1.0738177299499512,
          0.18414539098739624,
          0.8418014049530029,
          0.21224698424339294,
          0.3459427058696747,
          1.4436004161834717,
          1.805755376815796,
          0.4772745966911316,
          1.9018629789352417
        ],
        [
          1.7279983758926392,
          2.632981538772583,
          0.8688976168632507,
          1.2634844779968262,
          1.270133376121521,
          0.7255252003669739,
          0.9504935145378113,
          -0.36339855194091797,
          0.5170068144798279,
          1.4621164798736572,
          1.028862476348877,
          0.8744268417358398,
          -0.603418231010437,
          -0.22337600588798523,
          0.9364416003227234,
          -0.1848515123128891,
          1.3404475450515747,
          0.12640811502933502,
          -0.7758207321166992,
          1.061537265777588,
          0.5023396611213684,
          1.9714272022247314,
          0.445627361536026,
          2.3624777793884277,
          2.0912773609161377
        ],
        [
          0.13491123914718628,
          -0.34593600034713745,
          1.251233696937561,
          0.7789945006370544,
          -1.4453279972076416,
          1.886742353439331,
          -1.1459262371063232,
          0.6209858059883118,
          0.841205358505249,
          1.6720136404037476,
          1.6985321044921875,
          1.7035592794418335,
          0.15794725716114044,
          0.08836755901575089,
          1.2118489742279053,
          1.6186821460723877,
          0.5130712985992432,
          1.4519654512405396,
          2.4442710876464844,
          -0.3201194107532501,
          1.34100341796875,
          -0.0506136454641819,
          2.463890552520752,
          0.1627712845802307,
          0.4803391098976135
        ],
        [
          0.6026487350463867,
          1.0966947078704834,
          -1.1856544017791748,
          0.7979976534843445,
          0.25845789909362793,
          0.392534464597702,
          1.7153518199920654,
          -0.07819212228059769,
          0.6174144148826599,
          0.9598517417907715,
          2.2324466705322266,
          1.913559913635254,
          0.8728494048118591,
          0.15454135835170746,
          2.5232346057891846,
          -0.09116771817207336,
          0.9627852439880371,
          -0.633920431137085,
          0.45211708545684814,
          2.3105695247650146,
          2.2328903675079346,
          2.759873151779175,
          1.0006331205368042,
          0.6675758957862854,
          1.5564020872116089
        ],
        [
          2.97951602935791,
          -0.45868435502052307,
          0.951265275478363,
          1.9596762657165527,
          1.5419585704803467,
          -0.25751087069511414,
          -1.0037508010864258,
          0.42951804399490356,
          -0.5793418884277344,
          -0.7532997131347656,
          -0.06441738456487656,
          -0.04063071310520172,
          0.5152925252914429,
          0.6917745471000671,
          0.07607409358024597,
          1.9118748903274536,
          2.812408447265625,
          0.5449835062026978,
          4.258937358856201,
          1.0620092153549194,
          -0.4284954071044922,
          2.1905603408813477,
          0.7700188755989075,
          1.9260307550430298,
          1.1845999956130981
        ],
        [
          -0.1017807349562645,
          1.7799335718154907,
          -0.20236922800540924,
          -0.44638681411743164,
          3.3312766551971436,
          1.2538360357284546,
          1.8058849573135376,
          0.5112493634223938,
          0.3956913650035858,
          0.49371546506881714,
          1.091243028640747,
          1.3807673454284668,
          1.014357566833496,
          1.6591373682022095,
          0.10732059180736542,
          1.5274715423583984,
          1.2590179443359375,
          -0.09252704679965973,
          1.0590770244598389,
          -1.3995341062545776,
          0.44874992966651917,
          1.0258742570877075,
          0.7437021136283875,
          2.0462088584899902,
          -0.15097466111183167
        ],
        [
          0.40491923689842224,
          1.0278019905090332,
          -0.8886963725090027,
          0.9747987389564514,
          2.663252115249634,
          2.309861183166504,
          1.6898612976074219,
          0.7990407347679138,
          0.4285319149494171,
          0.0003951561520807445,
          2.435842752456665,
          -2.0966250896453857,
          0.1665683388710022,
          1.524400234222412,
          1.0824397802352905,
          2.11128830909729,
          0.045441530644893646,
          0.23246349394321442,
          1.367667555809021,
          2.253812551498413,
          -0.19567514955997467,
          2.605104446411133,
          0.5217201113700867,
          1.4800148010253906,
          0.7176389098167419
        ],
        [
          0.6152731776237488,
          1.181671380996704,
          2.327307939529419,
          0.5361742377281189,
          1.5451314449310303,
          1.158844232559204,
          0.5828789472579956,
          2.028294801712036,
          1.8587322235107422,
          0.44287770986557007,
          1.9242169857025146,
          0.6628887057304382,
          0.6186032891273499,
          1.2486320734024048,
          -0.1323038637638092,
          0.9135524034500122,
          1.0119552612304688,
          2.1417696475982666,
          1.2708289623260498,
          0.0246229637414217,
          1.9573009014129639,
          -0.2744015157222748,
          0.6764484643936157,
          0.44102248549461365,
          -1.0124379396438599
        ],
        [
          0.33400842547416687,
          1.0091723203659058,
          1.051875352859497,
          1.1870160102844238,
          2.1422119140625,
          -0.025008616968989372,
          0.4120195508003235,
          0.4283939599990845,
          0.4440946578979492,
          0.7635546922683716,
          1.428703784942627,
          2.6233623027801514,
          0.22283761203289032,
          1.5917935371398926,
          1.219377040863037,
          0.25829192996025085,
          1.4464020729064941,
          -0.6853702664375305,
          1.829079031944275,
          -0.0955331102013588,
          1.4687449932098389,
          1.3554162979125977,
          2.0134310722351074,
          1.5806446075439453,
          -0.49537011981010437
        ],
        [
          1.6084208488464355,
          2.4617297649383545,
          0.8509333729743958,
          1.6506853103637695,
          1.5284663438796997,
          1.264976143836975,
          1.5724074840545654,
          0.5810720920562744,
          2.420801877975464,
          0.31949296593666077,
          0.5481122136116028,
          1.157227873802185,
          -0.5345534086227417,
          1.4905495643615723,
          0.6828204393386841,
          0.9110564589500427,
          1.3169734477996826,
          -0.9942807555198669,
          1.275564193725586,
          1.4462701082229614,
          0.33529549837112427,
          0.5754292011260986,
          1.7802826166152954,
          0.9672606587409973,
          1.2997705936431885
        ],
        [
          1.1190152168273926,
          0.8139213919639587,
          1.238702416419983,
          0.6128255724906921,
          1.5457671880722046,
          2.0209317207336426,
          1.4086517095565796,
          -0.3021152913570404,
          1.2178856134414673,
          -1.3656326532363892,
          1.19193434715271,
          0.6321830749511719,
          1.7508690357208252,
          0.15940923988819122,
          1.7834941148757935,
          0.26470980048179626,
          0.014086929149925709,
          1.2701672315597534,
          0.8831159472465515,
          1.0887742042541504,
          2.158400535583496,
          1.3887289762496948,
          -0.4189614951610565,
          1.475395917892456,
          -0.09639205783605576
        ],
        [
          -0.7687390446662903,
          1.8538753986358643,
          1.1385910511016846,
          -0.7100171446800232,
          1.1320024728775024,
          1.9815348386764526,
          1.3785789012908936,
          -0.23889800906181335,
          0.7529588937759399,
          0.9671425819396973,
          0.7172228693962097,
          0.5573442578315735,
          1.9337807893753052,
          0.47822192311286926,
          0.5811979174613953,
          0.8615205883979797,
          2.1681509017944336,
          2.4658970832824707,
          0.8687722682952881,
          0.07219842821359634,
          0.07826274633407593,
          1.4627902507781982,
          -0.11947770416736603,
          -1.0561538934707642,
          1.2496246099472046
        ],
        [
          -0.42115405201911926,
          0.18915855884552002,
          -0.9024657607078552,
          -0.7439093589782715,
          1.6935696601867676,
          0.4503782093524933,
          -0.5128725171089172,
          0.10507842898368835,
          1.1572086811065674,
          2.282198190689087,
          2.3466973304748535,
          -0.47452837228775024,
          1.1795294284820557,
          -0.3702337443828583,
          1.480393648147583,
          1.912651538848877,
          0.6732627749443054,
          -0.6953617334365845,
          0.4521418511867523,
          0.9466245770454407,
          1.6582388877868652,
          3.2947046756744385,
          1.183666706085205,
          0.7059341669082642,
          -0.772068202495575
        ]
      ],
      "out_features": 25,
      "has_bias": true,
      "type": "dense",
      "name": "trainable_6",
      "bias": [
        -1.6077666282653809,
        1.0616538524627686,
        -0.39264893531799316,
        -0.5337996482849121,
        0.9303076267242432,
        0.501075804233551,
        -0.04931790009140968,
        2.4128921031951904,
        1.0159664154052734,
        0.5538256168365479,
        0.006103466730564833,
        2.1020076274871826,
        1.171598196029663,
        -0.99212247133255,
        1.7273356914520264,
        -1.1518537998199463,
        -0.15105141699314117,
        1.2512712478637695,
        -0.7031573057174683,
        0.32554906606674194,
        1.9252135753631592,
        0.5125327110290527,
        0.029638517647981644,
        0.4098281264305115,
        1.1844851970672607
      ]
    },
    {
      "type": "tanh",
      "name": "activation_7"
    },
    {
      "in_features": 25,
      "weights": [
        [
          0.01631985604763031,
          0.10122852772474289
        ],
        [
          -0.0578899085521698,
          -0.4817020893096924
        ],
        [
          -0.0968819260597229,
          0.9921292066574097
        ],
        [
          -0.008934802375733852,
          0.13700418174266815
        ],
        [
          -0.17718712985515594,
          -0.004687493201345205
        ],
        [
          -0.4393518567085266,
          0.24528855085372925
        ],
        [
          0.32027602195739746,
          -0.3233628273010254
        ],
        [
          0.16900493204593658,
          0.14657269418239594
        ],
        [
          -0.3100857436656952,
          -0.0661049336194992
        ],
        [
          0.2551770508289337,
          -0.8160796165466309
        ],
        [
          0.27047207951545715,
          0.021072078496217728
        ],
        [
          -0.15558567643165588,
          -0.25968390703201294
        ],
        [
          -0.3275207281112671,
          1.521391749382019
        ],
        [
          -0.04827919229865074,
          -0.12697042524814606
        ],
        [
          -0.3194800019264221,
          0.9760168790817261
        ],
        [
          0.10620369762182236,
          -0.11535182595252991
        ],
        [
          -0.042778365314006805,
          0.4705374240875244
        ],
        [
          0.4568586051464081,
          -0.14333601295948029
        ],
        [
          -0.0740865170955658,
          -0.4853522777557373
        ],
        [
          0.038678914308547974,
          0.8698497414588928
        ],
        [
          -0.009756674990057945,
          -0.49505168199539185
        ],
        [
          -0.018382376059889793,
          -0.2951039671897888
        ],
        [
          -0.05795157328248024,
          0.2614527642726898
        ],
        [
          0.6961145401000977,
          -0.2495179921388626
        ],
        [
          0.1333070546388626,
          -0.08210152387619019
        ]
      ],
      "out_features": 2,
      "has_bias": true,
      "type": "dense",
      "name": "trainable_8",
      "bias": [
        1.2950290441513062,
        0.3037262260913849
      ]
    },
    {
      "type": "tanh",
      "name": "activation_9"
    },
    {
      "type": "mse",
      "name": "criterion_10"
    }
  ],
  "test_accuracy": 0.7307
}