{
  "test_accuracy": 0.908,
  "layers": [
    {
      "has_bias": true,
      "bias": [
        8.547012329101562,
        9.294058799743652,
        8.517809867858887,
        6.816537380218506,
        8.751038551330566,
        8.714138984680176,
        7.652535438537598,
        9.92335033416748,
        6.527834415435791,
        7.517022609710693,
        10.403672218322754,
        6.3973894119262695,
        8.100998878479004,
        8.40453815460205,
        6.329592704772949,
        8.700146675109863,
        8.33261775970459,
        7.320703506469727,
        8.826395988464355,
        7.304295539855957,
        8.941536903381348,
        9.35888957977295,
        7.404847145080566,
        11.718663215637207,
        9.230793952941895
      ],
      "in_features": 2,
      "type": "dense",
      "name": "trainable_0",
      "out_features": 25,
      "weights": [
        [
          -5.113524436950684,
          -7.410882472991943,
          -14.745084762573242,
          -3.354543924331665,
          -1.316704273223877,
          -5.518998622894287,
          -19.9866886138916,
          -0.41596075892448425,
          8.326366424560547,
          -1.6100261211395264,
          -20.140352249145508,
          1.1684772968292236,
          -1.534119725227356,
          -4.998583793640137,
          22.00043296813965,
          -2.667919635772705,
          -3.7390036582946777,
          -1.9346059560775757,
          -0.26550933718681335,
          28.751907348632812,
          1.8743877410888672,
          -4.185764312744141,
          -5.352928638458252,
          -14.644667625427246,
          -1.0313102006912231
        ],
        [
          -4.32682466506958,
          -4.787430763244629,
          8.526310920715332,
          -4.491630554199219,
          0.8633275032043457,
          -1.9420479536056519,
          33.78861999511719,
          -11.65938663482666,
          -10.853775024414062,
          -0.9052959680557251,
          -21.576013565063477,
          -5.979373931884766,
          8.028796195983887,
          3.3302457332611084,
          22.373180389404297,
          5.252099514007568,
          -8.178304672241211,
          -6.255720615386963,
          8.045870780944824,
          -18.366506576538086,
          2.9211602210998535,
          4.781219005584717,
          -4.936216354370117,
          0.3044053912162781,
          0.9449076056480408
        ]
      ]
    },
    {
      "name": "activation_1",
      "type": "tanh"
    },
    {
      "has_bias": true,
      "bias": [
        3.041048526763916,
        0.7987450957298279,
        2.2566981315612793,
        0.5743600726127625,
        2.2500429153442383,
        3.0884251594543457,
        2.66428279876709,
        1.2829358577728271,
        2.4547200202941895,
        0.2654556930065155,
        1.6340901851654053,
        3.8059329986572266,
        1.809187412261963,
        1.8980783224105835,
        2.830254077911377,
        2.180751323699951,
        2.2705764770507812,
        0.9462823867797852,
        3.1637940406799316,
        2.8785109519958496,
        3.008279323577881,
        1.8726621866226196,
        0.9016910195350647,
        0.9183581471443176,
        3.370349884033203
      ],
      "in_features": 25,
      "type": "dense",
      "name": "trainable_2",
      "out_features": 25,
      "weights": [
        [
          0.8639243245124817,
          -0.014678345061838627,
          -2.321094274520874,
          -0.7978276014328003,
          -0.700542151927948,
          -3.0192995071411133,
          0.26794707775115967,
          -1.0719504356384277,
          -0.5292978286743164,
          -1.5101537704467773,
          -2.303293466567993,
          1.984671950340271,
          -0.43129193782806396,
          -2.2130424976348877,
          -1.6560719013214111,
          1.76387619972229,
          3.300147533416748,
          -0.9682269096374512,
          2.7617413997650146,
          -0.9275842905044556,
          -1.5876044034957886,
          -1.255453109741211,
          -1.5870482921600342,
          0.14392565190792084,
          -0.270915687084198
        ],
        [
          -1.0104944705963135,
          -1.5719879865646362,
          1.6211636066436768,
          -0.693652331829071,
          -2.267202138900757,
          3.0489635467529297,
          -4.572597980499268,
          -0.6293526291847229,
          -1.5244513750076294,
          1.108602523803711,
          1.261855125427246,
          -0.612881064414978,
          2.4308176040649414,
          1.5380221605300903,
          -0.7037913203239441,
          -2.2834043502807617,
          0.7252539396286011,
          0.6483348608016968,
          -3.3664395809173584,
          -1.0378187894821167,
          1.9976500272750854,
          1.241392970085144,
          0.4887964129447937,
          2.7652924060821533,
          -1.4686963558197021
        ],
        [
          1.440535545349121,
          -0.05433133989572525,
          2.4606292247772217,
          2.2681894302368164,
          -0.8103268146514893,
          5.851223945617676,
          -4.006495952606201,
          -2.170264959335327,
          -1.3231642246246338,
          -0.08337776362895966,
          2.8660852909088135,
          -1.7001467943191528,
          3.5558247566223145,
          -2.4846787452697754,
          0.8478031158447266,
          -2.161668062210083,
          -5.948195934295654,
          0.2067134976387024,
          -3.892137289047241,
          -3.614001512527466,
          4.103889465332031,
          4.316836833953857,
          -0.7453843355178833,
          1.8538808822631836,
          -3.337857723236084
        ],
        [
          0.7915506958961487,
          -0.865026593208313,
          0.10139447450637817,
          3.183028221130371,
          -0.4449147880077362,
          0.43369367718696594,
          -0.29243752360343933,
          -2.1526362895965576,
          0.7630747556686401,
          0.43989622592926025,
          -1.8382408618927002,
          0.018395647406578064,
          -0.8687748312950134,
          -2.1745238304138184,
          0.5220795273780823,
          1.1907362937927246,
          0.8301551342010498,
          -2.746163845062256,
          0.48754310607910156,
          -0.28597766160964966,
          -3.372504234313965,
          0.5487335920333862,
          -0.6050680875778198,
          -2.4390149116516113,
          1.38664972782135
        ],
        [
          -0.3893083333969116,
          0.9587386846542358,
          -0.6577543020248413,
          0.5051750540733337,
          -0.06923628598451614,
          -4.711503028869629,
          0.5121947526931763,
          1.1595592498779297,
          2.342294931411743,
          -2.118431568145752,
          -2.7339282035827637,
          1.5884168148040771,
          -0.4689748287200928,
          -0.56653892993927,
          -1.4222772121429443,
          1.2193602323532104,
          2.799248218536377,
          -1.152042269706726,
          2.5695974826812744,
          2.792246103286743,
          -6.210294723510742,
          -2.7496697902679443,
          -0.24265961349010468,
          -2.799304485321045,
          -0.502942681312561
        ],
        [
          -1.6656792163848877,
          -0.5276256799697876,
          -1.8697861433029175,
          -0.1950300931930542,
          -0.6488017439842224,
          -2.3173575401306152,
          -0.3172803521156311,
          -0.20642636716365814,
          2.022963047027588,
          -1.805652141571045,
          -2.005204677581787,
          0.26800090074539185,
          -2.2009620666503906,
          -0.2619641423225403,
          0.4542028307914734,
          -0.9642239212989807,
          0.5833649635314941,
          -0.05507860705256462,
          2.4516987800598145,
          1.4565150737762451,
          -2.56951642036438,
          -0.268463134765625,
          -0.1971025913953781,
          -1.0950685739517212,
          0.6302984952926636
        ],
        [
          1.0861215591430664,
          0.39145421981811523,
          4.537104606628418,
          5.211360454559326,
          -1.4596577882766724,
          14.885615348815918,
          -7.665709018707275,
          -4.780359745025635,
          -7.028183460235596,
          7.79103422164917,
          5.094717979431152,
          1.6893820762634277,
          9.501526832580566,
          1.820000410079956,
          1.4165520668029785,
          -3.1940882205963135,
          -8.441513061523438,
          -1.2370574474334717,
          -10.628168106079102,
          -3.49843692779541,
          11.214741706848145,
          8.262460708618164,
          0.9446825385093689,
          5.69890832901001,
          -4.436392784118652
        ],
        [
          0.37507691979408264,
          2.0651350021362305,
          4.2196807861328125,
          0.40750160813331604,
          -0.8988495469093323,
          4.2975053787231445,
          -1.858919620513916,
          -2.965010404586792,
          -4.8665666580200195,
          2.3494784832000732,
          2.559777021408081,
          0.22972755134105682,
          2.529369354248047,
          2.096153736114502,
          -0.7418416738510132,
          -3.96624493598938,
          -5.215783596038818,
          0.5838135480880737,
          -4.2049736976623535,
          -2.677953004837036,
          8.060385704040527,
          1.1176083087921143,
          2.4308815002441406,
          3.625664234161377,
          -0.29760074615478516
        ],
        [
          0.8511852622032166,
          -1.9699547290802002,
          -1.179360270500183,
          2.095635175704956,
          -2.7484426498413086,
          1.3201266527175903,
          -0.4058952331542969,
          -2.1142184734344482,
          -1.3520405292510986,
          4.640847682952881,
          0.8632396459579468,
          -1.4059383869171143,
          -0.8535019159317017,
          -2.9024977684020996,
          0.41552650928497314,
          1.4796655178070068,
          -7.342117786407471,
          -0.3539176285266876,
          -3.7356245517730713,
          -1.423327088356018,
          2.940516471862793,
          1.4504857063293457,
          -1.1070518493652344,
          0.9461316466331482,
          0.3711791932582855
        ],
        [
          0.944596529006958,
          2.121968984603882,
          -2.121540069580078,
          0.09810948371887207,
          0.5383018851280212,
          -3.7383437156677246,
          0.721206545829773,
          -0.8926857113838196,
          1.4683363437652588,
          -1.865766167640686,
          0.6419148445129395,
          0.19495795667171478,
          -1.2842540740966797,
          0.2780649662017822,
          0.4264076054096222,
          1.9499455690383911,
          1.9916702508926392,
          1.4653840065002441,
          1.6625407934188843,
          0.7010771036148071,
          -1.3801321983337402,
          -1.5008045434951782,
          -0.0977364033460617,
          -1.7249956130981445,
          1.1907659769058228
        ],
        [
          1.0949115753173828,
          0.46764594316482544,
          -3.042994737625122,
          -6.968911647796631,
          0.8208413124084473,
          -17.437259674072266,
          9.307427406311035,
          1.2683542966842651,
          5.452581882476807,
          -6.444527626037598,
          -8.484048843383789,
          -3.067470073699951,
          -6.4770894050598145,
          -0.7761493921279907,
          -1.0618153810501099,
          5.727132797241211,
          8.323391914367676,
          -2.378821849822998,
          9.179450035095215,
          5.03634786605835,
          -12.074075698852539,
          -8.262524604797363,
          -0.9158744215965271,
          -1.516084909439087,
          4.386194229125977
        ],
        [
          -0.4301952123641968,
          0.8647539019584656,
          -2.715885877609253,
          2.286391496658325,
          1.908799409866333,
          -1.217416524887085,
          0.9011862277984619,
          1.9836623668670654,
          2.3250370025634766,
          0.7889416217803955,
          0.9366054534912109,
          -1.7200859785079956,
          -3.9680721759796143,
          -0.5608022809028625,
          0.7622869610786438,
          0.4616003632545471,
          2.3650755882263184,
          4.011401176452637,
          2.009232997894287,
          2.3685598373413086,
          -0.19909177720546722,
          -1.3669074773788452,
          -1.745292067527771,
          -0.3673657476902008,
          1.3606538772583008
        ],
        [
          -1.7179161310195923,
          0.03925926610827446,
          -0.5920987129211426,
          -3.1546108722686768,
          0.9613673686981201,
          -2.8147435188293457,
          2.260122060775757,
          1.3731663227081299,
          2.991253137588501,
          -2.662203788757324,
          -1.2455992698669434,
          1.2533702850341797,
          -1.0301471948623657,
          0.6107233762741089,
          -0.694952130317688,
          -0.7025629878044128,
          2.9309029579162598,
          -1.1421562433242798,
          2.4898035526275635,
          2.92525315284729,
          -3.6338882446289062,
          -2.4636857509613037,
          0.550667941570282,
          -0.22249840199947357,
          0.529833972454071
        ],
        [
          -1.5164265632629395,
          0.9036540389060974,
          -1.7484869956970215,
          -1.434386134147644,
          0.9144724607467651,
          -1.0872911214828491,
          2.2102949619293213,
          0.7556683421134949,
          0.8905234336853027,
          -4.138411998748779,
          -1.0115132331848145,
          0.12950019538402557,
          -1.8041306734085083,
          2.0809884071350098,
          3.1290197372436523,
          0.7740316987037659,
          2.044682264328003,
          0.42149099707603455,
          1.821581244468689,
          2.0558598041534424,
          -3.0346717834472656,
          -2.8759734630584717,
          1.236899971961975,
          -2.292515993118286,
          0.38478684425354004
        ],
        [
          -2.6590800285339355,
          -2.041508197784424,
          -4.226861476898193,
          -1.603013038635254,
          1.7114225625991821,
          -4.458361625671387,
          3.554435968399048,
          0.9894294738769531,
          4.461995601654053,
          -2.315385341644287,
          1.1368601322174072,
          -1.7804030179977417,
          -2.1578598022460938,
          -1.8488051891326904,
          0.7321804761886597,
          4.857980728149414,
          7.284727096557617,
          2.3169102668762207,
          6.793015956878662,
          3.8691070079803467,
          -3.5129191875457764,
          -0.706552267074585,
          2.364854574203491,
          -2.381946086883545,
          2.3863775730133057
        ],
        [
          -0.43727827072143555,
          1.0476754903793335,
          -0.9680356979370117,
          -2.448198080062866,
          0.5923261046409607,
          -3.2468481063842773,
          2.380819797515869,
          -0.412564218044281,
          1.7784786224365234,
          -1.5370943546295166,
          -0.21712824702262878,
          0.9577304124832153,
          -1.6549254655838013,
          0.4448598027229309,
          -0.48102983832359314,
          1.1030665636062622,
          3.3762423992156982,
          0.3484552204608917,
          0.48258307576179504,
          2.912867307662964,
          -3.656416416168213,
          -1.0757648944854736,
          -0.3254903256893158,
          -2.0151448249816895,
          1.2676172256469727
        ],
        [
          0.4445837736129761,
          -1.423547387123108,
          1.0807832479476929,
          1.7304011583328247,
          2.068791151046753,
          3.109586000442505,
          -0.920509934425354,
          0.6235321164131165,
          -1.6295355558395386,
          1.604064702987671,
          4.6492838859558105,
          0.7877368927001953,
          2.1622989177703857,
          2.198596239089966,
          0.32515424489974976,
          -3.7249720096588135,
          -2.2445716857910156,
          0.01169803086668253,
          -1.402811050415039,
          -1.5905261039733887,
          3.5523760318756104,
          -0.17940852046012878,
          0.1698538362979889,
          1.5623624324798584,
          -3.134925127029419
        ],
        [
          0.7451852560043335,
          1.5301003456115723,
          -2.0952465534210205,
          0.1492353230714798,
          1.547175645828247,
          -0.1197558268904686,
          1.2253308296203613,
          2.758948564529419,
          2.026294708251953,
          0.8379635214805603,
          0.6113541126251221,
          -1.1705946922302246,
          -1.8024451732635498,
          2.375471830368042,
          -0.47971904277801514,
          1.1911473274230957,
          3.477663516998291,
          2.8714394569396973,
          0.046617940068244934,
          1.796818733215332,
          2.28547739982605,
          0.29902347922325134,
          -0.21504934132099152,
          0.5689366459846497,
          1.5080326795578003
        ],
        [
          -2.1114816665649414,
          0.3511723577976227,
          -1.386964201927185,
          -1.9270784854888916,
          -0.46898186206817627,
          -2.488920211791992,
          1.5957928895950317,
          2.501547336578369,
          2.1791446208953857,
          -0.9873887300491333,
          -1.2743009328842163,
          -2.367353916168213,
          -0.5879682898521423,
          0.11708081513643265,
          -1.089118242263794,
          1.10615074634552,
          4.263389587402344,
          -1.7695540189743042,
          2.154348134994507,
          1.1417388916015625,
          -1.3816903829574585,
          -3.1674811840057373,
          1.1045759916305542,
          -1.5544188022613525,
          0.8779982924461365
        ],
        [
          0.46457141637802124,
          -0.01737389527261257,
          4.217103481292725,
          6.351451873779297,
          -1.7908151149749756,
          12.05925178527832,
          -10.943330764770508,
          -2.006057024002075,
          -7.666906356811523,
          6.343595027923584,
          4.468165874481201,
          1.1797542572021484,
          4.989932060241699,
          0.836940348148346,
          1.4280614852905273,
          -5.829264163970947,
          -5.705203056335449,
          -1.427200436592102,
          -9.371609687805176,
          -3.395510673522949,
          11.698481559753418,
          9.002093315124512,
          0.17814549803733826,
          5.1852946281433105,
          -4.158532619476318
        ],
        [
          -0.18752922117710114,
          0.9765296578407288,
          -1.5452159643173218,
          -2.7750132083892822,
          0.8119682669639587,
          -4.117956161499023,
          1.5961350202560425,
          1.5678495168685913,
          1.0496017932891846,
          -4.004642486572266,
          -2.3446850776672363,
          0.5899264216423035,
          -1.4803619384765625,
          -1.7463035583496094,
          -1.9341154098510742,
          1.312148928642273,
          3.744274139404297,
          0.03119959682226181,
          3.0352675914764404,
          0.36682963371276855,
          -4.810423851013184,
          -2.831993818283081,
          -1.5664817094802856,
          -1.309340238571167,
          0.7727832198143005
        ],
        [
          0.9347372055053711,
          -0.14796222746372223,
          -1.883277177810669,
          -2.6943013668060303,
          0.4679903984069824,
          -1.9565420150756836,
          -0.19880333542823792,
          1.0818921327590942,
          1.4803519248962402,
          -3.287323236465454,
          -3.508979320526123,
          -0.4130747616291046,
          -1.1883586645126343,
          1.2724970579147339,
          1.4665372371673584,
          2.1300971508026123,
          3.2553322315216064,
          -0.2909233868122101,
          2.8470675945281982,
          0.7078649997711182,
          -2.0881500244140625,
          -2.06101393699646,
          0.26485225558280945,
          -1.9251484870910645,
          -1.8603752851486206
        ],
        [
          0.49893712997436523,
          0.7350639700889587,
          -0.4087500274181366,
          -0.4929932951927185,
          0.639573335647583,
          1.401343584060669,
          -1.293670654296875,
          0.9098485112190247,
          -0.2692362070083618,
          -0.019722914323210716,
          0.7814279198646545,
          -0.5614377856254578,
          -0.14205767214298248,
          1.4090288877487183,
          -0.761442244052887,
          -2.576141357421875,
          -1.3507572412490845,
          0.2080397605895996,
          -2.5432889461517334,
          -1.058091640472412,
          1.3937972784042358,
          3.0122554302215576,
          -0.16238172352313995,
          -0.6940281391143799,
          -1.4459418058395386
        ],
        [
          2.4366378784179688,
          0.19300569593906403,
          5.909144878387451,
          1.9279594421386719,
          -0.16387692093849182,
          5.077981472015381,
          -0.3339702785015106,
          -2.7026286125183105,
          -5.289207458496094,
          1.9276190996170044,
          3.3289833068847656,
          0.28723615407943726,
          5.89376974105835,
          2.343418836593628,
          0.8062337636947632,
          -4.392540454864502,
          -7.703356742858887,
          -2.084937810897827,
          -6.12165641784668,
          -4.011929035186768,
          3.812007427215576,
          4.650914192199707,
          -0.1095615103840828,
          2.732287883758545,
          0.2854866683483124
        ],
        [
          -0.3093875050544739,
          -0.7890347838401794,
          0.0018943478353321552,
          -0.19679555296897888,
          -2.88283634185791,
          -2.3648452758789062,
          -0.3435876667499542,
          0.6299260854721069,
          -0.8708198666572571,
          -1.4441721439361572,
          -3.784677028656006,
          -0.12532539665699005,
          -1.7551047801971436,
          -1.8042659759521484,
          -1.2735350131988525,
          1.4690333604812622,
          3.892136573791504,
          -0.6612911820411682,
          1.8240455389022827,
          -0.22677233815193176,
          -4.70662784576416,
          -1.2187448740005493,
          -0.3086934983730316,
          -1.634169340133667,
          1.084453821182251
        ]
      ]
    },
    {
      "name": "activation_3",
      "type": "tanh"
    },
    {
      "has_bias": true,
      "bias": [
        -0.17092759907245636,
        -1.0888553857803345,
        -2.3490607738494873,
        -0.2231452465057373,
        2.235758066177368,
        0.7544408440589905,
        1.9318311214447021,
        -0.558434784412384,
        0.6208917498588562,
        -0.8442376255989075,
        0.8430480360984802,
        -0.22467681765556335,
        -2.186826705932617,
        -0.6882787346839905,
        0.36778974533081055,
        0.5540444254875183,
        1.0823867321014404,
        -0.6571130156517029,
        -0.2584615647792816,
        -0.859853208065033,
        0.3823750913143158,
        -1.4278247356414795,
        -0.38539230823516846,
        -1.8665812015533447,
        1.5336484909057617
      ],
      "in_features": 25,
      "type": "dense",
      "name": "trainable_4",
      "out_features": 25,
      "weights": [
        [
          -0.6731101274490356,
          1.6752219200134277,
          -0.5351676344871521,
          0.328898161649704,
          0.46581974625587463,
          -0.0593906007707119,
          2.3245227336883545,
          -0.22623442113399506,
          2.1048264503479004,
          -1.3251948356628418,
          1.9011014699935913,
          1.193196415901184,
          -0.1157628670334816,
          -0.2737140953540802,
          -0.24342165887355804,
          0.9761285781860352,
          0.48241400718688965,
          0.8869946002960205,
          0.7551426887512207,
          2.0499556064605713,
          -1.4216434955596924,
          -1.1705172061920166,
          -0.22648024559020996,
          -0.9304649233818054,
          -1.4119160175323486
        ],
        [
          0.7915080189704895,
          0.9036047458648682,
          -0.16084681451320648,
          0.3227067291736603,
          2.2704720497131348,
          1.153137445449829,
          0.2800714075565338,
          1.908003330230713,
          1.157126784324646,
          -0.8000853061676025,
          0.7028648257255554,
          -1.715739369392395,
          0.21251854300498962,
          -0.5657635927200317,
          -0.12407588213682175,
          3.1397154331207275,
          0.18228228390216827,
          0.5819767713546753,
          1.4154614210128784,
          -0.11070175468921661,
          -0.37856388092041016,
          -0.7522943019866943,
          -0.5743028521537781,
          -1.7827091217041016,
          -2.0687406063079834
        ],
        [
          -0.26839742064476013,
          1.3249045610427856,
          -0.859673798084259,
          -0.10382287949323654,
          -0.5876865386962891,
          -1.7359117269515991,
          1.5706470012664795,
          0.9357994794845581,
          1.2723931074142456,
          -1.0219465494155884,
          -0.5644825100898743,
          -0.8312711715698242,
          -0.384626567363739,
          0.3518160879611969,
          1.1397132873535156,
          -0.03164210170507431,
          -2.4519357681274414,
          -0.5739384293556213,
          3.010117769241333,
          1.605301022529602,
          -0.7456632852554321,
          0.03253890573978424,
          1.7781002521514893,
          -2.13962459564209,
          -0.7036963105201721
        ],
        [
          -1.205417275428772,
          1.116794228553772,
          0.5309743285179138,
          -0.5352382659912109,
          -2.287297487258911,
          -2.507669687271118,
          0.29631146788597107,
          -0.8535420894622803,
          1.6015392541885376,
          -1.9609129428863525,
          0.5805920362472534,
          0.1269194483757019,
          -0.035146746784448624,
          -1.2924660444259644,
          1.3301929235458374,
          -1.2207802534103394,
          -0.37256720662117004,
          -1.997952938079834,
          0.3424054682254791,
          0.9913179874420166,
          0.37470975518226624,
          0.8790529370307922,
          0.8546791672706604,
          0.23923973739147186,
          0.0931948572397232
        ],
        [
          1.6838468313217163,
          1.0729795694351196,
          1.1448789834976196,
          -0.20707249641418457,
          1.1795960664749146,
          -0.4517432153224945,
          -1.2237231731414795,
          -0.786522626876831,
          0.7413886785507202,
          -0.47440019249916077,
          1.2110761404037476,
          0.07428666204214096,
          0.6219576597213745,
          -1.4302234649658203,
          1.5344014167785645,
          -0.8692081570625305,
          0.846909761428833,
          0.9642330408096313,
          -0.3100607693195343,
          -1.3199262619018555,
          0.12827301025390625,
          0.08488184213638306,
          1.8446197509765625,
          -0.242306187748909,
          1.5362051725387573
        ],
        [
          -0.17077280580997467,
          0.15213555097579956,
          1.0873173475265503,
          -1.7198528051376343,
          -2.577683925628662,
          -1.4755921363830566,
          -0.9288049340248108,
          -2.362231969833374,
          1.65694260597229,
          -1.611792802810669,
          -0.290448397397995,
          -0.4236671030521393,
          -0.12962020933628082,
          0.5506499409675598,
          1.5308011770248413,
          1.332280158996582,
          -2.1615116596221924,
          -1.6105680465698242,
          4.338654518127441,
          2.395254611968994,
          0.2836044430732727,
          -0.6623661518096924,
          1.530924916267395,
          -1.8507602214813232,
          -3.087440252304077
        ],
        [
          0.027225419878959656,
          -0.6827694773674011,
          -1.1930588483810425,
          -1.0854601860046387,
          1.9371705055236816,
          2.707763433456421,
          1.0880459547042847,
          0.9685255885124207,
          -1.029391884803772,
          2.06345534324646,
          1.4973818063735962,
          0.3893570005893707,
          -0.06345806270837784,
          2.6620824337005615,
          -0.8531227111816406,
          0.7066329121589661,
          1.8624824285507202,
          0.3876877427101135,
          -0.9692572951316833,
          -1.5466322898864746,
          0.6392697095870972,
          1.1573295593261719,
          0.7366203665733337,
          -1.0180327892303467,
          1.5114543437957764
        ],
        [
          0.2721536159515381,
          1.2567912340164185,
          0.9899567365646362,
          -0.33847951889038086,
          1.3799972534179688,
          2.062424898147583,
          -0.9214677214622498,
          -0.09471528977155685,
          1.3138930797576904,
          0.10311847180128098,
          -0.5492576360702515,
          -0.5985158681869507,
          0.36147257685661316,
          -0.6482113599777222,
          0.6017261743545532,
          0.37947943806648254,
          1.1664695739746094,
          3.1210970878601074,
          -0.9104828238487244,
          -1.2485933303833008,
          -2.3829398155212402,
          1.4033888578414917,
          0.04514719545841217,
          -0.5324530601501465,
          0.9547335505485535
        ],
        [
          1.2076036930084229,
          -1.7688075304031372,
          0.20289640128612518,
          0.11384305357933044,
          1.1586225032806396,
          0.7170429825782776,
          -0.41940850019454956,
          1.6834440231323242,
          -0.7582009434700012,
          -0.34010636806488037,
          0.3401542901992798,
          0.39422374963760376,
          0.7600325345993042,
          1.590921401977539,
          -2.238943576812744,
          -1.2828198671340942,
          0.14228644967079163,
          0.2894255816936493,
          -0.5441954135894775,
          -0.8629269003868103,
          -0.6734373569488525,
          0.7337931394577026,
          -0.15463249385356903,
          -0.27817922830581665,
          2.190354347229004
        ],
        [
          -0.27576813101768494,
          1.0957789421081543,
          2.8231093883514404,
          -0.1670195460319519,
          -1.9655015468597412,
          -0.29911699891090393,
          -0.07890025526285172,
          -0.6994637846946716,
          1.8071727752685547,
          -1.5828711986541748,
          -1.4135698080062866,
          -2.1944072246551514,
          1.1610466241836548,
          -1.0196373462677002,
          1.6741676330566406,
          -0.19629070162773132,
          -1.4253172874450684,
          -0.38098397850990295,
          0.08590701222419739,
          2.7459969520568848,
          0.8078972697257996,
          0.07204561680555344,
          0.6282677054405212,
          0.669366717338562,
          -1.0104575157165527
        ],
        [
          -0.46969032287597656,
          -1.0949679613113403,
          1.0137805938720703,
          1.247782588005066,
          -0.04307094216346741,
          -1.5936648845672607,
          1.153947353363037,
          -1.0446269512176514,
          1.0111366510391235,
          0.15873974561691284,
          -0.5194226503372192,
          1.3362996578216553,
          -0.9225804209709167,
          -0.5744831562042236,
          1.1157987117767334,
          -0.18604642152786255,
          -1.5748376846313477,
          -0.4761161506175995,
          0.5725377798080444,
          0.044726159423589706,
          0.06359641999006271,
          -2.0789895057678223,
          0.974780797958374,
          -0.5377463102340698,
          0.02240815758705139
        ],
        [
          -0.1269359439611435,
          1.6306015253067017,
          -0.391471266746521,
          -0.5760337114334106,
          -0.049220457673072815,
          0.9334743022918701,
          -0.028708577156066895,
          0.7560913562774658,
          0.9600978493690491,
          -0.5923267602920532,
          2.2836246490478516,
          -3.097846031188965,
          -0.9860243797302246,
          -0.25041770935058594,
          -2.154628276824951,
          -1.4179075956344604,
          -1.0011329650878906,
          -0.1442953497171402,
          1.7317824363708496,
          1.5959675312042236,
          -0.8257119059562683,
          1.0855011940002441,
          -1.185241460800171,
          0.5492932200431824,
          -0.5179475545883179
        ],
        [
          -0.6803863644599915,
          1.5333373546600342,
          1.5466235876083374,
          0.5471619963645935,
          -1.634019136428833,
          -0.45634034276008606,
          -2.2970476150512695,
          -1.2725764513015747,
          -0.02367250621318817,
          -2.271855354309082,
          0.005835541058331728,
          1.29829740524292,
          0.0177568681538105,
          0.09259605407714844,
          -0.567949116230011,
          -0.9166113138198853,
          -0.818435788154602,
          -0.4955383837223053,
          1.9837690591812134,
          1.5770858526229858,
          -0.9348755478858948,
          -0.04789789393544197,
          1.7777119874954224,
          -0.3123539686203003,
          -2.5358994007110596
        ],
        [
          -0.4158006012439728,
          -0.9793957471847534,
          0.6967400908470154,
          1.721531867980957,
          0.4469992518424988,
          0.9772277474403381,
          -1.7950341701507568,
          0.6546831130981445,
          0.21975263953208923,
          0.07458972930908203,
          0.7289537787437439,
          -1.591081976890564,
          -0.4304288923740387,
          -1.2973796129226685,
          1.5916352272033691,
          0.5853778719902039,
          -1.1328097581863403,
          1.5997421741485596,
          0.11050163209438324,
          -0.30628660321235657,
          -0.3993445932865143,
          -0.16515561938285828,
          0.9222495555877686,
          -1.2602481842041016,
          -2.0436112880706787
        ],
        [
          2.1051533222198486,
          0.4575313925743103,
          1.2839008569717407,
          -1.775620698928833,
          -1.6258399486541748,
          0.7144918441772461,
          -1.4326112270355225,
          -0.1765446811914444,
          0.9004361033439636,
          0.23553937673568726,
          0.9014207720756531,
          0.014861813746392727,
          1.2319201231002808,
          -0.9691982865333557,
          1.107442855834961,
          -0.5447405576705933,
          -0.485245019197464,
          -0.8952682614326477,
          -0.10093453526496887,
          0.14331573247909546,
          1.065479040145874,
          2.6958067417144775,
          -1.222032070159912,
          -1.0576692819595337,
          -0.4853248596191406
        ],
        [
          0.5381186604499817,
          1.1477603912353516,
          -0.4192065894603729,
          0.7779369354248047,
          1.710288643836975,
          0.33399301767349243,
          -1.11721670627594,
          -0.849494993686676,
          0.8430784344673157,
          0.6302288770675659,
          0.04830591753125191,
          1.2249209880828857,
          0.9112257957458496,
          -0.2769850492477417,
          -2.4649922847747803,
          0.4817409813404083,
          0.39491063356399536,
          0.38261327147483826,
          -1.3247034549713135,
          -1.455299973487854,
          0.4445507824420929,
          -0.1213078424334526,
          0.34969112277030945,
          -0.36449843645095825,
          0.3887585997581482
        ],
        [
          4.118634223937988,
          0.6505919694900513,
          -0.9125930666923523,
          0.3651347756385803,
          1.157763957977295,
          2.335561752319336,
          -3.8090016841888428,
          0.26418423652648926,
          -1.4338289499282837,
          0.8339844346046448,
          1.3236017227172852,
          -2.1199898719787598,
          -0.5281442999839783,
          -0.23674651980400085,
          -2.5202629566192627,
          0.4469301104545593,
          -0.30769819021224976,
          0.768626868724823,
          -0.5006714463233948,
          -1.389195203781128,
          -1.6802983283996582,
          2.1444270610809326,
          -3.271618127822876,
          -0.4669383764266968,
          -0.3579801023006439
        ],
        [
          1.273870587348938,
          -0.6838588714599609,
          -0.21964839100837708,
          0.020488420501351357,
          1.5379997491836548,
          -0.08177702873945236,
          0.48286744952201843,
          -0.3426579236984253,
          1.0742555856704712,
          0.4811369478702545,
          1.1824636459350586,
          -0.028231825679540634,
          1.0718406438827515,
          1.3844667673110962,
          -1.7040233612060547,
          2.0233585834503174,
          0.2124757617712021,
          -2.135756731033325,
          1.6717414855957031,
          -0.3670901358127594,
          1.0942296981811523,
          -0.752389669418335,
          0.8490844964981079,
          0.37881895899772644,
          -0.844264030456543
        ],
        [
          1.8696001768112183,
          0.43106260895729065,
          -0.41770994663238525,
          -0.7684197425842285,
          1.5983238220214844,
          1.2125695943832397,
          0.619356632232666,
          0.6457321643829346,
          -1.9372450113296509,
          0.946392297744751,
          2.4438247680664062,
          0.6371360421180725,
          0.09282223880290985,
          0.9563179016113281,
          -0.3966710865497589,
          0.14992211759090424,
          1.9749035835266113,
          2.3297741413116455,
          -2.4541027545928955,
          -0.9205096960067749,
          -0.8587749600410461,
          0.21498368680477142,
          0.6141529083251953,
          1.332414150238037,
          0.5822139978408813
        ],
        [
          1.9890778064727783,
          -1.2355672121047974,
          -1.7721766233444214,
          -0.1197013258934021,
          1.8094735145568848,
          2.0959415435791016,
          -2.008054256439209,
          1.9838109016418457,
          -0.03546403348445892,
          -0.8401258587837219,
          0.9828791618347168,
          -1.0372328758239746,
          0.3109375834465027,
          -0.041282135993242264,
          -0.6163824200630188,
          -0.44580820202827454,
          -1.2899487018585205,
          0.14602398872375488,
          -2.145618438720703,
          -1.1471023559570312,
          -0.3962806761264801,
          1.2553482055664062,
          0.6542569398880005,
          -0.6855404376983643,
          0.4099861979484558
        ],
        [
          -2.170830488204956,
          0.446463406085968,
          1.1773520708084106,
          -0.7529408931732178,
          -0.7023318409919739,
          -0.7447425723075867,
          -0.43140870332717896,
          -1.1275286674499512,
          0.7353244423866272,
          -1.2879531383514404,
          -0.5724931359291077,
          -1.1277824640274048,
          1.0834535360336304,
          1.7243187427520752,
          2.195673942565918,
          -1.988478660583496,
          -0.4223666489124298,
          -0.5916215181350708,
          2.0179123878479004,
          -1.1324670314788818,
          0.2695825695991516,
          -0.592808723449707,
          2.319345235824585,
          -2.852635145187378,
          -3.9099860191345215
        ],
        [
          -0.6373974084854126,
          -0.6009515523910522,
          0.43701207637786865,
          1.175734519958496,
          -2.1714959144592285,
          -0.3285543620586395,
          1.1165878772735596,
          -2.269225597381592,
          1.2557458877563477,
          -0.7102053165435791,
          -0.22852946817874908,
          1.7868027687072754,
          0.6256886124610901,
          0.4599471092224121,
          1.8524028062820435,
          -0.7742189764976501,
          -1.1410435438156128,
          -1.5601089000701904,
          2.4140408039093018,
          0.7076044082641602,
          -0.42236295342445374,
          -0.31400737166404724,
          0.5664663314819336,
          0.6843492984771729,
          -2.950721263885498
        ],
        [
          0.7151575088500977,
          1.4602105617523193,
          1.8566185235977173,
          0.11877915263175964,
          0.8478871583938599,
          2.5563902854919434,
          -0.5030849575996399,
          -1.052851915359497,
          1.1444413661956787,
          -0.49309834837913513,
          0.238088920712471,
          0.6101463437080383,
          0.13083793222904205,
          -1.9295477867126465,
          1.1037447452545166,
          -1.3563114404678345,
          -0.25798889994621277,
          -1.5625052452087402,
          -0.7267987132072449,
          -0.48809367418289185,
          -0.11849718540906906,
          0.3172414302825928,
          0.9285459518432617,
          0.2609265446662903,
          0.4180055260658264
        ],
        [
          -0.7504447102546692,
          0.8381097912788391,
          1.161693811416626,
          -0.6272611618041992,
          -0.3438918888568878,
          -2.913828134536743,
          1.005146861076355,
          -0.8376042246818542,
          2.4887008666992188,
          0.11198486387729645,
          -0.7893763780593872,
          -0.6379914283752441,
          -0.49673518538475037,
          -1.4869154691696167,
          1.2352404594421387,
          0.9022710919380188,
          0.4903819262981415,
          -1.372239589691162,
          1.6717194318771362,
          0.10691868513822556,
          -0.49327635765075684,
          -0.22991903126239777,
          -1.2267041206359863,
          -1.2371478080749512,
          -0.40689578652381897
        ],
        [
          0.017518911510705948,
          0.36352622509002686,
          -0.3320178687572479,
          -0.661824107170105,
          0.8698722124099731,
          -0.12293092161417007,
          0.032238204032182693,
          1.9443693161010742,
          -0.6871206164360046,
          -1.5311001539230347,
          -0.6766029596328735,
          -0.6733102798461914,
          1.0485347509384155,
          2.375812530517578,
          -1.2747613191604614,
          1.1376326084136963,
          1.7115819454193115,
          2.127322196960449,
          -0.5848799347877502,
          -0.493744432926178,
          0.11774921417236328,
          0.553456723690033,
          0.7295951843261719,
          -0.1434229612350464,
          -0.23555350303649902
        ]
      ]
    },
    {
      "name": "activation_5",
      "type": "tanh"
    },
    {
      "has_bias": true,
      "bias": [
        -0.9142507910728455,
        1.095034122467041,
        1.6895947456359863,
        2.4220640659332275,
        1.995248794555664,
        0.6037231087684631,
        2.4337046146392822,
        1.1314845085144043,
        3.1626193523406982,
        2.496940851211548,
        0.6321449875831604,
        3.4175002574920654,
        1.885180950164795,
        2.8365728855133057,
        1.3420121669769287,
        2.1859657764434814,
        1.1915171146392822,
        2.194221258163452,
        1.854806661605835,
        0.730263888835907,
        2.899949312210083,
        0.5284489989280701,
        1.9989593029022217,
        2.1507246494293213,
        2.1463658809661865
      ],
      "in_features": 25,
      "type": "dense",
      "name": "trainable_6",
      "out_features": 25,
      "weights": [
        [
          1.8297151327133179,
          1.6583112478256226,
          1.3196650743484497,
          0.5821513533592224,
          -0.2894632816314697,
          0.30487892031669617,
          2.886699914932251,
          2.231266736984253,
          -1.326541543006897,
          0.1455685943365097,
          0.7830260992050171,
          0.32161879539489746,
          2.278331995010376,
          0.279202401638031,
          2.325078248977661,
          0.8256774544715881,
          0.6120482683181763,
          0.2851911783218384,
          0.26000773906707764,
          1.0724622011184692,
          0.49891209602355957,
          3.4353246688842773,
          0.7652813792228699,
          1.0794298648834229,
          1.7005271911621094
        ],
        [
          2.3978641033172607,
          -0.18098381161689758,
          -0.7643396854400635,
          2.5635945796966553,
          1.3965049982070923,
          -0.24498127400875092,
          1.3738749027252197,
          2.1038894653320312,
          1.2907912731170654,
          -0.21061843633651733,
          1.816304326057434,
          -0.08472825586795807,
          1.657889485359192,
          0.5021151900291443,
          0.5314536094665527,
          1.553614616394043,
          0.4390573799610138,
          1.4515892267227173,
          0.769172728061676,
          1.113547682762146,
          1.0046361684799194,
          -0.012563775293529034,
          -0.1823735386133194,
          0.9591995477676392,
          -0.04135475307703018
        ],
        [
          0.2979040741920471,
          1.1003998517990112,
          1.2678471803665161,
          0.4732819199562073,
          1.8625221252441406,
          -1.1472537517547607,
          0.7863704562187195,
          2.270075559616089,
          1.3378794193267822,
          0.019357720389962196,
          0.28073418140411377,
          1.4700831174850464,
          0.019630685448646545,
          -0.022653043270111084,
          0.6544603109359741,
          0.8605416417121887,
          1.2272696495056152,
          0.22478215396404266,
          0.8106195330619812,
          2.796954870223999,
          -2.3809642791748047,
          -0.32012057304382324,
          3.0056166648864746,
          -0.38117730617523193,
          2.6215548515319824
        ],
        [
          1.6094404458999634,
          2.0143582820892334,
          0.5648367404937744,
          0.9958081841468811,
          0.5748924016952515,
          0.2802465558052063,
          1.0160906314849854,
          1.409276008605957,
          1.8127264976501465,
          0.27060914039611816,
          0.474439412355423,
          1.6567416191101074,
          1.051770806312561,
          0.5162811279296875,
          0.9609048366546631,
          0.7385666370391846,
          0.3903201222419739,
          0.4757506847381592,
          1.2979189157485962,
          0.5075234770774841,
          -1.5426968336105347,
          1.4870957136154175,
          0.9460486173629761,
          0.27050545811653137,
          1.108691692352295
        ],
        [
          1.9426116943359375,
          -0.04803887754678726,
          1.0095624923706055,
          1.280908465385437,
          0.11103872954845428,
          -0.049482546746730804,
          -0.1697237193584442,
          -0.8202748894691467,
          1.0316686630249023,
          1.0850718021392822,
          -0.520984411239624,
          2.6194472312927246,
          2.1429390907287598,
          0.735752284526825,
          1.1990464925765991,
          0.8176729083061218,
          2.111405611038208,
          -0.7585185766220093,
          -0.9430992603302002,
          0.7027255296707153,
          1.2293846607208252,
          2.414402961730957,
          1.2770413160324097,
          2.187800645828247,
          0.3451269865036011
        ],
        [
          1.2914544343948364,
          1.083479404449463,
          0.6442399621009827,
          0.32182538509368896,
          1.4285460710525513,
          0.8118777275085449,
          -0.33200517296791077,
          -0.2519458532333374,
          1.7905620336532593,
          0.021721944212913513,
          0.41994887590408325,
          -1.184771180152893,
          0.23924927413463593,
          -0.19061726331710815,
          1.6417391300201416,
          1.3687347173690796,
          0.3645840287208557,
          1.8519161939620972,
          1.662455439567566,
          0.5871703624725342,
          1.557506799697876,
          1.7329034805297852,
          1.732329249382019,
          -0.11377377063035965,
          -0.5745160579681396
        ],
        [
          1.4696632623672485,
          -0.5830716490745544,
          0.6863951086997986,
          -0.1568204164505005,
          1.303950548171997,
          3.2519009113311768,
          1.9730300903320312,
          1.4263840913772583,
          0.06378353387117386,
          2.3786978721618652,
          0.586063027381897,
          0.3339588940143585,
          1.34297776222229,
          2.827406883239746,
          -1.4862343072891235,
          0.4118204116821289,
          0.8571740984916687,
          1.390223503112793,
          1.412294626235962,
          1.4776742458343506,
          -0.19670112431049347,
          -0.08925779163837433,
          -0.2948681712150574,
          -0.12745438516139984,
          0.7570915818214417
        ],
        [
          -0.9639114141464233,
          1.2873246669769287,
          0.1206195279955864,
          1.2037807703018188,
          -0.7105008959770203,
          1.6560004949569702,
          2.0272207260131836,
          1.286752462387085,
          0.2650362551212311,
          0.08373834937810898,
          0.9835668206214905,
          0.844303548336029,
          0.033787067979574203,
          -0.7015406489372253,
          2.325284004211426,
          1.0213249921798706,
          3.710676908493042,
          -0.5394420623779297,
          -0.12406584620475769,
          3.220505475997925,
          0.31596314907073975,
          -0.012710102833807468,
          1.1695566177368164,
          1.273574709892273,
          1.076066017150879
        ],
        [
          1.1912879943847656,
          -1.0363088846206665,
          0.5969858169555664,
          2.0471253395080566,
          2.2010018825531006,
          0.11443819850683212,
          1.2101140022277832,
          1.0351778268814087,
          0.015672001987695694,
          1.0710173845291138,
          2.0877010822296143,
          -0.09627922624349594,
          0.17886176705360413,
          0.08896851539611816,
          0.5127332210540771,
          2.0802972316741943,
          1.0337715148925781,
          1.0736054182052612,
          2.2781426906585693,
          -0.7471701502799988,
          0.7428807616233826,
          -1.654539704322815,
          1.1857398748397827,
          -1.522790789604187,
          -0.01299536507576704
        ],
        [
          0.6486735939979553,
          0.19973880052566528,
          0.6733002066612244,
          1.858235239982605,
          0.8129366040229797,
          1.6427226066589355,
          0.2384243905544281,
          -0.6127225160598755,
          -0.5414938926696777,
          0.32530829310417175,
          -0.824368953704834,
          2.327058792114258,
          1.5475136041641235,
          1.5590758323669434,
          0.5756555795669556,
          -1.0419725179672241,
          -0.013174276798963547,
          2.474785804748535,
          0.5750965476036072,
          1.2647228240966797,
          -1.960538625717163,
          2.261655330657959,
          1.2807624340057373,
          -0.9883583188056946,
          1.1486849784851074
        ],
        [
          0.04307837411761284,
          1.6093237400054932,
          0.3139873445034027,
          0.4484894871711731,
          2.38460636138916,
          -1.032531499862671,
          1.3465522527694702,
          -0.17321914434432983,
          -0.34072649478912354,
          0.27593109011650085,
          -1.3569573163986206,
          0.38346725702285767,
          -0.24266192317008972,
          0.1514754295349121,
          2.887904644012451,
          1.0935664176940918,
          1.2390272617340088,
          0.6822828054428101,
          -0.38849058747291565,
          0.3887077569961548,
          1.859082579612732,
          -1.1028691530227661,
          0.46517154574394226,
          1.5901778936386108,
          0.5162323713302612
        ],
        [
          1.3440111875534058,
          -0.03666064143180847,
          2.4044175148010254,
          1.4395935535430908,
          -0.10240575671195984,
          3.7900493144989014,
          1.8124202489852905,
          1.9426782131195068,
          0.4604146182537079,
          0.6345935463905334,
          0.5936987996101379,
          0.20408619940280914,
          -0.3188338577747345,
          0.169461190700531,
          -0.552138090133667,
          1.2837740182876587,
          0.4694881737232208,
          1.3598899841308594,
          0.7767665982246399,
          2.311253309249878,
          -0.9762946367263794,
          0.8417194485664368,
          1.162557601928711,
          0.1628451943397522,
          0.015879102051258087
        ],
        [
          0.44398829340934753,
          0.18514783680438995,
          0.22038783133029938,
          2.5415420532226562,
          -1.3907195329666138,
          0.3741231858730316,
          3.9728994369506836,
          -0.4543001353740692,
          -0.2309584617614746,
          0.6739434003829956,
          1.101991891860962,
          -0.8492722511291504,
          -0.3147479295730591,
          0.30500563979148865,
          0.9043644070625305,
          1.5488173961639404,
          -0.2873799800872803,
          1.0860612392425537,
          1.0633867979049683,
          -0.3307327330112457,
          -1.1490474939346313,
          1.0136946439743042,
          1.299857258796692,
          1.2721601724624634,
          0.3559565842151642
        ],
        [
          1.4797911643981934,
          -0.03650432080030441,
          0.24348334968090057,
          0.88062584400177,
          0.11297789216041565,
          1.5406560897827148,
          1.6695482730865479,
          -1.001227855682373,
          1.7749502658843994,
          0.2431863397359848,
          1.8334827423095703,
          -0.5222519636154175,
          0.394231379032135,
          -0.23553109169006348,
          -0.1206982433795929,
          0.1681603491306305,
          1.0775450468063354,
          0.4785346984863281,
          0.5139545202255249,
          2.07660174369812,
          -1.2523605823516846,
          1.6108276844024658,
          1.2039158344268799,
          1.8839761018753052,
          1.5759283304214478
        ],
        [
          1.0910676717758179,
          1.2474479675292969,
          0.9982517957687378,
          2.6763370037078857,
          1.6273387670516968,
          -0.432762086391449,
          1.377197504043579,
          1.313253402709961,
          2.3208470344543457,
          2.1404707431793213,
          2.0610275268554688,
          1.8718379735946655,
          0.15152660012245178,
          -0.9157690405845642,
          0.45216840505599976,
          0.3456699252128601,
          2.028029441833496,
          1.0218548774719238,
          1.7638776302337646,
          0.21487966179847717,
          -1.827370524406433,
          0.3458123505115509,
          2.4724485874176025,
          1.5758013725280762,
          -1.4637762308120728
        ],
        [
          -1.0935509204864502,
          -1.8379396200180054,
          1.5162098407745361,
          1.2211828231811523,
          1.0285160541534424,
          0.24753586947917938,
          1.8696651458740234,
          0.9392356872558594,
          1.3708266019821167,
          -0.17505517601966858,
          -0.8023685216903687,
          2.2151882648468018,
          -1.1521093845367432,
          -0.6489467620849609,
          -0.28350546956062317,
          -0.17131708562374115,
          1.2936042547225952,
          0.6380028128623962,
          1.4551588296890259,
          0.9505024552345276,
          0.7327080965042114,
          0.548389732837677,
          1.30587637424469,
          1.8779287338256836,
          1.8944242000579834
        ],
        [
          0.14301703870296478,
          -0.9036022424697876,
          0.03613320738077164,
          1.216172456741333,
          1.7366251945495605,
          1.5860798358917236,
          -0.9221277236938477,
          2.748819589614868,
          -1.0834249258041382,
          0.5923691987991333,
          0.2947271168231964,
          -0.9617094397544861,
          0.6605918407440186,
          0.15262892842292786,
          1.1497389078140259,
          2.584777593612671,
          1.321130633354187,
          1.1620436906814575,
          1.0244593620300293,
          -0.1300601065158844,
          1.105916976928711,
          2.0338826179504395,
          0.4497492015361786,
          -0.3076733946800232,
          1.4364057779312134
        ],
        [
          1.3103961944580078,
          0.5041758418083191,
          0.8750067949295044,
          1.2387477159500122,
          0.9039324522018433,
          1.4613049030303955,
          1.206908941268921,
          -0.08548881113529205,
          0.289251446723938,
          0.7644072771072388,
          1.7258479595184326,
          2.0179460048675537,
          1.0536779165267944,
          0.9171656370162964,
          2.7423253059387207,
          1.3556931018829346,
          2.2595129013061523,
          1.232156753540039,
          0.4793106019496918,
          2.0121777057647705,
          -0.34552013874053955,
          1.8544971942901611,
          1.0150598287582397,
          0.21469388902187347,
          -1.326049566268921
        ],
        [
          0.18153534829616547,
          1.9868196249008179,
          0.20013822615146637,
          1.0811253786087036,
          1.1172049045562744,
          -1.0462158918380737,
          0.8761297464370728,
          2.062535047531128,
          0.2746028006076813,
          0.8854540586471558,
          -0.18306802213191986,
          -0.714818000793457,
          0.6337171196937561,
          0.4844151735305786,
          -0.7239909172058105,
          0.7184979319572449,
          0.8880885243415833,
          2.4919087886810303,
          -0.42617326974868774,
          -0.15316961705684662,
          -0.9808669090270996,
          -1.3069661855697632,
          0.813774824142456,
          2.377049684524536,
          -0.9702662229537964
        ],
        [
          2.062934637069702,
          0.5678189992904663,
          1.7184884548187256,
          0.9200958013534546,
          2.193603038787842,
          0.9324452877044678,
          -0.9802426695823669,
          1.6942867040634155,
          0.9876515865325928,
          1.6822155714035034,
          2.0332536697387695,
          1.3703569173812866,
          2.0043251514434814,
          0.8280728459358215,
          0.3699536919593811,
          0.9029077887535095,
          1.2090650796890259,
          -0.33336853981018066,
          1.486452579498291,
          2.004734754562378,
          -0.39940860867500305,
          -1.6418062448501587,
          0.8286961913108826,
          -0.19745025038719177,
          -0.5865383744239807
        ],
        [
          0.2666057050228119,
          1.1731245517730713,
          1.2930800914764404,
          0.10344335436820984,
          0.5663105845451355,
          2.4637677669525146,
          0.9731772541999817,
          -0.625702977180481,
          0.4386807382106781,
          1.5738515853881836,
          1.8471490144729614,
          -0.22178736329078674,
          1.4174789190292358,
          0.5269579887390137,
          0.9524056315422058,
          1.8788366317749023,
          0.578457236289978,
          1.016719937324524,
          0.36027202010154724,
          3.3177382946014404,
          -0.3215668499469757,
          0.7625734210014343,
          1.5875455141067505,
          -0.26604682207107544,
          0.23376430571079254
        ],
        [
          1.7797250747680664,
          2.1034536361694336,
          1.4811164140701294,
          0.15353554487228394,
          1.130866289138794,
          0.8101767301559448,
          0.9594128727912903,
          0.6236691474914551,
          -0.7821675539016724,
          0.2432960569858551,
          -1.4793118238449097,
          -2.050340414047241,
          1.5780110359191895,
          -0.1130836009979248,
          0.36543866991996765,
          0.4823566675186157,
          -0.2243807464838028,
          1.0836727619171143,
          0.8249601125717163,
          1.9698811769485474,
          -0.32465192675590515,
          0.8602018356323242,
          1.7337367534637451,
          0.6045283675193787,
          3.0355913639068604
        ],
        [
          0.04263540357351303,
          0.025770077481865883,
          2.46065092086792,
          0.753081738948822,
          0.35573333501815796,
          1.819968819618225,
          -1.0325721502304077,
          0.6891428232192993,
          -0.6021217107772827,
          1.0618224143981934,
          1.053521990776062,
          0.7409631013870239,
          0.8446449041366577,
          0.5279967188835144,
          -1.693003535270691,
          2.0550777912139893,
          1.4076615571975708,
          0.2141266167163849,
          -0.6971383690834045,
          -0.5171785354614258,
          -0.012010379694402218,
          0.11810831725597382,
          1.296412467956543,
          1.6333421468734741,
          -0.13251817226409912
        ],
        [
          0.7495320439338684,
          1.6225231885910034,
          2.0521349906921387,
          1.0355552434921265,
          0.9926949739456177,
          1.7050437927246094,
          0.14734533429145813,
          1.5778675079345703,
          1.375380516052246,
          0.0639229342341423,
          -1.2938231229782104,
          1.4087852239608765,
          1.1256228685379028,
          -0.49874791502952576,
          -1.4667785167694092,
          1.8097795248031616,
          -0.10910210013389587,
          0.3340749442577362,
          1.3419805765151978,
          0.18754157423973083,
          -0.6063360571861267,
          2.903179407119751,
          -1.096854329109192,
          1.5655004978179932,
          0.3527922034263611
        ],
        [
          1.7617424726486206,
          1.3931300640106201,
          1.1649307012557983,
          0.5603575110435486,
          0.9810923337936401,
          1.8785253763198853,
          1.3604915142059326,
          1.1940418481826782,
          0.2333534061908722,
          0.9302597045898438,
          -0.36806339025497437,
          1.021009087562561,
          0.15193067491054535,
          -1.061234951019287,
          1.7347427606582642,
          2.4597995281219482,
          -0.48751100897789,
          0.8897145986557007,
          -0.14437171816825867,
          0.9484587907791138,
          0.9352055788040161,
          0.7761729955673218,
          1.3952357769012451,
          1.0427662134170532,
          -0.12466926872730255
        ]
      ]
    },
    {
      "name": "activation_7",
      "type": "tanh"
    },
    {
      "has_bias": true,
      "bias": [
        1.466032862663269,
        1.1986337900161743
      ],
      "in_features": 25,
      "type": "dense",
      "name": "trainable_8",
      "out_features": 2,
      "weights": [
        [
          0.031806133687496185,
          -0.05247923731803894
        ],
        [
          0.009611826390028,
          -0.007546840701252222
        ],
        [
          -0.03638439252972603,
          -0.0013852817937731743
        ],
        [
          0.06467989832162857,
          -0.004246054217219353
        ],
        [
          -0.061028506606817245,
          0.03470955789089203
        ],
        [
          0.5542614459991455,
          0.0008812833693809807
        ],
        [
          0.007207759656012058,
          -0.03967704996466637
        ],
        [
          -0.07885235548019409,
          0.03550750017166138
        ],
        [
          -0.12921489775180817,
          0.07438953965902328
        ],
        [
          -0.0037414622493088245,
          0.061378441751003265
        ],
        [
          -0.06744111329317093,
          0.05829821527004242
        ],
        [
          -0.06676079332828522,
          -0.016675686463713646
        ],
        [
          -0.017423709854483604,
          0.05026797577738762
        ],
        [
          -0.05268348008394241,
          0.0446813590824604
        ],
        [
          0.07309114933013916,
          -0.18207430839538574
        ],
        [
          0.054823242127895355,
          -0.008225311525166035
        ],
        [
          0.04286196455359459,
          0.012360560707747936
        ],
        [
          -0.07336974143981934,
          -0.005147907882928848
        ],
        [
          0.0443728007376194,
          -0.035059813410043716
        ],
        [
          0.06870683282613754,
          -0.0443960465490818
        ],
        [
          -0.04030582308769226,
          -0.6195382475852966
        ],
        [
          0.15552131831645966,
          -0.07005646079778671
        ],
        [
          -0.017514443024992943,
          0.010725198313593864
        ],
        [
          0.06311564147472382,
          -0.01828834041953087
        ],
        [
          0.0636468380689621,
          -0.05924861505627632
        ]
      ]
    },
    {
      "name": "activation_9",
      "type": "tanh"
    },
    {
      "name": "criterion_10",
      "type": "mse"
    }
  ]
}