{
  "test_accuracy": 0.7059,
  "layers": [
    {
      "type": "dense",
      "has_bias": true,
      "in_features": 2,
      "weights": [
        [
          -18.82076072692871,
          -6.25905179977417,
          13.915506362915039,
          2.3982646465301514,
          -32.66133117675781,
          9.25284481048584,
          1.3335132598876953,
          3.822415351867676,
          -17.200531005859375,
          6.81615686416626,
          -15.176548957824707,
          4.719926357269287,
          9.322667121887207,
          3.296891689300537,
          19.106937408447266,
          -12.926413536071777,
          5.349442958831787,
          9.98134708404541,
          14.090522766113281,
          1.1618584394454956,
          2.0774130821228027,
          2.1364519596099854,
          14.857976913452148,
          10.435047149658203,
          -5.654195785522461
        ],
        [
          13.761710166931152,
          -26.777881622314453,
          13.08812427520752,
          0.5009770393371582,
          -10.894015312194824,
          7.868253231048584,
          1.9442970752716064,
          2.0933637619018555,
          -5.040584087371826,
          8.022102355957031,
          2.9653427600860596,
          3.585012912750244,
          9.611312866210938,
          -19.3435001373291,
          11.823485374450684,
          6.286158084869385,
          6.428947448730469,
          3.577719211578369,
          13.169560432434082,
          -1.132310390472412,
          -15.39346694946289,
          3.0567944049835205,
          14.41504192352295,
          9.287869453430176,
          -1.4334344863891602
        ]
      ],
      "name": "trainable_0",
      "bias": [
        6.527203559875488,
        5.44550895690918,
        6.926013946533203,
        8.557539939880371,
        6.312026023864746,
        7.377566337585449,
        6.936168670654297,
        7.810662269592285,
        5.376401901245117,
        5.248810768127441,
        8.72767162322998,
        7.964386940002441,
        7.180511474609375,
        7.418749809265137,
        7.4912519454956055,
        6.363123893737793,
        7.121273040771484,
        7.869311332702637,
        6.165190696716309,
        5.727066993713379,
        8.377457618713379,
        7.72043514251709,
        6.404658317565918,
        6.047175407409668,
        4.135717391967773
      ],
      "out_features": 25
    },
    {
      "type": "tanh",
      "name": "activation_1"
    },
    {
      "type": "dense",
      "has_bias": true,
      "in_features": 25,
      "weights": [
        [
          5.1739068031311035,
          3.2193570137023926,
          1.419763445854187,
          2.864032030105591,
          6.076621055603027,
          1.7886452674865723,
          2.1080822944641113,
          8.265464782714844,
          2.293407678604126,
          -0.6440158486366272,
          8.68935489654541,
          6.2150959968566895,
          3.637174606323242,
          5.24555778503418,
          4.103302001953125,
          7.099626541137695,
          8.656644821166992,
          7.705236911773682,
          2.549931764602661,
          4.697579383850098,
          5.617108345031738,
          2.770698070526123,
          4.6534104347229,
          3.9137115478515625,
          6.399572372436523
        ],
        [
          -9.945473670959473,
          -3.5818240642547607,
          -5.009430885314941,
          -2.3027939796447754,
          -4.76179313659668,
          0.5384929776191711,
          -3.6283440589904785,
          -8.362335205078125,
          -3.8371059894561768,
          0.7989621758460999,
          -15.255193710327148,
          -4.526956558227539,
          -6.301218032836914,
          -7.788064956665039,
          -4.391041278839111,
          -9.228654861450195,
          -11.356365203857422,
          -8.325884819030762,
          -4.6625542640686035,
          -4.468517780303955,
          -9.895746231079102,
          -5.559609889984131,
          -7.798889636993408,
          -4.860377311706543,
          -6.605669975280762
        ],
        [
          0.7584859728813171,
          -2.084599733352661,
          -0.3202626705169678,
          0.1454663723707199,
          -3.3791565895080566,
          0.8234610557556152,
          -0.849604070186615,
          0.28392601013183594,
          -2.8553555011749268,
          1.6947400569915771,
          1.344416856765747,
          0.8283980488777161,
          1.241416335105896,
          1.3141710758209229,
          0.05336078628897667,
          -1.7919998168945312,
          -1.88990318775177,
          -3.8727662563323975,
          -0.5171760320663452,
          0.7889179587364197,
          0.40857994556427,
          -2.652383804321289,
          -0.993798553943634,
          1.0109479427337646,
          -1.5965977907180786
        ],
        [
          2.2336552143096924,
          -1.3816887140274048,
          -1.5774766206741333,
          -0.22583867609500885,
          -0.4809010624885559,
          -1.2213307619094849,
          -1.261153221130371,
          -1.1727741956710815,
          -0.7716270685195923,
          1.7182773351669312,
          1.183136224746704,
          -0.39532774686813354,
          0.8488901257514954,
          0.5111163258552551,
          -0.7689778804779053,
          -2.3840198516845703,
          -0.9690712690353394,
          -2.7865066528320312,
          0.1597551852464676,
          0.16532544791698456,
          0.43589794635772705,
          -1.604650855064392,
          -0.14303520321846008,
          1.9612247943878174,
          0.1858544796705246
        ],
        [
          -14.141475677490234,
          -9.922212600708008,
          -6.838647842407227,
          -7.765519618988037,
          -7.643789768218994,
          -1.540474534034729,
          -8.764320373535156,
          -12.139838218688965,
          -12.255402565002441,
          -2.624955654144287,
          -15.13048267364502,
          -11.860347747802734,
          -5.669920444488525,
          -8.7349271774292,
          -9.440397262573242,
          -10.121192932128906,
          -8.252246856689453,
          -13.455658912658691,
          -3.467327833175659,
          -4.714522838592529,
          -14.07481861114502,
          -10.85708999633789,
          -3.495915174484253,
          -9.231921195983887,
          -8.746644020080566
        ],
        [
          0.609957754611969,
          -2.0362846851348877,
          0.7215777635574341,
          0.6348850727081299,
          -1.4518440961837769,
          2.604642391204834,
          -0.3151097595691681,
          0.8758236765861511,
          -2.492926836013794,
          0.4864549934864044,
          -0.4883728325366974,
          -0.03839417174458504,
          1.232936978340149,
          -0.10546226799488068,
          -0.18057480454444885,
          -1.685655117034912,
          -0.8875389695167542,
          -2.5611116886138916,
          1.3057003021240234,
          0.021932628005743027,
          1.1747504472732544,
          -0.6081623435020447,
          -1.3297655582427979,
          -0.47292667627334595,
          -3.3702449798583984
        ],
        [
          3.0180017948150635,
          -3.0161826610565186,
          -2.7931199073791504,
          0.06966529041528702,
          -1.328691840171814,
          1.8226994276046753,
          -0.9837170243263245,
          -0.9914448857307434,
          -1.230023741722107,
          1.497794270515442,
          0.13857075572013855,
          1.456969976425171,
          0.03229474648833275,
          -2.2303290367126465,
          0.9263646602630615,
          -1.8220977783203125,
          -0.48874905705451965,
          -2.2023587226867676,
          0.9071760177612305,
          -0.6753576397895813,
          3.07895565032959,
          -1.6167864799499512,
          1.7859172821044922,
          1.4922984838485718,
          -0.2813798785209656
        ],
        [
          3.371417760848999,
          -1.7580317258834839,
          -1.8455569744110107,
          1.456572413444519,
          -1.715471625328064,
          1.230515956878662,
          -1.5574870109558105,
          -0.09515129774808884,
          -1.990481972694397,
          2.8150196075439453,
          -0.1090451180934906,
          0.8613138794898987,
          2.718303918838501,
          -1.5139665603637695,
          0.632436990737915,
          -2.3413338661193848,
          -0.28420746326446533,
          -4.210658073425293,
          -0.13795243203639984,
          2.9040634632110596,
          0.9544636607170105,
          -0.33460742235183716,
          -0.20648884773254395,
          2.1855239868164062,
          -0.25935178995132446
        ],
        [
          -5.515691757202148,
          -0.7995482087135315,
          -3.2789809703826904,
          -0.849646806716919,
          -3.2112021446228027,
          -1.0042150020599365,
          -2.2016797065734863,
          -4.624202728271484,
          -3.3909623622894287,
          -2.8321235179901123,
          -6.049217700958252,
          -2.4714980125427246,
          -2.3060734272003174,
          -3.96513295173645,
          -5.742503643035889,
          -3.897915840148926,
          -3.0355048179626465,
          -1.4572702646255493,
          -1.149023413658142,
          -1.6148490905761719,
          -6.260599136352539,
          -3.2045235633850098,
          0.10777349025011063,
          -2.1708076000213623,
          -2.8460693359375
        ],
        [
          0.6287850737571716,
          0.15502792596817017,
          -0.6164203882217407,
          -0.006697836797684431,
          -2.060609817504883,
          1.8617666959762573,
          -1.366166591644287,
          -1.0872529745101929,
          -1.5460841655731201,
          2.0428900718688965,
          -0.7801718711853027,
          0.10936351120471954,
          1.1440552473068237,
          -1.7170724868774414,
          -0.5598791837692261,
          -2.6717100143432617,
          0.36395126581192017,
          -1.6680347919464111,
          -0.2679236829280853,
          2.2760839462280273,
          -1.2119057178497314,
          -1.9347928762435913,
          -0.5506417155265808,
          -0.7364503741264343,
          -0.5410828590393066
        ],
        [
          7.098271369934082,
          2.881946325302124,
          4.361783981323242,
          5.209406852722168,
          1.7534419298171997,
          3.163496732711792,
          3.6718084812164307,
          4.994699478149414,
          2.7052972316741943,
          1.4871270656585693,
          10.8723783493042,
          3.4410030841827393,
          4.167666912078857,
          4.60396671295166,
          3.8921473026275635,
          4.396684169769287,
          7.270204544067383,
          4.413004398345947,
          2.567387342453003,
          2.8273327350616455,
          6.995164394378662,
          4.3608503341674805,
          5.053236484527588,
          3.934028148651123,
          5.545399188995361
        ],
        [
          2.905946969985962,
          -1.6440142393112183,
          -2.409226894378662,
          -0.3352867364883423,
          0.14216190576553345,
          1.3199819326400757,
          -1.4362783432006836,
          -1.5829087495803833,
          -3.4221627712249756,
          1.9200855493545532,
          -0.36196833848953247,
          1.1953469514846802,
          2.164994955062866,
          0.12159151583909988,
          0.26785072684288025,
          -1.7602009773254395,
          -0.25755774974823,
          -2.563692808151245,
          2.646320104598999,
          2.162961721420288,
          2.5692811012268066,
          -1.8823260068893433,
          -0.06483962386846542,
          3.433737277984619,
          -2.671642780303955
        ],
        [
          0.024860791862010956,
          -2.3392550945281982,
          -3.202871084213257,
          2.627624034881592,
          -1.9761170148849487,
          1.2574700117111206,
          -0.9368918538093567,
          -0.397788405418396,
          -2.4392645359039307,
          1.8351600170135498,
          0.034494549036026,
          2.5608983039855957,
          0.5655937790870667,
          -1.2831332683563232,
          0.49031147360801697,
          -1.8592588901519775,
          -0.2613005042076111,
          -1.7892335653305054,
          1.2807278633117676,
          1.286678671836853,
          0.8374014496803284,
          -2.2687482833862305,
          0.10611777752637863,
          1.3296114206314087,
          -2.503063201904297
        ],
        [
          5.898399829864502,
          3.4077224731445312,
          2.7498419284820557,
          1.7550703287124634,
          3.755298614501953,
          2.2159337997436523,
          2.9726805686950684,
          3.4918971061706543,
          5.647632598876953,
          -0.120520681142807,
          9.226953506469727,
          3.0953211784362793,
          1.7815204858779907,
          3.1889657974243164,
          4.23335075378418,
          4.517983913421631,
          7.166529178619385,
          5.575291156768799,
          3.0397143363952637,
          1.4183520078659058,
          5.038919925689697,
          3.204050064086914,
          6.805296421051025,
          3.2645788192749023,
          4.6107964515686035
        ],
        [
          0.33449801802635193,
          -0.8848106861114502,
          -1.215329647064209,
          -0.5536218881607056,
          -1.5329557657241821,
          -0.5737656354904175,
          -2.026949405670166,
          -1.2643877267837524,
          -0.3411619961261749,
          2.5726141929626465,
          -1.2775278091430664,
          1.7647829055786133,
          0.5818635821342468,
          0.3778102993965149,
          1.5414996147155762,
          -1.806494951248169,
          -3.1529338359832764,
          -2.9125471115112305,
          2.208437204360962,
          1.6015254259109497,
          2.289715528488159,
          -2.6778173446655273,
          0.3793458342552185,
          1.701546311378479,
          -3.3747105598449707
        ],
        [
          3.5382611751556396,
          1.285520076751709,
          0.5261693000793457,
          2.39947247505188,
          1.0343340635299683,
          1.3928040266036987,
          1.3999173641204834,
          3.0022599697113037,
          0.43661925196647644,
          -0.2110288441181183,
          6.883443832397461,
          3.1317806243896484,
          2.425800085067749,
          2.706204652786255,
          0.48233887553215027,
          2.249943256378174,
          3.6247589588165283,
          2.0274245738983154,
          1.1497862339019775,
          3.314016819000244,
          5.106125831604004,
          0.3983301520347595,
          3.337368965148926,
          1.7818514108657837,
          1.7905642986297607
        ],
        [
          2.0785892009735107,
          -1.1389371156692505,
          -0.9560379981994629,
          -0.30509549379348755,
          -0.6718317866325378,
          -0.1796693205833435,
          -2.4525465965270996,
          0.6981504559516907,
          -3.2738325595855713,
          -0.1398780643939972,
          0.13745778799057007,
          4.191807270050049,
          2.023318290710449,
          -0.21649764478206635,
          0.8295329809188843,
          -4.042172908782959,
          -1.3328561782836914,
          -3.672508478164673,
          0.16478638350963593,
          0.4154089093208313,
          0.7725426554679871,
          -0.9816600680351257,
          0.08135669678449631,
          0.689856231212616,
          -0.19867226481437683
        ],
        [
          1.3047056198120117,
          -0.6751452684402466,
          -0.0877462774515152,
          1.6750364303588867,
          -2.040112018585205,
          1.351758599281311,
          -1.33109450340271,
          -0.2241658717393875,
          -1.3517602682113647,
          2.7243151664733887,
          -0.0340905636548996,
          3.801180839538574,
          -0.6892253756523132,
          -0.22952903807163239,
          2.4446535110473633,
          -3.903472423553467,
          -2.134140968322754,
          -5.216803550720215,
          0.9726351499557495,
          2.253107786178589,
          2.3552021980285645,
          -1.2870351076126099,
          -0.26001203060150146,
          1.8526642322540283,
          -0.25374773144721985
        ],
        [
          1.537447452545166,
          -1.4610596895217896,
          -0.6658815145492554,
          1.8111356496810913,
          -0.6620935797691345,
          0.7959318161010742,
          -2.646721601486206,
          -1.9354759454727173,
          -1.0150140523910522,
          1.0073357820510864,
          -0.35913407802581787,
          0.5800594687461853,
          1.3969844579696655,
          0.3726308345794678,
          1.0142292976379395,
          -3.0668978691101074,
          -2.554302453994751,
          -1.6827422380447388,
          0.11294055730104446,
          1.3577903509140015,
          0.697030246257782,
          -1.9130522012710571,
          0.05943286418914795,
          1.311786413192749,
          -2.6102752685546875
        ],
        [
          0.5675697326660156,
          0.5351683497428894,
          -1.6547725200653076,
          1.2158914804458618,
          -2.659383773803711,
          0.32828977704048157,
          -0.7233225703239441,
          -0.7086453437805176,
          -2.2147133350372314,
          -0.2975996732711792,
          1.219557285308838,
          2.8564505577087402,
          -0.7924809455871582,
          0.510666012763977,
          1.0083681344985962,
          -1.7971638441085815,
          -1.8806416988372803,
          -0.5678526163101196,
          0.8749974966049194,
          1.0945155620574951,
          1.2627413272857666,
          -1.746910810470581,
          -0.25642138719558716,
          0.8413129448890686,
          -1.269256353378296
        ],
        [
          8.067896842956543,
          5.349296569824219,
          3.51517653465271,
          4.328102111816406,
          6.882812023162842,
          0.8433404564857483,
          3.686243772506714,
          8.190465927124023,
          5.8478498458862305,
          1.3784061670303345,
          12.851615905761719,
          4.301793098449707,
          4.153554439544678,
          6.818999290466309,
          5.461805820465088,
          6.395073890686035,
          7.777289390563965,
          7.55463171005249,
          2.3588898181915283,
          4.541383266448975,
          8.24049186706543,
          4.447651386260986,
          5.252278804779053,
          5.759613513946533,
          6.573431491851807
        ],
        [
          0.6202780604362488,
          -3.1562702655792236,
          -0.49654334783554077,
          0.7278542518615723,
          -0.6916195750236511,
          1.456761360168457,
          -1.9553256034851074,
          -1.4702280759811401,
          -2.9591891765594482,
          0.6102830171585083,
          -1.1614787578582764,
          0.6489124894142151,
          0.4643939435482025,
          0.916282057762146,
          0.9986637830734253,
          -2.7023520469665527,
          -0.5792893767356873,
          -0.47519242763519287,
          1.923940658569336,
          0.10937836021184921,
          0.9939839839935303,
          -1.3933371305465698,
          1.628396987915039,
          1.976837396621704,
          -0.44497308135032654
        ],
        [
          1.431075096130371,
          -1.9827171564102173,
          -2.3488337993621826,
          2.6182138919830322,
          -1.3878954648971558,
          1.0848207473754883,
          -0.9110706448554993,
          -1.2805358171463013,
          -1.315364956855774,
          -0.03960675746202469,
          1.5655555725097656,
          -1.5845353603363037,
          1.5757962465286255,
          -1.2859656810760498,
          0.9447436332702637,
          -1.9388694763183594,
          -1.8584270477294922,
          -3.8141632080078125,
          1.0416511297225952,
          -0.6290575265884399,
          2.3157384395599365,
          -2.672761917114258,
          -0.8883631825447083,
          -0.2422257363796234,
          -1.9566030502319336
        ],
        [
          1.7993979454040527,
          -1.5322433710098267,
          0.275499165058136,
          1.2773970365524292,
          -3.237380027770996,
          1.352238655090332,
          -0.15786731243133545,
          -0.9654977917671204,
          -1.0787252187728882,
          0.8707677125930786,
          0.9256717562675476,
          0.4044983983039856,
          -0.06807257980108261,
          -1.7312431335449219,
          1.6776151657104492,
          -2.2319107055664062,
          -0.6452280879020691,
          -4.276250839233398,
          -0.031274233013391495,
          2.0385894775390625,
          2.0636937618255615,
          -0.7304008603096008,
          1.2696881294250488,
          -3.6550188064575195,
          -2.2865028381347656
        ],
        [
          -2.3318848609924316,
          -1.2242348194122314,
          1.9944682121276855,
          -3.2202651500701904,
          0.9066845774650574,
          -0.29954370856285095,
          0.41443806886672974,
          -0.7653817534446716,
          -0.8462054133415222,
          -1.8002073764801025,
          -0.8588380813598633,
          -2.7533481121063232,
          1.9270166158676147,
          -0.45501038432121277,
          -2.682070255279541,
          -0.5042747259140015,
          0.3228608965873718,
          0.7641736268997192,
          -0.3955279290676117,
          1.8808507919311523,
          -3.6355302333831787,
          0.41367772221565247,
          -0.2389783263206482,
          -1.9285043478012085,
          -0.18818524479866028
        ]
      ],
      "name": "trainable_2",
      "bias": [
        -8.557711601257324,
        -8.385574340820312,
        -9.171889305114746,
        -8.375762939453125,
        -10.563462257385254,
        -10.681021690368652,
        -8.605210304260254,
        -8.899144172668457,
        -8.148516654968262,
        -8.008954048156738,
        -9.300501823425293,
        -8.108421325683594,
        -8.844038963317871,
        -8.693039894104004,
        -8.59561824798584,
        -8.867053031921387,
        -7.431446552276611,
        -8.252222061157227,
        -9.952866554260254,
        -9.697640419006348,
        -7.5599446296691895,
        -9.507582664489746,
        -9.086897850036621,
        -8.452668190002441,
        -9.339808464050293
      ],
      "out_features": 25
    },
    {
      "type": "tanh",
      "name": "activation_3"
    },
    {
      "type": "dense",
      "has_bias": true,
      "in_features": 25,
      "weights": [
        [
          2.149448871612549,
          3.0357489585876465,
          0.8933587670326233,
          2.063396453857422,
          0.6186408996582031,
          0.1452409029006958,
          -0.45178312063217163,
          0.8527990579605103,
          0.01846841722726822,
          0.8780470490455627,
          0.024179531261324883,
          0.9952630996704102,
          1.0844175815582275,
          0.7717915177345276,
          -0.3532905578613281,
          -0.26252904534339905,
          -0.29397714138031006,
          0.13676044344902039,
          0.9942950010299683,
          -0.24782152473926544,
          3.1939773559570312,
          1.6479086875915527,
          1.2559220790863037,
          2.168020248413086,
          2.3253111839294434
        ],
        [
          0.8421863913536072,
          -0.04032900929450989,
          0.49364662170410156,
          -0.6809700727462769,
          1.7143388986587524,
          0.8958687782287598,
          0.548062801361084,
          2.3696963787078857,
          1.97782564163208,
          0.865185022354126,
          0.7900571823120117,
          0.6115307807922363,
          0.6010626554489136,
          1.293566346168518,
          3.251359701156616,
          0.2585771083831787,
          0.629327654838562,
          0.2703858017921448,
          -0.3769870102405548,
          1.538675308227539,
          -0.5739535689353943,
          3.435877561569214,
          1.0742223262786865,
          2.102038860321045,
          -0.18198969960212708
        ],
        [
          0.10231155157089233,
          -0.5149067640304565,
          -0.1648397445678711,
          -0.2154182642698288,
          0.48154768347740173,
          2.1480095386505127,
          0.032640013843774796,
          0.9794942140579224,
          0.5354332327842712,
          0.5786712765693665,
          0.9305049180984497,
          0.8051080703735352,
          1.0782161951065063,
          -0.08408927172422409,
          -0.7817234396934509,
          0.4910617768764496,
          2.781214952468872,
          1.6670962572097778,
          1.2613499164581299,
          1.947574496269226,
          -0.19865906238555908,
          1.536060094833374,
          0.4147597551345825,
          1.9781733751296997,
          -0.21908777952194214
        ],
        [
          0.27385810017585754,
          1.9660332202911377,
          0.48368600010871887,
          1.6075016260147095,
          2.041254997253418,
          2.3239097595214844,
          0.9190294146537781,
          0.8061976432800293,
          -1.3355821371078491,
          1.4082825183868408,
          -0.6641932129859924,
          -1.0844296216964722,
          -0.4516259431838989,
          0.6750791072845459,
          -0.13208158314228058,
          1.405496597290039,
          -0.3104366064071655,
          1.5105074644088745,
          1.1126785278320312,
          0.21693137288093567,
          0.7041406631469727,
          -0.359495609998703,
          -1.0654186010360718,
          0.9404439330101013,
          -0.2502351701259613
        ],
        [
          2.1374008655548096,
          -1.9179147481918335,
          0.9808465242385864,
          0.5048206448554993,
          2.0410163402557373,
          2.0997514724731445,
          0.6781157851219177,
          1.5115666389465332,
          1.5620427131652832,
          -0.09429225325584412,
          0.7890133261680603,
          1.877604603767395,
          1.416845679283142,
          -0.6374420523643494,
          0.9083568453788757,
          -0.7880951166152954,
          0.5576645135879517,
          -1.9393130540847778,
          1.4704196453094482,
          0.690051257610321,
          1.182967185974121,
          1.8534374237060547,
          0.10182935744524002,
          0.4401847720146179,
          -0.6562583446502686
        ],
        [
          -0.12754754722118378,
          0.4242309629917145,
          -0.29260602593421936,
          0.9309380650520325,
          -0.39995187520980835,
          0.9766309857368469,
          1.0266164541244507,
          -0.1710946410894394,
          0.9009982347488403,
          0.014588105492293835,
          -0.8265498280525208,
          -2.22643780708313,
          -2.451166868209839,
          -0.8044632077217102,
          -0.4505053162574768,
          0.019138114526867867,
          -1.4610487222671509,
          1.3499325513839722,
          1.0323030948638916,
          0.724791407585144,
          0.9692753553390503,
          -0.8698834180831909,
          0.4910261332988739,
          0.2537243664264679,
          0.7231138348579407
        ],
        [
          0.05336915701627731,
          1.7295700311660767,
          1.428671956062317,
          0.2160293161869049,
          1.3975285291671753,
          1.209553837776184,
          1.9726849794387817,
          2.02144193649292,
          1.11526358127594,
          1.129637598991394,
          1.279205560684204,
          1.1453148126602173,
          2.220388412475586,
          2.1540119647979736,
          0.8453829884529114,
          0.03953920304775238,
          1.4770019054412842,
          -0.20999528467655182,
          0.7775188684463501,
          1.5772219896316528,
          0.46614933013916016,
          0.40859779715538025,
          -0.5068112015724182,
          0.11678663641214371,
          0.47794726490974426
        ],
        [
          1.6544463634490967,
          0.46105220913887024,
          0.8740952014923096,
          0.6508517265319824,
          1.7442387342453003,
          2.2058169841766357,
          1.0349242687225342,
          0.8571380376815796,
          -0.4338589012622833,
          2.7718796730041504,
          2.503326654434204,
          0.6537709832191467,
          2.380678176879883,
          -0.6311637163162231,
          1.3011531829833984,
          0.3065670132637024,
          1.8848024606704712,
          -1.7795077562332153,
          2.148564338684082,
          2.5080819129943848,
          1.2191729545593262,
          1.5623242855072021,
          1.7973190546035767,
          2.02471661567688,
          0.06335978209972382
        ],
        [
          1.0343376398086548,
          1.0304511785507202,
          2.219719886779785,
          1.5819250345230103,
          1.7669875621795654,
          0.9426870942115784,
          0.9583084583282471,
          -0.2669544816017151,
          2.066880941390991,
          2.0700740814208984,
          2.4419147968292236,
          2.2739102840423584,
          2.559661388397217,
          1.2601587772369385,
          2.30104398727417,
          1.5753107070922852,
          2.0785820484161377,
          -0.8869872093200684,
          0.9355546236038208,
          1.4201750755310059,
          0.715686023235321,
          0.8608047366142273,
          -0.911015510559082,
          1.5330467224121094,
          -1.0488872528076172
        ],
        [
          -1.2211123704910278,
          0.9450631737709045,
          1.1986279487609863,
          0.8424771428108215,
          1.8312827348709106,
          0.43827441334724426,
          1.8129701614379883,
          1.0573691129684448,
          2.3989593982696533,
          -0.9253969788551331,
          -1.8786615133285522,
          0.7782536745071411,
          1.0622495412826538,
          1.1286033391952515,
          -0.9120582938194275,
          1.8664932250976562,
          -0.7443833947181702,
          1.9961965084075928,
          1.0800658464431763,
          0.19633755087852478,
          1.8668527603149414,
          -0.10155569016933441,
          1.0672601461410522,
          1.2538912296295166,
          2.2481589317321777
        ],
        [
          -1.0024316310882568,
          -2.047969102859497,
          -0.059945378452539444,
          -2.0031325817108154,
          -0.05696113780140877,
          1.1495332717895508,
          -0.24737314879894257,
          0.5617237091064453,
          -1.479043960571289,
          3.87001633644104,
          1.5388140678405762,
          -1.0707464218139648,
          1.3177406787872314,
          1.1663836240768433,
          2.551659345626831,
          -1.5018357038497925,
          1.9225215911865234,
          -1.975868582725525,
          1.9771124124526978,
          1.732292652130127,
          1.7902355194091797,
          1.080064058303833,
          0.5254324674606323,
          0.3221016526222229,
          -0.3466019034385681
        ],
        [
          0.3506567180156708,
          1.2054247856140137,
          1.6015805006027222,
          3.121392250061035,
          1.7827571630477905,
          -1.4457275867462158,
          1.154173731803894,
          -0.41671374440193176,
          1.3757137060165405,
          0.5924375653266907,
          1.6370398998260498,
          0.13712771236896515,
          0.597626805305481,
          -1.3855810165405273,
          -0.06323248893022537,
          0.3799495995044708,
          -0.10783262550830841,
          -0.06421952694654465,
          0.945024847984314,
          1.4336163997650146,
          2.7181785106658936,
          -0.8475509881973267,
          2.1028456687927246,
          1.007834553718567,
          0.4336153268814087
        ],
        [
          -0.46033141016960144,
          -1.8606758117675781,
          0.11379095166921616,
          -0.40291789174079895,
          -0.6526221632957458,
          1.6758009195327759,
          1.497478723526001,
          1.1167560815811157,
          1.7205255031585693,
          -1.119814395904541,
          -0.800584077835083,
          0.45408105850219727,
          -1.3846912384033203,
          0.8085052371025085,
          -0.9641038775444031,
          0.3137419521808624,
          -0.4568977952003479,
          0.6671720743179321,
          3.100332260131836,
          1.7246646881103516,
          1.8070728778839111,
          0.35428738594055176,
          2.5114827156066895,
          0.238373801112175,
          2.173558473587036
        ],
        [
          1.1144722700119019,
          -0.9360581636428833,
          -1.9722747802734375,
          -0.7172466516494751,
          2.49845290184021,
          0.3616504371166229,
          0.33004000782966614,
          0.8954506516456604,
          1.6049219369888306,
          1.7733798027038574,
          1.7568269968032837,
          -0.22621989250183105,
          2.119849443435669,
          1.8507378101348877,
          0.882451057434082,
          -0.5442952513694763,
          2.0312304496765137,
          0.4839887320995331,
          0.38709405064582825,
          0.6404637694358826,
          1.8994165658950806,
          -0.11830825358629227,
          -0.18264588713645935,
          0.8413270711898804,
          1.7226331233978271
        ],
        [
          0.152486652135849,
          1.9511739015579224,
          1.314502477645874,
          2.7541606426239014,
          0.542918860912323,
          0.4752079248428345,
          0.9293190836906433,
          2.0881669521331787,
          0.7173798680305481,
          1.4816551208496094,
          -0.4036617875099182,
          0.06567502021789551,
          1.4912301301956177,
          -0.1451282650232315,
          0.2005281001329422,
          -0.2669251263141632,
          -0.48299938440322876,
          0.8198351860046387,
          1.8744494915008545,
          0.9949923157691956,
          1.2805391550064087,
          -2.1896512508392334,
          1.9418519735336304,
          0.6898277997970581,
          1.6211704015731812
        ],
        [
          2.2246475219726562,
          -1.021614909172058,
          2.193098306655884,
          -1.293587327003479,
          1.284568428993225,
          0.5511689186096191,
          -0.39412030577659607,
          2.206162214279175,
          2.657086133956909,
          0.5100724101066589,
          1.159589409828186,
          1.2549108266830444,
          1.874863862991333,
          0.9081100225448608,
          0.28034573793411255,
          -0.2274862378835678,
          1.3050158023834229,
          0.32490894198417664,
          2.491429090499878,
          2.5719902515411377,
          1.719026803970337,
          -1.2172026634216309,
          1.2118806838989258,
          1.4737061262130737,
          -0.26541274785995483
        ],
        [
          0.29119670391082764,
          -1.103527307510376,
          0.5777155160903931,
          -2.3241889476776123,
          -0.24502384662628174,
          2.1599957942962646,
          1.050251841545105,
          -0.5186652541160583,
          -1.1500860452651978,
          2.6361396312713623,
          0.26057878136634827,
          -1.315564751625061,
          -0.5306423306465149,
          0.7774226665496826,
          1.3657728433609009,
          -1.6013944149017334,
          0.5809420347213745,
          -0.3285245895385742,
          1.429709553718567,
          -0.34465739130973816,
          -0.5558555126190186,
          -1.1778929233551025,
          -1.7520493268966675,
          -0.19608581066131592,
          0.3489905595779419
        ],
        [
          1.5608420372009277,
          1.3742871284484863,
          1.4898306131362915,
          -0.11082953214645386,
          0.6426265239715576,
          1.9894601106643677,
          0.033660613000392914,
          0.39907631278038025,
          1.0129308700561523,
          2.794133186340332,
          0.8515880107879639,
          -0.6328759789466858,
          1.51739501953125,
          1.6078811883926392,
          1.3301550149917603,
          -0.5542738437652588,
          2.1487507820129395,
          1.1087884902954102,
          0.5743158459663391,
          1.7120766639709473,
          0.3246527910232544,
          1.504817008972168,
          -0.15599027276039124,
          1.8123780488967896,
          1.1929454803466797
        ],
        [
          -0.298059344291687,
          -0.6635428071022034,
          0.4602328836917877,
          -0.3219693601131439,
          1.8650275468826294,
          -0.7660088539123535,
          -1.3899660110473633,
          -1.238823413848877,
          -0.9171292185783386,
          -0.2076391726732254,
          -0.8024960160255432,
          0.8054410219192505,
          -1.320345401763916,
          1.5498019456863403,
          1.7365134954452515,
          1.6248526573181152,
          -0.2482842653989792,
          -0.13695818185806274,
          1.157065987586975,
          -1.1821287870407104,
          1.0950571298599243,
          1.261904001235962,
          1.193084716796875,
          -0.9626182913780212,
          1.012325644493103
        ],
        [
          1.7786184549331665,
          0.23451735079288483,
          -0.8323337435722351,
          0.2201690822839737,
          -0.3853541910648346,
          2.4301226139068604,
          1.5239503383636475,
          2.118417501449585,
          -0.8379373550415039,
          -0.7213270664215088,
          0.17874591052532196,
          0.1460023671388626,
          -2.6304051876068115,
          1.0975430011749268,
          1.0335590839385986,
          -0.01295913103967905,
          0.2780587375164032,
          -0.3274078965187073,
          1.2257159948349,
          -0.5720975399017334,
          0.8128199577331543,
          1.3524833917617798,
          -0.5070356726646423,
          -0.5404240489006042,
          1.5785102844238281
        ],
        [
          0.7477605938911438,
          1.6058531999588013,
          0.4490092992782593,
          1.0399973392486572,
          1.2142075300216675,
          -0.5548164248466492,
          4.186483860015869,
          -0.3403499126434326,
          -0.8963386416435242,
          2.1277778148651123,
          1.5630093812942505,
          0.4148688316345215,
          -0.4934792220592499,
          1.3524450063705444,
          0.1471274346113205,
          1.1783831119537354,
          -1.8190597295761108,
          -0.6339972615242004,
          0.22853858768939972,
          0.1946428120136261,
          2.4784789085388184,
          1.7021912336349487,
          2.0630850791931152,
          1.0400723218917847,
          0.6547841429710388
        ],
        [
          2.3350863456726074,
          0.22087693214416504,
          1.6795539855957031,
          -1.1632357835769653,
          0.3767208158969879,
          -0.012066716328263283,
          -0.2320188283920288,
          -0.2649052143096924,
          0.7512057423591614,
          1.3962392807006836,
          1.3532934188842773,
          0.5505064725875854,
          0.3853241801261902,
          1.6234867572784424,
          1.7023698091506958,
          1.7246664762496948,
          0.9252032041549683,
          1.376906394958496,
          1.530996561050415,
          1.1465033292770386,
          1.7822260856628418,
          1.7029376029968262,
          -0.8196594715118408,
          1.2380527257919312,
          1.9456194639205933
        ],
        [
          -2.867035388946533,
          -1.068480134010315,
          -0.07240324467420578,
          -4.683082103729248,
          0.7810541391372681,
          0.07953011244535446,
          -1.2334519624710083,
          -0.5833808779716492,
          -4.409058570861816,
          0.3675183951854706,
          -0.6176626682281494,
          0.33183255791664124,
          -0.7548952102661133,
          1.0222245454788208,
          2.946436643600464,
          -3.541478395462036,
          2.790640354156494,
          -0.2569538354873657,
          1.6773935556411743,
          -0.9729030728340149,
          -0.4332124590873718,
          -0.39645737409591675,
          -0.21826796233654022,
          0.055910151451826096,
          -0.7496679425239563
        ],
        [
          -1.5452418327331543,
          0.9732517600059509,
          1.6000927686691284,
          0.9053259491920471,
          1.2741979360580444,
          0.8119068741798401,
          1.5329070091247559,
          0.7522698044776917,
          0.28612861037254333,
          1.2654073238372803,
          -1.001757025718689,
          1.4548664093017578,
          1.7773367166519165,
          -0.1178457960486412,
          1.312477946281433,
          -0.09995078295469284,
          1.9293370246887207,
          1.634602665901184,
          -0.20055651664733887,
          -0.9001897573471069,
          0.064700648188591,
          0.9144237637519836,
          1.608858346939087,
          0.11537963896989822,
          3.032073974609375
        ],
        [
          -0.7776492834091187,
          0.9887495040893555,
          1.381472110748291,
          -0.07298769056797028,
          1.674734115600586,
          3.4802286624908447,
          0.1214539110660553,
          1.3573957681655884,
          -0.14978407323360443,
          1.196580410003662,
          0.3610890209674835,
          -0.8877121806144714,
          -0.20453831553459167,
          2.2774150371551514,
          0.13369829952716827,
          -1.7642942667007446,
          -0.0999472439289093,
          -0.6390810012817383,
          0.8791366815567017,
          -0.920042097568512,
          -0.3750959634780884,
          0.36900997161865234,
          0.8602591753005981,
          2.1002800464630127,
          0.9083073735237122
        ]
      ],
      "name": "trainable_4",
      "bias": [
        1.0231413841247559,
        0.4515973627567291,
        0.39622434973716736,
        0.005955379456281662,
        0.5407682657241821,
        -0.07429922372102737,
        2.044801950454712,
        -0.8932527899742126,
        0.12387526780366898,
        1.0006405115127563,
        -0.11820302158594131,
        -0.19413593411445618,
        1.7789747714996338,
        1.3796148300170898,
        0.3538128435611725,
        0.5594599843025208,
        1.3208048343658447,
        1.231717824935913,
        1.9026527404785156,
        2.5382590293884277,
        1.3021585941314697,
        1.0365235805511475,
        -0.9087126851081848,
        -1.517289638519287,
        -0.20277687907218933
      ],
      "out_features": 25
    },
    {
      "type": "tanh",
      "name": "activation_5"
    },
    {
      "type": "dense",
      "has_bias": true,
      "in_features": 25,
      "weights": [
        [
          0.9974873661994934,
          0.81526118516922,
          1.318770408630371,
          1.3087489604949951,
          -0.2807289958000183,
          2.850339651107788,
          1.4112780094146729,
          0.8218342065811157,
          -0.1356056183576584,
          0.4640096426010132,
          1.7366689443588257,
          0.28381192684173584,
          2.9794178009033203,
          0.3810994029045105,
          -0.4613054096698761,
          0.08842774480581284,
          2.6210830211639404,
          -0.07517959922552109,
          0.8451082110404968,
          1.371396780014038,
          2.1072890758514404,
          0.681880533695221,
          0.1546483039855957,
          0.6977499723434448,
          1.0710246562957764
        ],
        [
          1.1039435863494873,
          1.6335545778274536,
          0.9242167472839355,
          1.936069130897522,
          1.8366893529891968,
          1.3693432807922363,
          -0.6234696507453918,
          -0.5087245106697083,
          0.7865936756134033,
          0.46352317929267883,
          -0.16150134801864624,
          3.1596460342407227,
          -0.13401533663272858,
          1.4414151906967163,
          -0.47265374660491943,
          0.15532426536083221,
          1.664534330368042,
          2.1071856021881104,
          1.0315507650375366,
          1.0362426042556763,
          2.949416399002075,
          1.959474802017212,
          0.5424595475196838,
          1.774751901626587,
          1.5844354629516602
        ],
        [
          0.8179640173912048,
          0.7302120923995972,
          1.2197242975234985,
          -1.1105977296829224,
          0.11557524651288986,
          0.023874443024396896,
          -0.6287776231765747,
          0.21834056079387665,
          -0.3761271834373474,
          1.5167617797851562,
          1.789358377456665,
          0.7279810905456543,
          0.0991552323102951,
          1.6241888999938965,
          0.3848375976085663,
          1.7680200338363647,
          -0.4706368148326874,
          1.4337831735610962,
          1.8931320905685425,
          0.4795125424861908,
          -0.6931762099266052,
          1.658186435699463,
          1.3637993335723877,
          0.9677187204360962,
          3.189458131790161
        ],
        [
          2.1188766956329346,
          -0.1809723675251007,
          0.9954835772514343,
          4.177032947540283,
          1.040366291999817,
          2.7609448432922363,
          1.9344147443771362,
          0.5010021924972534,
          -0.07965909689664841,
          3.293347120285034,
          2.4730188846588135,
          1.586214542388916,
          1.0471619367599487,
          0.07527509331703186,
          0.5441883206367493,
          0.45912259817123413,
          1.9362903833389282,
          1.9510104656219482,
          0.369291752576828,
          -0.49103832244873047,
          1.01994788646698,
          0.27255702018737793,
          0.7286517024040222,
          2.5384697914123535,
          -0.31194043159484863
        ],
        [
          0.3742847740650177,
          -0.6949195265769958,
          1.1788874864578247,
          2.562560796737671,
          1.532709002494812,
          1.0054372549057007,
          -0.7179303169250488,
          -0.49245402216911316,
          1.0282845497131348,
          -1.0556014776229858,
          1.7042765617370605,
          2.6663925647735596,
          1.3769830465316772,
          -0.38793718814849854,
          2.5889394283294678,
          0.42677241563796997,
          -0.530066967010498,
          0.30096572637557983,
          0.03704528510570526,
          0.03060152754187584,
          0.05053291469812393,
          1.9116904735565186,
          0.1074860468506813,
          2.5792229175567627,
          0.8053216338157654
        ],
        [
          0.9727851748466492,
          -1.181302547454834,
          0.7162639498710632,
          -0.31891828775405884,
          -0.5609191060066223,
          1.6553406715393066,
          -0.9290763735771179,
          1.7773388624191284,
          1.5987210273742676,
          1.6867434978485107,
          0.7454126477241516,
          -0.3033260703086853,
          -0.09429209679365158,
          0.8201570510864258,
          2.2239816188812256,
          0.5751838088035583,
          -1.4598007202148438,
          0.7155864834785461,
          0.7107241749763489,
          -0.19407127797603607,
          0.7373989224433899,
          0.7662540078163147,
          1.8414267301559448,
          -0.4144977629184723,
          0.7341418862342834
        ],
        [
          0.3643404543399811,
          0.34857073426246643,
          1.084063172340393,
          2.116304636001587,
          0.9143935441970825,
          -1.2219843864440918,
          -0.6930223703384399,
          -0.860300600528717,
          0.7940808534622192,
          0.2678348124027252,
          0.8946481347084045,
          0.9665223360061646,
          -0.7587006092071533,
          0.6945832371711731,
          0.14483514428138733,
          1.1578223705291748,
          2.0683388710021973,
          2.3110744953155518,
          1.1328622102737427,
          0.7914178967475891,
          1.0638467073440552,
          -0.7700389623641968,
          1.275261640548706,
          1.9958702325820923,
          1.8460568189620972
        ],
        [
          0.9291344881057739,
          1.5665090084075928,
          0.6099451184272766,
          1.4550423622131348,
          -0.9486080408096313,
          -0.20426025986671448,
          0.520732581615448,
          0.40701135993003845,
          1.2430766820907593,
          1.9459834098815918,
          1.6610136032104492,
          0.7296186089515686,
          1.3765243291854858,
          -0.714306116104126,
          0.7921426296234131,
          0.8999289870262146,
          1.2734977006912231,
          0.6745474934577942,
          0.13932137191295624,
          2.4746978282928467,
          0.8466886281967163,
          0.6991920471191406,
          0.57961505651474,
          1.9867652654647827,
          0.39353784918785095
        ],
        [
          1.5639610290527344,
          3.1512699127197266,
          0.6635885238647461,
          1.8617806434631348,
          1.114019751548767,
          1.1458652019500732,
          0.08157481998205185,
          0.20430819690227509,
          1.5400601625442505,
          2.205914258956909,
          0.892535388469696,
          0.9239737391471863,
          0.504937469959259,
          1.9022020101547241,
          0.830599308013916,
          0.020345957949757576,
          3.0759198665618896,
          0.022607767954468727,
          1.9157575368881226,
          -0.11348650604486465,
          1.2340205907821655,
          1.1262404918670654,
          2.2643959522247314,
          -0.7455421686172485,
          2.1380605697631836
        ],
        [
          1.093747615814209,
          2.4177098274230957,
          2.296445608139038,
          0.913560152053833,
          -0.13950571417808533,
          0.5523017644882202,
          0.7423418164253235,
          2.436633586883545,
          0.6001954078674316,
          0.273097962141037,
          1.3233846426010132,
          -0.27466168999671936,
          1.5043666362762451,
          0.6790270209312439,
          1.0656137466430664,
          2.46358060836792,
          -0.21861183643341064,
          0.9896597266197205,
          0.6973774433135986,
          0.3970930278301239,
          0.15784522891044617,
          1.1347688436508179,
          1.8624409437179565,
          2.5850393772125244,
          -0.5334545969963074
        ],
        [
          -0.44002678990364075,
          -0.3251684010028839,
          2.4710917472839355,
          1.6419105529785156,
          2.8483963012695312,
          1.1650325059890747,
          1.4962172508239746,
          0.8261277675628662,
          -0.38211432099342346,
          -0.9683830738067627,
          1.698598027229309,
          0.9887012839317322,
          1.062168002128601,
          1.4693629741668701,
          1.6109004020690918,
          1.3343696594238281,
          0.47687193751335144,
          -0.3447907865047455,
          0.6755675673484802,
          -0.17604780197143555,
          2.6570827960968018,
          0.9272441864013672,
          1.0761901140213013,
          0.3837198317050934,
          0.13495662808418274
        ],
        [
          1.567654013633728,
          0.8644790649414062,
          0.8802332282066345,
          2.937816619873047,
          1.3402118682861328,
          0.6531711220741272,
          0.1804673671722412,
          -0.027532001957297325,
          -0.8569060564041138,
          0.43043580651283264,
          -0.9114116430282593,
          0.49057960510253906,
          1.7690253257751465,
          1.6518422365188599,
          1.7609270811080933,
          -0.6533130407333374,
          1.298902988433838,
          2.1222822666168213,
          1.9038029909133911,
          -0.04925839975476265,
          0.9071516394615173,
          1.4022620916366577,
          0.850138247013092,
          1.4605633020401,
          0.13602334260940552
        ],
        [
          0.7219492793083191,
          -0.5298064351081848,
          1.1305924654006958,
          0.738741934299469,
          0.822902500629425,
          2.034745693206787,
          2.1024985313415527,
          1.81795334815979,
          0.8146100640296936,
          0.09700576215982437,
          -0.5787497162818909,
          0.2607492506504059,
          1.4337728023529053,
          0.6680310964584351,
          2.2740018367767334,
          0.3451713025569916,
          0.9205665588378906,
          0.41142040491104126,
          1.1385011672973633,
          0.875043511390686,
          1.3223814964294434,
          2.0857744216918945,
          2.2436726093292236,
          -1.0628390312194824,
          0.5453097224235535
        ],
        [
          1.2789746522903442,
          0.6981813311576843,
          2.169764757156372,
          0.8846703171730042,
          1.3084938526153564,
          -0.24485009908676147,
          1.4919090270996094,
          -0.4325912892818451,
          0.36768144369125366,
          0.1812901347875595,
          0.26606443524360657,
          1.259873867034912,
          -0.11148069053888321,
          2.439096212387085,
          2.307908058166504,
          1.7527660131454468,
          0.9618180394172668,
          0.13017363846302032,
          0.6269210577011108,
          1.3160755634307861,
          1.9878941774368286,
          1.08202064037323,
          2.34350848197937,
          -0.05036984384059906,
          2.751722574234009
        ],
        [
          0.7676911950111389,
          -0.5733953714370728,
          2.1593503952026367,
          -0.23313607275485992,
          0.07154234498739243,
          1.5516530275344849,
          0.5541085004806519,
          0.03883225470781326,
          1.9475024938583374,
          0.07572001218795776,
          0.7145269513130188,
          0.20222079753875732,
          0.5954217910766602,
          1.3333622217178345,
          1.2900662422180176,
          0.7623218297958374,
          1.2031115293502808,
          1.1077536344528198,
          1.4200515747070312,
          0.1995958536863327,
          0.6405937075614929,
          1.949966311454773,
          1.7058629989624023,
          -0.32833051681518555,
          1.531923770904541
        ],
        [
          1.918817400932312,
          1.1335952281951904,
          2.221971273422241,
          0.04128316044807434,
          0.4715297222137451,
          2.1869380474090576,
          0.9556705355644226,
          1.3224228620529175,
          0.23501792550086975,
          0.19643568992614746,
          0.5906167030334473,
          2.240356683731079,
          0.5673832297325134,
          0.4290691316127777,
          1.254010796546936,
          0.5021649599075317,
          1.8181251287460327,
          0.12075338512659073,
          3.455641984939575,
          -0.6794791221618652,
          0.6024300456047058,
          1.9302235841751099,
          1.2139859199523926,
          1.9725266695022583,
          2.315304756164551
        ],
        [
          0.8647446036338806,
          -1.5997625589370728,
          2.0615837574005127,
          0.28614264726638794,
          0.1391471028327942,
          2.0657310485839844,
          -1.6640584468841553,
          1.3628780841827393,
          1.7889984846115112,
          0.30992281436920166,
          1.125657081604004,
          0.36328011751174927,
          1.9171481132507324,
          -0.18571478128433228,
          0.3183331787586212,
          1.7269315719604492,
          1.4221230745315552,
          0.3960156738758087,
          1.8245985507965088,
          1.4966193437576294,
          -0.5360577702522278,
          -1.0125758647918701,
          2.438065767288208,
          1.5346598625183105,
          1.2563045024871826
        ],
        [
          2.6592161655426025,
          1.2343074083328247,
          0.7923318147659302,
          1.6977847814559937,
          0.06937557458877563,
          0.9295690655708313,
          0.7753087878227234,
          -0.08349381387233734,
          0.886987566947937,
          1.0660014152526855,
          1.1925206184387207,
          0.726685643196106,
          0.26189565658569336,
          0.5636547803878784,
          1.6518467664718628,
          -0.40562355518341064,
          1.759570837020874,
          0.28043633699417114,
          0.5800892114639282,
          -0.1321609616279602,
          0.8541195392608643,
          2.1332950592041016,
          2.1472561359405518,
          0.2675457298755646,
          0.39946067333221436
        ],
        [
          0.8268862366676331,
          0.7850233912467957,
          0.9667438268661499,
          0.5946679711341858,
          -0.8138290047645569,
          -0.5414313077926636,
          0.11441922932863235,
          -2.397735357284546,
          2.4568729400634766,
          0.5896887183189392,
          0.18514710664749146,
          1.1610982418060303,
          -0.9425463676452637,
          0.7866991758346558,
          1.2884275913238525,
          0.6026274561882019,
          -0.3155255913734436,
          1.643061876296997,
          1.288185715675354,
          0.018559416756033897,
          1.8038448095321655,
          0.11345463246107101,
          3.4162614345550537,
          1.176332712173462,
          1.8704345226287842
        ],
        [
          -0.28244638442993164,
          -0.2560858428478241,
          0.5394257307052612,
          1.0501761436462402,
          2.8593108654022217,
          1.1997798681259155,
          1.606590986251831,
          -0.9463219046592712,
          1.3812930583953857,
          0.6611800193786621,
          -2.2456514835357666,
          -0.5822277665138245,
          0.7576125860214233,
          1.0174400806427002,
          1.928025722503662,
          3.3224239349365234,
          0.6344677805900574,
          0.6761775016784668,
          2.1864871978759766,
          1.877432107925415,
          1.4504203796386719,
          0.106210857629776,
          1.2128137350082397,
          1.3007012605667114,
          1.2317777872085571
        ],
        [
          1.4001260995864868,
          1.4568582773208618,
          1.507142424583435,
          2.5175604820251465,
          1.3946069478988647,
          1.3797860145568848,
          2.2420847415924072,
          -0.7306382060050964,
          2.091826915740967,
          -0.1915048062801361,
          1.3658305406570435,
          -0.1508258879184723,
          0.2336379438638687,
          -0.011180030182003975,
          -0.9592625498771667,
          1.9010708332061768,
          -0.16691789031028748,
          1.194974660873413,
          3.3947408199310303,
          3.8226728439331055,
          1.2655352354049683,
          0.6611632108688354,
          2.261542320251465,
          0.6782923340797424,
          1.3816834688186646
        ],
        [
          1.7350994348526,
          -0.40473175048828125,
          -0.6589395999908447,
          1.7596932649612427,
          2.2835137844085693,
          1.8338756561279297,
          0.04485544189810753,
          2.3733017444610596,
          1.4644886255264282,
          -0.2138872891664505,
          1.1412509679794312,
          -0.6313228607177734,
          -0.07216519117355347,
          0.43224748969078064,
          3.4164674282073975,
          -0.2648724913597107,
          0.12158652395009995,
          -1.1296427249908447,
          1.8166320323944092,
          2.14393949508667,
          -1.4391273260116577,
          1.2763264179229736,
          1.5715925693511963,
          1.010714054107666,
          -0.05525285005569458
        ],
        [
          0.9001297354698181,
          3.1310861110687256,
          0.5941863656044006,
          2.19745135307312,
          0.9851129651069641,
          -1.2245584726333618,
          2.996370553970337,
          0.4147413372993469,
          -1.2885196208953857,
          2.8358893394470215,
          1.609687328338623,
          0.4201198220252991,
          0.6717604994773865,
          0.9309073090553284,
          0.5050350427627563,
          2.1755430698394775,
          1.0160250663757324,
          2.242607593536377,
          0.020790094509720802,
          1.9822909832000732,
          2.792841672897339,
          1.4393070936203003,
          1.1946310997009277,
          1.2264721393585205,
          -0.8673500418663025
        ],
        [
          1.2054805755615234,
          0.3409859538078308,
          0.5296040177345276,
          1.2465578317642212,
          2.3244009017944336,
          1.3669795989990234,
          -0.8100036382675171,
          -1.092796802520752,
          -0.012934040278196335,
          1.3450440168380737,
          0.07992806285619736,
          1.8245762586593628,
          0.5040988922119141,
          1.9526994228363037,
          1.6270231008529663,
          2.6737935543060303,
          0.05883795768022537,
          1.0677677392959595,
          0.6835972666740417,
          0.06722719967365265,
          -0.29512089490890503,
          0.03066941723227501,
          0.42678338289260864,
          -0.6776759028434753,
          1.6362143754959106
        ],
        [
          3.409724235534668,
          -0.34571173787117004,
          0.047882094979286194,
          2.3495359420776367,
          0.15211786329746246,
          1.8194416761398315,
          1.1293694972991943,
          0.3372943103313446,
          1.5096755027770996,
          -0.021560566499829292,
          1.5320749282836914,
          1.5036814212799072,
          0.9209935069084167,
          1.978463053703308,
          0.4339640736579895,
          0.14054344594478607,
          0.10655206441879272,
          1.8158096075057983,
          1.5104365348815918,
          1.2722595930099487,
          2.5583741664886475,
          -1.3583165407180786,
          1.11750066280365,
          0.2815084755420685,
          1.6773020029067993
        ]
      ],
      "name": "trainable_6",
      "bias": [
        2.208672046661377,
        1.0399608612060547,
        1.7505302429199219,
        1.6239099502563477,
        2.2445149421691895,
        0.24539145827293396,
        0.9483938813209534,
        2.345749855041504,
        0.7837887406349182,
        -1.4688198566436768,
        3.229886531829834,
        0.7204402089118958,
        1.4814391136169434,
        2.707797050476074,
        2.5210824012756348,
        0.9509125351905823,
        0.6485541462898254,
        0.796125590801239,
        1.5286810398101807,
        1.1756632328033447,
        0.9599122405052185,
        1.069962978363037,
        1.1193740367889404,
        2.201061248779297,
        2.8806934356689453
      ],
      "out_features": 25
    },
    {
      "type": "tanh",
      "name": "activation_7"
    },
    {
      "type": "dense",
      "has_bias": true,
      "in_features": 25,
      "weights": [
        [
          0.22730670869350433,
          -0.14920160174369812
        ],
        [
          0.9374575614929199,
          2.7441625595092773
        ],
        [
          0.8196859359741211,
          0.816947340965271
        ],
        [
          -0.05996210500597954,
          0.9684857726097107
        ],
        [
          0.9800740480422974,
          0.5247634649276733
        ],
        [
          1.712622046470642,
          1.9527207612991333
        ],
        [
          1.5053825378417969,
          0.9985377192497253
        ],
        [
          1.2131744623184204,
          1.4220285415649414
        ],
        [
          -0.33857399225234985,
          -0.22120830416679382
        ],
        [
          0.9388145208358765,
          -1.0148918628692627
        ],
        [
          -0.632603645324707,
          2.139535427093506
        ],
        [
          0.11130477488040924,
          -0.8187335729598999
        ],
        [
          -0.3491023778915405,
          3.191967487335205
        ],
        [
          1.0507042407989502,
          -0.9371864795684814
        ],
        [
          -0.6538636088371277,
          1.8732248544692993
        ],
        [
          -1.3855109214782715,
          2.2672929763793945
        ],
        [
          1.3540527820587158,
          0.22514420747756958
        ],
        [
          0.29201173782348633,
          -0.2588777244091034
        ],
        [
          -0.8269757032394409,
          0.6580801010131836
        ],
        [
          0.20599603652954102,
          0.8863480687141418
        ],
        [
          -0.8678337931632996,
          1.234642744064331
        ],
        [
          -0.22552385926246643,
          1.172751784324646
        ],
        [
          -1.3006426095962524,
          -0.87065589427948
        ],
        [
          0.23371291160583496,
          0.07727187871932983
        ],
        [
          0.1621982753276825,
          -1.8141651153564453
        ]
      ],
      "name": "trainable_8",
      "bias": [
        2.514824867248535,
        3.5204339027404785
      ],
      "out_features": 2
    },
    {
      "type": "tanh",
      "name": "activation_9"
    },
    {
      "type": "mse",
      "name": "criterion_10"
    }
  ]
}