{"test_accuracy": 0.8157, "layers": [{"in_features": 2, "weights": [[-1.0886143445968628, 1.520348310470581, 1.3806304931640625, 0.4086410701274872, -0.586113452911377, 0.5979283452033997, -3.2400219440460205, 2.1322243213653564, -9.637462615966797, 1.2997426986694336, -0.51832115650177, 3.464986562728882, -3.1002635955810547, -3.7906482219696045, -0.5350221395492554, 0.7302204370498657, 0.5535523295402527, -1.043938159942627, 1.8005257844924927, -1.1051973104476929, -4.401726245880127, 1.1198886632919312, 2.4713237285614014, -4.092505931854248, 0.5632921457290649], [-1.05796217918396, 1.3815065622329712, 0.16605862975120544, 0.3973618149757385, -2.1380791664123535, -0.03053613379597664, 0.19023576378822327, 1.7810547351837158, 1.1777927875518799, 0.3867584466934204, 0.4245835542678833, -1.1906845569610596, -2.3299427032470703, 0.10043557733297348, -0.11107578128576279, 0.5331248641014099, -0.10883332788944244, 4.690418243408203, 0.8498159050941467, -0.3985847532749176, 0.1370507776737213, 0.6418812870979309, -2.360363483428955, 8.538387298583984, -0.8448066711425781]], "out_features": 25, "has_bias": true, "type": "dense", "bias": [0.6259906888008118, -0.1931537389755249, 1.3851796388626099, 0.6155532002449036, 2.0128591060638428, 1.0031636953353882, 1.121923565864563, -0.324606716632843, 2.7061445713043213, 1.9736312627792358, 1.02211594581604, 0.5543012619018555, -0.36570537090301514, 2.441572427749634, 2.321661949157715, 0.623162567615509, 1.9019609689712524, 0.03006705641746521, -0.0411129891872406, 2.5171401500701904, 1.8903330564498901, 1.7817572355270386, 0.5644077658653259, 0.17769289016723633, 1.5966488122940063], "name": "trainable_0"}, {"type": "tanh", "name": "activation_1"}, {"in_features": 25, "weights": [[0.12548570334911346, -0.5409162044525146, -0.4988080859184265, 2.336268424987793, 1.4519950151443481, -1.742141842842102, 0.7021858096122742, 1.3535494804382324, -0.8873031139373779, -1.440691351890564, 1.6198577880859375, -2.7788867950439453, -2.112514019012451, -1.1327626705169678, -0.12162154167890549, 0.28888434171676636, -1.88533353805542, -2.6643428802490234, 0.24444572627544403, 0.8782609701156616, -0.1946066915988922, 1.6559749841690063, 1.9704843759536743, -2.543760299682617, 1.9271831512451172], [0.4913666248321533, -3.138185739517212, -0.9801161885261536, 0.7128881812095642, -0.9120200276374817, -1.869843602180481, 0.1556442528963089, -0.832747220993042, -0.27777761220932007, -1.8241881132125854, -0.23869448900222778, -1.3589905500411987, -2.3586716651916504, -0.08270464092493057, 0.5044105052947998, -0.07126575708389282, -1.3688169717788696, -3.445614814758301, 1.0575631856918335, -2.1208157539367676, 0.1969403475522995, 1.3926050662994385, -1.229937195777893, -3.1754987239837646, -0.5263901352882385], [1.727953314781189, 1.155139684677124, 2.346017837524414, 0.7144670486450195, -0.022468741983175278, 0.6784465312957764, -0.5600438117980957, -0.3910749852657318, 2.4936397075653076, 2.2019615173339844, -0.46929821372032166, -0.6168370246887207, 1.5932812690734863, 0.635316014289856, -0.817699670791626, 0.03612770140171051, -1.1168761253356934, 0.5424785614013672, -1.2448089122772217, -1.3304078578948975, -1.8744964599609375, -0.18042147159576416, -0.708551287651062, 0.3290662169456482, -1.5818625688552856], [0.8458262085914612, -0.30708685517311096, -1.0645644664764404, 2.926992893218994, 1.3065190315246582, -0.9088768362998962, 0.4317498505115509, -0.3378911316394806, -0.5537089705467224, 0.39423295855522156, 0.0719013586640358, -1.963985800743103, 0.27017101645469666, 0.7073004245758057, -0.7009512782096863, 0.3449859321117401, -2.29176926612854, -2.7426376342773438, -0.46637672185897827, -1.0356321334838867, 0.2293456345796585, -0.9073538184165955, -0.6700946688652039, -4.235256671905518, -0.7188186645507812], [1.384684681892395, 1.9315022230148315, 0.8095698356628418, -1.3957831859588623, 1.8482080698013306, 0.2170318067073822, 0.8295994997024536, -1.5725141763687134, 0.6834002137184143, -0.10201657563447952, -1.015238642692566, 1.2746822834014893, 0.8749547600746155, -0.11762221157550812, 0.002210368402302265, 0.5381256341934204, 2.998013734817505, 2.4505982398986816, 1.2285457849502563, -0.2864266633987427, 2.1096584796905518, -0.684079110622406, -0.09760051965713501, -0.32375630736351013, -2.336336135864258], [0.9123202562332153, 0.21860656142234802, 0.2643437385559082, -0.8063706159591675, -2.1529366970062256, -0.3410106897354126, 0.32483500242233276, -2.154444694519043, -1.3306578397750854, -0.010061394423246384, 1.3645027875900269, 0.25307559967041016, -1.7631515264511108, 0.44058915972709656, -1.406500220298767, 0.6548482179641724, -1.8278005123138428, 0.07161983847618103, 0.5082458853721619, 0.3192267417907715, -1.7462258338928223, -1.717254638671875, -1.5347882509231567, 0.6667969822883606, 0.004482099786400795], [0.6300508379936218, -0.6962922811508179, -1.0097739696502686, 3.040464401245117, -0.2469247281551361, -1.1721655130386353, 0.6494510769844055, -0.8075406551361084, 2.350032091140747, 0.2553441822528839, 0.6727603673934937, -0.4450977146625519, 1.0222452878952026, 0.7340506911277771, 0.22053389251232147, -0.39695847034454346, -2.9158809185028076, -2.077054500579834, 1.1626230478286743, 0.3985961675643921, -1.7688370943069458, 1.4408143758773804, 0.9325243830680847, -1.6766263246536255, 1.3746578693389893], [0.674123227596283, 3.209496259689331, 1.3988920450210571, -3.160508394241333, 0.35605770349502563, 2.135301113128662, -0.1865757703781128, 3.3628218173980713, -0.41014498472213745, -1.5500645637512207, -4.293230056762695, 2.4320764541625977, 0.8351777195930481, 2.0082387924194336, 2.2449233531951904, 2.021346092224121, 6.593014717102051, 3.3786840438842773, 1.4063102006912231, -0.34049302339553833, 2.0786521434783936, -0.8393051028251648, 1.4990034103393555, 1.8791484832763672, -0.6181233525276184], [3.3477251529693604, 4.602171897888184, 2.6857333183288574, -0.04726453870534897, 1.0391072034835815, 2.607865810394287, -0.3107316792011261, -1.2222774028778076, 0.7406814694404602, 2.5803425312042236, 0.8480644226074219, 1.5695443153381348, 2.897505760192871, 1.4476364850997925, -0.9715806841850281, 0.9163869023323059, 0.1542709618806839, 3.6188971996307373, 0.27417173981666565, 1.3959002494812012, 0.009996231645345688, -0.5780069231987, 0.9614643454551697, 1.3737361431121826, 0.5450971126556396], [0.7532345056533813, 1.290293574333191, 1.5430938005447388, -1.1091455221176147, -1.5209826231002808, 2.7848711013793945, -0.289376825094223, -0.4414375424385071, -0.12260846793651581, 1.2397066354751587, 0.3128686547279358, 0.3630417585372925, 0.13279667496681213, 1.5305739641189575, -2.257187604904175, -0.26781511306762695, -2.0977797508239746, 0.18172374367713928, -1.0839979648590088, -0.7259731292724609, -0.032035380601882935, 0.8209815621376038, -0.8480697274208069, 0.1338113397359848, -1.401528239250183], [-0.15515123307704926, 1.0464122295379639, -0.21955300867557526, -0.8248011469841003, -1.3432177305221558, -1.3412771224975586, 0.5648981928825378, -1.032177209854126, 0.5546078085899353, 1.7356997728347778, 0.08562289923429489, 2.2167258262634277, 2.228985071182251, 1.7373522520065308, -1.1946431398391724, -1.429005742073059, 0.12936313450336456, 2.7009947299957275, -0.5678876638412476, -1.354823112487793, -0.5642022490501404, -1.420444369316101, -0.6578827500343323, 1.8171905279159546, -0.7861931920051575], [0.36169540882110596, 2.0927677154541016, 1.816421389579773, -1.6114912033081055, 1.0363402366638184, 4.708057880401611, -0.5188403725624084, 0.3049350678920746, 1.201075553894043, -1.403004765510559, -3.0380351543426514, 2.6504714488983154, 0.10362572968006134, -1.0226800441741943, 3.4097259044647217, 0.2743159234523773, 4.170464515686035, 3.818826198577881, 0.08920982480049133, 3.0675463676452637, -0.5782913565635681, -0.8859207034111023, -0.1718551069498062, 1.505426049232483, 0.4202515184879303], [-0.7919085025787354, -1.880101203918457, -3.221717119216919, 1.0161501169204712, -0.5998700261116028, -0.5315628051757812, -0.04587429389357567, 1.1914788484573364, 0.873555064201355, -0.053437091410160065, -0.5678629875183105, -4.531300067901611, -0.04017035663127899, -0.6649600267410278, 3.5786852836608887, 2.358200788497925, 3.8928818702697754, -0.0013901926577091217, -0.5017457604408264, 1.5008606910705566, 1.9411394596099854, 1.5945613384246826, -0.4172161817550659, -0.23172037303447723, -1.2733712196350098], [0.8456800580024719, 2.33725643157959, 1.938096284866333, -1.4898589849472046, -0.12225867807865143, 1.5625578165054321, -0.6528515219688416, 1.0624725818634033, 0.667589008808136, 0.48578688502311707, -2.6043355464935303, 1.133962869644165, -0.5487498044967651, 1.4083009958267212, 2.2242000102996826, -0.16232527792453766, 3.775099515914917, 4.071335315704346, 0.7386967539787292, 1.1903998851776123, 1.1613109111785889, 1.0502026081085205, 1.046837568283081, 0.9807273745536804, -0.34437695145606995], [-0.005226621404290199, 0.271969735622406, 2.188856363296509, -1.7771283388137817, -1.4759478569030762, -0.20235177874565125, -1.0387983322143555, -2.6104469299316406, 1.254904866218567, 2.0607900619506836, -0.2790322005748749, 2.6943862438201904, 1.4556995630264282, -0.34459102153778076, 0.1934567242860794, -1.929382085800171, -0.4087665379047394, 1.2552731037139893, -1.291817545890808, -1.333321213722229, -0.5862489342689514, -0.3147106170654297, -0.8866356611251831, 1.329010009765625, -0.6754274964332581], [-1.6076745986938477, -1.6829547882080078, -0.7706984281539917, 0.1813683956861496, -1.874126672744751, 0.6848456263542175, -0.015016073361039162, 0.15892978012561798, -0.7432296872138977, 2.1063497066497803, -0.4022846221923828, -1.9031113386154175, 1.5141189098358154, -0.8015763759613037, -0.8857253193855286, -2.0573461055755615, -3.6771609783172607, -0.2853664457798004, 0.4382525086402893, -1.5036768913269043, 0.1321428418159485, 1.6965644359588623, -3.518740653991699, -1.1746889352798462, -1.2098299264907837], [0.056447021663188934, 0.8190061450004578, 0.8234980702400208, 0.9981517195701599, -2.120605945587158, 1.896504282951355, -0.8022180795669556, -0.46166566014289856, 0.9793534278869629, -0.7977358102798462, 1.366566777229309, -0.957790732383728, 0.3085901141166687, -0.24283158779144287, -0.7978441715240479, -0.22352011501789093, -0.3758409917354584, 0.5193182826042175, -1.1655008792877197, -0.17478889226913452, -1.0208616256713867, 0.8690920472145081, -1.2078567743301392, -1.273188591003418, 0.041727468371391296], [0.9755266308784485, 3.9011383056640625, 2.0492241382598877, -1.6409683227539062, -0.3849482536315918, 2.3695430755615234, -0.5628204345703125, 1.110418677330017, -0.8753204345703125, -0.11300830543041229, -2.536010265350342, 4.105167388916016, -1.3563625812530518, 1.3422354459762573, 0.7307825684547424, 1.4470982551574707, 4.326440811157227, 2.4902632236480713, 0.23464927077293396, 0.5315501689910889, 1.5653594732284546, 0.22778309881687164, 0.7937154769897461, 1.483298659324646, -0.5310649275779724], [-0.87838214635849, -0.22570045292377472, -0.39785972237586975, -1.345376968383789, -1.2635819911956787, 1.072697639465332, 0.010626413859426975, -0.637889564037323, 0.2687160074710846, -0.49620112776756287, -2.774989366531372, -0.3466087877750397, -1.8286668062210083, 1.6059366464614868, 0.6012489795684814, -1.172692894935608, 1.263379693031311, 0.14132902026176453, 0.18430310487747192, 1.1005609035491943, -0.7025230526924133, -0.6305021047592163, -0.2927270531654358, 2.2555863857269287, 0.049948133528232574], [1.4175000190734863, 1.7063353061676025, -0.3211999237537384, -2.765076160430908, -0.0019896691665053368, 2.0033349990844727, 0.6863765716552734, -0.567910373210907, 0.3443419337272644, 0.3594549596309662, 0.16821882128715515, -0.8778610825538635, 2.593968391418457, 1.44032621383667, -1.326298475265503, 0.17203326523303986, -0.4060308039188385, 1.9221948385238647, -3.1221580505371094, -1.2756901979446411, -0.5507848858833313, -0.2675265669822693, -0.6672691702842712, 0.37498921155929565, -1.067651629447937], [0.4636248052120209, -0.4778064489364624, 0.47101327776908875, -0.45915162563323975, -0.8610880970954895, -0.09175963699817657, -0.42226800322532654, 2.895362377166748, 1.0898033380508423, -0.5419726371765137, 1.8113677501678467, -0.05342080816626549, -0.15494078397750854, 1.1297955513000488, 0.8255826830863953, 0.5685502886772156, 0.1536005437374115, 0.9846232533454895, 0.09688705205917358, 0.0864528939127922, 1.0589590072631836, -0.5732824206352234, 0.4137345850467682, 0.8267822861671448, 1.6465919017791748], [0.8701366186141968, -0.7241419553756714, -1.4580246210098267, 1.137388825416565, -0.10062858462333679, 1.0533089637756348, -1.5822408199310303, -0.3473086655139923, -0.6701779365539551, 0.6124571561813354, 1.807153582572937, 0.1766178160905838, -0.22793683409690857, 0.4626803994178772, -0.9747177958488464, 0.8054382801055908, -1.6377924680709839, 0.7636671662330627, -0.43383869528770447, 0.7173489332199097, -0.6518725156784058, 0.08580947667360306, -2.0506813526153564, 0.47375500202178955, -1.1742192506790161], [0.3877882957458496, 0.3356158137321472, -0.785398542881012, -0.3126051127910614, -3.3419783115386963, 1.330541968345642, -1.0484912395477295, -0.6168568730354309, 0.748914897441864, 0.8966662287712097, -0.6928560137748718, -0.554307758808136, 0.903701663017273, 1.2820446491241455, -0.20151852071285248, -0.9071988463401794, 1.3763272762298584, 0.8707304000854492, 0.5600135326385498, 0.0017791138961911201, -0.24851520359516144, 0.9867883920669556, -1.5062896013259888, 1.015718698501587, -0.28764960169792175], [-0.5853726863861084, -2.028181552886963, -1.0642634630203247, -0.4193704426288605, -2.3864800930023193, -2.0103392601013184, -0.6615934371948242, -0.3691282570362091, -0.48747768998146057, -1.2575582265853882, -0.8081385493278503, -0.8164977431297302, -1.3410074710845947, 1.4765758514404297, -0.2437446564435959, 0.22672852873802185, 0.9682800769805908, -2.6170847415924072, -0.3370206654071808, -0.27116188406944275, -1.8911412954330444, 0.2750549614429474, -2.066859483718872, -2.696772813796997, 0.2976797819137573], [-0.7087384462356567, 1.5569703578948975, 0.8440510034561157, -1.8721119165420532, -0.40848463773727417, 0.7949337363243103, -1.4342046976089478, -0.1376117318868637, 0.5176587104797363, -0.20541784167289734, 0.4832737445831299, 2.9600026607513428, 1.7887579202651978, 2.2851145267486572, 0.15324003994464874, -0.08149120956659317, -2.136608123779297, -0.3551141023635864, -1.1500859260559082, -1.6267127990722656, -1.6130629777908325, -0.22760425508022308, -1.4393147230148315, 1.1993210315704346, -0.6722585558891296]], "out_features": 25, "has_bias": true, "type": "dense", "bias": [3.7423830032348633, 0.44208601117134094, 2.1951725482940674, 3.874875068664551, 2.213060140609741, 3.7415475845336914, 1.4024016857147217, 1.4800500869750977, 2.636812210083008, 2.338253974914551, 0.7572184801101685, 0.9225462675094604, 2.569565773010254, 2.6868181228637695, 0.6468732357025146, -0.6960968375205994, 3.9471187591552734, 2.2760674953460693, 0.15304327011108398, 1.7873432636260986, 1.3198456764221191, 0.22980493307113647, 1.2415086030960083, 2.283604860305786, 2.467654228210449], "name": "trainable_2"}, {"type": "tanh", "name": "activation_3"}, {"in_features": 25, "weights": [[1.8515323400497437, 1.6360830068588257, 0.313915878534317, -0.22923952341079712, 1.9867393970489502, 1.053120493888855, -0.49758341908454895, 0.11490701138973236, 3.2714076042175293, 0.10767102986574173, 0.7786012887954712, 0.43810325860977173, 0.2619932293891907, 1.608931303024292, 1.0422345399856567, 1.1273795366287231, 1.917608618736267, 0.5599921345710754, 1.2507202625274658, 0.9631161093711853, 1.5968528985977173, 0.1467694491147995, 1.0492496490478516, 1.6162978410720825, -0.13772839307785034], [-0.48035064339637756, 0.3114251494407654, 1.0815752744674683, -0.9280928373336792, 1.3777666091918945, 1.923763394355774, 0.6803431510925293, 1.645665168762207, 1.0247679948806763, -0.4860173761844635, 2.0756094455718994, 0.6390658617019653, -0.2204015851020813, 1.0835793018341064, 0.6789188981056213, 0.4577809274196625, 1.6290035247802734, 0.6205027103424072, -0.20553037524223328, 0.5111854672431946, 1.6301989555358887, 1.248960018157959, 2.2320806980133057, 1.9477732181549072, 0.21662068367004395], [1.9832499027252197, 2.2630438804626465, -1.3770174980163574, 0.6061189770698547, -0.31490522623062134, 2.841165065765381, 1.3467307090759277, 1.1764065027236938, 0.8906724452972412, 1.0158113241195679, 2.4997434616088867, 0.27702075242996216, 1.152413249015808, 1.5660849809646606, 1.3367518186569214, 0.2422960102558136, 0.8405163884162903, 0.47057798504829407, 0.18683184683322906, 1.1555720567703247, 2.899296760559082, 1.7030510902404785, 0.6507232785224915, 1.6621792316436768, 0.5153630971908569], [0.9373477697372437, -0.3450516164302826, -1.5116937160491943, 2.673813581466675, 1.2498806715011597, 1.1953332424163818, 1.1745514869689941, -0.009395886212587357, 1.1328778266906738, -0.2491803765296936, 2.0847244262695312, 0.9823774695396423, 0.7291097640991211, 1.506651759147644, 0.7290893793106079, -1.3999524116516113, 0.9891822934150696, -0.5490178465843201, -0.36488279700279236, -0.3606117069721222, -0.8143272995948792, 0.026125585660338402, 1.4931364059448242, 1.6533993482589722, 1.0801074504852295], [1.0704087018966675, 1.4029027223587036, 0.31209760904312134, 0.5782608389854431, 0.9586635828018188, 0.8734811544418335, 1.9555189609527588, 0.8892627358436584, 2.8734312057495117, 2.198362112045288, -0.7665854096412659, 1.3189940452575684, 1.7689814567565918, 0.6343507766723633, 0.9481587409973145, 1.7850453853607178, 1.490805983543396, -0.015521671622991562, -0.09367214888334274, 0.4678012430667877, 1.8955196142196655, -0.3529356122016907, -0.34831702709198, 0.48197266459465027, 0.8241295218467712], [-0.12604112923145294, 0.422987699508667, 0.4777138829231262, 1.711415410041809, -0.6931174993515015, 0.29211559891700745, -0.3623654842376709, 1.502895712852478, -0.20560862123966217, -0.28015196323394775, 1.1581552028656006, -0.2139914631843567, -0.41459646821022034, -0.16442152857780457, -0.2410593330860138, 1.513486623764038, 0.8690081238746643, 0.9248278737068176, 0.13721691071987152, 1.333010196685791, 0.3243725597858429, 2.6862587928771973, 0.9418932795524597, 1.7408465147018433, -1.3261680603027344], [1.156007170677185, -0.6164253354072571, -0.23997800052165985, -0.03656051680445671, 2.1177287101745605, 1.695723056793213, 3.247044801712036, 0.8497402667999268, 1.3707298040390015, 1.177819013595581, 0.5721334218978882, 1.4461690187454224, 2.962979555130005, 0.2017039954662323, 0.272736132144928, 0.8410029411315918, 0.4687746465206146, -1.6260292530059814, 0.7198866009712219, 1.124724268913269, 0.14498859643936157, -0.12919031083583832, 2.081911087036133, -0.16978922486305237, -0.5357919335365295], [-0.2486630231142044, 0.9451877474784851, 2.191063404083252, -0.993369460105896, 0.30065521597862244, 1.1271213293075562, -0.4748649001121521, -1.4174373149871826, 0.8012721538543701, 2.041205883026123, 0.7033578753471375, -0.4400649666786194, 1.1580318212509155, 1.3936651945114136, -0.8364363312721252, 1.8168997764587402, 1.4947903156280518, -0.2799406945705414, 0.3067101240158081, -0.20461785793304443, 0.6398834586143494, 1.5583258867263794, 0.6428334712982178, 1.89805006980896, 2.0931899547576904], [0.7549563050270081, 0.4683278799057007, -2.411175489425659, -0.5911214351654053, 0.7151183485984802, 0.5835976004600525, 0.06464113295078278, -0.9040764570236206, 1.7789198160171509, 1.200225830078125, 0.1751166135072708, 0.132770836353302, 0.40309765934944153, -0.6296759843826294, 1.3211770057678223, 0.15148864686489105, 0.8969994187355042, -0.1989673376083374, -0.11321272701025009, -0.24529138207435608, -0.4545994699001312, -0.6704069972038269, 0.876976728439331, 1.5587077140808105, -0.15323059260845184], [-0.19109852612018585, 0.370972603559494, -0.047991055995225906, 0.19138042628765106, 1.782906413078308, 0.6663178205490112, 0.2535892426967621, 1.2438751459121704, 2.3465373516082764, 0.9453293681144714, 3.021824836730957, 2.3545236587524414, 0.7926308512687683, 0.9775881767272949, -0.256483256816864, 2.1614556312561035, 0.4082362651824951, -0.09292402863502502, 1.9574508666992188, -0.07410284876823425, 1.3399817943572998, 1.323670506477356, 0.7420292496681213, 0.07948483526706696, 0.8278355002403259], [2.6452877521514893, 1.1068121194839478, 0.7563030123710632, 2.3916115760803223, 1.4077385663986206, 1.4145605564117432, -1.1212955713272095, 0.012337806634604931, 2.9015052318573, 0.5964277386665344, -0.043315574526786804, 2.616786479949951, 0.676215410232544, 1.5523494482040405, -1.1252728700637817, 1.9700672626495361, 0.16940610110759735, 1.4978896379470825, 2.1359856128692627, 0.4951038658618927, -1.0678297281265259, -0.2420724481344223, 1.361816167831421, -0.2720567286014557, 1.6160597801208496], [3.4800803661346436, 2.401581287384033, 0.6413912177085876, -1.09087073802948, -0.37038904428482056, -0.023339802399277687, -1.338899850845337, 1.3419743776321411, -0.1807677298784256, 2.875941038131714, 0.1738193929195404, 0.8839876055717468, 1.6670587062835693, 1.1069597005844116, 1.4634815454483032, -0.20321765542030334, 0.9904512763023376, -1.2899811267852783, 0.9521500468254089, 1.1214767694473267, 0.15961310267448425, 1.341505527496338, 1.0465508699417114, 2.336156129837036, 0.9987646341323853], [3.0450170040130615, 2.6519477367401123, 1.004242181777954, 0.31981346011161804, 1.2485252618789673, 1.978792667388916, -0.49237656593322754, 0.6494646668434143, 2.663935899734497, 2.0498976707458496, 1.7174147367477417, 0.9940670132637024, 1.8261321783065796, -0.4933205842971802, 0.8782403469085693, 0.1828688681125641, -1.5423513650894165, 0.280425488948822, 2.8716204166412354, 1.0180937051773071, 0.9463608860969543, 0.7657178044319153, 2.255283832550049, 2.014962673187256, 1.217597246170044], [2.622999668121338, -0.37545692920684814, 1.5027704238891602, 1.8316867351531982, -0.8108073472976685, 1.6407930850982666, 0.5428153872489929, 0.00130596908275038, 0.5545754432678223, -0.12251310050487518, -0.36253976821899414, -0.4858319163322449, 1.4774246215820312, 1.7274329662322998, -0.8707717657089233, -1.0052664279937744, 1.0093278884887695, 0.8846800923347473, 1.425296664237976, 0.7464669942855835, -0.061833705753088, 1.206857442855835, 1.843886137008667, -0.370881587266922, -1.1673369407653809], [1.1064895391464233, 0.9631602764129639, 1.3242582082748413, 0.40055030584335327, 2.5924766063690186, 0.656499445438385, 1.5177677869796753, -0.18477100133895874, 0.14002932608127594, 3.529789686203003, -0.25118309259414673, 0.11768563091754913, 2.1405961513519287, 2.214214324951172, 1.7177724838256836, 0.1009354442358017, 1.0882587432861328, 2.206979751586914, -1.1341701745986938, 1.1826797723770142, 0.1329328566789627, 0.13926319777965546, -0.01732225902378559, -0.8325433731079102, 0.2982928156852722], [0.37573614716529846, 0.6800733804702759, 1.7195549011230469, 0.3025570511817932, 0.1317252814769745, 0.8230987191200256, -0.33846455812454224, -0.25818371772766113, 0.36052584648132324, 0.478384792804718, 0.3718206584453583, 1.7735683917999268, 0.6248378157615662, 0.1538526862859726, 1.1586798429489136, 0.16024312376976013, -0.4248332381248474, 2.166271924972534, -0.7843586802482605, 2.087078809738159, -0.3821851313114166, 1.302234172821045, 0.4886040985584259, 1.4954254627227783, 1.1989405155181885], [-0.5431697368621826, -0.3054354786872864, 0.6582576036453247, -3.5373196601867676, -0.0693272203207016, -1.1351029872894287, -1.412172794342041, -0.23425519466400146, -1.2082221508026123, -0.5906198024749756, -3.0584328174591064, 0.8468230366706848, 3.625225067138672, -1.5014029741287231, 1.6339402198791504, -0.6078495979309082, -0.5369565486907959, 0.7730384469032288, -2.1749796867370605, -0.8056156039237976, 1.0752369165420532, 0.33177128434181213, 0.8838038444519043, -0.42199015617370605, -4.257022857666016], [2.2175912857055664, 1.4178688526153564, 1.31110417842865, 0.20521226525306702, 0.17839162051677704, 1.002266526222229, 1.4634608030319214, 1.7420711517333984, 0.6989008784294128, -0.9641350507736206, 0.9081708788871765, 0.7386711239814758, -0.09533940255641937, 2.2754623889923096, 1.4154146909713745, 2.073740005493164, 0.40967458486557007, 0.8628399968147278, 0.5676127672195435, 0.6038132905960083, 0.3532191812992096, 1.9653798341751099, 1.5581332445144653, 2.9878551959991455, -0.4654102623462677], [0.03746427223086357, 1.4897704124450684, 2.5077736377716064, 1.7519346475601196, 2.4086878299713135, 0.7779211401939392, 0.2068329155445099, 0.3636666238307953, 0.3109574317932129, 0.5689714550971985, 0.6392780542373657, -0.2532268464565277, 2.5261852741241455, 2.830716133117676, 1.4031912088394165, -0.4804783761501312, 0.35739248991012573, 1.2554422616958618, -1.028145670890808, -0.3078649044036865, 0.9034995436668396, 0.34459221363067627, 1.1870050430297852, -0.08475741744041443, 1.3065929412841797], [1.115107774734497, 1.185181975364685, -0.19340446591377258, 0.09082849323749542, 1.3867963552474976, 0.6606235504150391, 0.8704696893692017, 0.8497340679168701, 0.010895450599491596, 0.49862366914749146, 0.3901868760585785, 1.8362534046173096, 0.6229753494262695, 1.529038429260254, 0.4961254894733429, -1.5920597314834595, 2.064577579498291, 1.2946738004684448, 0.052852120250463486, 0.6782957315444946, 0.760286271572113, 0.6992085576057434, 0.8404045701026917, 1.6911600828170776, -0.10755250602960587], [1.3581267595291138, -0.16615472733974457, 1.1913106441497803, -0.4140212833881378, -0.10691116005182266, 0.5680636763572693, 0.4039199650287628, 0.6498567461967468, 2.6394691467285156, 1.3950341939926147, 0.5080949664115906, 1.5861053466796875, 1.6812423467636108, 1.7948615550994873, 0.8896223306655884, 0.7817596197128296, 2.764694929122925, 0.7151289582252502, -0.33591458201408386, 0.898270308971405, -0.25555869936943054, 2.670560121536255, 0.5719691514968872, 0.40029728412628174, 1.1000051498413086], [1.7835136651992798, -0.026829008013010025, 0.18641705811023712, 1.9283653497695923, 1.0798051357269287, -0.279244065284729, 0.2777234613895416, 0.646438717842102, 1.978782057762146, 1.3079370260238647, 0.968555748462677, -0.5467232465744019, -1.0278031826019287, 2.6677041053771973, 0.2552230954170227, -0.2866957485675812, 1.6570663452148438, 1.0334107875823975, 0.8047747015953064, -0.7412517666816711, 0.058126937597990036, 2.1300857067108154, 1.1115622520446777, -1.3924654722213745, 0.8092697858810425], [0.49602049589157104, 2.123445510864258, 2.479964256286621, 1.5611892938613892, 1.1581536531448364, 0.18267084658145905, 1.2351900339126587, 0.35701924562454224, 1.7249072790145874, 2.9644343852996826, 1.9975945949554443, 1.3614078760147095, 1.7277394533157349, 2.2963201999664307, 2.220564603805542, 1.1887013912200928, 0.6145693063735962, 0.3849215805530548, 1.7446130514144897, -0.17885427176952362, 1.1239733695983887, 1.2517683506011963, 1.652896761894226, 0.9612339735031128, -0.2280000001192093], [0.7333123087882996, 0.8948937654495239, 2.1456260681152344, 0.4043762683868408, 1.844226360321045, 2.552480697631836, -0.3537310063838959, 1.6629385948181152, 0.806601881980896, 0.5596492886543274, 1.5502616167068481, 0.8145318031311035, 0.8956186175346375, 0.8075084686279297, -0.4634190797805786, 0.9941101670265198, -0.6921010613441467, 1.595623254776001, -0.6238285303115845, -0.9410253763198853, 0.9011545777320862, 1.5576128959655762, 0.7166156768798828, 1.7409781217575073, 0.17257581651210785], [-0.16073931753635406, 1.3099256753921509, 1.3358819484710693, 2.9440360069274902, 0.0826387032866478, 0.5177934765815735, 0.38215601444244385, 0.8157621622085571, 1.6521731615066528, 2.451773166656494, 2.3190696239471436, 2.421973943710327, -1.629869818687439, 2.9429898262023926, 2.3827428817749023, 0.5653707981109619, -0.6816200017929077, 1.577911138534546, -0.6418625116348267, 0.20756272971630096, 0.24744796752929688, 2.4869203567504883, 1.8974541425704956, 0.025269201025366783, 1.5834884643554688]], "out_features": 25, "has_bias": true, "type": "dense", "bias": [1.6385241746902466, 1.9749618768692017, 2.124359369277954, 1.009893536567688, 2.967034101486206, -0.08224350214004517, 0.4079471528530121, 3.0770304203033447, 1.7090924978256226, 3.1555440425872803, 0.9597538113594055, 0.3153931200504303, 1.595790982246399, 1.7081454992294312, 2.696924924850464, 1.6873520612716675, 2.3229472637176514, 0.746059000492096, 3.130913496017456, 1.229709267616272, 1.0774286985397339, 3.598623514175415, 0.6850389838218689, 0.7112941145896912, 0.958736002445221], "name": "trainable_4"}, {"type": "tanh", "name": "activation_5"}, {"in_features": 25, "weights": [[2.4752426147460938, -0.07709252089262009, 1.1740844249725342, 0.010338826104998589, -0.6166454553604126, 1.6937044858932495, 1.1643588542938232, 1.0118722915649414, -0.9671635627746582, 0.15541601181030273, -0.29795876145362854, 0.6985622644424438, 1.6328703165054321, -0.2785273790359497, 0.5880142450332642, -0.16992592811584473, 1.2592295408248901, 2.180640697479248, 0.3047204315662384, -1.1875993013381958, -0.20614150166511536, 1.0196070671081543, 1.4944003820419312, 0.9417020082473755, 0.8492254614830017], [1.4494616985321045, 0.7757948637008667, -0.5817856788635254, 0.8889613151550293, 1.9797760248184204, 1.45792818069458, 0.6116891503334045, -1.1198089122772217, 0.29924920201301575, 2.972691774368286, 0.7291433215141296, 1.678022861480713, 0.21220803260803223, 0.8414177298545837, 0.32416224479675293, 0.2509312033653259, 1.9635906219482422, 0.31126707792282104, -1.3426730632781982, 2.9326140880584717, 0.9317113161087036, 2.1928911209106445, 2.8952858448028564, 0.6434574723243713, 0.1469038426876068], [0.7773897051811218, 0.9921814203262329, -0.5631913542747498, 0.17108143866062164, 0.8777339458465576, -0.2912079989910126, 1.36042320728302, 1.3642691373825073, 1.699216365814209, 1.959223747253418, 1.4275522232055664, 0.5826666355133057, 0.9912400245666504, 1.163552165031433, 1.5993072986602783, 0.7770588994026184, 1.2685270309448242, 2.4015555381774902, 2.524949789047241, 0.7738058567047119, 1.4848268032073975, 0.8523901104927063, 0.7135497331619263, -0.6179687976837158, 1.1674485206604004], [1.296324372291565, 0.7850123643875122, 2.709240198135376, 1.4590184688568115, 2.531867742538452, 0.6698925495147705, 1.2706300020217896, -0.5029357671737671, -0.2558702528476715, 0.651659369468689, -0.38779905438423157, 1.774196982383728, 2.2143921852111816, 1.0873216390609741, -0.2474188506603241, 0.976345956325531, 0.740347683429718, 3.306504011154175, 0.42479491233825684, 1.8372230529785156, 1.5270386934280396, 0.774793803691864, 0.3914191424846649, 1.4873532056808472, 1.5754098892211914], [1.0734169483184814, 1.2099826335906982, 1.0269299745559692, 1.4526089429855347, 1.1094104051589966, 1.4128966331481934, 0.5032084584236145, 0.14281004667282104, 1.3812625408172607, 1.2636648416519165, 1.0881036520004272, 1.5219184160232544, 2.2195639610290527, -2.5939552783966064, -0.15086176991462708, 0.1181967705488205, 1.1699304580688477, -0.12575262784957886, 2.790029525756836, 2.3236634731292725, 3.8795721530914307, 1.6585001945495605, 2.3937935829162598, 1.9866859912872314, -0.30139634013175964], [1.7577300071716309, 0.6284905672073364, -0.4626725912094116, 0.5460270643234253, 1.932070255279541, 1.0456689596176147, 1.127927541732788, 1.3340764045715332, 0.5809863805770874, 0.7839493155479431, 0.5814375281333923, 1.2830811738967896, 1.901891827583313, 0.013102349825203419, 0.15296930074691772, 1.5577346086502075, 0.6064113974571228, 0.5789821147918701, 0.5214910507202148, 1.355167031288147, 1.9468382596969604, -0.34945258498191833, 0.3692813515663147, -0.6888967752456665, 0.7752194404602051], [3.2492663860321045, 1.1427432298660278, 0.9612013697624207, -0.22009755671024323, 0.856040894985199, 1.1547566652297974, 1.1538528203964233, -0.5653831958770752, 1.6210325956344604, 0.3182053864002228, -0.7670695185661316, 2.9496212005615234, 0.7814949750900269, 2.0915720462799072, 0.2136593610048294, 1.6997472047805786, 0.4547090232372284, 0.9699220657348633, 1.1500084400177002, 1.1546636819839478, 1.2159321308135986, 3.5980355739593506, 0.9591197371482849, 0.7368279099464417, 2.142686367034912], [0.07576479017734528, 1.7305433750152588, -2.043581008911133, 0.6354345083236694, 0.9388822317123413, 2.251326322555542, 0.9253305196762085, 1.3287193775177002, 1.4528582096099854, 2.010324478149414, 0.9562045931816101, 1.372367024421692, 0.6558457016944885, 0.6135388612747192, 2.71380615234375, -0.057311106473207474, 1.8546730279922485, 0.7544267773628235, 2.8137173652648926, -0.26212307810783386, 1.4610525369644165, 1.0952802896499634, 2.4221105575561523, 0.6111133098602295, 1.6600773334503174], [0.8074555397033691, -0.06580837815999985, 2.493565797805786, 0.7462705969810486, 2.3912904262542725, -0.30667823553085327, 0.9432421326637268, 0.5911719799041748, -0.8228716850280762, -1.8491621017456055, 1.7257918119430542, 0.024747401475906372, 2.550997257232666, 0.6672014594078064, 0.661782443523407, 1.394467830657959, -0.014427443034946918, 1.8930782079696655, -1.886256456375122, -0.21039681136608124, 0.7628065347671509, -1.431983232498169, -0.10940991342067719, 1.487402319908142, 1.2385880947113037], [1.4244507551193237, -0.5522368550300598, 2.60660719871521, 1.446552038192749, 2.1300179958343506, 1.2419942617416382, 1.3339871168136597, 0.8266790509223938, 2.497504949569702, 0.826475203037262, -0.2630214989185333, 1.0793368816375732, 1.0786921977996826, 0.28454798460006714, 2.2036683559417725, 1.6927326917648315, 1.1190803050994873, 0.9610588550567627, 1.7601581811904907, 0.10932114720344543, 2.5198192596435547, 0.8017910122871399, 2.280017852783203, -0.8905996084213257, 0.34652575850486755], [1.1227415800094604, 2.3415112495422363, 1.6780515909194946, 1.298964023590088, 0.9525705575942993, 1.0676565170288086, 2.519584894180298, 0.9274269342422485, 0.930860161781311, 1.0305874347686768, 1.7343796491622925, 1.5697598457336426, 1.362136721611023, -1.1076509952545166, 1.5072122812271118, -1.4143484830856323, 1.5618329048156738, 0.7015892267227173, 0.25206610560417175, 1.0761218070983887, 2.3510146141052246, 1.4418402910232544, 2.576831817626953, 3.0722012519836426, 0.3856867849826813], [0.7038493752479553, 2.325989246368408, 2.63208270072937, -0.0569026879966259, -0.46953174471855164, 1.3617441654205322, 0.32067516446113586, 1.768573522567749, 0.7437591552734375, 1.6858956813812256, 2.247453212738037, 0.2180996835231781, 1.295351505279541, 0.2959754168987274, 1.4846596717834473, 0.9663390517234802, 1.3022135496139526, 1.3564802408218384, -1.577343463897705, 2.542236328125, 1.9114359617233276, 1.3895224332809448, 1.1087040901184082, 1.4092507362365723, -0.5867176651954651], [0.9576255083084106, 0.06668151915073395, 0.12288379669189453, 0.11928877234458923, -0.18479281663894653, 2.4594595432281494, 0.47017383575439453, 0.30608463287353516, -0.663785994052887, 1.8179963827133179, 1.5668745040893555, -0.319689005613327, 0.6712191700935364, 1.3082287311553955, 2.048231601715088, -2.456599235534668, 2.7491488456726074, 3.0082080364227295, 0.04672849550843239, 0.22229763865470886, 1.0055204629898071, 0.02227954939007759, 1.454369306564331, -0.672222375869751, -0.9542557597160339], [2.6848278045654297, 0.6353246569633484, 0.1260279417037964, 0.31144484877586365, 0.09630221128463745, -0.04995253309607506, 0.5297398567199707, 0.05195236578583717, 0.825371265411377, 0.5034359693527222, -0.0923665389418602, 0.8207252621650696, -0.75275057554245, 0.1835707575082779, 0.4008204936981201, 2.2719662189483643, -0.30318397283554077, 1.9922149181365967, 0.46833112835884094, 0.9262948036193848, 1.2390645742416382, 1.0300822257995605, 3.0775203704833984, 2.3805134296417236, 0.27286285161972046], [0.5238329768180847, 0.9244682788848877, 1.7088773250579834, 0.18430760502815247, -0.880240797996521, -0.28494587540626526, 0.44774526357650757, 2.4015536308288574, 1.6288299560546875, 2.7249374389648438, 0.19851362705230713, 1.456451416015625, 1.237679123878479, 0.8504630923271179, 0.791308581829071, 2.3831076622009277, 0.07910778373479843, 0.42918527126312256, 0.3829522132873535, 0.8133946657180786, 1.8751581907272339, 0.9139183163642883, 0.16514839231967926, 1.4186697006225586, 1.1531336307525635], [2.207334280014038, 0.6516484618186951, 0.358136385679245, 1.056850552558899, 1.313834547996521, 1.5556460618972778, 1.5993449687957764, -0.18102148175239563, 0.3645579516887665, 4.039588451385498, 1.3513727188110352, 1.920356035232544, 0.5322096943855286, 0.9150447249412537, 1.5710784196853638, 1.7970643043518066, 0.09618768841028214, 1.7906705141067505, 0.5028089880943298, 1.3149162530899048, 1.3416234254837036, 1.9428279399871826, 2.018850088119507, 2.1555988788604736, -0.38637951016426086], [0.33725377917289734, 1.4065872430801392, 0.4568561017513275, 0.7933717370033264, 0.210923433303833, 0.5570060610771179, 0.8669803738594055, 0.9786093831062317, -0.41299259662628174, 0.6555914878845215, 0.6142678260803223, -0.2637381851673126, 1.9782893657684326, 0.6870180368423462, 0.33340856432914734, 2.70571231842041, 0.45237427949905396, 2.8951497077941895, -0.13116542994976044, 1.2255795001983643, 0.7121791839599609, 1.0427747964859009, 1.336284875869751, -0.11663581430912018, 0.6766624450683594], [2.1173551082611084, 1.454909324645996, 1.280124306678772, 1.0219712257385254, -0.33791255950927734, 0.14629389345645905, 1.83123779296875, 0.49989619851112366, 2.020563840866089, -0.06459430605173111, -0.5257578492164612, 0.6758995056152344, -0.16804294288158417, 0.844078004360199, -0.1569748818874359, 1.123043179512024, 0.17558011412620544, 1.7956312894821167, 1.416685700416565, 0.4028957784175873, 0.8401079773902893, 0.7170760035514832, 1.0428804159164429, 0.6014885902404785, 0.1135343462228775], [0.14663662016391754, 1.408122181892395, 0.31098970770835876, 1.1960597038269043, 0.9624845385551453, 1.914971113204956, 1.5006951093673706, -1.376435399055481, 0.667087733745575, 0.35957661271095276, 1.49679434299469, 3.949333429336548, 0.18375101685523987, 1.4974433183670044, 1.2446929216384888, -0.28586751222610474, 0.41308459639549255, -0.3297632336616516, -0.07584941387176514, -0.5597319006919861, -0.2810702323913574, -0.4070150554180145, 1.379704236984253, -0.6062993407249451, -0.27249565720558167], [-0.1416134387254715, 1.1006132364273071, 0.33431166410446167, -0.4548209309577942, 1.4561399221420288, 1.2247956991195679, 1.132291555404663, 1.9075758457183838, -0.13054728507995605, -0.213109090924263, 1.5912842750549316, -0.48187506198883057, -0.06360718607902527, -0.5281453132629395, 0.30420705676078796, 1.1278234720230103, 0.3063676357269287, -0.3870519995689392, -0.881003201007843, 1.3456323146820068, 1.2164236307144165, 1.4136371612548828, 1.838474154472351, 0.526084840297699, 2.905499219894409], [-0.4165832996368408, 0.0797514021396637, 1.1394792795181274, 1.3582648038864136, 1.285172939300537, -0.057704780250787735, 1.3844033479690552, 2.152446985244751, 0.9766950607299805, 3.2236742973327637, -1.3319083452224731, 0.4662621319293976, 2.0014123916625977, 0.3711334764957428, 0.034012019634246826, 2.020462989807129, 0.5867790579795837, -1.050451397895813, 1.827561855316162, 0.48547038435935974, 0.579721987247467, 2.100231409072876, 0.4082886278629303, -0.11735609173774719, 0.3305477797985077], [1.057369589805603, 1.877271056175232, 0.9095010161399841, 1.5096036195755005, 1.4354606866836548, -0.41235193610191345, 1.4467357397079468, 1.271648645401001, 0.8055538535118103, 1.5251686573028564, 0.8079465627670288, 0.945013701915741, 1.4762357473373413, -0.39409297704696655, 0.6096724271774292, -1.4011938571929932, 0.6692991852760315, 0.8892054557800293, -0.8768059611320496, 0.2733808159828186, 2.898391008377075, 1.0756932497024536, 1.0825061798095703, -0.5023583173751831, 2.2040884494781494], [1.3412753343582153, 0.8233190774917603, -0.906696081161499, 0.9070157408714294, 0.4704503118991852, 0.9811701774597168, -0.5298733115196228, 1.1714149713516235, -0.11419185996055603, 0.7763693928718567, 1.1427181959152222, 0.2542670965194702, 1.074997901916504, 1.3289592266082764, 1.217346429824829, 1.2240294218063354, 0.3940126299858093, 1.4915355443954468, -0.5926980376243591, 0.02275422401726246, 2.2359182834625244, -0.2950423061847687, -0.4124213755130768, -0.4128084182739258, 1.5616235733032227], [0.4561479389667511, 1.1377004384994507, 1.491706371307373, 4.199185848236084, -2.2120473384857178, 1.1984453201293945, 2.892812967300415, 2.059431552886963, 0.95073401927948, 1.316948413848877, 0.11067197471857071, 1.7338007688522339, 1.8879022598266602, 0.907585620880127, 2.7429604530334473, 1.5194957256317139, 2.944356679916382, -0.29704973101615906, 1.9140204191207886, 2.424016237258911, 1.6077989339828491, 1.1557408571243286, 1.2207211256027222, 0.5029275417327881, 0.27292630076408386], [0.7280778884887695, 0.6182487607002258, 2.9163336753845215, 1.0743136405944824, 2.4339494705200195, 1.4212146997451782, 1.6684136390686035, -0.462344229221344, 2.780316114425659, 0.13263602554798126, 0.15289761126041412, 0.8563133478164673, 0.9293416738510132, 1.08624267578125, 3.105668306350708, 2.0669686794281006, 2.08056640625, 2.716254234313965, 1.1113330125808716, 1.5593037605285645, 1.042888879776001, 0.7013372182846069, 1.5205470323562622, 1.42159903049469, -0.5443463325500488]], "out_features": 25, "has_bias": true, "type": "dense", "bias": [2.233550786972046, 1.1649181842803955, 0.6081246137619019, 1.0628900527954102, 1.6253678798675537, -0.07801349461078644, 1.9683091640472412, 1.7103710174560547, -0.6506942510604858, 0.19190329313278198, 2.3005478382110596, 0.10226613283157349, 1.2847404479980469, 1.029667854309082, 2.6873586177825928, -1.1013610363006592, 0.6245365142822266, 1.8059163093566895, 1.8502044677734375, 2.7693564891815186, 0.04040363058447838, 1.2807254791259766, 3.0623815059661865, 1.249366044998169, 1.9867432117462158], "name": "trainable_6"}, {"type": "tanh", "name": "activation_7"}, {"in_features": 25, "weights": [[0.4948998987674713, 1.3987822532653809], [0.5948007702827454, -0.41625484824180603], [0.6066159009933472, 0.21390822529792786], [1.3437401056289673, 1.7433606386184692], [1.6085975170135498, -0.29637110233306885], [-0.18158826231956482, -0.18790067732334137], [1.7157659530639648, 3.0859532356262207], [1.2358797788619995, 0.4312998354434967], [1.7459365129470825, 2.3690598011016846], [-1.377461552619934, 1.2468632459640503], [2.0322728157043457, 1.561124324798584], [2.9761576652526855, 0.44890233874320984], [-0.021130040287971497, 0.33883753418922424], [0.6754999160766602, 1.3440148830413818], [0.6695044636726379, 1.2717357873916626], [1.2813310623168945, 1.6424851417541504], [0.6554170846939087, 0.07057396322488785], [1.4859669208526611, 0.8039591908454895], [3.0539369583129883, 3.418161392211914], [1.8081369400024414, 0.7207787036895752], [-0.921908438205719, 1.3099662065505981], [-0.015963179990649223, 0.29123783111572266], [1.242504596710205, 0.5003806352615356], [0.041710253804922104, -0.6173429489135742], [0.7488053441047668, 1.6895854473114014]], "out_features": 2, "has_bias": true, "type": "dense", "bias": [-1.2142850160598755, 1.3368185758590698], "name": "trainable_8"}, {"type": "tanh", "name": "activation_9"}, {"type": "mse", "name": "criterion_10"}]}