{
  "test_accuracy": 0.9238,
  "layers": [
    {
      "has_bias": true,
      "bias": [
        15.907273292541504,
        16.6542911529541,
        15.878064155578613,
        14.177013397216797,
        16.111331939697266,
        16.074438095092773,
        15.012866973876953,
        17.28360939025879,
        13.888313293457031,
        14.877435684204102,
        17.763925552368164,
        13.757863998413086,
        15.461333274841309,
        15.764789581298828,
        13.6900634765625,
        16.060434341430664,
        15.692916870117188,
        14.681135177612305,
        16.18673324584961,
        14.66473388671875,
        16.30186653137207,
        16.71909523010254,
        14.765286445617676,
        19.078962326049805,
        16.591066360473633
      ],
      "in_features": 2,
      "type": "dense",
      "name": "trainable_0",
      "out_features": 25,
      "weights": [
        [
          -8.549110412597656,
          -14.51828670501709,
          -24.824817657470703,
          -6.838676929473877,
          -9.274626731872559,
          -10.248828887939453,
          -38.58631134033203,
          2.1531879901885986,
          13.300243377685547,
          -8.204827308654785,
          -37.288818359375,
          -5.0875244140625,
          -12.507197380065918,
          -11.994841575622559,
          1.9663809537887573,
          -12.117992401123047,
          -2.6124701499938965,
          -6.575672626495361,
          -12.684112548828125,
          69.83255767822266,
          -8.740310668945312,
          -12.891043663024902,
          -9.15745735168457,
          -21.82675552368164,
          -9.366198539733887
        ],
        [
          -7.812832355499268,
          -5.185986042022705,
          12.3806734085083,
          -12.221452713012695,
          -6.975998878479004,
          -6.038422107696533,
          72.46331024169922,
          -20.050748825073242,
          -21.15721893310547,
          -6.601756572723389,
          -37.640560150146484,
          -8.977737426757812,
          -3.1728296279907227,
          -3.9005582332611084,
          5.114262580871582,
          -4.275529384613037,
          -17.20005989074707,
          -8.916757583618164,
          -3.7206568717956543,
          -37.16742706298828,
          -7.650834083557129,
          -3.843531370162964,
          -10.399638175964355,
          0.20733794569969177,
          -7.786681652069092
        ]
      ]
    },
    {
      "name": "activation_1",
      "type": "tanh"
    },
    {
      "has_bias": true,
      "bias": [
        1.957581639289856,
        -0.2847144305706024,
        1.1732432842254639,
        -0.509097158908844,
        1.1665899753570557,
        2.004957914352417,
        1.5808258056640625,
        0.19947850704193115,
        1.3712482452392578,
        -0.8180067539215088,
        0.5506381988525391,
        2.722458600997925,
        0.7257400751113892,
        0.8146289587020874,
        1.7467865943908691,
        1.0972986221313477,
        1.1871225833892822,
        -0.1371781975030899,
        2.080327272415161,
        1.795045018196106,
        1.924811840057373,
        0.7892169952392578,
        -0.18176701664924622,
        -0.16509991884231567,
        2.2868831157684326
      ],
      "in_features": 25,
      "type": "dense",
      "name": "trainable_2",
      "out_features": 25,
      "weights": [
        [
          0.889459490776062,
          0.03315723314881325,
          -3.1539101600646973,
          -1.113984227180481,
          -0.6183064579963684,
          -3.788947343826294,
          0.9932059645652771,
          -1.1040343046188354,
          -0.1291840523481369,
          -2.373096466064453,
          -2.583508014678955,
          2.0550618171691895,
          -0.8124666213989258,
          -2.4615495204925537,
          -1.7272781133651733,
          2.3919320106506348,
          4.473031520843506,
          -0.6427735090255737,
          3.7676031589508057,
          0.14295102655887604,
          -2.218276023864746,
          -1.649474859237671,
          -1.7297476530075073,
          -0.7702480554580688,
          -0.029075710102915764
        ],
        [
          -0.6153473258018494,
          -2.207061529159546,
          3.117464780807495,
          0.8112414479255676,
          -2.7380709648132324,
          6.1102752685546875,
          -6.245350360870361,
          -1.2681609392166138,
          -1.944342017173767,
          3.1793627738952637,
          2.6517412662506104,
          -1.2023111581802368,
          3.735041618347168,
          1.5349849462509155,
          -0.3597530722618103,
          -2.8696887493133545,
          -2.5656352043151855,
          0.314876914024353,
          -5.137300968170166,
          -3.0103604793548584,
          3.8447928428649902,
          3.9996814727783203,
          0.3584563136100769,
          4.330775737762451,
          -2.3024795055389404
        ],
        [
          1.7288116216659546,
          0.44509679079055786,
          3.2911887168884277,
          2.9785523414611816,
          -0.6939114928245544,
          7.483642101287842,
          -4.8302998542785645,
          -3.4049665927886963,
          -2.4394724369049072,
          1.4201425313949585,
          3.6733736991882324,
          -1.4562166929244995,
          4.531461238861084,
          -1.8811715841293335,
          0.7150845527648926,
          -2.9300384521484375,
          -6.450802326202393,
          -0.07500073313713074,
          -5.434320449829102,
          -4.256805896759033,
          5.327449321746826,
          5.6775031089782715,
          -0.8987468481063843,
          3.3501880168914795,
          -3.5802295207977295
        ],
        [
          1.0594923496246338,
          -1.746301531791687,
          2.257258415222168,
          5.08132266998291,
          -1.2815213203430176,
          4.594540119171143,
          -3.0864429473876953,
          -3.4553279876708984,
          -0.5420743227005005,
          3.1049861907958984,
          0.23824767768383026,
          -0.2965112328529358,
          1.0337588787078857,
          -1.7873849868774414,
          0.7273624539375305,
          -0.4242982268333435,
          -2.632343292236328,
          -3.7694218158721924,
          -3.0327000617980957,
          -2.998136281967163,
          -0.5670051574707031,
          3.842209815979004,
          -0.6996036171913147,
          0.47632870078086853,
          -0.16453738510608673
        ],
        [
          -0.3714641332626343,
          1.0697194337844849,
          -1.739662528038025,
          -0.01654377393424511,
          0.11058323830366135,
          -5.900650978088379,
          1.5823878049850464,
          1.316022276878357,
          2.915339469909668,
          -3.269995927810669,
          -3.2162845134735107,
          1.6982662677764893,
          -1.0991841554641724,
          -0.8990505337715149,
          -1.4906755685806274,
          2.004795551300049,
          4.317519664764404,
          -0.7402743697166443,
          3.9292657375335693,
          4.150850296020508,
          -7.22180700302124,
          -3.4877426624298096,
          -0.375171422958374,
          -3.953242540359497,
          -0.08694855868816376
        ],
        [
          -1.6532189846038818,
          -0.46942275762557983,
          -2.801659345626831,
          -0.5903211832046509,
          -0.5447096228599548,
          -3.24833083152771,
          0.5413705110549927,
          -0.17282822728157043,
          2.5031943321228027,
          -2.7890820503234863,
          -2.357862710952759,
          0.3368615210056305,
          -2.68083119392395,
          -0.5535816550254822,
          0.39217835664749146,
          -0.2737826704978943,
          1.8746424913406372,
          0.30926311016082764,
          3.61797833442688,
          2.6254005432128906,
          -3.35467529296875,
          -0.7711468935012817,
          -0.340786337852478,
          -2.1122820377349854,
          0.9566624760627747
        ],
        [
          0.9305222630500793,
          0.7187100648880005,
          6.231672286987305,
          6.286439418792725,
          -2.0294885635375977,
          17.651897430419922,
          -9.501200675964355,
          -6.0061774253845215,
          -8.162745475769043,
          9.4170560836792,
          6.228517055511475,
          1.8468519449234009,
          11.615147590637207,
          2.8948166370391846,
          1.2137141227722168,
          -4.167154312133789,
          -9.079642295837402,
          -2.0357394218444824,
          -12.145816802978516,
          -4.87935209274292,
          13.618045806884766,
          10.015422821044922,
          0.9128944873809814,
          7.804770469665527,
          -5.3227033615112305
        ],
        [
          0.3747434616088867,
          1.6897014379501343,
          4.908556938171387,
          0.9411328434944153,
          -1.1032936573028564,
          6.100524425506592,
          -2.7140097618103027,
          -3.7032315731048584,
          -5.294735908508301,
          2.8811471462249756,
          3.3582398891448975,
          0.7655165791511536,
          3.4439876079559326,
          2.18465518951416,
          -0.5351933836936951,
          -4.393291473388672,
          -5.551529407501221,
          -0.16576896607875824,
          -6.053258895874023,
          -3.1894805431365967,
          8.500261306762695,
          1.9626230001449585,
          2.2948708534240723,
          4.5044684410095215,
          -0.519923210144043
        ],
        [
          1.0762808322906494,
          -2.199657678604126,
          0.7012925148010254,
          2.917746067047119,
          -3.056642532348633,
          4.196112632751465,
          -1.6097925901412964,
          -3.493938446044922,
          -2.536996841430664,
          6.307643413543701,
          2.8017795085906982,
          -1.1894716024398804,
          0.7575902938842773,
          -2.1940314769744873,
          0.31560254096984863,
          0.4069070816040039,
          -9.08349609375,
          -1.1406173706054688,
          -5.513624668121338,
          -3.1752805709838867,
          5.264503002166748,
          3.2277870178222656,
          -0.8428047299385071,
          2.7739267349243164,
          -0.065195232629776
        ],
        [
          0.9577250480651855,
          2.2428178787231445,
          -3.287440299987793,
          -0.47572582960128784,
          0.7468499541282654,
          -5.031216621398926,
          1.8814501762390137,
          -0.6886675953865051,
          2.0821785926818848,
          -3.085998058319092,
          0.10605400055646896,
          0.30546531081199646,
          -1.9770176410675049,
          -0.0703311413526535,
          0.35722798109054565,
          2.7749252319335938,
          3.6006920337677,
          1.9045459032058716,
          3.1210293769836426,
          2.138895034790039,
          -2.4837355613708496,
          -2.321488618850708,
          -0.2273840457201004,
          -2.960420608520508,
          1.6391716003417969
        ],
        [
          0.6596425771713257,
          0.6940992474555969,
          -5.303818225860596,
          -8.661986351013184,
          1.8389687538146973,
          -20.541370391845703,
          13.469968795776367,
          2.8638792037963867,
          6.552533149719238,
          -7.733002185821533,
          -11.05337142944336,
          -2.2067317962646484,
          -8.62747573852539,
          -1.1298891305923462,
          -1.130183219909668,
          6.86256217956543,
          10.932068824768066,
          -2.148498058319092,
          10.870444297790527,
          7.768385410308838,
          -15.868623733520508,
          -11.534736633300781,
          -0.6463158130645752,
          -0.11333112418651581,
          5.653113842010498
        ],
        [
          -0.4279623329639435,
          0.9655632972717285,
          -3.8492257595062256,
          1.7409602403640747,
          2.115100860595703,
          -2.471489191055298,
          2.0209007263183594,
          2.1496384143829346,
          2.9184792041778564,
          -0.4049234986305237,
          0.42288920283317566,
          -1.6098355054855347,
          -4.63524866104126,
          -0.9024868607521057,
          0.6883535981178284,
          1.2660497426986694,
          3.931622266769409,
          4.432645797729492,
          3.404158115386963,
          3.7743208408355713,
          -1.2601977586746216,
          -2.1610491275787354,
          -1.8811120986938477,
          -1.577940821647644,
          1.780526041984558
        ],
        [
          -1.7165472507476807,
          0.17234815657138824,
          -1.8611931800842285,
          -3.8156938552856445,
          1.1964342594146729,
          -4.256747722625732,
          3.5413472652435303,
          1.6413155794143677,
          3.6802754402160645,
          -3.9808435440063477,
          -1.8587467670440674,
          1.3621339797973633,
          -1.8019299507141113,
          0.23636043071746826,
          -0.7629538774490356,
          0.17565439641475677,
          4.670900344848633,
          -0.6557782888412476,
          4.100839614868164,
          4.467304706573486,
          -4.852901458740234,
          -3.3925819396972656,
          0.4187004864215851,
          -1.5682185888290405,
          1.028813123703003
        ],
        [
          -1.511049747467041,
          1.0229308605194092,
          -2.971651077270508,
          -2.0550599098205566,
          1.1324275732040405,
          -2.451317548751831,
          3.430255651473999,
          0.9913202524185181,
          1.5391019582748413,
          -5.401190280914307,
          -1.57929527759552,
          0.2332949936389923,
          -2.5349042415618896,
          1.7200597524642944,
          3.0581648349761963,
          1.6226333379745483,
          3.7141928672790527,
          0.8842244148254395,
          3.365407705307007,
          3.536078453063965,
          -4.1932783126831055,
          -3.740875482559204,
          1.1099408864974976,
          -3.5825648307800293,
          0.8573296070098877
        ],
        [
          -2.681635618209839,
          -1.8763450384140015,
          -5.811787128448486,
          -2.445519208908081,
          2.053478956222534,
          -6.308243274688721,
          5.164971828460693,
          1.4187514781951904,
          5.293457984924316,
          -3.900700092315674,
          0.30402490496635437,
          -1.6437832117080688,
          -3.190220832824707,
          -2.276670217514038,
          0.6748042106628418,
          5.888572692871094,
          9.451836585998535,
          2.914337396621704,
          8.773677825927734,
          5.752403736114502,
          -5.08685302734375,
          -1.9604727029800415,
          2.250955820083618,
          -4.054243087768555,
          2.9779560565948486
        ],
        [
          -0.42918646335601807,
          1.167627215385437,
          -2.162083625793457,
          -3.052334785461426,
          0.8009889721870422,
          -4.572568893432617,
          3.570099115371704,
          -0.18934060633182526,
          2.4165239334106445,
          -2.778140068054199,
          -0.7643637657165527,
          1.0598708391189575,
          -2.3608524799346924,
          0.08754757046699524,
          -0.5532088279724121,
          1.9390767812728882,
          5.004147529602051,
          0.801354706287384,
          1.9884508848190308,
          4.361011981964111,
          -4.780828475952148,
          -1.9128893613815308,
          -0.453498899936676,
          -3.2682576179504395,
          1.7339863777160645
        ],
        [
          0.7794669270515442,
          -1.5968010425567627,
          2.3037853240966797,
          2.7623305320739746,
          1.6299786567687988,
          5.787502765655518,
          -2.391413450241089,
          -0.3703107535839081,
          -2.309466600418091,
          2.6717512607574463,
          5.463241100311279,
          1.4653860330581665,
          3.213656425476074,
          2.299919843673706,
          0.5778195858001709,
          -4.103378772735596,
          -3.1725897789001465,
          -0.7210454940795898,
          -3.8927786350250244,
          -2.4382145404815674,
          4.4475202560424805,
          1.1670268774032593,
          -0.09739476442337036,
          3.1140007972717285,
          -3.5420193672180176
        ],
        [
          0.7775713205337524,
          1.5303460359573364,
          -2.824786424636841,
          -0.07487283647060394,
          1.6016572713851929,
          -0.7331657409667969,
          1.8082553148269653,
          2.6436071395874023,
          2.3438684940338135,
          0.08736377954483032,
          0.4382288157939911,
          -1.1310349702835083,
          -2.0961270332336426,
          2.132840394973755,
          -0.5801256895065308,
          1.754798173904419,
          4.451881408691406,
          3.141310453414917,
          0.8789003491401672,
          2.715974807739258,
          1.7848408222198486,
          0.036836691200733185,
          -0.36900007724761963,
          -0.22153644263744354,
          1.6726316213607788
        ],
        [
          -2.1213772296905518,
          0.5051433444023132,
          -2.7864434719085693,
          -2.6691696643829346,
          -0.18100686371326447,
          -4.106054306030273,
          3.024498701095581,
          2.845414876937866,
          2.937568187713623,
          -2.4261810779571533,
          -1.9899879693984985,
          -2.2491233348846436,
          -1.4695227146148682,
          -0.2774171829223633,
          -1.1475173234939575,
          2.052527904510498,
          6.180588245391846,
          -1.2346739768981934,
          3.9139084815979004,
          2.8388376235961914,
          -2.7523269653320312,
          -4.247375011444092,
          0.9713362455368042,
          -3.042652130126953,
          1.426535964012146
        ],
        [
          0.47477713227272034,
          -0.7047733068466187,
          7.049680709838867,
          7.546788215637207,
          -2.810978889465332,
          15.815444946289062,
          -13.617356300354004,
          -2.892324924468994,
          -9.258399963378906,
          8.543843269348145,
          6.596091270446777,
          0.7317914962768555,
          7.221578121185303,
          1.4953992366790771,
          1.080483317375183,
          -7.47240686416626,
          -9.098291397094727,
          -2.4657955169677734,
          -11.909696578979492,
          -6.585677146911621,
          15.815085411071777,
          11.912014961242676,
          0.09319750964641571,
          8.112430572509766,
          -5.07699728012085
        ],
        [
          -0.18192347884178162,
          1.1262587308883667,
          -2.7937309741973877,
          -3.436492443084717,
          1.0530726909637451,
          -5.56060266494751,
          2.8790297508239746,
          1.848291039466858,
          1.7359602451324463,
          -5.32621431350708,
          -2.967895746231079,
          0.7162492871284485,
          -2.2568962574005127,
          -2.117727756500244,
          -2.0016558170318604,
          2.1923959255218506,
          5.508020401000977,
          0.5155396461486816,
          4.639281749725342,
          1.926297903060913,
          -6.031619071960449,
          -3.782025098800659,
          -1.694257140159607,
          -2.6498425006866455,
          1.2762380838394165
        ],
        [
          0.9334446787834167,
          -0.004429690074175596,
          -3.2040321826934814,
          -3.3868706226348877,
          0.7238207459449768,
          -3.4659972190856934,
          1.138329267501831,
          1.380670428276062,
          2.1944570541381836,
          -4.651442050933838,
          -4.161384105682373,
          -0.2965899109840393,
          -2.004333257675171,
          0.8905810117721558,
          1.4012616872787476,
          3.0346765518188477,
          5.07540225982666,
          0.2144327610731125,
          4.523613929748535,
          2.3122718334198,
          -3.367478847503662,
          -3.050781726837158,
          0.1367582231760025,
          -3.3254079818725586,
          -1.3446102142333984
        ],
        [
          0.9177188277244568,
          0.2587607502937317,
          1.1637532711029053,
          0.9473373293876648,
          0.29202428460121155,
          4.134970664978027,
          -2.804811477661133,
          0.34399351477622986,
          -0.7758223414421082,
          1.8019905090332031,
          1.7604910135269165,
          -0.6817287802696228,
          0.8301771283149719,
          1.3312181234359741,
          -0.5002981424331665,
          -3.2354953289031982,
          -3.937988758087158,
          -0.28796061873435974,
          -5.141323566436768,
          -2.498220682144165,
          2.544358491897583,
          4.923515796661377,
          -0.2506553530693054,
          1.4246748685836792,
          -2.129058361053467
        ],
        [
          1.9318894147872925,
          -0.08972737938165665,
          6.475743770599365,
          2.6429731845855713,
          -0.3181708753108978,
          7.012088775634766,
          -1.034980058670044,
          -3.8212685585021973,
          -5.310509204864502,
          3.3293380737304688,
          4.258224964141846,
          -0.09052614867687225,
          7.015760898590088,
          2.7202532291412354,
          1.3755563497543335,
          -5.09096622467041,
          -8.971196174621582,
          -2.0789310932159424,
          -6.802746772766113,
          -4.877217769622803,
          5.411242485046387,
          6.872530937194824,
          0.00280530983582139,
          3.5108323097229004,
          -0.009380036033689976
        ],
        [
          -0.28860342502593994,
          -0.6703511476516724,
          -1.0612770318984985,
          -0.724119246006012,
          -2.707792282104492,
          -3.5451982021331787,
          0.7222464084625244,
          0.7985590100288391,
          -0.2920862138271332,
          -2.5930564403533936,
          -4.2565016746521,
          -0.01954434998333454,
          -2.3712241649627686,
          -2.1425259113311768,
          -1.3502318859100342,
          2.2533297538757324,
          5.370303153991699,
          -0.25139787793159485,
          3.1675078868865967,
          1.1109769344329834,
          -5.708526611328125,
          -1.9526532888412476,
          -0.43987730145454407,
          -2.7694051265716553,
          1.5178284645080566
        ]
      ]
    },
    {
      "name": "activation_3",
      "type": "tanh"
    },
    {
      "has_bias": true,
      "bias": [
        0.23700033128261566,
        -0.6809287071228027,
        -1.9411299228668213,
        0.18478135764598846,
        2.6436984539031982,
        1.1623561382293701,
        2.339773416519165,
        -0.1505068689584732,
        1.0288180112838745,
        -0.43631601333618164,
        1.2509698867797852,
        0.1832495778799057,
        -1.7789032459259033,
        -0.28035420179367065,
        0.7757158279418945,
        0.9619670510292053,
        1.490311861038208,
        -0.24918590486049652,
        0.1494656354188919,
        -0.45193320512771606,
        0.790300726890564,
        -1.0198962688446045,
        0.0225331112742424,
        -1.4586560726165771,
        1.9415850639343262
      ],
      "in_features": 25,
      "type": "dense",
      "name": "trainable_4",
      "out_features": 25,
      "weights": [
        [
          -0.8354148268699646,
          1.473276972770691,
          -0.15720342099666595,
          0.3793313205242157,
          0.38954898715019226,
          -0.5339368581771851,
          2.131269693374634,
          -0.39203447103500366,
          1.653072714805603,
          -1.3013883829116821,
          1.6765996217727661,
          1.161321997642517,
          0.27574482560157776,
          -0.18821988999843597,
          -0.006377944257110357,
          0.6106290221214294,
          0.08725588768720627,
          0.7067144513130188,
          0.8387635946273804,
          1.794224739074707,
          -1.4343658685684204,
          -1.1533552408218384,
          -0.2898238003253937,
          -1.1197222471237183,
          -1.7986149787902832
        ],
        [
          0.8365445733070374,
          0.8910614252090454,
          -0.267143577337265,
          0.27022698521614075,
          2.2267844676971436,
          1.0192327499389648,
          0.3084762394428253,
          1.8532238006591797,
          1.0146576166152954,
          -0.7143924832344055,
          0.5832712054252625,
          -1.4180920124053955,
          0.20699748396873474,
          -0.5227359533309937,
          -0.37277960777282715,
          2.989503860473633,
          0.012593843042850494,
          0.6001994013786316,
          1.19646155834198,
          -0.2009485960006714,
          -0.28011900186538696,
          -0.8146747946739197,
          -0.5092779397964478,
          -1.8040177822113037,
          -2.2942543029785156
        ],
        [
          -0.7226677536964417,
          1.1542326211929321,
          0.14473068714141846,
          0.45591843128204346,
          -1.105007290840149,
          -2.3858654499053955,
          1.3877655267715454,
          0.7445446848869324,
          0.9216169714927673,
          -0.8170343637466431,
          -0.9827533960342407,
          -1.0315216779708862,
          0.19317440688610077,
          0.7037153244018555,
          2.178831100463867,
          -0.3597315847873688,
          -3.093170404434204,
          -0.7143623232841492,
          3.9133739471435547,
          1.6578569412231445,
          -0.8585283160209656,
          -0.11233282834291458,
          1.6558747291564941,
          -2.20444917678833,
          -1.0943338871002197
        ],
        [
          -1.3075731992721558,
          1.2795320749282837,
          0.9925096035003662,
          -0.3074118196964264,
          -2.3423867225646973,
          -2.7555551528930664,
          0.18862409889698029,
          -0.9338114261627197,
          1.453528881072998,
          -1.8783782720565796,
          0.31188952922821045,
          0.20848023891448975,
          -0.012811907567083836,
          -1.1492756605148315,
          1.6647953987121582,
          -1.2769235372543335,
          -0.9313568472862244,
          -1.9794379472732544,
          0.6122724413871765,
          1.056728482246399,
          0.35437333583831787,
          0.6874202489852905,
          0.8839457631111145,
          0.16988767683506012,
          -0.36120450496673584
        ],
        [
          1.4902976751327515,
          0.8967444896697998,
          0.737496554851532,
          -0.526772141456604,
          1.069712519645691,
          -0.34553468227386475,
          -1.2194842100143433,
          -0.8306001424789429,
          0.8587318658828735,
          -0.7559540271759033,
          1.3008590936660767,
          -0.1526111513376236,
          0.36509615182876587,
          -1.648354411125183,
          1.2433521747589111,
          -0.7572619318962097,
          1.0060640573501587,
          0.784563422203064,
          -0.44418802857398987,
          -1.3788875341415405,
          -0.06739605963230133,
          -0.04556986689567566,
          1.663978099822998,
          -0.2809208929538727,
          1.6727080345153809
        ],
        [
          -0.5171513557434082,
          0.21005451679229736,
          1.829309344291687,
          -1.1552447080612183,
          -2.8970131874084473,
          -1.9070957899093628,
          -0.9818312525749207,
          -2.6029903888702393,
          1.3976562023162842,
          -1.3332329988479614,
          -0.9351093173027039,
          -0.3033035099506378,
          0.061552584171295166,
          0.7784724831581116,
          2.224536895751953,
          1.1211280822753906,
          -2.983748435974121,
          -1.639747977256775,
          4.875757694244385,
          2.5235097408294678,
          0.2158021479845047,
          -1.005009651184082,
          1.5263357162475586,
          -1.836106538772583,
          -3.759922742843628
        ],
        [
          0.19183048605918884,
          -0.8927543759346008,
          -1.8407326936721802,
          -1.532521367073059,
          2.024305582046509,
          2.9471967220306396,
          1.0622358322143555,
          0.9455525875091553,
          -0.9337497353553772,
          1.799198031425476,
          1.9371833801269531,
          0.12823623418807983,
          -0.3226660192012787,
          2.1849632263183594,
          -1.3643988370895386,
          0.5887592434883118,
          2.329536199569702,
          0.300173819065094,
          -1.3377304077148438,
          -1.588784098625183,
          0.5425653457641602,
          1.288987636566162,
          0.6513832807540894,
          -1.0367954969406128,
          1.8616437911987305
        ],
        [
          0.3564613461494446,
          1.1298404932022095,
          0.39305350184440613,
          -0.6949326395988464,
          1.5227607488632202,
          2.365025281906128,
          -0.7953842282295227,
          0.15131045877933502,
          1.5181522369384766,
          -0.06826125830411911,
          -0.24340681731700897,
          -0.615755558013916,
          0.1288100630044937,
          -0.7699043154716492,
          0.17076928913593292,
          0.5353416204452515,
          1.6311625242233276,
          3.1400744915008545,
          -1.3399659395217896,
          -1.3054726123809814,
          -2.2352278232574463,
          1.526833415031433,
          0.07416994869709015,
          -0.4113143980503082,
          1.4092514514923096
        ],
        [
          0.9794849157333374,
          -1.7766913175582886,
          0.08260858803987503,
          0.1470852941274643,
          0.9433631896972656,
          0.8713230490684509,
          -0.29035472869873047,
          1.51051664352417,
          -0.3574977219104767,
          -0.4387858808040619,
          0.09730114787817001,
          0.38425400853157043,
          0.41982752084732056,
          1.3336141109466553,
          -2.05106520652771,
          -1.0833009481430054,
          0.19462770223617554,
          0.2901444435119629,
          -0.5633037090301514,
          -0.531934380531311,
          -0.7811893224716187,
          0.29277491569519043,
          -0.03934181109070778,
          -0.2391396164894104,
          2.1010026931762695
        ],
        [
          -0.5594742894172668,
          1.1941083669662476,
          2.9511396884918213,
          -0.2849899232387543,
          -2.1039576530456543,
          -0.6592800617218018,
          -0.43946942687034607,
          -0.8725901246070862,
          1.4393295049667358,
          -1.72292160987854,
          -1.266052007675171,
          -2.6804122924804688,
          1.2711435556411743,
          -1.011896014213562,
          1.7606600522994995,
          -0.38135039806365967,
          -1.7794804573059082,
          -0.6426582336425781,
          0.4218657910823822,
          2.434216022491455,
          0.37760332226753235,
          0.03199532628059387,
          0.32072901725769043,
          0.49871915578842163,
          -1.2322319746017456
        ],
        [
          -0.6857973337173462,
          -0.8943323493003845,
          1.427059292793274,
          1.4115893840789795,
          -0.2462950497865677,
          -1.7909269332885742,
          0.9724727869033813,
          -1.080881118774414,
          0.9491824507713318,
          0.07619305700063705,
          -0.7285467982292175,
          1.2789050340652466,
          -0.871849775314331,
          -0.4953034520149231,
          1.379621148109436,
          -0.17544439435005188,
          -2.0889334678649902,
          -0.5058847665786743,
          0.9743184447288513,
          0.014000791124999523,
          0.0028048940002918243,
          -2.3334028720855713,
          0.8774077296257019,
          -0.7205319404602051,
          -0.4110749065876007
        ],
        [
          -0.28401342034339905,
          1.661887526512146,
          -0.11940822750329971,
          -0.41830840706825256,
          -0.30796220898628235,
          0.655543863773346,
          0.06653955578804016,
          0.5636141896247864,
          0.8373264074325562,
          -0.38751929998397827,
          1.855934739112854,
          -2.7553887367248535,
          -0.893524706363678,
          -0.054502785205841064,
          -1.9538235664367676,
          -1.607885718345642,
          -1.4904606342315674,
          -0.14847557246685028,
          1.9245622158050537,
          1.595393180847168,
          -0.7160676717758179,
          0.877558708190918,
          -1.1244293451309204,
          0.4996100962162018,
          -0.9686049222946167
        ],
        [
          -0.9128233790397644,
          1.4891420602798462,
          2.23176908493042,
          1.0744130611419678,
          -2.002896547317505,
          -0.9405230283737183,
          -2.250840425491333,
          -1.4179335832595825,
          -0.42890554666519165,
          -1.9428653717041016,
          -0.7273189425468445,
          1.6086064577102661,
          0.5144670009613037,
          0.4340149462223053,
          -0.07191463559865952,
          -1.1644198894500732,
          -1.4350355863571167,
          -0.48307934403419495,
          2.239208936691284,
          1.5379290580749512,
          -0.8791542649269104,
          -0.30185773968696594,
          1.772675633430481,
          -0.3939494788646698,
          -3.183610439300537
        ],
        [
          -0.08664800226688385,
          -0.994327187538147,
          0.402749627828598,
          1.4723618030548096,
          0.43842950463294983,
          0.9115521907806396,
          -1.8010274171829224,
          0.7935407161712646,
          -0.06685825437307358,
          -0.0032541807740926743,
          0.9308081865310669,
          -1.294335126876831,
          -0.13912643492221832,
          -1.130853533744812,
          1.128435730934143,
          0.37518027424812317,
          -1.1691718101501465,
          1.5925471782684326,
          -0.16737788915634155,
          -0.639660120010376,
          -0.19571776688098907,
          0.21339678764343262,
          0.9230955243110657,
          -1.3948771953582764,
          -2.0320050716400146
        ],
        [
          2.1854419708251953,
          0.570541501045227,
          1.1682331562042236,
          -1.8260304927825928,
          -1.5723016262054443,
          0.6595659852027893,
          -1.5743411779403687,
          -0.2366693764925003,
          0.8060639500617981,
          0.17237596213817596,
          1.028595209121704,
          0.0678919330239296,
          1.0370662212371826,
          -0.9618266820907593,
          0.8417774438858032,
          -0.6116782426834106,
          -0.7382975816726685,
          -0.9428766369819641,
          -0.20898789167404175,
          0.12008590996265411,
          1.043921709060669,
          2.612154722213745,
          -1.245610237121582,
          -1.1764236688613892,
          -0.8031021356582642
        ],
        [
          0.5549549460411072,
          0.9558420181274414,
          -0.6797597408294678,
          0.6619462370872498,
          1.7668766975402832,
          0.6109174489974976,
          -0.9236660003662109,
          -0.6391156315803528,
          1.0442311763763428,
          0.7354460954666138,
          0.030282407999038696,
          1.423820972442627,
          0.48435842990875244,
          -0.37464872002601624,
          -2.715588092803955,
          0.6172943711280823,
          0.8002544045448303,
          0.6150714159011841,
          -1.8282830715179443,
          -1.2563976049423218,
          0.6488017439842224,
          -0.23629508912563324,
          0.5298822522163391,
          -0.20654289424419403,
          0.6044436097145081
        ],
        [
          5.265581130981445,
          0.9848688840866089,
          -2.48701548576355,
          -0.46265777945518494,
          2.131746292114258,
          3.4582414627075195,
          -3.7145814895629883,
          0.723606526851654,
          -0.9232348203659058,
          0.5160560011863708,
          2.996108293533325,
          -1.8830093145370483,
          -1.3515126705169678,
          -0.6638623476028442,
          -4.1837615966796875,
          1.1329056024551392,
          0.822357177734375,
          1.07587730884552,
          -1.7890290021896362,
          -1.5635048151016235,
          -1.3096129894256592,
          2.6304397583007812,
          -3.1309032440185547,
          -0.3374922275543213,
          0.49140694737434387
        ],
        [
          1.7009098529815674,
          -0.5716382265090942,
          -0.6561596393585205,
          -0.10792475193738937,
          1.6287888288497925,
          0.26303011178970337,
          0.5471931099891663,
          -0.14674636721611023,
          1.0990403890609741,
          0.6217806935310364,
          1.3824939727783203,
          0.33159157633781433,
          0.9755834937095642,
          1.5761010646820068,
          -2.251237630844116,
          2.1290442943573,
          0.3278384208679199,
          -2.030245780944824,
          1.5299808979034424,
          -0.5633953213691711,
          1.4163962602615356,
          -0.44078201055526733,
          0.8449454307556152,
          0.535659909248352,
          -0.682043731212616
        ],
        [
          2.024526834487915,
          0.23684443533420563,
          -1.0532705783843994,
          -1.0838615894317627,
          1.7760872840881348,
          1.6062413454055786,
          0.7591140270233154,
          0.8164942860603333,
          -1.622672438621521,
          0.8859078288078308,
          2.5970191955566406,
          0.9097035527229309,
          -0.44285517930984497,
          0.5867226719856262,
          -1.1792272329330444,
          0.3224897086620331,
          2.464958906173706,
          2.4926412105560303,
          -3.1710269451141357,
          -0.8525424599647522,
          -0.7475267052650452,
          0.14809490740299225,
          0.7158995866775513,
          1.4512600898742676,
          0.8770227432250977
        ],
        [
          2.8514139652252197,
          -0.8591823577880859,
          -3.0886611938476562,
          -0.8495246171951294,
          2.5752551555633545,
          3.0127646923065186,
          -2.043450117111206,
          2.2430825233459473,
          0.46369844675064087,
          -1.2532713413238525,
          2.286510467529297,
          -0.9753475785255432,
          -0.4587249457836151,
          -0.5100733041763306,
          -1.9774188995361328,
          0.09294133633375168,
          -0.44056689739227295,
          0.2921920418739319,
          -3.1939496994018555,
          -1.2821532487869263,
          -0.27527832984924316,
          1.509771466255188,
          0.6700790524482727,
          -0.6999723315238953,
          0.9650612473487854
        ],
        [
          -2.192812919616699,
          0.7077664136886597,
          1.7320027351379395,
          -0.3593384027481079,
          -0.7539200782775879,
          -1.016348958015442,
          -0.38764315843582153,
          -1.1224478483200073,
          0.5826438069343567,
          -1.078433632850647,
          -0.8356731534004211,
          -0.9144052267074585,
          1.2440524101257324,
          2.0773115158081055,
          2.596433639526367,
          -1.8182799816131592,
          -0.7929298281669617,
          -0.5037184357643127,
          2.3638594150543213,
          -0.9981613755226135,
          0.3247288763523102,
          -0.7093095183372498,
          2.3405163288116455,
          -2.721836805343628,
          -4.084388732910156
        ],
        [
          -0.8045989274978638,
          -0.5656141042709351,
          1.0164915323257446,
          1.5826503038406372,
          -2.383275270462036,
          -0.6750678420066833,
          1.1242210865020752,
          -2.3649637699127197,
          0.9978630542755127,
          -0.39817267656326294,
          -0.7819004058837891,
          2.0434277057647705,
          0.9377182722091675,
          0.7603376507759094,
          2.2671058177948,
          -0.9210249185562134,
          -1.728258728981018,
          -1.506223440170288,
          2.70261812210083,
          0.7373424768447876,
          -0.3311183750629425,
          -0.45882999897003174,
          0.6409438252449036,
          0.6333850622177124,
          -3.5402612686157227
        ],
        [
          0.7119895219802856,
          1.3237248659133911,
          1.8451117277145386,
          -0.03940663859248161,
          0.7365342378616333,
          2.25774884223938,
          -0.5345433354377747,
          -0.8892568945884705,
          0.9939620494842529,
          -0.5111963152885437,
          0.2857118546962738,
          0.6646456122398376,
          -0.058495260775089264,
          -1.8866162300109863,
          0.8627962470054626,
          -1.2685199975967407,
          -0.21873879432678223,
          -1.5846251249313354,
          -0.8557325005531311,
          -0.5934930443763733,
          -0.11514247953891754,
          0.4094824194908142,
          0.8094689846038818,
          0.32578516006469727,
          0.4549834728240967
        ],
        [
          -1.4278539419174194,
          0.6425468921661377,
          2.4794535636901855,
          -0.01284357812255621,
          -0.8873986601829529,
          -3.8955507278442383,
          0.8982067108154297,
          -1.2124451398849487,
          1.9944400787353516,
          0.31366923451423645,
          -1.568397879600525,
          -0.8212440609931946,
          0.212820366024971,
          -1.2482589483261108,
          2.5310378074645996,
          0.32185348868370056,
          -0.3944317698478699,
          -1.5219401121139526,
          2.5236716270446777,
          0.2729648947715759,
          -0.8027890920639038,
          -0.5772078633308411,
          -1.2523605823516846,
          -1.4615354537963867,
          -1.126621127128601
        ],
        [
          -0.16616983711719513,
          -0.013546155765652657,
          -0.5276848673820496,
          -0.7643027901649475,
          0.8335234522819519,
          -0.05272278934717178,
          0.10667600482702255,
          1.499443769454956,
          -0.7308093309402466,
          -1.4161720275878906,
          -0.8450410962104797,
          -0.8104805946350098,
          0.7905527949333191,
          2.0093255043029785,
          -1.381568193435669,
          0.8073071837425232,
          1.7070178985595703,
          2.0254812240600586,
          -0.6253278851509094,
          -0.41849780082702637,
          0.03976915776729584,
          0.6263678073883057,
          0.7796100974082947,
          -0.09982559829950333,
          -0.24099421501159668
        ]
      ]
    },
    {
      "name": "activation_5",
      "type": "tanh"
    },
    {
      "has_bias": true,
      "bias": [
        -0.9803865551948547,
        1.0289013385772705,
        1.6234619617462158,
        2.3558952808380127,
        1.9290838241577148,
        0.5375873446464539,
        2.3675358295440674,
        1.0653517246246338,
        3.0964505672454834,
        2.430772066116333,
        0.5660092234611511,
        3.3513314723968506,
        1.8190481662750244,
        2.770404100418091,
        1.2758793830871582,
        2.1197969913482666,
        1.1253843307495117,
        2.1280524730682373,
        1.7886738777160645,
        0.6641281247138977,
        2.833780527114868,
        0.4623141884803772,
        1.9327921867370605,
        2.0845558643341064,
        2.0801970958709717
      ],
      "in_features": 25,
      "type": "dense",
      "name": "trainable_6",
      "out_features": 25,
      "weights": [
        [
          1.8841962814331055,
          1.6647285223007202,
          1.3010139465332031,
          0.6429669857025146,
          -0.24364349246025085,
          0.5544731020927429,
          2.820828437805176,
          2.1898200511932373,
          -1.4892171621322632,
          0.24114909768104553,
          0.7569791674613953,
          0.4053037762641907,
          2.1733038425445557,
          0.18924057483673096,
          2.2561569213867188,
          0.8061546087265015,
          0.6260945200920105,
          0.21829785406589508,
          0.22620825469493866,
          1.1218888759613037,
          1.0233525037765503,
          3.5576045513153076,
          0.7105424404144287,
          0.9310407638549805,
          1.7255382537841797
        ],
        [
          2.381749391555786,
          -0.22467322647571564,
          -0.733194887638092,
          2.4504764080047607,
          1.215513825416565,
          -0.30693361163139343,
          1.3882166147232056,
          2.034677028656006,
          1.3014143705368042,
          -0.2676301896572113,
          1.7406370639801025,
          -0.10250977426767349,
          1.6657191514968872,
          0.465968519449234,
          0.49375107884407043,
          1.5201796293258667,
          0.42928722500801086,
          1.4728959798812866,
          0.709561824798584,
          1.1822869777679443,
          0.5547580122947693,
          0.013629242777824402,
          -0.1680050939321518,
          1.0075349807739258,
          -0.08083606511354446
        ],
        [
          0.25745680928230286,
          0.9355050325393677,
          1.2404741048812866,
          0.39857351779937744,
          1.720158576965332,
          -1.3424032926559448,
          0.8509722352027893,
          2.2347464561462402,
          1.4529476165771484,
          -0.10214465856552124,
          0.22198708355426788,
          1.4128257036209106,
          0.12654604017734528,
          -0.008786553516983986,
          0.6226931214332581,
          0.8352037072181702,
          1.218221664428711,
          0.3026004433631897,
          0.8189712166786194,
          2.7972514629364014,
          -2.7268528938293457,
          -0.3578358292579651,
          3.0010008811950684,
          -0.2640334367752075,
          2.543792486190796
        ],
        [
          1.6472610235214233,
          1.9040806293487549,
          0.5518288016319275,
          0.9842174649238586,
          0.4014878571033478,
          0.18483221530914307,
          1.0670220851898193,
          1.3762413263320923,
          1.7933619022369385,
          0.2584114372730255,
          0.4604511857032776,
          1.6013156175613403,
          1.1231428384780884,
          0.44707828760147095,
          0.9407706260681152,
          0.7574256658554077,
          0.43915292620658875,
          0.5500943660736084,
          1.2626187801361084,
          0.6156756281852722,
          -1.6373939514160156,
          1.507629632949829,
          0.9756052494049072,
          0.2928025424480438,
          1.0997827053070068
        ],
        [
          1.8640429973602295,
          0.02857513725757599,
          0.9888454079627991,
          1.3001182079315186,
          0.22541476786136627,
          -0.04943770170211792,
          -0.23836079239845276,
          -0.7508878111839294,
          1.0148757696151733,
          1.182639479637146,
          -0.41101303696632385,
          2.6644978523254395,
          2.0471243858337402,
          0.7543764710426331,
          1.125771164894104,
          0.7759740948677063,
          2.051536798477173,
          -0.7912749648094177,
          -0.9016088843345642,
          0.6521626114845276,
          1.203850507736206,
          2.335890531539917,
          1.256904125213623,
          2.0931246280670166,
          0.2712964117527008
        ],
        [
          1.2902681827545166,
          1.1244313716888428,
          0.6250572204589844,
          0.3616681396961212,
          1.4979546070098877,
          0.9979338049888611,
          -0.38805827498435974,
          -0.2600707411766052,
          1.650309443473816,
          0.10487854480743408,
          0.4510563313961029,
          -1.0977184772491455,
          0.12377872318029404,
          -0.2592078149318695,
          1.5664396286010742,
          1.331706166267395,
          0.36906397342681885,
          1.7570852041244507,
          1.6358911991119385,
          0.6066086888313293,
          1.6966291666030884,
          1.7852591276168823,
          1.6544103622436523,
          -0.22362807393074036,
          -0.5532112121582031
        ],
        [
          1.3580979108810425,
          -0.5415602922439575,
          0.6818435788154602,
          -0.21800939738750458,
          1.332443356513977,
          3.1435306072235107,
          1.9827959537506104,
          1.4540798664093018,
          0.1931351274251938,
          2.2901241779327393,
          0.5888189077377319,
          0.2913881242275238,
          1.3445225954055786,
          2.8220534324645996,
          -1.4261478185653687,
          0.40113040804862976,
          0.8295304179191589,
          1.395795226097107,
          1.4358797073364258,
          1.3844860792160034,
          -1.1621222496032715,
          -0.1967657208442688,
          -0.23733197152614594,
          -0.004922771826386452,
          0.6910285949707031
        ],
        [
          -1.0185902118682861,
          1.4053903818130493,
          0.1556662768125534,
          1.1688357591629028,
          -0.5431926250457764,
          1.5793495178222656,
          1.9517004489898682,
          1.2900665998458862,
          0.2797076404094696,
          0.14332711696624756,
          1.0807405710220337,
          0.8376761674880981,
          -0.023716583847999573,
          -0.6152905225753784,
          2.278377056121826,
          0.99507075548172,
          3.5829198360443115,
          -0.5319702625274658,
          -0.14504723250865936,
          3.063326120376587,
          0.24273681640625,
          -0.14669428765773773,
          1.155402421951294,
          1.2107425928115845,
          1.0230098962783813
        ],
        [
          1.2847453355789185,
          -1.0683915615081787,
          0.6331783533096313,
          2.0409600734710693,
          2.000518560409546,
          0.2106817662715912,
          1.2602853775024414,
          0.9289399981498718,
          -0.087799072265625,
          1.01985502243042,
          1.9542639255523682,
          -0.11593572795391083,
          0.17302563786506653,
          0.02250606007874012,
          0.5436806678771973,
          2.086843490600586,
          1.1424970626831055,
          1.0904266834259033,
          2.174825668334961,
          -0.5600160956382751,
          1.3176113367080688,
          -1.4927244186401367,
          1.140005111694336,
          -1.4761043787002563,
          0.1047716811299324
        ],
        [
          0.6086035370826721,
          0.3187251687049866,
          0.7038823366165161,
          1.8470213413238525,
          1.0392045974731445,
          1.777195692062378,
          0.22814986109733582,
          -0.6554276943206787,
          -0.5664106011390686,
          0.30917876958847046,
          -0.7984278798103333,
          2.2643659114837646,
          1.4165371656417847,
          1.6064666509628296,
          0.6763393878936768,
          -1.0431119203567505,
          -0.08645603805780411,
          2.3796327114105225,
          0.5986840724945068,
          1.1462115049362183,
          -1.4386221170425415,
          2.2164969444274902,
          1.2394952774047852,
          -0.9680448770523071,
          1.2634408473968506
        ],
        [
          0.17177753150463104,
          1.5744999647140503,
          0.3324638903141022,
          0.5172274708747864,
          2.3551604747772217,
          -0.8600010275840759,
          1.3334308862686157,
          -0.2295646220445633,
          -0.5121103525161743,
          0.34690338373184204,
          -1.395687460899353,
          0.4101417362689972,
          -0.27084189653396606,
          0.14024193584918976,
          2.844510078430176,
          1.1055904626846313,
          1.2541526556015015,
          0.6553289890289307,
          -0.42561307549476624,
          0.49208953976631165,
          3.0535597801208496,
          -0.9564784169197083,
          0.3908950686454773,
          1.468600869178772,
          0.6240463256835938
        ],
        [
          1.2385337352752686,
          0.060757625848054886,
          2.331326723098755,
          1.4708589315414429,
          -0.005816204939037561,
          3.774054765701294,
          1.7258135080337524,
          2.0091099739074707,
          0.4817265570163727,
          0.7025285363197327,
          0.6438699960708618,
          0.3210623264312744,
          -0.36017030477523804,
          0.13109566271305084,
          -0.5269702672958374,
          1.2783764600753784,
          0.501214325428009,
          1.2867130041122437,
          0.778415322303772,
          2.297586441040039,
          -1.052926778793335,
          0.825080394744873,
          1.197906494140625,
          0.0689484030008316,
          0.012548357248306274
        ],
        [
          0.32340681552886963,
          0.1881687194108963,
          0.15635330975055695,
          2.4938955307006836,
          -1.323862075805664,
          0.3466784656047821,
          3.946826934814453,
          -0.39939096570014954,
          -0.06733664125204086,
          0.6149089336395264,
          1.0911226272583008,
          -0.8162208199501038,
          -0.33518895506858826,
          0.2875773310661316,
          0.9511985778808594,
          1.4798235893249512,
          -0.34625619649887085,
          1.0073601007461548,
          1.122862696647644,
          -0.4525611698627472,
          -1.604791522026062,
          0.9470873475074768,
          1.3287978172302246,
          1.3297395706176758,
          0.2856779098510742
        ],
        [
          1.4232583045959473,
          0.0438922755420208,
          0.19764259457588196,
          0.9254645705223083,
          0.2747109830379486,
          1.530853033065796,
          1.5511834621429443,
          -0.870800256729126,
          1.7854359149932861,
          0.3052820563316345,
          1.8871043920516968,
          -0.4126282334327698,
          0.352448970079422,
          -0.20088714361190796,
          -0.1327073574066162,
          0.16722680628299713,
          1.0648771524429321,
          0.4047604501247406,
          0.572658360004425,
          1.9500229358673096,
          -1.3876625299453735,
          1.5305750370025635,
          1.1716783046722412,
          1.7803270816802979,
          1.5364121198654175
        ],
        [
          1.0742883682250977,
          1.1349217891693115,
          1.010772705078125,
          2.594306468963623,
          1.4926763772964478,
          -0.5781813859939575,
          1.4571417570114136,
          1.2783362865447998,
          2.40531849861145,
          2.0206356048583984,
          1.9843143224716187,
          1.7550618648529053,
          0.2609310746192932,
          -0.8523773550987244,
          0.4500161111354828,
          0.3563857972621918,
          2.0034730434417725,
          1.0830599069595337,
          1.7526636123657227,
          0.22666853666305542,
          -1.9834771156311035,
          0.3069847524166107,
          2.4839086532592773,
          1.6923027038574219,
          -1.4730472564697266
        ],
        [
          -1.0417083501815796,
          -1.7483245134353638,
          1.509159803390503,
          1.2280739545822144,
          1.03123939037323,
          0.30730265378952026,
          1.8071244955062866,
          0.9375082850456238,
          1.2538973093032837,
          -0.10788131505250931,
          -0.7805057168006897,
          2.185420036315918,
          -1.1207606792449951,
          -0.6260957717895508,
          -0.30367571115493774,
          -0.14203111827373505,
          1.208364486694336,
          0.6620868444442749,
          1.382179617881775,
          0.9434504508972168,
          0.6489397883415222,
          0.5827124118804932,
          1.2917900085449219,
          1.7582178115844727,
          1.844623327255249
        ],
        [
          0.10498493164777756,
          -0.7560541033744812,
          0.08507250249385834,
          1.1738710403442383,
          1.8766733407974243,
          1.5891412496566772,
          -0.9544677734375,
          2.7045516967773438,
          -1.0790413618087769,
          0.623787522315979,
          0.340336412191391,
          -0.9737654328346252,
          0.5744374990463257,
          0.2085029035806656,
          1.1709643602371216,
          2.5399954319000244,
          1.1962696313858032,
          1.104283332824707,
          1.0206997394561768,
          -0.2879357635974884,
          1.378090500831604,
          1.9130330085754395,
          0.4410262703895569,
          -0.3327016234397888,
          1.4496086835861206
        ],
        [
          1.27065110206604,
          0.6522722840309143,
          0.9435515403747559,
          1.1862876415252686,
          1.0613359212875366,
          1.5459998846054077,
          1.1609007120132446,
          -0.15313021838665009,
          0.21239691972732544,
          0.7899422645568848,
          1.7497788667678833,
          1.9572504758834839,
          0.9766583442687988,
          0.9633651971817017,
          2.7814793586730957,
          1.347622275352478,
          2.1496529579162598,
          1.1843769550323486,
          0.4557795524597168,
          1.9052457809448242,
          -0.0585046112537384,
          1.788536787033081,
          0.9778733849525452,
          0.182776540517807,
          -1.2702250480651855
        ],
        [
          0.22629237174987793,
          1.8300124406814575,
          0.13125383853912354,
          1.0704799890518188,
          0.9429439902305603,
          -1.0965803861618042,
          0.9127092361450195,
          2.07857608795166,
          0.27835172414779663,
          0.8378149271011353,
          -0.2453671246767044,
          -0.6815069913864136,
          0.7428638935089111,
          0.41792407631874084,
          -0.7486829161643982,
          0.7321769595146179,
          0.9662297964096069,
          2.5136804580688477,
          -0.4341922104358673,
          -0.04893658310174942,
          -1.4071171283721924,
          -1.2039849758148193,
          0.8144991993904114,
          2.3788440227508545,
          -1.0093978643417358
        ],
        [
          2.1233203411102295,
          0.5076234936714172,
          1.7257513999938965,
          0.8890526294708252,
          2.0120046138763428,
          0.9571365714073181,
          -0.8671865463256836,
          1.6008609533309937,
          0.9469097852706909,
          1.592742919921875,
          1.888323426246643,
          1.3026236295700073,
          2.076692819595337,
          0.7697710394859314,
          0.41065236926078796,
          0.920118510723114,
          1.2280224561691284,
          -0.2670218348503113,
          1.4018460512161255,
          2.039362907409668,
          -0.38813093304634094,
          -1.511187195777893,
          0.8488343954086304,
          -0.12517328560352325,
          -0.5410999655723572
        ],
        [
          0.3428172469139099,
          1.1286739110946655,
          1.2416510581970215,
          0.12628188729286194,
          0.5359852313995361,
          2.378352642059326,
          0.9619724750518799,
          -0.5638805031776428,
          0.4539044201374054,
          1.454331636428833,
          1.7913644313812256,
          -0.1953197866678238,
          1.4159876108169556,
          0.4943089485168457,
          0.946200966835022,
          1.8597432374954224,
          0.6591570973396301,
          0.9959784746170044,
          0.30299097299575806,
          3.370065450668335,
          -0.22874532639980316,
          0.7783865928649902,
          1.532896876335144,
          -0.23672999441623688,
          0.2867530882358551
        ],
        [
          1.7039028406143188,
          2.11912202835083,
          1.4393848180770874,
          0.17876578867435455,
          1.2302862405776978,
          0.7340934872627258,
          0.8764351010322571,
          0.6803588271141052,
          -0.728704035282135,
          0.3145829439163208,
          -1.3368583917617798,
          -1.9545291662216187,
          1.493010401725769,
          -0.07736391574144363,
          0.25377029180526733,
          0.45572879910469055,
          -0.2668878734111786,
          1.0348842144012451,
          0.8655467629432678,
          1.882146954536438,
          -0.266521155834198,
          0.7591509819030762,
          1.7132923603057861,
          0.5187490582466125,
          2.9137537479400635
        ],
        [
          -0.0024661882780492306,
          -0.008525396697223186,
          2.365420341491699,
          0.6982289552688599,
          0.2518918216228485,
          1.803458333015442,
          -0.9643124341964722,
          0.7028776407241821,
          -0.519427478313446,
          0.9298888444900513,
          1.0070968866348267,
          0.7183796167373657,
          0.834632158279419,
          0.4432033598423004,
          -1.6264233589172363,
          1.981632113456726,
          1.4056893587112427,
          0.20719704031944275,
          -0.6659305691719055,
          -0.47334161400794983,
          -0.46403539180755615,
          0.10126977413892746,
          1.2238458395004272,
          1.6750298738479614,
          -0.15591780841350555
        ],
        [
          0.7050638198852539,
          1.7153245210647583,
          2.0423874855041504,
          1.0241315364837646,
          1.1978909969329834,
          1.7820998430252075,
          0.11159714311361313,
          1.5496653318405151,
          1.334678053855896,
          0.05426523834466934,
          -1.2534629106521606,
          1.3827921152114868,
          1.0462894439697266,
          -0.41821396350860596,
          -1.4052962064743042,
          1.8015271425247192,
          -0.13351453840732574,
          0.2758098244667053,
          1.346065878868103,
          0.07534902542829514,
          -0.38124680519104004,
          2.852231740951538,
          -1.0893718004226685,
          1.5783531665802002,
          0.43654972314834595
        ],
        [
          1.6911672353744507,
          1.4979281425476074,
          1.1901344060897827,
          0.5289250612258911,
          1.181134581565857,
          1.9887232780456543,
          1.3245596885681152,
          1.1699296236038208,
          0.23824815452098846,
          0.9092825651168823,
          -0.3341047763824463,
          0.9760366678237915,
          0.0657060295343399,
          -0.9948092103004456,
          1.8005555868148804,
          2.4373154640197754,
          -0.5528829097747803,
          0.8049944043159485,
          -0.1139599084854126,
          0.8199622631072998,
          1.2082890272140503,
          0.7080772519111633,
          1.3541988134384155,
          1.0604169368743896,
          -0.054527465254068375
        ]
      ]
    },
    {
      "name": "activation_7",
      "type": "tanh"
    },
    {
      "has_bias": true,
      "bias": [
        1.2449603080749512,
        0.9775514602661133
      ],
      "in_features": 25,
      "type": "dense",
      "name": "trainable_8",
      "out_features": 2,
      "weights": [
        [
          0.10375530272722244,
          -0.12397526949644089
        ],
        [
          0.06085466220974922,
          -0.03342672437429428
        ],
        [
          0.14074265956878662,
          -0.11347828805446625
        ],
        [
          0.0017331026028841734,
          -0.024939855560660362
        ],
        [
          0.11205413937568665,
          -0.0386163592338562
        ],
        [
          0.22727616131305695,
          -0.02784142456948757
        ],
        [
          0.03964769467711449,
          0.02958141826093197
        ],
        [
          -0.07797277718782425,
          0.033278025686740875
        ],
        [
          -0.10427334904670715,
          0.008526105433702469
        ],
        [
          -0.0577169731259346,
          0.048545368015766144
        ],
        [
          -0.07779118418693542,
          0.004621326923370361
        ],
        [
          0.05537112429738045,
          0.005458472296595573
        ],
        [
          0.003996237646788359,
          0.06443002074956894
        ],
        [
          -0.00014979200204834342,
          -0.06290196627378464
        ],
        [
          -0.00371341104619205,
          0.03381047770380974
        ],
        [
          0.0681586042046547,
          -0.08394867181777954
        ],
        [
          0.0024533753748983145,
          -0.015376540832221508
        ],
        [
          0.09102579951286316,
          -0.0325457826256752
        ],
        [
          -0.13657425343990326,
          0.03826288878917694
        ],
        [
          0.15982578694820404,
          -0.09573394805192947
        ],
        [
          0.03645172342658043,
          -0.6340805292129517
        ],
        [
          0.11422859132289886,
          -0.027099493891000748
        ],
        [
          -0.08418010175228119,
          0.08914728462696075
        ],
        [
          0.013827086426317692,
          -0.02791883423924446
        ],
        [
          0.08348358422517776,
          -0.10983821749687195
        ]
      ]
    },
    {
      "name": "activation_9",
      "type": "tanh"
    },
    {
      "name": "criterion_10",
      "type": "mse"
    }
  ]
}