{"test_accuracy": 0.933, "layers": [{"has_bias": true, "bias": [10.302813529968262, 11.0498628616333, 10.273612022399902, 8.57239818572998, 10.506842613220215, 10.469944953918457, 9.408347129821777, 11.679154396057129, 8.283733367919922, 9.272856712341309, 12.159476280212402, 8.153277397155762, 9.856804847717285, 10.160344123840332, 8.085478782653809, 10.455952644348145, 10.08842945098877, 9.076550483703613, 10.582198143005371, 9.060135841369629, 10.697340965270996, 11.114693641662598, 9.160687446594238, 13.474459648132324, 10.986598014831543], "in_features": 2, "type": "dense", "name": "trainable_0", "out_features": 25, "weights": [[-5.604841232299805, -8.50455093383789, -17.57062530517578, -5.558244705200195, -5.488433361053467, -7.34431791305542, -24.142393112182617, -0.6988821625709534, 8.088406562805176, -4.1782546043396, -25.001413345336914, -0.09433446824550629, -5.364419460296631, -7.6275835037231445, 20.56976318359375, -6.809070587158203, -2.5383448600769043, -2.6093575954437256, -2.5734212398529053, 37.798858642578125, -1.398209810256958, -6.404270172119141, -5.573219299316406, -17.972959518432617, -4.726313591003418], [-5.89035177230835, -5.650651454925537, 11.442261695861816, -7.196338653564453, -4.808078765869141, -4.31492805480957, 47.47414779663086, -13.365219116210938, -12.689237594604492, -4.19384765625, -24.95302391052246, -7.336550235748291, 3.1345129013061523, 0.19561773538589478, 19.686933517456055, 0.3379000723361969, -10.48632526397705, -6.79879093170166, 4.623194694519043, -23.15454864501953, -1.7936371564865112, 1.7142283916473389, -7.0830793380737305, 2.1961894035339355, -3.712068796157837]]}, {"name": "activation_1", "type": "tanh"}, {"has_bias": true, "bias": [2.984175443649292, 0.7418721914291382, 2.1998236179351807, 0.5174908638000488, 2.1931674480438232, 3.0315520763397217, 2.607409715652466, 1.226071834564209, 2.397841691970825, 0.2085859626531601, 1.5772271156311035, 3.7490522861480713, 1.7523250579833984, 1.8412127494812012, 2.773380994796753, 2.123878240585327, 2.2137014865875244, 0.8894098997116089, 3.1069209575653076, 2.8216378688812256, 2.951406240463257, 1.8158018589019775, 0.8448202610015869, 0.8614868521690369, 3.313476800918579], "in_features": 25, "type": "dense", "name": "trainable_2", "out_features": 25, "weights": [[1.0487022399902344, 0.016337592154741287, -2.500967502593994, -0.8802428841590881, -0.820118248462677, -3.1764140129089355, 0.6513626575469971, -1.0484044551849365, -0.4061362147331238, -1.6530640125274658, -2.3768904209136963, 1.8866636753082275, -0.44107186794281006, -2.2406957149505615, -1.8699034452438354, 1.9608045816421509, 3.4953951835632324, -0.8858610391616821, 3.228148937225342, -0.654536247253418, -1.7823536396026611, -1.3984124660491943, -1.5966880321502686, -0.14383430778980255, -0.2671835720539093], [-0.5378154516220093, -1.4958043098449707, 2.360187530517578, -0.04878972843289375, -2.4444401264190674, 4.122446537017822, -5.126897811889648, -0.9674668312072754, -1.7425336837768555, 2.258141040802002, 1.321669578552246, -0.39350664615631104, 3.016336679458618, 1.6898449659347534, -0.6622754335403442, -2.3942854404449463, -0.017818760126829147, 0.5850560665130615, -4.105466365814209, -1.2896370887756348, 2.3881478309631348, 2.1972014904022217, 0.6485653519630432, 3.223146677017212, -1.8871654272079468], [1.6228337287902832, -0.12911131978034973, 2.760033130645752, 2.398409128189087, -0.9115593433380127, 6.61775541305542, -3.889073371887207, -2.5886027812957764, -1.8121386766433716, 0.4829973876476288, 3.066983461380005, -1.8964049816131592, 3.908681869506836, -2.1701302528381348, 0.6032079458236694, -2.4967122077941895, -6.351038455963135, 0.18519113957881927, -4.3710713386535645, -3.942315101623535, 4.343181610107422, 4.725347995758057, -0.8134409189224243, 2.29630708694458, -3.527482032775879], [1.0516533851623535, -1.1672084331512451, 0.9240774512290955, 3.9512197971343994, -0.831051230430603, 1.855972170829773, -1.2498557567596436, -2.909943103790283, 0.2685607671737671, 1.558226227760315, -1.272733211517334, -0.05147974565625191, 0.06812217086553574, -1.9277007579803467, 0.40738436579704285, 0.7273106575012207, -0.16437460482120514, -2.9841995239257812, -0.4381609559059143, -1.0838793516159058, -2.223996877670288, 1.7951164245605469, -0.5519105792045593, -1.7146859169006348, 0.7090500593185425], [-0.21161749958992004, 1.0326076745986938, -0.9870693683624268, 0.29031381011009216, -0.13417242467403412, -5.140283107757568, 1.1145278215408325, 1.3084663152694702, 2.5887184143066406, -2.467777967453003, -2.93239164352417, 1.5126128196716309, -0.6375759243965149, -0.6609785556793213, -1.6330558061599731, 1.5211962461471558, 3.186209201812744, -1.0166410207748413, 3.256680488586426, 3.24004864692688, -6.655725002288818, -3.1142797470092773, -0.2552056610584259, -3.2351746559143066, -0.3699102997779846], [-1.4894816875457764, -0.4786013960838318, -2.1245322227478027, -0.3430674076080322, -0.7454310655593872, -2.6120798587799072, 0.17741598188877106, -0.12299692630767822, 2.2165372371673584, -2.05745792388916, -2.142331838607788, 0.17343467473983765, -2.293747663497925, -0.32847699522972107, 0.24565239250659943, -0.7139876484870911, 0.8672524094581604, 0.05549432709813118, 3.039490222930908, 1.8136770725250244, -2.896193504333496, -0.5133743286132812, -0.20998623967170715, -1.4599123001098633, 0.712602436542511], [1.1205337047576904, 0.06075545772910118, 5.865060806274414, 6.0113525390625, -2.0779099464416504, 17.478113174438477, -8.979894638061523, -5.682611465454102, -8.093024253845215, 9.235358238220215, 6.064609527587891, 1.3233031034469604, 10.732428550720215, 2.5649240016937256, 1.1642374992370605, -4.145284175872803, -9.9014892578125, -1.7308895587921143, -11.920086860656738, -4.994255542755127, 13.0680513381958, 10.040339469909668, 1.0167365074157715, 6.967291831970215, -5.204275608062744], [0.4614914059638977, 1.8261393308639526, 4.402449607849121, 0.6579537987709045, -0.874398946762085, 4.645358562469482, -1.8565499782562256, -3.1507396697998047, -4.885648250579834, 2.5034263134002686, 2.6452155113220215, 0.2894887626171112, 2.8887884616851807, 1.938478708267212, -0.7797451019287109, -3.8777318000793457, -5.317093849182129, 0.46921995282173157, -4.755345344543457, -2.8240325450897217, 7.944072723388672, 1.0626157522201538, 2.3795580863952637, 3.7638590335845947, -0.08407838642597198], [0.882837176322937, -2.0937793254852295, -0.7542300820350647, 2.4901139736175537, -2.8228366374969482, 2.3655638694763184, -0.6103451251983643, -2.3731939792633057, -1.6988892555236816, 5.1802978515625, 1.453885793685913, -1.5040217638015747, -0.14246603846549988, -2.5836234092712402, 0.20052744448184967, 1.1039917469024658, -7.855784893035889, -0.5553661584854126, -4.05205774307251, -1.9104217290878296, 3.743891477584839, 1.9988417625427246, -0.96299147605896, 1.3714237213134766, 0.02580225095152855], [1.1221504211425781, 2.1958842277526855, -2.4520583152770996, -0.11796486377716064, 0.4739941358566284, -4.168901443481445, 1.325119137763977, -0.7429330945014954, 1.7154872417449951, -2.2162013053894043, 0.4426383674144745, 0.11949776858091354, -1.4538207054138184, 0.18337152898311615, 0.21549323201179504, 2.252422571182251, 2.3801205158233643, 1.6011548042297363, 2.3510172367095947, 1.150117039680481, -1.8275028467178345, -1.867276906967163, -0.11018475890159607, -2.161937713623047, 1.3243002891540527], [1.1996872425079346, 0.7386288046836853, -3.3308918476104736, -7.229395866394043, 1.366674780845642, -18.010936737060547, 10.739278793334961, 1.6736857891082764, 5.528783321380615, -6.5241379737854, -9.573081970214844, -2.6778128147125244, -6.870975494384766, -0.9902262687683105, -1.05930757522583, 5.849173545837402, 8.29550552368164, -2.1919538974761963, 8.999022483825684, 5.222223281860352, -13.2785005569458, -8.87088394165039, -0.7017136216163635, -0.3177783489227295, 5.136768817901611], [-0.2614096999168396, 0.9254010319709778, -3.026209831237793, 2.085813045501709, 1.8428536653518677, -1.6134589910507202, 1.479434847831726, 2.110024929046631, 2.55995512008667, 0.4629967510700226, 0.7540403604507446, -1.8037384748458862, -4.115841865539551, -0.6496785283088684, 0.5493374466896057, 0.7514941096305847, 2.7195634841918945, 4.1375346183776855, 2.660790205001831, 2.7896363735198975, -0.6141400933265686, -1.7071330547332764, -1.7574381828308105, -0.7819764018058777, 1.483513355255127], [-1.5404022932052612, 0.11309372633695602, -0.9233649969100952, -3.371647596359253, 0.8975170850753784, -3.246525764465332, 2.865138530731201, 1.5235639810562134, 3.2387757301330566, -3.0134122371673584, -1.4452729225158691, 1.1781779527664185, -1.200326681137085, 0.5159413814544678, -0.906024694442749, -0.3996516466140747, 3.3203601837158203, -1.006170392036438, 3.179245948791504, 3.375109910964966, -4.082728385925293, -2.8315048217773438, 0.5382843017578125, -0.6601464748382568, 0.6637241244316101], [-1.3389500379562378, 0.9774373173713684, -2.07974910736084, -1.6514012813568115, 0.8506016135215759, -1.5190800428390503, 2.815284252166748, 0.9060397148132324, 1.138053059577942, -4.489569664001465, -1.211155652999878, 0.05424248054623604, -1.974317193031311, 1.9862443208694458, 2.9179184436798096, 1.0769250392913818, 2.434086322784424, 0.5574784874916077, 2.511000633239746, 2.505686044692993, -3.4834768772125244, -3.2437615394592285, 1.2245134115219116, -2.73017954826355, 0.5186861753463745], [-2.4815707206726074, -1.967671513557434, -4.558131217956543, -1.820055365562439, 1.6475709676742554, -4.890172004699707, 4.159460067749023, 1.1398227214813232, 4.70958137512207, -2.666592597961426, 0.937188982963562, -1.8555948734283447, -2.328040838241577, -1.9435828924179077, 0.5211077332496643, 5.160856246948242, 7.67424201965332, 2.4529027938842773, 7.482525825500488, 4.3189826011657715, -3.9617714881896973, -1.074397325515747, 2.3524696826934814, -2.8196048736572266, 2.5202579498291016], [-0.259759783744812, 1.1215072870254517, -1.2993192672729492, -2.6652414798736572, 0.5284789204597473, -3.678654432296753, 2.98584246635437, -0.26216545701026917, 2.026020050048828, -1.8882945775985718, -0.41680192947387695, 0.8825311064720154, -1.825116753578186, 0.3500880300998688, -0.6921055316925049, 1.4059900045394897, 3.765707015991211, 0.4844505488872528, 1.1720463037490845, 3.3627331256866455, -4.105266094207764, -1.4436222314834595, -0.33787238597869873, -2.4528121948242188, 1.4014965295791626], [0.7168466448783875, -1.5313808917999268, 1.5978682041168213, 2.289543628692627, 1.9819650650024414, 3.78521728515625, -1.2485771179199219, 0.279188334941864, -1.6630375385284424, 2.0188090801239014, 4.564138412475586, 1.1001874208450317, 2.705677032470703, 2.023380994796753, 0.3293690085411072, -3.5497701168060303, -2.5351860523223877, -0.11977316439151764, -2.28853178024292, -1.7449638843536377, 3.5654120445251465, 0.0010300488211214542, 0.1399669349193573, 2.0234591960906982, -3.054384469985962], [0.9248933792114258, 1.5435328483581543, -2.2666196823120117, 0.07465476542711258, 1.4310550689697266, -0.27966251969337463, 1.5983734130859375, 2.7592170238494873, 2.1391470432281494, 0.7048721313476562, 0.5470333099365234, -1.2779327630996704, -1.8114596605300903, 2.334977149963379, -0.7105815410614014, 1.3838298320770264, 3.64996337890625, 2.9476146697998047, 0.46982860565185547, 2.0585758686065674, 2.1005518436431885, 0.15288197994232178, -0.234977588057518, 0.30039647221565247, 1.4970355033874512], [-1.9339770078659058, 0.42500951886177063, -1.7182384729385376, -2.1441118717193604, -0.5328323841094971, -2.9207041263580322, 2.200803279876709, 2.651949405670166, 2.426666736602783, -1.3385725021362305, -1.4739747047424316, -2.4425463676452637, -0.7581571936607361, 0.022306125611066818, -1.3001821041107178, 1.409069299697876, 4.652904510498047, -1.6335700750350952, 2.84379243850708, 1.5916054248809814, -1.8305437564849854, -3.5353031158447266, 1.0922027826309204, -1.9920717477798462, 1.011887788772583], [0.4769079387187958, -0.1800316870212555, 4.988225936889648, 6.8369855880737305, -1.8835467100143433, 13.215278625488281, -11.42491340637207, -1.867235541343689, -8.231537818908691, 7.276792049407959, 5.030750751495361, 1.0971393585205078, 5.831880569458008, 1.1766351461410522, 1.1555753946304321, -6.631287574768066, -6.381638526916504, -1.809757947921753, -9.850740432739258, -4.151872158050537, 13.100656509399414, 9.631518363952637, 0.3015804886817932, 6.027655124664307, -4.437506675720215], [-0.010007482953369617, 1.0503684282302856, -1.8764947652816772, -2.9920504093170166, 0.7481178045272827, -4.549766540527344, 2.2011446952819824, 1.718247652053833, 1.297131061553955, -4.355822563171387, -2.5443575382232666, 0.5147311687469482, -1.6505414247512817, -1.8410801887512207, -2.1451737880706787, 1.615067481994629, 4.133747100830078, 0.167189821600914, 3.7247118949890137, 0.8166943788528442, -5.259304046630859, -3.1998157501220703, -1.5788549184799194, -1.7469896078109741, 0.9066749811172485], [1.1122528314590454, -0.07412952929735184, -2.214529514312744, -2.9113385677337646, 0.40413418412208557, -2.3883252143859863, 0.406211793422699, 1.2322900295257568, 1.7278822660446167, -3.6385319232940674, -3.708651542663574, -0.4882655441761017, -1.3585385084152222, 1.1777204275131226, 1.2554734945297241, 2.4330191612243652, 3.644789457321167, -0.15493279695510864, 3.5365102291107178, 1.1577320098876953, -2.53700852394104, -2.4288322925567627, 0.2524715065956116, -2.36281418800354, -1.7265011072158813], [0.8754016757011414, 0.7564250230789185, 0.14112667739391327, 0.08016740530729294, 0.550818145275116, 2.144904136657715, -1.6087212562561035, 0.6049713492393494, -0.2862676978111267, 0.868676483631134, 0.6376435160636902, -0.3190302550792694, 0.19012907147407532, 1.4300020933151245, -0.746071994304657, -2.5004260540008545, -1.8896386623382568, 0.17408064007759094, -3.375291585922241, -1.090264916419983, 1.485973834991455, 3.468061685562134, -0.12155880033969879, -0.3555103540420532, -1.5227161645889282], [2.726357936859131, 0.3935602009296417, 6.308396339416504, 2.1327686309814453, -0.11586270481348038, 5.878139972686768, -0.2920514643192291, -3.0550954341888428, -5.597171306610107, 2.711756706237793, 3.288679838180542, 0.4273211658000946, 6.356350421905518, 2.81369948387146, 0.8316969871520996, -4.714627742767334, -7.777679443359375, -2.0682294368743896, -6.530676364898682, -3.952951669692993, 4.055276393890381, 5.314268112182617, 0.14283964037895203, 3.2305171489715576, 0.07505722343921661], [-0.1318594515323639, -0.7151866555213928, -0.32935431599617004, -0.41380971670150757, -2.9466700553894043, -2.796600103378296, 0.2613973617553711, 0.7803080081939697, -0.6232906579971313, -1.7953364849090576, -3.9843525886535645, -0.2005218118429184, -1.9252718687057495, -1.8990375995635986, -1.4845960140228271, 1.7719385623931885, 4.2815775871276855, -0.5253071784973145, 2.5134670734405518, 0.22307685017585754, -5.155466079711914, -1.5865586996078491, -0.32107770442962646, -2.0718157291412354, 1.2183201313018799]]}, {"name": "activation_3", "type": "tanh"}, {"has_bias": true, "bias": [0.08313491195440292, -0.8347997665405273, -2.0950067043304443, 0.0309170912951231, 2.4898102283477783, 1.0084952116012573, 2.185885190963745, -0.30437248945236206, 0.8749470710754395, -0.5901824235916138, 1.0971084833145142, 0.02938542328774929, -1.9327651262283325, -0.43421947956085205, 0.6218441724777222, 0.8080990314483643, 1.336450219154358, -0.40305089950561523, -0.004399097058922052, -0.6057984828948975, 0.6364299058914185, -1.173761248588562, -0.1313307285308838, -1.6125177145004272, 1.7877119779586792], "in_features": 25, "type": "dense", "name": "trainable_4", "out_features": 25, "weights": [[-0.827968180179596, 1.6506168842315674, -0.3818873465061188, 0.4005594551563263, 0.5387828350067139, -0.25553056597709656, 2.2662243843078613, -0.2926822602748871, 2.0824222564697266, -1.32561194896698, 1.7932482957839966, 1.2124396562576294, -0.01877913996577263, -0.22185878455638885, -0.09732143580913544, 0.9142067432403564, 0.38524365425109863, 0.8820390701293945, 0.8287160396575928, 2.05304217338562, -1.3293468952178955, -1.2406812906265259, -0.16695421934127808, -1.0261449813842773, -1.5673339366912842], [0.7709371447563171, 0.9489412903785706, -0.13255630433559418, 0.29320424795150757, 2.297393560409546, 1.1109601259231567, 0.30071327090263367, 1.9348454475402832, 1.1635172367095947, -0.7670870423316956, 0.6480223536491394, -1.5677953958511353, 0.18074794113636017, -0.5114908814430237, -0.1966046392917633, 3.164983034133911, 0.2039496898651123, 0.6190191507339478, 1.3196169137954712, -0.13062167167663574, -0.2780925929546356, -0.7674368023872375, -0.5180138945579529, -1.7789497375488281, -2.163088083267212], [-0.4661262631416321, 1.2443609237670898, -0.4119895100593567, 0.15219423174858093, -0.8724036812782288, -2.0489978790283203, 1.509628415107727, 0.7626657485961914, 1.1867040395736694, -0.889175295829773, -0.8493945002555847, -0.9546350240707397, -0.1882864385843277, 0.4688679277896881, 1.6473209857940674, -0.3028479814529419, -2.792621374130249, -0.6418488025665283, 3.4871597290039062, 1.7296136617660522, -0.8490308523178101, -0.04270230978727341, 1.7452312707901, -2.16810941696167, -0.919398844242096], [-1.3666702508926392, 1.186397910118103, 0.8714981079101562, -0.33814069628715515, -2.350130558013916, -2.725660562515259, 0.27486535906791687, -0.929610013961792, 1.581836462020874, -1.8441781997680664, 0.35558295249938965, 0.17361803352832794, -0.020421281456947327, -1.1696348190307617, 1.5493764877319336, -1.2257494926452637, -0.5534542798995972, -1.9859611988067627, 0.489029198884964, 1.0653762817382812, 0.4155289828777313, 0.7686891555786133, 0.9262721538543701, 0.24145297706127167, -0.15715743601322174], [1.774133563041687, 0.9990662932395935, 0.8583301305770874, -0.3924785554409027, 1.1842107772827148, -0.3138749599456787, -1.1922569274902344, -0.7680144906044006, 0.7566615343093872, -0.5745338797569275, 1.350481629371643, 0.02738547883927822, 0.5902113914489746, -1.5069053173065186, 1.3431106805801392, -0.8455159068107605, 0.912394106388092, 0.9153813123703003, -0.3865852952003479, -1.3618175983428955, 0.04581141099333763, 0.13040712475776672, 1.7627484798431396, -0.25967076420783997, 1.7027170658111572], [-0.44216036796569824, 0.14511248469352722, 1.571262240409851, -1.389701008796692, -2.7716591358184814, -1.7931617498397827, -0.9145714044570923, -2.5145373344421387, 1.542283296585083, -1.3299729824066162, -0.6814679503440857, -0.3756851255893707, -0.09225770086050034, 0.7396626472473145, 1.9331670999526978, 1.2047728300094604, -2.490630626678467, -1.5937610864639282, 4.647152900695801, 2.522942304611206, 0.3245503306388855, -0.8630080819129944, 1.5740569829940796, -1.759313702583313, -3.4084513187408447], [0.05317475274205208, -0.7098492980003357, -1.343077301979065, -1.20047926902771, 1.9159655570983887, 2.8350062370300293, 1.0689235925674438, 0.9296871423721313, -0.9325722455978394, 1.9218741655349731, 1.629277229309082, 0.2902771830558777, -0.11250215023756027, 2.4837615489959717, -0.8937634229660034, 0.6675752997398376, 1.9184777736663818, 0.33856943249702454, -0.9177764058113098, -1.490887999534607, 0.5479879975318909, 1.1421477794647217, 0.6715626120567322, -1.0704878568649292, 1.5525063276290894], [0.4753924310207367, 1.170111894607544, 0.5152707099914551, -0.6133056879043579, 1.5220953226089478, 2.369086742401123, -0.8885530233383179, 0.034855909645557404, 1.347253441810608, -0.01681622676551342, -0.2745369076728821, -0.5858968496322632, 0.2698446810245514, -0.742353081703186, 0.23385009169578552, 0.44580549001693726, 1.3981599807739258, 3.1232357025146484, -1.265971064567566, -1.441693902015686, -2.3758935928344727, 1.508868932723999, -0.014014583081007004, -0.4957714080810547, 1.2487016916275024], [1.226240634918213, -1.7955161333084106, 0.12997326254844666, 0.13335619866847992, 1.0323466062545776, 0.8033295273780823, -0.3846741318702698, 1.6064798831939697, -0.6509851217269897, -0.32862037420272827, 0.3144375681877136, 0.4085771441459656, 0.6436489224433899, 1.4943262338638306, -2.204575777053833, -1.2016271352767944, 0.1495422124862671, 0.2743740677833557, -0.5695480704307556, -0.7996113300323486, -0.7757278084754944, 0.5963569283485413, -0.17142896354198456, -0.263141930103302, 2.1353769302368164], [-0.27593791484832764, 1.1213574409484863, 2.8010318279266357, -0.22434160113334656, -1.979676365852356, -0.38523122668266296, -0.2222805917263031, -0.7234142422676086, 1.6955446004867554, -1.6502370834350586, -1.3224352598190308, -2.39825439453125, 1.1780251264572144, -1.0291155576705933, 1.647040843963623, -0.33297696709632874, -1.548535704612732, -0.46784424781799316, 0.20648814737796783, 2.6601266860961914, 0.6204217076301575, 0.1638539880514145, 0.5164333581924438, 0.6637203693389893, -1.0094449520111084], [-0.513424813747406, -1.0166226625442505, 1.1789463758468628, 1.3356600999832153, -0.03496260941028595, -1.6932666301727295, 1.104962944984436, -0.9782989621162415, 0.9536449909210205, 0.18557293713092804, -0.5776981115341187, 1.3665359020233154, -0.922166109085083, -0.47495532035827637, 1.1663322448730469, -0.15257032215595245, -1.6625303030014038, -0.4218162000179291, 0.6423959732055664, 0.05430085211992264, 0.14351928234100342, -2.104309558868408, 0.9808424711227417, -0.547089695930481, -0.035710081458091736], [-0.29208284616470337, 1.6194684505462646, -0.1775026172399521, -0.5334978699684143, -0.1556900590658188, 0.7437080144882202, -0.028081832453608513, 0.7078851461410522, 0.8989236950874329, -0.5046112537384033, 2.0887703895568848, -2.98190975189209, -1.006666898727417, -0.14043943583965302, -2.0414085388183594, -1.48065185546875, -1.1705387830734253, -0.14569640159606934, 1.785058617591858, 1.6247286796569824, -0.7683655619621277, 0.9739899039268494, -1.1502145528793335, 0.5373889803886414, -0.7190262079238892], [-0.7425063848495483, 1.569718599319458, 1.7469007968902588, 0.6691678762435913, -1.6457934379577637, -0.5749031901359558, -2.35714054107666, -1.257266640663147, -0.07303658127784729, -2.254547119140625, -0.09052294492721558, 1.335258960723877, 0.06342602521181107, 0.1859462559223175, -0.5083537697792053, -0.8975080847740173, -0.918947696685791, -0.46544381976127625, 2.004195213317871, 1.5674546957015991, -0.8592115640640259, -0.0895504355430603, 1.7914726734161377, -0.37064847350120544, -2.7246451377868652], [-0.37395861744880676, -0.905754804611206, 0.5347445011138916, 1.539733648300171, 0.5107014179229736, 0.9592755436897278, -1.7719889879226685, 0.6777545809745789, 0.27800193428993225, -0.06745294481515884, 0.8032901883125305, -1.5083458423614502, -0.35377365350723267, -1.2926450967788696, 1.3746585845947266, 0.5150187015533447, -1.0665701627731323, 1.5900675058364868, 0.028415091335773468, -0.356754332780838, -0.277939110994339, -0.09519186615943909, 0.9796702861785889, -1.3389452695846558, -2.019041061401367], [1.9656208753585815, 0.4914798140525818, 1.4607590436935425, -1.702272891998291, -1.6858283281326294, 0.577333927154541, -1.4423353672027588, -0.19400349259376526, 0.8543948531150818, 0.28627827763557434, 0.736415445804596, 0.11234121769666672, 1.2059381008148193, -0.8383065462112427, 1.190647006034851, -0.5516394972801208, -0.6015190482139587, -0.8810802698135376, -0.07732822000980377, 0.18726211786270142, 1.1283278465270996, 2.6265838146209717, -1.1895513534545898, -1.064205527305603, -0.673039436340332], [0.5305142402648926, 1.1303882598876953, -0.30976250767707825, 0.8197245597839355, 1.6688531637191772, 0.40969792008399963, -1.0377495288848877, -0.7430838942527771, 0.8782105445861816, 0.7142447233200073, -0.04589525982737541, 1.361356258392334, 0.8506090641021729, -0.23871304094791412, -2.415349245071411, 0.5635942220687866, 0.4882032573223114, 0.4716810882091522, -1.4379218816757202, -1.3895182609558105, 0.4932313859462738, -0.21375685930252075, 0.4139912724494934, -0.2993057668209076, 0.35490936040878296], [4.3610382080078125, 0.7265985608100891, -1.4043134450912476, 0.07616464048624039, 1.4955254793167114, 2.6561288833618164, -3.7454168796539307, 0.46521511673927307, -1.3547909259796143, 0.6995193362236023, 1.6800580024719238, -1.9733201265335083, -0.730193555355072, -0.34773027896881104, -3.0827279090881348, 0.7860231995582581, 0.07525835186243057, 0.8495687246322632, -1.024863362312317, -1.534352421760559, -1.5492781400680542, 2.250643014907837, -3.2117927074432373, -0.42611241340637207, -0.1094670295715332], [1.4006644487380981, -0.6874001622200012, -0.4079989492893219, -0.026615433394908905, 1.6028563976287842, 0.07332766801118851, 0.511388897895813, -0.24989725649356842, 0.9770327806472778, 0.5937989354133606, 1.2347078323364258, 0.13601258397102356, 1.0381789207458496, 1.514527678489685, -1.8808096647262573, 2.0773117542266846, 0.21879403293132782, -2.0614242553710938, 1.5318889617919922, -0.4750247895717621, 1.226486325263977, -0.5774886608123779, 0.8243297934532166, 0.5066812038421631, -0.7422221302986145], [2.0178029537200928, 0.3882373571395874, -0.6394712924957275, -0.8834035992622375, 1.6520289182662964, 1.3936899900436401, 0.7221443057060242, 0.7636528611183167, -1.8391215801239014, 0.9312299489974976, 2.5569348335266113, 0.8848438262939453, 0.01674238219857216, 0.8837085962295532, -0.7644854784011841, 0.33229774236679077, 2.2662289142608643, 2.4120824337005615, -2.792786121368408, -0.9890724420547485, -0.7995589375495911, 0.19378648698329926, 0.6577678918838501, 1.389399766921997, 0.7261014580726624], [2.145399570465088, -1.1357722282409668, -2.1310884952545166, -0.3551609516143799, 2.0625321865081787, 2.3204398155212402, -1.9859733581542969, 2.1151368618011475, 0.0547296516597271, -0.9840953946113586, 1.220456600189209, -0.9511778354644775, 0.11275939643383026, -0.15925654768943787, -1.0567967891693115, -0.1893094927072525, -1.0014703273773193, 0.19128960371017456, -2.5577425956726074, -1.2458676099777222, -0.33886799216270447, 1.285965085029602, 0.6822011470794678, -0.6831936240196228, 0.5500049591064453], [-2.196315288543701, 0.5045230984687805, 1.3460558652877808, -0.6560423374176025, -0.6455149054527283, -0.8927605748176575, -0.3989960551261902, -1.0410293340682983, 0.6276111006736755, -1.1750006675720215, -0.6383503675460815, -1.0293947458267212, 1.1061930656433105, 1.8788156509399414, 2.225224018096924, -1.895829200744629, -0.44518518447875977, -0.5260279774665833, 2.01364803314209, -1.1102041006088257, 0.3997567892074585, -0.5317822098731995, 2.3724539279937744, -2.727989673614502, -3.8689751625061035], [-0.7559152245521545, -0.5283886790275574, 0.7479655146598816, 1.3855253458023071, -2.2217423915863037, -0.5216715335845947, 1.1111383438110352, -2.2964248657226562, 1.210634708404541, -0.5648055076599121, -0.44558343291282654, 1.8677616119384766, 0.6993511319160461, 0.6095641255378723, 2.035529375076294, -0.7768926620483398, -1.2876298427581787, -1.5102206468582153, 2.519636869430542, 0.7636280655860901, -0.32218024134635925, -0.36874911189079285, 0.6261782050132751, 0.6985623240470886, -3.214475631713867], [0.6220676898956299, 1.4268821477890015, 1.9711613655090332, 0.05159163102507591, 0.7113006114959717, 2.2980217933654785, -0.4807559549808502, -1.0574193000793457, 1.0794833898544312, -0.4833386242389679, 0.10740598291158676, 0.7156168818473816, 0.10166133940219879, -1.880893349647522, 1.060595154762268, -1.434183120727539, -0.3345479965209961, -1.608708143234253, -0.6846483945846558, -0.4659459590911865, -0.08452769368886948, 0.28266945481300354, 0.9356014132499695, 0.25825464725494385, 0.3269011080265045], [-0.9449790120124817, 0.8788112998008728, 1.659464716911316, -0.4377704858779907, -0.5374603867530823, -3.2696361541748047, 0.8984212875366211, -1.0137598514556885, 2.535996913909912, 0.07104825228452682, -0.9886944890022278, -0.8326687216758728, -0.3852498531341553, -1.5227105617523193, 1.6797949075698853, 0.6734877228736877, 0.26862746477127075, -1.4701876640319824, 2.0939245223999023, 0.27977049350738525, -0.6373690366744995, -0.4349634647369385, -1.2132010459899902, -1.412860631942749, -0.7084832191467285], [-0.06916219741106033, 0.24533194303512573, -0.3789820373058319, -0.7208182215690613, 0.8104680180549622, -0.09780372679233551, 0.013002408668398857, 1.7491350173950195, -0.6545546650886536, -1.5538662672042847, -0.712335467338562, -0.771260678768158, 0.9032002091407776, 2.157886266708374, -1.2716872692108154, 0.9998083710670471, 1.6971778869628906, 2.022500991821289, -0.5322693586349487, -0.47173064947128296, -0.01989065483212471, 0.4213280975818634, 0.6978532075881958, -0.22422286868095398, -0.3347977101802826]]}, {"name": "activation_5", "type": "tanh"}, {"has_bias": true, "bias": [-0.8998513221740723, 1.1094377040863037, 1.703998327255249, 2.4364235401153564, 2.0096170902252197, 0.6181225776672363, 2.448064088821411, 1.145888090133667, 3.176978826522827, 2.5113003253936768, 0.6465444564819336, 3.4318597316741943, 1.8995845317840576, 2.8509323596954346, 1.3564157485961914, 2.2003252506256104, 1.205920696258545, 2.208580732345581, 1.8692102432250977, 0.7446633577346802, 2.914308786392212, 0.5428484678268433, 2.013322591781616, 2.16508412361145, 2.1607253551483154], "in_features": 25, "type": "dense", "name": "trainable_6", "out_features": 25, "weights": [[1.8322463035583496, 1.6552352905273438, 1.3219436407089233, 0.600338876247406, -0.3006810247898102, 0.4202400743961334, 2.883007764816284, 2.2106082439422607, -1.374859094619751, 0.17659661173820496, 0.7588856220245361, 0.33896347880363464, 2.2434873580932617, 0.23223596811294556, 2.341449022293091, 0.8104500770568848, 0.6114432215690613, 0.25036707520484924, 0.2768882215023041, 1.0966308116912842, 0.6624883413314819, 3.4801034927368164, 0.7626229524612427, 1.0434060096740723, 1.7132450342178345], [2.3851096630096436, -0.1980641633272171, -0.7410010695457458, 2.5251972675323486, 1.359719157218933, -0.2916521728038788, 1.3690851926803589, 2.0965921878814697, 1.2720528841018677, -0.22527872025966644, 1.8233450651168823, -0.07565263658761978, 1.6539729833602905, 0.48909178376197815, 0.4719037413597107, 1.5557632446289062, 0.4471414387226105, 1.4652599096298218, 0.7207282185554504, 1.139163613319397, 0.8152123689651489, -0.013836359605193138, -0.17499642074108124, 0.9765774011611938, -0.04211375117301941], [0.3084886968135834, 1.0698097944259644, 1.2534300088882446, 0.43791934847831726, 1.8423759937286377, -1.197529911994934, 0.8065952658653259, 2.249174118041992, 1.349977731704712, -0.026241792365908623, 0.26230886578559875, 1.4652758836746216, 0.04678649082779884, -0.021307440474629402, 0.6014655232429504, 0.8445178270339966, 1.2437676191329956, 0.24881143867969513, 0.7857075929641724, 2.792170286178589, -2.4630649089813232, -0.3209223747253418, 2.9779396057128906, -0.33822035789489746, 2.6339633464813232], [1.6288164854049683, 1.9765944480895996, 0.5809731483459473, 0.9898988008499146, 0.5274483561515808, 0.19266453385353088, 1.0281206369400024, 1.393178105354309, 1.7942415475845337, 0.2828839421272278, 0.5062037110328674, 1.6496891975402832, 1.0900241136550903, 0.4935353398323059, 0.9285794496536255, 0.7469035983085632, 0.40738704800605774, 0.5148221254348755, 1.277894139289856, 0.5423374176025391, -1.6204862594604492, 1.4753124713897705, 0.9502967000007629, 0.2759382426738739, 1.0928406715393066], [1.9206289052963257, -0.034077633172273636, 1.0093451738357544, 1.3006610870361328, 0.1375073790550232, -0.02322627231478691, -0.18867099285125732, -0.8000421524047852, 1.0306344032287598, 1.1155213117599487, -0.4951334595680237, 2.613050937652588, 2.0975732803344727, 0.7253643870353699, 1.19966721534729, 0.8123582005500793, 2.0846972465515137, -0.7743456959724426, -0.9072113633155823, 0.6965962052345276, 1.2618488073349, 2.401900053024292, 1.2862712144851685, 2.145533323287964, 0.3265100121498108], [1.2840837240219116, 1.0654603242874146, 0.6396396160125732, 0.3351359963417053, 1.415585994720459, 0.9177308082580566, -0.33792826533317566, -0.26627662777900696, 1.7429007291793823, 0.0498313270509243, 0.418709933757782, -1.17656672000885, 0.21192176640033722, -0.2387808859348297, 1.6367806196212769, 1.34989595413208, 0.3549305498600006, 1.8110730648040771, 1.6786936521530151, 0.6128146052360535, 1.528720736503601, 1.770560383796692, 1.7174592018127441, -0.14503897726535797, -0.5767782330513], [1.4524924755096436, -0.5460097789764404, 0.6724916696548462, -0.16803762316703796, 1.3287972211837769, 3.2124345302581787, 1.97175931930542, 1.4381502866744995, 0.1066141277551651, 2.346977472305298, 0.5931423306465149, 0.31556257605552673, 1.3397793769836426, 2.857558488845825, -1.490203857421875, 0.42461904883384705, 0.8545376658439636, 1.4108740091323853, 1.402846336364746, 1.4396851062774658, -0.5182498693466187, -0.12401507794857025, -0.2740679085254669, -0.10403196513652802, 0.7411510348320007], [-0.9904990792274475, 1.3171992301940918, 0.1126921996474266, 1.1880582571029663, -0.6625483632087708, 1.5845372676849365, 1.9878422021865845, 1.3094528913497925, 0.30320456624031067, 0.10862645506858826, 1.0264265537261963, 0.8355430960655212, 0.015794791281223297, -0.6538990139961243, 2.3043715953826904, 1.006399393081665, 3.6579389572143555, -0.5410960912704468, -0.11382139474153519, 3.158395290374756, 0.22583937644958496, -0.08760803937911987, 1.1919424533843994, 1.234087347984314, 1.0236961841583252], [1.2095731496810913, -1.069305658340454, 0.615912139415741, 2.0661911964416504, 2.143095016479492, 0.1745438128709793, 1.2459213733673096, 0.9938241839408875, -0.029792746528983116, 1.0508203506469727, 2.0516445636749268, -0.08634595572948456, 0.20101094245910645, 0.03922925889492035, 0.5388617515563965, 2.0880870819091797, 1.0788930654525757, 1.083061933517456, 2.2503156661987305, -0.6751667261123657, 0.9325677156448364, -1.591773271560669, 1.165345311164856, -1.4936649799346924, 0.03421944007277489], [0.6421917676925659, 0.2482236921787262, 0.6645053625106812, 1.8550193309783936, 0.8623538613319397, 1.7146670818328857, 0.2331985980272293, -0.6209051012992859, -0.5254806280136108, 0.32345083355903625, -0.8580145835876465, 2.29274845123291, 1.5007474422454834, 1.5819441080093384, 0.6291930079460144, -1.04530930519104, -0.05696192383766174, 2.430544376373291, 0.5967563986778259, 1.2108347415924072, -1.7522897720336914, 2.259990692138672, 1.2776576280593872, -0.9878441691398621, 1.167269229888916], [0.06994730979204178, 1.5733425617218018, 0.3342307507991791, 0.4681938886642456, 2.3521344661712646, -0.9324122071266174, 1.3572900295257568, -0.20296552777290344, -0.40390437841415405, 0.29909953474998474, -1.3919330835342407, 0.3913809359073639, -0.24673300981521606, 0.11120202392339706, 2.9115099906921387, 1.0855251550674438, 1.2326911687850952, 0.6481959223747253, -0.38208678364753723, 0.4362320899963379, 2.307135581970215, -1.0436043739318848, 0.43469005823135376, 1.573203206062317, 0.556406557559967], [1.3004952669143677, -0.008525283075869083, 2.392261505126953, 1.4530088901519775, -0.08739464730024338, 3.7455005645751953, 1.7844858169555664, 1.9712721109390259, 0.47039103507995605, 0.652564525604248, 0.6078425645828247, 0.23122277855873108, -0.3308965563774109, 0.16579672694206238, -0.5202054977416992, 1.2881759405136108, 0.4730071425437927, 1.3339682817459106, 0.7825726270675659, 2.3123934268951416, -1.0202492475509644, 0.8371320366859436, 1.1878290176391602, 0.12462490051984787, -0.00033255224116146564], [0.4253273904323578, 0.21606449782848358, 0.19369934499263763, 2.535531759262085, -1.337273120880127, 0.4473739266395569, 3.9493937492370605, -0.4427643120288849, -0.2092217653989792, 0.6527983546257019, 1.07502019405365, -0.8345069289207458, -0.34912800788879395, 0.31789207458496094, 0.9240625500679016, 1.5283674001693726, -0.2986242473125458, 1.0441420078277588, 1.077622413635254, -0.3730992078781128, -1.0836697816848755, 1.0283582210540771, 1.2888826131820679, 1.273791790008545, 0.37324878573417664], [1.443913221359253, -0.0002274883445352316, 0.2131708562374115, 0.8871064782142639, 0.16153225302696228, 1.522550106048584, 1.6174123287200928, -0.9389917254447937, 1.8109201192855835, 0.25718778371810913, 1.842698097229004, -0.4863319993019104, 0.3711511790752411, -0.20564274489879608, -0.11329194158315659, 0.16126836836338043, 1.064021348953247, 0.4488977789878845, 0.5453937649726868, 2.016483783721924, -1.365220069885254, 1.5756511688232422, 1.1978005170822144, 1.83975088596344, 1.5383912324905396], [1.1005173921585083, 1.2255786657333374, 1.0099589824676514, 2.6434519290924072, 1.5988898277282715, -0.4753442406654358, 1.3927782773971558, 1.295294165611267, 2.334399461746216, 2.102193593978882, 2.029494047164917, 1.853104591369629, 0.18392810225486755, -0.891831636428833, 0.4053266644477844, 0.3454495370388031, 2.038203716278076, 1.0445523262023926, 1.7335201501846313, 0.212045356631279, -1.8370920419692993, 0.33544182777404785, 2.4591009616851807, 1.612133264541626, -1.4442797899246216], [-1.094001054763794, -1.804908037185669, 1.520248532295227, 1.2195063829421997, 1.0356500148773193, 0.22975672781467438, 1.8376336097717285, 0.9567699432373047, 1.3625298738479614, -0.15022635459899902, -0.7791759967803955, 2.2000153064727783, -1.1430813074111938, -0.6321649551391602, -0.26633942127227783, -0.15000255405902863, 1.2711344957351685, 0.6365718841552734, 1.444942831993103, 0.9379063248634338, 0.7504344582557678, 0.5391984581947327, 1.3212343454360962, 1.8380106687545776, 1.8596477508544922], [0.1321597397327423, -0.8554202318191528, 0.045405853539705276, 1.2059450149536133, 1.7838224172592163, 1.5781418085098267, -0.9474400281906128, 2.749934434890747, -1.0612221956253052, 0.6099981665611267, 0.2913146913051605, -0.978584349155426, 0.6198952198028564, 0.17044001817703247, 1.1684719324111938, 2.5693259239196777, 1.2649595737457275, 1.1374045610427856, 1.0321205854415894, -0.18576045334339142, 1.2506645917892456, 1.9896963834762573, 0.47254320979118347, -0.3319896459579468, 1.4208381175994873], [1.2946650981903076, 0.5437253713607788, 0.878039538860321, 1.2262552976608276, 0.9422422647476196, 1.4671263694763184, 1.1877593994140625, -0.08942937850952148, 0.29620105028152466, 0.7704159617424011, 1.7233095169067383, 1.9858615398406982, 1.0240031480789185, 0.9383862614631653, 2.772306442260742, 1.347663164138794, 2.195526361465454, 1.2098476886749268, 0.4955562353134155, 1.9680677652359009, -0.2080647349357605, 1.821423053741455, 1.0288175344467163, 0.19165021181106567, -1.3359240293502808], [0.19108575582504272, 1.937821865081787, 0.18253515660762787, 1.0714013576507568, 1.0799379348754883, -1.1145721673965454, 0.8888261318206787, 2.05720591545105, 0.2670224606990814, 0.8589126467704773, -0.17609314620494843, -0.6870931386947632, 0.6724404692649841, 0.47419965267181396, -0.753430962562561, 0.7210549712181091, 0.935552716255188, 2.51039457321167, -0.4479846954345703, -0.12022265791893005, -1.1168186664581299, -1.2870111465454102, 0.7948761582374573, 2.382577657699585, -0.9645679593086243], [2.087721347808838, 0.5455081462860107, 1.7228686809539795, 0.9031503200531006, 2.156681537628174, 0.9408276081085205, -0.9529387950897217, 1.6405432224273682, 0.9492709636688232, 1.6509394645690918, 1.9916808605194092, 1.3644143342971802, 2.031918525695801, 0.8207512497901917, 0.3722722828388214, 0.9083564877510071, 1.2294551134109497, -0.31035009026527405, 1.4498240947723389, 2.0270910263061523, -0.37390515208244324, -1.604121446609497, 0.8247811794281006, -0.17098276317119598, -0.5553083419799805], [0.27215468883514404, 1.1639978885650635, 1.2584490776062012, 0.10342306643724442, 0.5674488544464111, 2.3881850242614746, 0.9668712019920349, -0.589337170124054, 0.48042693734169006, 1.5318223237991333, 1.8638505935668945, -0.19039417803287506, 1.4490036964416504, 0.524616003036499, 0.9268351197242737, 1.8696216344833374, 0.6046323776245117, 1.026721477508545, 0.33941540122032166, 3.3095450401306152, -0.5595361590385437, 0.7389580011367798, 1.561937928199768, -0.23888425529003143, 0.22703143954277039], [1.7457431554794312, 2.1072936058044434, 1.45863938331604, 0.1591465324163437, 1.1565470695495605, 0.7840591669082642, 0.933294415473938, 0.649323046207428, -0.7491816282272339, 0.2731568217277527, -1.4258991479873657, -2.0237956047058105, 1.5391364097595215, -0.11461219191551208, 0.3375052511692047, 0.47234949469566345, -0.24378381669521332, 1.0676865577697754, 0.8517492413520813, 1.9533462524414062, -0.35574108362197876, 0.8343429565429688, 1.7358065843582153, 0.5642503499984741, 2.982800006866455], [0.04441555216908455, 0.014056842774152756, 2.430671215057373, 0.7372174263000488, 0.3366487920284271, 1.8428400754928589, -1.0102604627609253, 0.6703269481658936, -0.592110812664032, 1.0090705156326294, 1.0434150695800781, 0.7201407551765442, 0.8514803647994995, 0.5107377171516418, -1.6753054857254028, 2.045867443084717, 1.409123182296753, 0.2260124534368515, -0.7011674642562866, -0.4973735213279724, -0.18393611907958984, 0.12906768918037415, 1.2438664436340332, 1.6616878509521484, -0.11625021696090698], [0.7305516600608826, 1.6554408073425293, 2.019491672515869, 1.028505802154541, 1.0350250005722046, 1.6893038749694824, 0.1290973722934723, 1.5892446041107178, 1.399744987487793, 0.06175284832715988, -1.2936278581619263, 1.401461124420166, 1.098010778427124, -0.4461553692817688, -1.4473284482955933, 1.7948932647705078, -0.13583961129188538, 0.3103936016559601, 1.3519487380981445, 0.1206802949309349, -0.6156602501869202, 2.875828266143799, -1.0840916633605957, 1.5601201057434082, 0.3496721386909485], [1.737011432647705, 1.4297913312911987, 1.1505247354507446, 0.5456647872924805, 1.0286957025527954, 1.9392452239990234, 1.3441753387451172, 1.2037988901138306, 0.2659865617752075, 0.9312537908554077, -0.38372963666915894, 0.9972472190856934, 0.11706634610891342, -1.028779149055481, 1.7617582082748413, 2.4465367794036865, -0.528300940990448, 0.8553254008293152, -0.12107323110103607, 0.8904494643211365, 0.9940252304077148, 0.7603917121887207, 1.3962390422821045, 1.0366874933242798, -0.12654143571853638]]}, {"name": "activation_7", "type": "tanh"}, {"has_bias": true, "bias": [1.343671441078186, 1.0762723684310913], "in_features": 25, "type": "dense", "name": "trainable_8", "out_features": 2, "weights": [[0.09421573579311371, -0.06389588117599487], [0.06598411500453949, -0.0546063594520092], [0.04686205834150314, 0.002724655903875828], [-0.005831058602780104, -0.0684773325920105], [0.0015755521599203348, -0.036707837134599686], [0.4455382525920868, -0.093114472925663], [0.025531239807605743, -0.028166763484477997], [-0.08833583444356918, 0.0168999582529068], [-0.07212797552347183, -0.023299671709537506], [0.01087062805891037, -0.000489420723170042], [-0.14766857028007507, 0.055624790489673615], [-0.03307337313890457, 0.006696311291307211], [-0.04059172794222832, 0.0679791122674942], [-0.10720013082027435, -0.0021138894371688366], [0.04945644363760948, -0.04773542657494545], [0.03624248132109642, 0.03653817996382713], [-0.04762227088212967, 0.024783723056316376], [-0.04798875376582146, 0.0457640066742897], [0.034235771745443344, 0.02762449160218239], [-0.02036009170114994, -0.01858041062951088], [0.05582737177610397, -0.6823655962944031], [0.16188493371009827, -0.0872650295495987], [-0.03938799723982811, 0.020707014948129654], [-0.03268220275640488, 0.049554016441106796], [0.06621135026216507, -0.0859001949429512]]}, {"name": "activation_9", "type": "tanh"}, {"name": "criterion_10", "type": "mse"}]}