{"test_accuracy": 0.7848, "layers": [{"has_bias": true, "bias": [6.256077766418457, 7.003157615661621, 6.226844787597656, 4.5256805419921875, 6.4601287841796875, 6.423244476318359, 5.361652374267578, 7.6324872970581055, 4.236992835998535, 5.226143836975098, 8.112850189208984, 4.106563091278076, 5.81005859375, 6.113615036010742, 4.038745403289795, 6.409234046936035, 6.041708946228027, 5.029814720153809, 6.535454750061035, 5.013405799865723, 6.650617599487305, 7.068020820617676, 5.113971710205078, 9.427763938903809, 6.939910888671875], "in_features": 2, "type": "dense", "name": "trainable_0", "out_features": 25, "weights": [[1.4660719633102417, -2.2199923992156982, -8.758673667907715, 0.5472807288169861, 3.2377281188964844, -0.8832897543907166, -10.23680591583252, 1.8115850687026978, 3.658936023712158, 3.7826693058013916, -10.502111434936523, 1.1385388374328613, 7.054928302764893, 2.7054522037506104, 12.981828689575195, 3.8495943546295166, -2.274808406829834, 3.3552379608154297, 6.550783634185791, 9.13609790802002, 5.537130832672119, 4.082290172576904, -2.51094126701355, -11.464561462402344, 3.0019850730895996], [3.795783758163452, -0.8206411600112915, -0.5817956328392029, 1.1364455223083496, 8.2168550491333, 5.380913257598877, 6.375166893005371, -10.82759952545166, -9.151002883911133, 6.981255054473877, -12.699975967407227, -4.298326015472412, 17.763385772705078, 11.727696418762207, 20.1117000579834, 14.458236694335938, -3.59303617477417, -1.5292197465896606, 16.36341667175293, -9.25378704071045, 8.810845375061035, 13.92585277557373, 0.3294457197189331, -4.931143283843994, 7.074265956878662]]}, {"name": "activation_1", "type": "tanh"}, {"has_bias": true, "bias": [5.180577278137207, 2.938286781311035, 4.39622688293457, 2.7138943672180176, 4.389570236206055, 5.227957725524902, 4.80380916595459, 3.4224648475646973, 4.594255447387695, 2.4049839973449707, 3.773616313934326, 5.945503234863281, 3.9487156867980957, 4.037609100341797, 4.969789505004883, 4.32028341293335, 4.410111427307129, 3.085813045501709, 5.303340911865234, 5.018054008483887, 5.147812843322754, 4.0121941566467285, 3.041229248046875, 3.0578951835632324, 5.509892463684082], "in_features": 25, "type": "dense", "name": "trainable_2", "out_features": 25, "weights": [[1.5357487201690674, -0.15536105632781982, -1.5872859954833984, -0.33267825841903687, -0.6598341464996338, -1.561346411705017, -0.8248107433319092, -1.4525270462036133, -1.3653435707092285, -0.16704200208187103, -1.4525984525680542, 2.0607457160949707, 0.5541001558303833, -2.0776288509368896, -1.7058131694793701, 1.3019733428955078, 1.786167860031128, -1.1751759052276611, 1.1890350580215454, -1.9066575765609741, -0.022354604676365852, -0.6678727865219116, -1.6605935096740723, 1.187865138053894, -1.0001590251922607], [-0.6908246278762817, -1.5941208600997925, 0.44776469469070435, -2.7275233268737793, -2.26473069190979, -1.1796329021453857, -1.6120641231536865, -0.38319191336631775, -0.5057116746902466, -0.9359379410743713, -0.8272460699081421, -1.1297035217285156, -0.04649919271469116, -0.17498548328876495, -1.3308433294296265, -0.8364100456237793, 0.9084059000015259, 0.6596144437789917, -0.22538059949874878, -0.4992888569831848, -1.6370388269424438, -0.9101861119270325, 0.2091064453125, 1.6501961946487427, 0.433100163936615], [1.5816385746002197, 0.7955238819122314, 1.9966644048690796, 2.2832236289978027, -1.039210319519043, 4.114004611968994, -3.07470965385437, -1.1684068441390991, -1.7874748706817627, 1.3362348079681396, 1.670669436454773, -0.0715879425406456, 3.493208885192871, -2.8242135047912598, 1.549811840057373, -1.8512475490570068, -4.320410251617432, -0.21351708471775055, -3.1609561443328857, -2.831787586212158, 4.19706916809082, 2.2016677856445312, 0.10246541351079941, 1.8853297233581543, -2.911285638809204], [1.4427160024642944, -0.9121341705322266, 0.796846330165863, 3.5530402660369873, -0.45005208253860474, 1.8001173734664917, -1.3994736671447754, -2.484637498855591, -0.10345277190208435, 1.690220832824707, -1.0900224447250366, 0.1757819503545761, 0.08428440243005753, -1.949283242225647, 0.47132062911987305, 0.7338551878929138, -0.5172886848449707, -3.032667398452759, -1.0324857234954834, -1.2039625644683838, -1.9030085802078247, 1.1094245910644531, -0.6720169186592102, -1.3673166036605835, 0.7357955574989319], [0.28485265374183655, 0.8075925707817078, 0.12530572712421417, 1.029697060585022, -0.04963161051273346, -3.128723621368408, -0.6710154414176941, 0.7427861094474792, 1.4530779123306274, -0.6954197287559509, -1.8284767866134644, 1.6734118461608887, 0.5930353999137878, -0.40630415081977844, -1.4656693935394287, 0.7207900285720825, 1.244568109512329, -1.3641444444656372, 0.8950634598731995, 1.7654836177825928, -4.547474384307861, -2.075037717819214, -0.3149794340133667, -1.6945853233337402, -1.302802324295044], [-0.9915658831596375, -0.6782873272895813, -1.087168574333191, 0.3288370370864868, -0.629218339920044, -0.7358431816101074, -1.4998387098312378, -0.6228665113449097, 1.1344059705734253, -0.3834720253944397, -1.1004403829574585, 0.3535013496875763, -1.1393712759017944, -0.10162353515625, 0.41098499298095703, -1.462506890296936, -0.9699851274490356, -0.26730263233184814, 0.7779251933097839, 0.4304787516593933, -0.9075193405151367, 0.40556687116622925, -0.269369900226593, 0.009271456860005856, -0.169011652469635], [2.3652167320251465, 1.0125290155410767, 2.3746678829193115, 2.5678977966308594, -0.5113168954849243, 6.673793315887451, -1.500013828277588, -3.624359369277954, -2.863628387451172, 5.378076553344727, 1.9079104661941528, 1.5605897903442383, 3.8705427646636963, -1.0808014869689941, 1.188457727432251, -0.4675293266773224, -5.856481552124023, -0.18678957223892212, -4.735066890716553, -1.2295310497283936, 4.773278713226318, 3.24204683303833, 0.8623485565185547, 2.012361764907837, -1.4569464921951294], [1.4875909090042114, 3.0815224647521973, 4.911310195922852, 0.31198233366012573, -1.1624693870544434, 4.601816177368164, -3.0108485221862793, -2.4092161655426025, -5.418187618255615, 1.9020437002182007, 2.1157326698303223, 0.6789976954460144, 3.736982583999634, 2.8948051929473877, -1.0785560607910156, -4.244281768798828, -5.516837120056152, 1.0116041898727417, -3.967914342880249, -3.1458449363708496, 7.1440534591674805, 2.2256157398223877, 2.341627359390259, 4.7570013999938965, -0.5330176949501038], [1.7077357769012451, -0.914548933506012, -0.27484452724456787, 1.8158634901046753, -2.8917367458343506, 2.07645845413208, -0.16222625970840454, -1.2570353746414185, -1.2117286920547485, 3.030087947845459, 0.323531836271286, 0.007788709830492735, 0.6635097861289978, -1.3646926879882812, 0.7545415163040161, 1.339805006980896, -5.720394134521484, -0.7540400624275208, -3.953720808029175, -1.0727884769439697, 2.188933849334717, -0.02038482204079628, -1.0025056600570679, 2.3000125885009766, 0.17744968831539154], [1.618813157081604, 1.9708678722381592, -1.3386059999465942, 0.6223481893539429, 0.5579599738121033, -2.1562821865081787, -0.4614528715610504, -1.3094326257705688, 0.5794324278831482, -0.44302356243133545, 1.5469889640808105, 0.27996349334716797, -0.22256314754486084, 0.43817874789237976, 0.38300761580467224, 1.451633334159851, 0.43729716539382935, 1.2533684968948364, -0.011529111303389072, -0.32560476660728455, 0.28227564692497253, -0.8264073729515076, -0.17007724940776825, -0.6204116940498352, 0.3911132216453552], [1.2361721992492676, -0.13106359541416168, -0.7267087697982788, -3.2806549072265625, -0.9751415252685547, -10.168837547302246, 5.205728054046631, -1.0712817907333374, 2.078735589981079, -4.233626842498779, -5.353997707366943, -2.781972885131836, -3.1636595726013184, 0.75252765417099, -1.4388402700424194, 3.0901665687561035, 6.119858264923096, -1.7931934595108032, 5.306055068969727, 3.3050665855407715, -8.09731674194336, -3.726078748703003, -0.5013118386268616, 0.20663119852542877, 1.6419579982757568], [0.3737630844116211, 1.1750125885009766, -1.4105526208877563, 3.1009199619293213, 1.8276095390319824, 1.4172148704528809, -1.071528673171997, 1.6501632928848267, 1.0845156908035278, 2.486440420150757, 2.026625871658325, -1.10100257396698, -1.9825754165649414, 0.582996129989624, 0.8094688057899475, -0.2927439212799072, 0.739654004573822, 3.5254430770874023, -0.047124866396188736, 1.286259412765503, 2.1169662475585938, -0.29294508695602417, -1.7733415365219116, 1.128463864326477, 0.23406143486499786], [-1.0437512397766113, -0.11188402771949768, 0.19095847010612488, -2.6300771236419678, 0.9809682965278625, -1.2319730520248413, 1.0769110918045044, 0.9563947916030884, 2.1020472049713135, -1.2391844987869263, -0.3401448428630829, 1.3383640050888062, 0.031857479363679886, 0.7709514498710632, -0.738339364528656, -1.2011209726333618, 1.376219391822815, -1.354257583618164, 0.8152676820755005, 1.8984936475753784, -1.9710403680801392, -1.7890485525131226, 0.4783504009246826, 0.8822354078292847, -0.27003076672554016], [-0.8422538638114929, 0.752525269985199, -0.9654384851455688, -0.90988689661026, 0.9340790510177612, 0.4954351484775543, 1.0271357297897339, 0.3389025926589966, 0.0013189956080168486, -2.715489149093628, -0.1060977652668953, 0.21450109779834747, -0.7421391606330872, 2.241239547729492, 3.0856151580810547, 0.2754862904548645, 0.4900546669960022, 0.20938512682914734, 0.1470939815044403, 1.0290875434875488, -1.3718693256378174, -2.20137882232666, 1.164591670036316, -1.187808871269226, -0.4150553047657013], [-1.9848712682724, -2.192607879638672, -3.4439072608947754, -1.0787516832351685, 1.7310903072357178, -2.87628436088562, 2.3717257976531982, 0.5726893544197083, 3.5731005668640137, -0.8926253914833069, 2.0419423580169678, -1.6954090595245361, -1.0961604118347168, -1.688692331314087, 0.6887854337692261, 4.3596510887146, 5.730240821838379, 2.104879379272461, 5.118885040283203, 2.8424484729766846, -1.850517988204956, -0.03215598687529564, 2.2925517559051514, -1.277389407157898, 1.5867202281951904], [0.23688171803951263, 0.8965275883674622, -0.18497347831726074, -1.923661708831787, 0.6119260191917419, -1.6640526056289673, 1.1975855827331543, -0.8293411731719971, 0.8892403841018677, -0.11407137662172318, 0.6883309483528137, 1.0427212715148926, -0.592898428440094, 0.605097234249115, -0.5244302749633789, 0.6044939160346985, 1.8215399980545044, 0.13633853197097778, -1.1919643878936768, 1.8861037492752075, -1.9935526847839355, -0.40110504627227783, -0.39780861139297485, -0.9104052782058716, 0.46774327754974365], [1.823197364807129, -0.0009432971128262579, 0.2829124331474304, 0.15023356676101685, 1.8657537698745728, -0.31157809495925903, 0.895164430141449, 1.236635446548462, -0.7105590105056763, -0.8719736933708191, 1.7902801036834717, 1.542858600616455, 1.2600146532058716, 1.7487287521362305, -0.31809306144714355, -2.3132786750793457, 0.10498902201652527, 1.059984803199768, 2.3211798667907715, -0.7015261054039001, -0.500886082649231, -1.2001127004623413, -0.0041033863089978695, 0.8055440783500671, -1.2020175457000732], [1.4447861909866333, 1.589928150177002, -1.5736479759216309, 0.2425386756658554, 1.7038116455078125, 0.6307497024536133, 0.6119827628135681, 2.667381763458252, 1.4575896263122559, 1.638345718383789, 1.0196703672409058, -1.0020328760147095, -1.2571908235549927, 2.5058135986328125, -0.541050136089325, 0.9628472328186035, 2.362321376800537, 2.6357614994049072, -0.8252442479133606, 1.1421869993209839, 3.2174253463745117, 0.3371671438217163, -0.2442355751991272, 1.3259292840957642, 1.1909375190734863], [-1.4373221397399902, 0.2000235617160797, -0.603895366191864, -1.4025321006774902, -0.4493807852268219, -0.9061142206192017, 0.41256001591682434, 2.0847649574279785, 1.2899056673049927, 0.4356476664543152, -0.36882367730140686, -2.2823779582977295, 0.47406134009361267, 0.2773285210132599, -1.1325043439865112, 0.6075704097747803, 2.7086620330810547, -1.9816713333129883, 0.4797927141189575, 0.11494138836860657, 0.28118976950645447, -2.4928321838378906, 1.032270908355713, -0.44966334104537964, 0.07812511920928955], [1.7070823907852173, 0.01844855584204197, 2.6811282634735107, 3.376727342605591, -1.01541006565094, 4.160897731781006, -3.233597755432129, -0.9847515225410461, -3.808648109436035, 2.534623622894287, 1.073062777519226, 0.7546014189720154, 0.18360507488250732, -2.3184385299682617, 0.8352985978126526, -2.7783687114715576, -4.030986785888672, -0.41353845596313477, -4.163785934448242, -1.983835220336914, 5.3077616691589355, 2.891951084136963, -0.4821774661540985, 1.9799034595489502, -1.09813392162323], [0.4866366684436798, 0.82538241147995, -0.7621493935585022, -2.2504680156707764, 0.8315646648406982, -2.5351662635803223, 0.41290947794914246, 1.1510653495788574, 0.16035793721675873, -2.5816831588745117, -1.4392130374908447, 0.6749302744865417, -0.4183315634727478, -1.586045503616333, -1.9775097370147705, 0.8135660290718079, 2.189572811126709, -0.1809173971414566, 1.360705852508545, -0.6599619388580322, -3.147533655166626, -2.157348394393921, -1.6387907266616821, -0.20459161698818207, -0.02709021233022213], [1.6088981628417969, -0.29911190271377563, -1.1002031564712524, -2.1697514057159424, 0.48758962750434875, -0.3737146854400635, -1.382047176361084, 0.6651180982589722, 0.5911121368408203, -1.8643319606781006, -2.6035029888153076, -0.3280789852142334, -0.12633869051933289, 1.4327565431594849, 1.4231454133987427, 1.6315144300460815, 1.7006208896636963, -0.5030425786972046, 1.1724958419799805, -0.3189314305782318, -0.42528414726257324, -1.3863530158996582, 0.1925356686115265, -0.8203963041305542, -2.6602554321289062], [0.8653461933135986, 1.2421958446502686, -0.8873708248138428, -1.6079142093658447, 0.27598974108695984, -0.32313084602355957, -0.5976094603538513, 1.160537838935852, -0.34678971767425537, -1.0709514617919922, -0.5566996932029724, -0.28081172704696655, -1.1815340518951416, 1.00985848903656, -1.0901647806167603, -2.0364785194396973, -0.90656578540802, -0.0003788908652495593, -1.0394163131713867, -0.7535767555236816, -0.3383762836456299, 2.1914918422698975, -0.24872833490371704, -1.0969159603118896, -0.445841908454895], [3.484351634979248, 1.6759628057479858, 4.817073822021484, 0.3868640959262848, -0.5855906009674072, 0.7684046626091003, 1.8515406847000122, -2.378730297088623, -4.531214237213135, 0.5055239796638489, -0.17236630618572235, 1.677910327911377, 3.8235936164855957, 1.9829453229904175, 0.43670424818992615, -3.1755049228668213, -4.155808448791504, -2.4324193000793457, -2.902289867401123, -2.8678603172302246, 0.8875309228897095, 1.539566159248352, -0.3628348410129547, 1.5381563901901245, 2.3312911987304688], [0.3647715747356415, -0.9401767253875732, 0.7849583029747009, 0.32774096727371216, -2.863204002380371, -0.7820405960083008, -1.5268162488937378, 0.2131468802690506, -1.760057806968689, -0.02114248462021351, -2.87921142578125, -0.04032810404896736, -0.6930704116821289, -1.6440093517303467, -1.3169273138046265, 0.9704519510269165, 2.337440252304077, -0.873420000076294, 0.14949125051498413, -1.253568172454834, -3.0437355041503906, -0.5440739393234253, -0.3810114860534668, -0.5294167995452881, 0.28458303213119507]]}, {"name": "activation_3", "type": "tanh"}, {"has_bias": true, "bias": [-1.991512656211853, -2.90942645072937, -4.169642448425293, -2.0437281131744385, 0.41517749428749084, -1.066141128540039, 0.1112520843744278, -2.3790252208709717, -1.199692964553833, -2.6648218631744385, -0.977534830570221, -2.0452592372894287, -4.007408618927002, -2.508868932723999, -1.4527952671051025, -1.2665371894836426, -0.7382041215896606, -2.4777019023895264, -2.079042911529541, -2.6804349422454834, -1.4382119178771973, -3.2484161853790283, -2.2059781551361084, -3.687180280685425, -0.2869456708431244], "in_features": 25, "type": "dense", "name": "trainable_4", "out_features": 25, "weights": [[-0.7341716885566711, 1.8971707820892334, -0.45566555857658386, 0.38875675201416016, 0.5822736620903015, -0.2087678164243698, 2.1100780963897705, -0.19115589559078217, 2.145444869995117, -1.42167067527771, 2.2396762371063232, 0.8322449326515198, -0.21485941112041473, -0.6741698980331421, -0.19571560621261597, 0.9922482371330261, 0.5906119346618652, 0.968186616897583, 0.8223651647567749, 2.1096696853637695, -2.0762298107147217, -1.4812977313995361, -0.6039363741874695, -1.1652181148529053, -1.4757599830627441], [0.43941429257392883, 0.7697664499282837, 0.0901985839009285, 0.33938926458358765, 2.1767210960388184, 0.8338603377342224, 0.48380693793296814, 1.7695872783660889, 1.259224772453308, -0.8848719000816345, 0.5098876953125, -1.6658873558044434, 0.2775058448314667, -0.545307457447052, 0.08645562082529068, 3.1391241550445557, 0.10793182253837585, 0.43042004108428955, 1.551459550857544, -0.008945675566792488, -0.7167693376541138, -1.0373187065124512, -0.5511325597763062, -1.8131743669509888, -2.2755019664764404], [0.236800879240036, 1.4885127544403076, -1.491220474243164, -0.481180876493454, -0.4554751217365265, -1.0183807611465454, 1.7104299068450928, 1.7559051513671875, 1.1817084550857544, -1.1273146867752075, 0.023364583030343056, -0.8205997943878174, -0.8504730463027954, 0.1890513002872467, 0.5653197765350342, 0.04291636124253273, -1.8748503923416138, -0.13671652972698212, 2.3122410774230957, 1.4864388704299927, -0.6215497851371765, -0.07686536014080048, 1.7396574020385742, -2.3265368938446045, -0.39369067549705505], [-1.081210732460022, 1.2108969688415527, 0.15334521234035492, -0.7759387493133545, -2.1358530521392822, -2.1942827701568604, 0.7455117106437683, -0.01642509177327156, 1.7430676221847534, -1.9833704233169556, 0.9721627831459045, 0.40441104769706726, 0.08037403970956802, -1.0570334196090698, 0.7653429508209229, -1.2708930969238281, 0.17162051796913147, -1.5829025506973267, 0.07367982715368271, 1.2633174657821655, 0.6623324751853943, 1.0567978620529175, 0.9049816727638245, 0.21226362884044647, 0.7612965106964111], [1.3360944986343384, 1.016085147857666, 1.4516172409057617, -0.29334375262260437, 1.0708727836608887, -0.8695239424705505, -0.5945761203765869, -0.9911556243896484, 0.8828251957893372, -0.4849894344806671, 1.0304001569747925, 0.5495662689208984, 0.8624278903007507, -1.2944395542144775, 2.0758159160614014, -0.7499535083770752, 0.755935788154602, 0.821943461894989, 0.1400376409292221, -1.1094294786453247, 0.26213762164115906, -0.03382313624024391, 2.558906316757202, 0.021562539041042328, 1.4105689525604248], [0.08177847415208817, 0.18865342438220978, 0.7570904493331909, -2.165876865386963, -2.2923150062561035, -0.979586660861969, -0.47887659072875977, -1.536791443824768, 1.5321500301361084, -1.6412190198898315, 0.07410058379173279, 0.20604568719863892, -0.03566732257604599, 0.661881148815155, 0.9536211490631104, 1.5091440677642822, -1.9015337228775024, -1.0035862922668457, 3.906221628189087, 2.553887128829956, 0.4618624448776245, -0.4292497932910919, 1.566692590713501, -1.7616956233978271, -2.2282536029815674], [-0.08645769208669662, -0.6893562078475952, -0.6909253597259521, -0.7194158434867859, 1.9553000926971436, 2.452497720718384, 0.4686116576194763, 0.18332192301750183, -0.9716024994850159, 2.0549027919769287, 1.2975589036941528, -0.4751524031162262, -0.19546988606452942, 2.4534876346588135, -0.4183152914047241, 0.7193371653556824, 1.3303272724151611, 0.03319139778614044, -0.6074578166007996, -1.7788242101669312, 0.28353050351142883, 1.0458314418792725, 0.625069797039032, -1.1253396272659302, 0.6046315431594849], [-0.14825975894927979, 1.1161575317382812, 1.4570204019546509, -0.2675686776638031, 1.1720902919769287, 1.3910090923309326, -0.8287989497184753, -1.0062845945358276, 1.5110148191452026, -0.030768010765314102, -1.1857424974441528, -0.438397079706192, 0.5222294926643372, -0.653478741645813, 1.4170634746551514, 0.4551234245300293, 0.672210693359375, 2.6697170734405518, -0.2466982901096344, -1.1245533227920532, -2.33270001411438, 1.4219090938568115, 0.37548333406448364, -0.4161476492881775, 0.579237699508667], [1.2679164409637451, -1.7903739213943481, 0.6569977402687073, 0.1201513484120369, 1.0760494470596313, 0.5555806756019592, -0.11103342473506927, 1.1822649240493774, -0.7596799731254578, -0.337792307138443, 0.17686985433101654, 0.7421098351478577, 1.205963373184204, 1.8717986345291138, -1.7721079587936401, -1.0450559854507446, -0.19365304708480835, -0.08048208802938461, -0.17537395656108856, -0.8175857663154602, -0.48147478699684143, 1.0194079875946045, 0.20493121445178986, 0.020139753818511963, 2.3288700580596924], [0.18958905339241028, 1.2986301183700562, 2.431295394897461, -0.29000401496887207, -1.6168512105941772, 0.23540668189525604, 0.26915037631988525, 0.06984574347734451, 2.0511791706085205, -1.4545118808746338, -1.1364340782165527, -1.990429401397705, 1.32681143283844, -0.7658252120018005, 1.4099031686782837, -0.32907232642173767, -0.990970253944397, 0.3101039528846741, -0.22563830018043518, 3.1676290035247803, 1.1584737300872803, 0.2743319869041443, 0.667426586151123, 0.57875657081604, -0.2780440151691437], [-0.6017026901245117, -1.3104465007781982, 1.0173866748809814, 1.138848900794983, 0.059327270835638046, -1.6304914951324463, 1.1763131618499756, -0.6311668157577515, 0.7893775701522827, 0.1972646862268448, -0.4588339328765869, 1.5101288557052612, -1.020537257194519, -0.6600183844566345, 1.0036641359329224, -0.25315913558006287, -1.4633408784866333, 0.0016633521299809217, 0.32822832465171814, 0.17009031772613525, -0.10597318410873413, -2.3117754459381104, 0.8560343384742737, -0.5951336622238159, 0.11862130463123322], [-0.4613662660121918, 1.425290822982788, -0.23046933114528656, -0.6387226581573486, -0.21432806551456451, 0.6287266612052917, 0.019707493484020233, 0.6271229386329651, 0.981866717338562, -0.7594819664955139, 2.155519962310791, -3.1277570724487305, -0.9843997955322266, -0.29562532901763916, -2.0310001373291016, -1.4785714149475098, -1.0928677320480347, -0.3447739779949188, 1.798935055732727, 1.5954703092575073, -1.1985069513320923, 0.7857522368431091, -1.2114334106445312, 0.42667365074157715, -0.7401250004768372], [-0.577588677406311, 1.7631404399871826, 1.19749116897583, 0.2548087239265442, -1.3309812545776367, -0.14522989094257355, -2.430992603302002, -0.8165096044540405, -0.2364555448293686, -2.357045888900757, 0.5338431000709534, 1.0834403038024902, -0.13236701488494873, -0.18244564533233643, -1.3492798805236816, -0.9002096056938171, -0.5922471284866333, -0.10218119621276855, 1.5082050561904907, 1.3951866626739502, -1.2651073932647705, -0.17184889316558838, 1.2531137466430664, -0.4035394489765167, -2.3173987865448], [-0.5273110270500183, -1.0093677043914795, 0.5796408653259277, 1.5051116943359375, 0.8931923508644104, 1.0173259973526, -1.5224144458770752, 1.1541709899902344, 0.05257302150130272, 0.05338112264871597, 1.3527523279190063, -1.3140897750854492, -0.4054027497768402, -1.2973452806472778, 1.085150122642517, 0.9063055515289307, -0.7595146298408508, 1.860356330871582, -0.1402280330657959, -0.26405343413352966, -0.42390406131744385, -0.2999171316623688, 0.985612154006958, -1.0930557250976562, -1.9354603290557861], [1.8652299642562866, 0.33021917939186096, 1.4506592750549316, -1.838667631149292, -1.7034211158752441, 0.5221061706542969, -1.1663415431976318, -0.09837500005960464, 0.9173939228057861, 0.20399737358093262, 0.8440698981285095, 0.2667063772678375, 1.3598685264587402, -0.8890947699546814, 1.131700038909912, -0.5297295451164246, -0.37845444679260254, -0.960909366607666, -0.1420457810163498, 0.18935935199260712, 0.843079149723053, 2.541033983230591, -1.2368346452713013, -1.06790030002594, -0.45767468214035034], [0.7556028962135315, 1.2532241344451904, -0.1592911183834076, 1.217796802520752, 1.6004279851913452, 0.13504131138324738, -1.0221190452575684, -1.4834811687469482, 1.157768964767456, 0.8983825445175171, -0.3376906216144562, 1.335593581199646, 1.391588568687439, -0.02310563065111637, -2.1539082527160645, 0.365979939699173, 0.21278280019760132, 0.07980766892433167, -0.839526355266571, -1.347646951675415, 0.5458309650421143, 0.09419367462396622, 0.44728586077690125, -0.18699389696121216, 0.21889038383960724], [3.6878936290740967, 0.5254061818122864, -1.0414628982543945, 0.19127777218818665, 0.9011120200157166, 2.0766069889068604, -2.0654115676879883, 0.12082266807556152, -1.3149412870407104, 1.1214951276779175, 0.8257507681846619, -0.41380494832992554, -0.1967739760875702, 0.37124913930892944, -2.5377280712127686, 0.750957190990448, 0.041771698743104935, 0.4587526023387909, -0.3440974950790405, -0.982336699962616, -0.5828379988670349, 2.153341054916382, -2.337692975997925, 0.4615730047225952, -0.050702691078186035], [0.9537867307662964, -0.9932424426078796, 0.30424126982688904, 0.10355383902788162, 1.3979010581970215, -0.7033606767654419, 0.24889475107192993, -0.582006573677063, 1.1480993032455444, 0.35044658184051514, 0.7563011646270752, -0.065492644906044, 1.125745415687561, 1.3909162282943726, -1.1070715188980103, 1.783964991569519, -0.2408328354358673, -2.2693326473236084, 2.038511037826538, -0.188139870762825, 0.9564056992530823, -0.9560694694519043, 0.8943985104560852, 0.21176029741764069, -1.1935094594955444], [1.4548768997192383, 0.3458782434463501, 0.288996160030365, -0.47752904891967773, 1.5663809776306152, 0.5771138072013855, 0.1537698209285736, -0.6508892178535461, -1.7051982879638672, 0.6459813117980957, 2.1590051651000977, -0.012153135612607002, 0.06816191226243973, 0.7127905488014221, 0.24748355150222778, 0.2980526387691498, 1.4117745161056519, 1.485846757888794, -1.7514551877975464, -1.2505751848220825, -1.3058940172195435, 0.015968894585967064, 0.5399681329727173, 1.2449918985366821, -0.21290768682956696], [1.2142504453659058, -1.4881963729858398, -1.519963026046753, -0.06415345519781113, 1.3138070106506348, 1.4483931064605713, -1.0094932317733765, 1.1780160665512085, 0.17249970138072968, -0.8047037720680237, 0.15535536408424377, -0.15879477560520172, 0.5998173952102661, 0.2711292803287506, -0.1514822393655777, -0.3818431496620178, -1.5159417390823364, -0.5916556715965271, -1.5552690029144287, -0.9064918160438538, -0.24550814926624298, 1.081630825996399, 1.2463458776474, -0.11694510281085968, 0.02013862133026123], [-2.145455837249756, 0.3762705624103546, 0.5371599197387695, -1.0173472166061401, -0.5580706000328064, -0.5256174802780151, 0.0032386898528784513, -0.4621894061565399, 0.7910124659538269, -1.037664532661438, -0.601934552192688, -0.6005411148071289, 1.2045183181762695, 1.9533772468566895, 1.8838553428649902, -2.3285346031188965, 0.00044601515401154757, 0.2265022248029709, 1.7044098377227783, -0.7603830099105835, 0.7126610279083252, -0.5311188697814941, 2.50372052192688, -2.8762123584747314, -3.4062161445617676], [0.02633461356163025, -0.1523761749267578, -0.2086084932088852, 0.8188322186470032, -1.5391584634780884, 0.6780696511268616, 1.3102238178253174, -1.0123991966247559, 1.055944800376892, -0.6847423315048218, 0.729988157749176, 2.1720879077911377, 0.6479856371879578, 0.4988211393356323, 0.8411652445793152, -0.5220625996589661, -0.39165136218070984, -0.6955140233039856, 1.699244499206543, 0.7041663527488708, -0.05460837483406067, 0.09402251243591309, 0.32502126693725586, 0.861224889755249, -1.8264902830123901], [0.7724626064300537, 1.4107704162597656, 1.970651388168335, 0.14176158607006073, 0.9051575660705566, 2.6614885330200195, -0.437430739402771, -1.067057728767395, 1.2928752899169922, -0.5156734585762024, 0.19761206209659576, 0.6322602033615112, 0.14345046877861023, -1.9238276481628418, 1.212563157081604, -1.3713163137435913, -0.15328070521354675, -1.422966480255127, -0.7908051013946533, -0.32388949394226074, -0.38454267382621765, 0.19281716644763947, 0.9352248311042786, 0.1833413988351822, 0.3037094175815582], [-0.10860282927751541, 1.0357558727264404, 0.49249058961868286, -0.6777337789535522, -0.0038616873789578676, -2.5738954544067383, 0.7481347322463989, 0.011673836037516594, 2.3660619258880615, 0.06303952634334564, -0.1645747721195221, -1.1621915102005005, -0.890998899936676, -1.740086555480957, 0.5507957935333252, 0.7910862565040588, 0.9992180466651917, -0.9506089687347412, 0.9090395569801331, -0.07643227279186249, -0.79669588804245, -0.38079363107681274, -1.7364757061004639, -1.6115537881851196, -0.23890121281147003], [0.02655123919248581, 0.5899653434753418, 0.18010705709457397, -0.34716546535491943, 1.2130441665649414, -0.2658446133136749, -0.4056209325790405, 1.656031608581543, -0.4658188819885254, -1.6281167268753052, -0.5830485820770264, -1.2551188468933105, 1.2628095149993896, 2.3662571907043457, -1.0377752780914307, 1.4814002513885498, 1.4384146928787231, 1.991803526878357, -0.19016584753990173, -0.7116448879241943, 0.15375332534313202, 0.5868546962738037, 0.6293418407440186, -0.21364344656467438, -0.6900709271430969]]}, {"name": "activation_5", "type": "tanh"}, {"has_bias": true, "bias": [-1.1692529916763306, 0.8400363326072693, 1.434601902961731, 2.167044162750244, 1.7402652502059937, 0.3487150967121124, 2.1786844730377197, 0.876487672328949, 2.907599449157715, 2.2419209480285645, 0.37713709473609924, 3.162480354309082, 1.6301881074905396, 2.5815529823303223, 1.087019443511963, 1.9309388399124146, 0.936521589756012, 1.9391969442367554, 1.5998138189315796, 0.4752558767795563, 2.6449294090270996, 0.273447185754776, 1.743970513343811, 1.8956986665725708, 1.891339898109436], "in_features": 25, "type": "dense", "name": "trainable_6", "out_features": 25, "weights": [[1.7497961521148682, 1.6555078029632568, 1.320451259613037, 0.608762800693512, -0.14207160472869873, 0.16076108813285828, 2.969322443008423, 2.4158949851989746, -1.187427282333374, 0.41484391689300537, 0.8636918067932129, 0.33371853828430176, 2.305222511291504, 0.4148727059364319, 1.641310214996338, 0.8823353052139282, 0.5979270935058594, 0.3397388160228729, 0.26160967350006104, 0.9444126486778259, 0.28600287437438965, 3.3727991580963135, 0.7907989621162415, 1.1199902296066284, 1.748260498046875], [2.4000256061553955, -0.14335279166698456, -0.8972697854042053, 2.6197872161865234, 1.551038146018982, -0.07890085875988007, 1.340095043182373, 2.1221086978912354, 1.3469529151916504, -0.333763986825943, 1.8672840595245361, -0.1427430659532547, 1.7143884897232056, 0.5494194030761719, 0.7188056111335754, 1.553063988685608, 0.5112568736076355, 1.384782075881958, 0.8443171381950378, 1.0202504396438599, 1.128705382347107, -0.07364635169506073, -0.1932750642299652, 0.9465098977088928, -0.09551796317100525], [0.3879028558731079, 1.2342801094055176, 1.140740156173706, 0.4932064712047577, 1.8466179370880127, -0.48666369915008545, 0.7143301963806152, 2.1455395221710205, 1.2551288604736328, -0.19501443207263947, 0.26459044218063354, 1.4883692264556885, 0.053577858954668045, -0.09679561853408813, 1.2232531309127808, 0.8364920020103455, 1.3002533912658691, 0.12984272837638855, 0.8526561260223389, 2.864626884460449, -1.8672736883163452, -0.28337255120277405, 3.0981602668762207, -0.37606775760650635, 2.552994728088379], [1.6264950037002563, 2.0182931423187256, 0.5967467427253723, 0.999281644821167, 0.5395404696464539, 0.1549558937549591, 1.014994740486145, 1.405912160873413, 1.8652420043945312, 0.2560454308986664, 0.4517036974430084, 1.7278242111206055, 1.1024936437606812, 0.5319949388504028, 1.0050418376922607, 0.7746450901031494, 0.3922504186630249, 0.4982892870903015, 1.3319082260131836, 0.5472579598426819, -1.6333427429199219, 1.537686824798584, 0.923799991607666, 0.2935740649700165, 1.154531478881836], [1.9143791198730469, -0.10685834288597107, 1.0709311962127686, 1.3112016916275024, 0.15302900969982147, -0.6011321544647217, -0.08303923159837723, -0.7284310460090637, 1.0995980501174927, 1.3026467561721802, -0.5094447731971741, 2.6572117805480957, 2.1454949378967285, 0.8422791361808777, 0.920264482498169, 0.8510072827339172, 2.132901191711426, -0.7384278774261475, -0.9730677008628845, 0.5494642853736877, 0.9355368614196777, 2.406022548675537, 1.3141165971755981, 2.222769260406494, 0.437551349401474], [1.2231124639511108, 1.0899440050125122, 0.6511280536651611, 0.35487836599349976, 1.5621105432510376, 0.4374202787876129, -0.2772025763988495, -0.11438878625631332, 1.9472754001617432, 0.20497028529644012, 0.4536551833152771, -1.1813573837280273, 0.2604922354221344, -0.09891834110021591, 1.1345757246017456, 1.4130557775497437, 0.3576048016548157, 1.8971062898635864, 1.6891623735427856, 0.4242508113384247, 1.385650873184204, 1.6661632061004639, 1.7741007804870605, -0.0829881951212883, -0.5210287570953369], [1.5855586528778076, -0.5862900018692017, 0.755364716053009, -0.1705358773469925, 1.1445485353469849, 2.905715227127075, 1.9037363529205322, 1.3541533946990967, -0.0531926229596138, 2.1807212829589844, 0.5571983456611633, 0.35870474576950073, 1.3446980714797974, 2.7425835132598877, -0.7891135811805725, 0.3822614550590515, 0.898287296295166, 1.3722374439239502, 1.3835715055465698, 1.5714731216430664, 0.028784742578864098, -0.03216427564620972, -0.3158523738384247, -0.19215849041938782, 0.725600004196167], [-1.0170395374298096, 1.2116237878799438, 0.23064540326595306, 1.2420344352722168, -0.7274552583694458, 1.0526628494262695, 2.1017744541168213, 1.3350306749343872, 0.28133735060691833, 0.18237853050231934, 0.9921127557754517, 0.8905082941055298, 0.033720988780260086, -0.6982769966125488, 2.240753412246704, 1.085114598274231, 3.719149589538574, -0.537398099899292, -0.16531701385974884, 3.202777147293091, 0.10212551802396774, -0.0027236074674874544, 1.1640572547912598, 1.2983735799789429, 1.1416555643081665], [1.1346842050552368, -1.0218009948730469, 0.44866782426834106, 2.0345568656921387, 2.3651700019836426, 0.13366276025772095, 1.1712517738342285, 1.131137728691101, 0.15612104535102844, 1.1386699676513672, 2.21649169921875, -0.1550847291946411, 0.13998837769031525, 0.17805783450603485, 0.2660984992980957, 2.0293078422546387, 1.0226901769638062, 1.0310310125350952, 2.357436418533325, -0.8871079683303833, 0.3897221088409424, -1.8127081394195557, 1.1895487308502197, -1.5655057430267334, -0.10695907473564148], [0.7123318314552307, 0.15482750535011292, 0.8330857753753662, 1.8767662048339844, 0.6817803382873535, 1.5267552137374878, 0.272004097700119, -0.6502236723899841, -0.6499727368354797, 0.39388588070869446, -0.8578387498855591, 2.3766138553619385, 1.5596609115600586, 1.4912322759628296, 0.5376331806182861, -0.9759358167648315, -0.047691795974969864, 2.589038610458374, 0.5409444570541382, 1.3846951723098755, -1.9522732496261597, 2.3535311222076416, 1.276155710220337, -0.986919105052948, 1.1911488771438599], [-0.05680115148425102, 1.6598460674285889, 0.14677780866622925, 0.45382341742515564, 2.50459623336792, -0.1694789081811905, 1.3659402132034302, -0.2050744742155075, -0.3126430809497833, 0.2394055277109146, -1.4372310638427734, 0.39596661925315857, -0.18650619685649872, 0.20449157059192657, 2.7939646244049072, 1.0919373035430908, 1.3095563650131226, 0.6106712818145752, -0.3736228346824646, 0.3055208921432495, 1.9628123044967651, -1.086963415145874, 0.4937879741191864, 1.7265698909759521, 0.5794683694839478], [1.499972939491272, -0.0716509222984314, 2.5391581058502197, 1.4103667736053467, -0.25194013118743896, 3.73004150390625, 1.8151494264602661, 2.0286478996276855, 0.3846437633037567, 0.6801232099533081, 0.607269823551178, 0.19130797684192657, -0.3234597146511078, 0.1556655615568161, -0.5946245193481445, 1.2829368114471436, 0.40435948967933655, 1.452731966972351, 0.7853098511695862, 2.4202849864959717, -1.2062857151031494, 0.9248384237289429, 1.131016492843628, 0.09384056180715561, 0.039493005722761154], [0.5692800879478455, 0.24410466849803925, 0.2772316336631775, 2.5895514488220215, -1.5341212749481201, 1.070708990097046, 4.109041690826416, -0.5198249220848083, -0.38012373447418213, 0.7718662619590759, 1.1073579788208008, -0.8650622367858887, -0.269735723733902, 0.27848443388938904, 1.0761975049972534, 1.653234839439392, -0.3316393792629242, 1.2235132455825806, 1.070284366607666, -0.13756731152534485, -0.5183250308036804, 1.1006039381027222, 1.3675916194915771, 1.3270050287246704, 0.43087270855903625], [1.5821481943130493, -0.07756892591714859, 0.3931635022163391, 0.9055187702178955, -0.0791114941239357, 1.618316650390625, 1.732515573501587, -1.0195945501327515, 1.6828635931015015, 0.3383772075176239, 1.8247196674346924, -0.5200188159942627, 0.38944798707962036, -0.28744813799858093, -0.1348017454147339, 0.22077596187591553, 1.0302282571792603, 0.5706104636192322, 0.4766663908958435, 2.2722222805023193, -1.0303834676742554, 1.699530839920044, 1.205419898033142, 1.8827321529388428, 1.6106884479522705], [1.1034284830093384, 1.31370210647583, 0.9548909664154053, 2.690732479095459, 1.6293526887893677, -0.21909485757350922, 1.297709345817566, 1.3290965557098389, 2.3142483234405518, 2.1470818519592285, 2.1398582458496094, 1.8724826574325562, 0.11099888384342194, -0.9803338050842285, 0.5885701179504395, 0.2907092571258545, 2.0772275924682617, 1.0028373003005981, 1.8131672143936157, 0.24318981170654297, -1.9621838331222534, 0.3031490445137024, 2.4804258346557617, 1.5444327592849731, -1.6186881065368652], [-1.1572258472442627, -1.9385019540786743, 1.5584779977798462, 1.2628014087677002, 1.0544953346252441, 0.10931111127138138, 1.9446885585784912, 0.963470458984375, 1.4273840188980103, -0.15558604896068573, -0.9003102779388428, 2.299670457839966, -1.1479209661483765, -0.6473293304443359, -0.27743083238601685, -0.15682198107242584, 1.3697099685668945, 0.6554968953132629, 1.4801161289215088, 0.9368717670440674, 0.9299858212471008, 0.6257154941558838, 1.2829203605651855, 1.9646220207214355, 2.0137274265289307], [0.16465254127979279, -0.9810032844543457, 0.17101435363292694, 1.2824466228485107, 1.6562879085540771, 1.2622259855270386, -0.867424726486206, 2.782578706741333, -1.1444861888885498, 0.6990014314651489, 0.2751600444316864, -0.9296781420707703, 0.6940833330154419, 0.11160559952259064, 1.0483673810958862, 2.7033567428588867, 1.3192634582519531, 1.2119922637939453, 0.9900956749916077, -0.09876289963722229, 1.0027579069137573, 2.1247527599334717, 0.45095351338386536, -0.2991199791431427, 1.5153322219848633], [1.2984915971755981, 0.4362246096134186, 0.9727967381477356, 1.3166786432266235, 0.8803571462631226, 0.9334161281585693, 1.3192880153656006, -0.14123912155628204, 0.26518020033836365, 0.8048972487449646, 1.6142491102218628, 2.0921311378479004, 1.1203747987747192, 0.948581337928772, 2.8555002212524414, 1.4449089765548706, 2.3003547191619873, 1.3111317157745361, 0.4179059565067291, 2.0365164279937744, -0.07555492222309113, 1.9315907955169678, 1.08426833152771, 0.297605961561203, -1.2561416625976562], [0.20908716320991516, 2.098047971725464, 0.08226919919252396, 1.0497069358825684, 1.145100474357605, -0.47186219692230225, 0.7855073809623718, 2.0513126850128174, 0.284051775932312, 0.7304840683937073, -0.173847496509552, -0.7293287515640259, 0.630204439163208, 0.49757587909698486, -0.484422504901886, 0.629090428352356, 0.9132705926895142, 2.4692795276641846, -0.3943370282649994, -0.0998845249414444, -0.6938291192054749, -1.364625096321106, 0.8216928839683533, 2.415651559829712, -1.0779104232788086], [2.070138454437256, 0.5857244729995728, 1.6434857845306396, 0.9007455110549927, 2.248351573944092, 1.3549177646636963, -1.0898059606552124, 1.735925555229187, 1.0177109241485596, 1.5948233604431152, 2.112393617630005, 1.3497629165649414, 2.0134387016296387, 0.8207643032073975, 0.42375391721725464, 0.8487233519554138, 1.196664810180664, -0.3649289309978485, 1.577085256576538, 2.0694785118103027, -0.38720327615737915, -1.731735110282898, 0.786961019039154, -0.2311253696680069, -0.6885251402854919], [0.35463714599609375, 1.159603476524353, 1.4145135879516602, 0.09109756350517273, 0.4484085440635681, 1.9859508275985718, 0.9337096810340881, -0.5727022886276245, 0.4291020333766937, 1.687180757522583, 1.9403064250946045, -0.25029197335243225, 1.3698017597198486, 0.5098446607589722, 0.9816827178001404, 1.87266206741333, 0.5296282768249512, 1.0628628730773926, 0.3494929075241089, 3.3693008422851562, -0.7461979985237122, 0.741130530834198, 1.5768647193908691, -0.3998430371284485, 0.15079234540462494], [1.78472101688385, 2.0821142196655273, 1.5344966650009155, 0.2179340273141861, 1.1434497833251953, 0.27274012565612793, 1.0620980262756348, 0.625785768032074, -0.781214714050293, 0.2786847651004791, -1.5526669025421143, -2.0976946353912354, 1.6655421257019043, -0.09422917664051056, 0.257513165473938, 0.5495857000350952, -0.23311276733875275, 1.1094528436660767, 0.8281964063644409, 1.869920015335083, -0.2851297855377197, 0.8659742474555969, 1.8130617141723633, 0.6687167882919312, 3.157115936279297], [0.09281723201274872, 0.03493887558579445, 2.498929977416992, 0.7372300624847412, 0.3180592656135559, 1.6357395648956299, -1.1033450365066528, 0.7575435042381287, -0.618264377117157, 1.118226408958435, 1.1852835416793823, 0.7599583268165588, 0.7919638752937317, 0.5966606140136719, -1.7563375234603882, 2.056124210357666, 1.434397578239441, 0.22229444980621338, -0.7327938675880432, -0.5307950377464294, -0.17909498512744904, 0.040519434958696365, 1.347360610961914, 1.5654351711273193, -0.26381662487983704], [0.8482405543327332, 1.6025866270065308, 2.246823787689209, 1.0571050643920898, 0.8322233557701111, 1.7366797924041748, 0.18866780400276184, 1.5734630823135376, 1.2655413150787354, 0.06216650828719139, -1.3418920040130615, 1.4317015409469604, 1.1449111700057983, -0.604499876499176, -1.322525143623352, 1.874700665473938, -0.13675865530967712, 0.42154014110565186, 1.329492211341858, 0.31817999482154846, -0.2295307219028473, 3.007643699645996, -1.093639850616455, 1.5644595623016357, 0.4319559335708618], [1.8302894830703735, 1.369494080543518, 1.3356071710586548, 0.5876792073249817, 0.8466595411300659, 1.5940817594528198, 1.4224272966384888, 1.1987553834915161, 0.14499539136886597, 1.0192844867706299, -0.39644894003868103, 1.0403354167938232, 0.14894036948680878, -1.1708852052688599, 1.7345703840255737, 2.5336036682128906, -0.538334846496582, 0.9759765267372131, -0.2060236632823944, 1.0062402486801147, 0.8818474411964417, 0.85724937915802, 1.4223963022232056, 1.0577611923217773, -0.0634637251496315]]}, {"name": "activation_7", "type": "tanh"}, {"has_bias": true, "bias": [1.841087818145752, 1.5736887454986572], "in_features": 25, "type": "dense", "name": "trainable_8", "out_features": 2, "weights": [[0.03986673802137375, -0.049039121717214584], [-0.05536942183971405, 0.0015659462660551071], [-0.021283868700265884, -0.011112341657280922], [0.0035342241171747446, -0.10074274241924286], [-0.014158567413687706, 0.08308708667755127], [1.7568345069885254, 0.5804851055145264], [-0.0010565824341028929, 0.07768508791923523], [-0.0839724987745285, 0.07769408822059631], [-0.11980843544006348, 0.0676550641655922], [-0.0019896707963198423, 0.20522332191467285], [-0.12190660089254379, 0.17014198005199432], [0.03732411563396454, -0.0758100226521492], [0.058376800268888474, -0.04893802851438522], [-0.06904387474060059, 0.12465962767601013], [0.14765708148479462, -0.16790306568145752], [-0.02840682491660118, -0.017352215945720673], [0.05375593155622482, -0.057601071894168854], [0.04315353184938431, -1.2059579603374004e-05], [-0.005217672325670719, 0.003713885322213173], [0.5500075817108154, 0.037443608045578], [1.371298909187317, -0.21155862510204315], [0.2888294458389282, -0.096892349421978], [0.09375274926424026, -0.10879282653331757], [0.056322429329156876, -0.13326255977153778], [-0.026205340400338173, 0.11004119366407394]]}, {"name": "activation_9", "type": "tanh"}, {"name": "criterion_10", "type": "mse"}]}