{
  "test_accuracy": 0.6379,
  "layers": [
    {
      "type": "dense",
      "has_bias": true,
      "in_features": 2,
      "weights": [
        [
          -4.792739391326904,
          0.9050983190536499,
          0.5676020383834839,
          -0.3208944499492645,
          -3.8515615463256836,
          0.3178827166557312,
          1.3920949697494507,
          1.2604435682296753,
          -2.8814241886138916,
          2.643754243850708,
          -0.39750367403030396,
          0.9847925305366516,
          0.7096918225288391,
          0.23984436690807343,
          2.172168493270874,
          -0.39803260564804077,
          1.0347144603729248,
          1.5913124084472656,
          0.7101242542266846,
          1.718168020248413,
          0.1383897066116333,
          0.31271862983703613,
          1.217729926109314,
          2.250899076461792,
          -0.9420822262763977
        ],
        [
          6.76154088973999,
          -3.92073917388916,
          -0.043704040348529816,
          -1.4125022888183594,
          -2.0091395378112793,
          -0.6949149370193481,
          2.4233689308166504,
          0.9220624566078186,
          0.5358079671859741,
          2.4461944103240967,
          0.26630502939224243,
          0.8006849884986877,
          0.820493221282959,
          -4.385954856872559,
          -0.8461683392524719,
          2.632939338684082,
          2.0873372554779053,
          -0.05467328429222107,
          2.207043409347534,
          1.737006425857544,
          -0.56626957654953,
          1.033623456954956,
          1.1804165840148926,
          1.2583363056182861,
          -0.26464539766311646
        ]
      ],
      "name": "trainable_0",
      "bias": [
        1.2103466987609863,
        0.12865164875984192,
        1.6091619729995728,
        3.2407188415527344,
        0.9951834678649902,
        2.060713529586792,
        1.619310975074768,
        2.49381685256958,
        0.05954364687204361,
        -0.06802238523960114,
        3.410839557647705,
        2.6475629806518555,
        1.863654375076294,
        2.101900815963745,
        2.17439341545105,
        1.046278953552246,
        1.8044029474258423,
        2.552474021911621,
        0.8483503460884094,
        0.41025298833847046,
        3.0606329441070557,
        2.4035820960998535,
        1.0878098011016846,
        0.7303434014320374,
        -1.1811132431030273
      ],
      "out_features": 25
    },
    {
      "type": "tanh",
      "name": "activation_1"
    },
    {
      "type": "dense",
      "has_bias": true,
      "in_features": 25,
      "weights": [
        [
          4.3247175216674805,
          3.938795328140259,
          1.8466657400131226,
          2.1702826023101807,
          5.990182399749756,
          1.2403390407562256,
          2.691965103149414,
          6.782891750335693,
          3.7500600814819336,
          0.03027408942580223,
          4.275581359863281,
          5.594670295715332,
          2.5928168296813965,
          3.8214688301086426,
          3.956818103790283,
          7.031589508056641,
          5.034443378448486,
          7.694300651550293,
          1.7385592460632324,
          4.039791584014893,
          3.89927339553833,
          3.755913257598877,
          1.1462454795837402,
          3.431835412979126,
          5.396301746368408
        ],
        [
          -4.833384990692139,
          -0.20185193419456482,
          -1.8974922895431519,
          0.7942471504211426,
          -0.17452025413513184,
          2.01177978515625,
          -0.3555120825767517,
          -1.6995842456817627,
          -1.2676271200180054,
          0.20441164076328278,
          -1.0598584413528442,
          -0.32735908031463623,
          -2.194427967071533,
          -2.6794674396514893,
          -0.4427858889102936,
          -3.1392006874084473,
          -1.1559804677963257,
          -2.217301368713379,
          -2.389934539794922,
          -1.7277324199676514,
          -3.604813814163208,
          -2.7300240993499756,
          -0.5083937048912048,
          -0.9833002090454102,
          -1.2740830183029175
        ],
        [
          -0.05266079679131508,
          -1.1287617683410645,
          0.44087955355644226,
          -0.3407427966594696,
          -2.3247756958007812,
          0.44546952843666077,
          0.05587957054376602,
          0.3767508268356323,
          -2.0160434246063232,
          0.8430266380310059,
          0.8275585770606995,
          0.2731389105319977,
          0.9379158616065979,
          1.2116074562072754,
          0.10269875824451447,
          -0.02601926401257515,
          -1.0394833087921143,
          -2.0216965675354004,
          -0.7584355473518372,
          0.41592177748680115,
          -0.3479827642440796,
          -1.5569794178009033,
          -0.8517245650291443,
          0.6268095970153809,
          -0.7840512990951538
        ],
        [
          1.4228094816207886,
          -0.42724621295928955,
          -0.8250957727432251,
          -0.697345495223999,
          0.5526944398880005,
          -1.5646026134490967,
          -0.34695667028427124,
          -1.1792672872543335,
          0.08471466600894928,
          0.9232704043388367,
          0.6076459884643555,
          -0.9371716976165771,
          0.542334794998169,
          0.39688950777053833,
          -0.7128952741622925,
          -0.6668347716331482,
          -0.26850682497024536,
          -0.9774481654167175,
          -0.08574249595403671,
          -0.21708464622497559,
          -0.32634299993515015,
          -0.5153812170028687,
          -0.07986535876989365,
          1.5851457118988037,
          0.9750709533691406
        ],
        [
          -3.2396116256713867,
          -1.1624795198440552,
          -0.746082067489624,
          -2.3516814708709717,
          -0.7833820581436157,
          -0.1698722094297409,
          -1.1053252220153809,
          -3.4275944232940674,
          -2.0657238960266113,
          0.4864012897014618,
          0.08018998801708221,
          -3.649790048599243,
          -1.362922191619873,
          0.4219869375228882,
          -1.2792335748672485,
          -0.20439621806144714,
          -1.9625204801559448,
          -2.922943353652954,
          -0.10613133013248444,
          -1.295093059539795,
          -3.4255056381225586,
          -2.7104129791259766,
          -1.4150699377059937,
          -1.4944934844970703,
          -1.9275497198104858
        ],
        [
          -0.13960155844688416,
          -1.0332211256027222,
          1.5214011669158936,
          0.17830611765384674,
          -0.3480071723461151,
          2.250558614730835,
          0.6366183757781982,
          1.0134391784667969,
          -1.6049124002456665,
          -0.346924751996994,
          -0.9442411065101624,
          -0.5443609952926636,
          0.9650710821151733,
          -0.1566576212644577,
          -0.0837433785200119,
          0.1469731330871582,
          0.0005004378035664558,
          -0.6408298015594482,
          1.0844439268112183,
          -0.32553693652153015,
          0.4744578003883362,
          0.5348016619682312,
          -1.1556622982025146,
          -0.8162848949432373,
          -2.504937171936035
        ],
        [
          2.236079454421997,
          -2.0476651191711426,
          -2.0200300216674805,
          -0.39769887924194336,
          -0.26067283749580383,
          1.458489179611206,
          -0.06206871569156647,
          -0.8853176832199097,
          -0.3774046003818512,
          0.6528932452201843,
          -0.33172690868377686,
          0.925839900970459,
          -0.25752729177474976,
          -2.3160672187805176,
          1.0013686418533325,
          -0.033843278884887695,
          0.3895077407360077,
          -0.3218952417373657,
          0.6764163970947266,
          -1.035737156867981,
          2.352566957473755,
          -0.5050057172775269,
          1.9487494230270386,
          1.1310460567474365,
          0.5533232688903809
        ],
        [
          2.7461533546447754,
          -0.6539697647094727,
          -0.9725238680839539,
          1.082587718963623,
          -0.5297967195510864,
          0.9370101690292358,
          -0.5008909702301025,
          0.08863605558872223,
          -0.9758748412132263,
          2.0666990280151367,
          -0.46745336055755615,
          0.4679131805896759,
          2.5092849731445312,
          -1.4695570468902588,
          0.8282361626625061,
          -0.40169021487236023,
          0.609259843826294,
          -2.1799397468566895,
          -0.3217241168022156,
          2.5996108055114746,
          0.36528465151786804,
          0.9050837159156799,
          -0.04013341665267944,
          1.9400993585586548,
          0.695397675037384
        ],
        [
          -1.998234748840332,
          1.934766173362732,
          -1.7360371351242065,
          0.5699315071105957,
          -0.9446225762367249,
          0.018705235794186592,
          -0.4944964647293091,
          -1.7057826519012451,
          -0.6955304741859436,
          -2.340860605239868,
          -1.2140460014343262,
          0.07072737067937851,
          -0.6973035931587219,
          -0.2590968608856201,
          -3.0079116821289062,
          -1.2233446836471558,
          0.051945097744464874,
          0.6796817183494568,
          0.5501585602760315,
          -0.2129100114107132,
          -2.8148460388183594,
          -1.4960525035858154,
          0.7249960899353027,
          0.42607399821281433,
          -1.1602962017059326
        ],
        [
          0.45730236172676086,
          1.4632872343063354,
          0.4168655276298523,
          -0.06385114789009094,
          -0.820198655128479,
          1.7373608350753784,
          -0.04395202547311783,
          -0.7052790522575378,
          -0.21577993035316467,
          1.4367424249649048,
          -0.507579505443573,
          0.027922462671995163,
          1.0338619947433472,
          -1.5459544658660889,
          0.007430573925375938,
          -0.5436473488807678,
          1.648695945739746,
          0.7794796228408813,
          -0.3302425742149353,
          2.1175975799560547,
          -1.3049215078353882,
          -0.40959659218788147,
          -0.27812260389328003,
          -0.6102606058120728,
          0.7070112228393555
        ],
        [
          2.157909631729126,
          -0.9652485251426697,
          1.1774661540985107,
          1.4938724040985107,
          -0.9126836061477661,
          2.8410191535949707,
          -0.358595609664917,
          -1.4368447065353394,
          -1.3222662210464478,
          0.7948125600814819,
          0.3791459798812866,
          -0.11216069012880325,
          1.4726094007492065,
          0.7242180109024048,
          0.21818353235721588,
          -0.6765130758285522,
          0.7280445098876953,
          -2.1123266220092773,
          1.2715260982513428,
          0.9085228443145752,
          0.8950328826904297,
          0.7530747056007385,
          -0.5223277807235718,
          0.15969207882881165,
          1.1132087707519531
        ],
        [
          2.147509813308716,
          -0.6478058099746704,
          -1.614886999130249,
          -0.7931216359138489,
          1.2426245212554932,
          0.9618735313415527,
          -0.4907691776752472,
          -1.4442046880722046,
          -2.539255380630493,
          1.081493854522705,
          -0.8108946681022644,
          0.6849355101585388,
          1.8930091857910156,
          0.06852086633443832,
          0.35898807644844055,
          0.06731347739696503,
          0.6345895528793335,
          -0.6499165296554565,
          2.4262800216674805,
          1.8147562742233276,
          1.8638118505477905,
          -0.7460100054740906,
          0.11019685864448547,
          3.0875072479248047,
          -1.8120274543762207
        ],
        [
          -0.7890088558197021,
          -1.3854968547821045,
          -2.4427649974823,
          2.139411449432373,
          -0.9192590713500977,
          0.8785915374755859,
          -0.03371782973408699,
          -0.3008095324039459,
          -1.6031259298324585,
          0.9786683320999146,
          -0.47812968492507935,
          2.0044760704040527,
          0.2631608247756958,
          -1.3828868865966797,
          0.5379344820976257,
          -0.09105558693408966,
          0.5925126075744629,
          0.06250275671482086,
          1.0413599014282227,
          0.9148344993591309,
          0.07957708835601807,
          -1.1753473281860352,
          0.25549161434173584,
          0.9437472820281982,
          -1.6902190446853638
        ],
        [
          1.9274994134902954,
          0.9751186966896057,
          1.0030474662780762,
          -0.03612090274691582,
          2.032600164413452,
          2.006120443344116,
          0.7661766409873962,
          -0.779435932636261,
          2.4899137020111084,
          -0.5718380808830261,
          1.4998695850372314,
          0.4885863661766052,
          0.3209071159362793,
          0.444217324256897,
          0.9654099941253662,
          1.4103645086288452,
          1.9158035516738892,
          2.022841691970825,
          1.6744674444198608,
          0.13655108213424683,
          0.8701985478401184,
          0.8496256470680237,
          2.3082470893859863,
          0.5896884799003601,
          2.102830171585083
        ],
        [
          -0.5235095024108887,
          0.02964615449309349,
          -0.4843137562274933,
          -1.0662509202957153,
          -0.512127161026001,
          -0.9675158262252808,
          -1.1611034870147705,
          -1.1992262601852417,
          0.4516904950141907,
          1.6931473016738892,
          -1.827806830406189,
          1.1693624258041382,
          0.2558750808238983,
          0.23707841336727142,
          1.5555424690246582,
          -0.087882399559021,
          -2.325774669647217,
          -1.1080995798110962,
          1.9554975032806396,
          1.2138376235961914,
          1.4926350116729736,
          -1.621138572692871,
          0.5072940587997437,
          1.2830842733383179,
          -2.598245859146118
        ],
        [
          1.2410175800323486,
          -0.5994670987129211,
          -0.9192377924919128,
          0.43318289518356323,
          -0.4228254556655884,
          1.4578135013580322,
          -0.27810904383659363,
          0.041972339153289795,
          -1.2892589569091797,
          -0.3648951053619385,
          1.0332231521606445,
          1.3455836772918701,
          0.8765959739685059,
          0.6657052040100098,
          -1.0772560834884644,
          -0.29546329379081726,
          0.12200020253658295,
          -1.3496630191802979,
          0.5016943216323853,
          2.4819858074188232,
          2.020880699157715,
          -0.9759743809700012,
          0.8129383325576782,
          0.16382858157157898,
          -0.7787660956382751
        ],
        [
          1.9693156480789185,
          0.366190105676651,
          0.22580336034297943,
          -0.36774855852127075,
          0.8509145975112915,
          -0.2717823386192322,
          -0.9898021221160889,
          1.1786460876464844,
          -1.7740298509597778,
          -0.6199585795402527,
          0.24691352248191833,
          4.232168197631836,
          2.0544214248657227,
          0.22186246514320374,
          1.4277780055999756,
          -1.6350053548812866,
          -0.2759977877140045,
          -1.1403894424438477,
          0.1277482658624649,
          0.2934757471084595,
          0.6529126763343811,
          0.6632753014564514,
          0.3321211040019989,
          0.8271404504776001,
          1.1406842470169067
        ],
        [
          0.45913371443748474,
          0.2505238354206085,
          0.6499301791191101,
          1.1714584827423096,
          -1.0150916576385498,
          0.9673767685890198,
          -0.45290449261665344,
          -0.16342970728874207,
          -0.5425246953964233,
          1.8630080223083496,
          -0.5882588028907776,
          3.2178356647491455,
          -1.0106817483901978,
          -0.36235517263412476,
          2.4690942764282227,
          -2.17876935005188,
          -1.3347779512405396,
          -3.4071860313415527,
          0.7199893593788147,
          1.8661844730377197,
          1.5667850971221924,
          -0.21951615810394287,
          -0.14170919358730316,
          1.4438053369522095,
          0.52936851978302
        ],
        [
          0.6420817971229553,
          -0.5706126093864441,
          0.0373268648982048,
          1.292307734489441,
          0.3052122890949249,
          0.39095884561538696,
          -1.8023992776870728,
          -1.9361753463745117,
          -0.2337118536233902,
          0.15301209688186646,
          -0.9863649010658264,
          -0.041857536882162094,
          1.0343996286392212,
          0.18780773878097534,
          0.9995473027229309,
          -1.4173517227172852,
          -1.8005890846252441,
          0.05714741349220276,
          -0.1624508500099182,
          0.9412303566932678,
          -0.13915151357650757,
          -0.8833866119384766,
          0.1143656075000763,
          0.875643789768219,
          -1.88121497631073
        ],
        [
          -0.3720141649246216,
          1.3178259134292603,
          -1.0295331478118896,
          0.6759243607521057,
          -1.8079439401626587,
          -0.07985921949148178,
          0.027735549956560135,
          -0.8426699042320251,
          -1.5609712600708008,
          -1.1546164751052856,
          0.4811571538448334,
          2.186336040496826,
          -1.2176265716552734,
          0.1988212913274765,
          0.9552515745162964,
          -0.3035264313220978,
          -1.204620599746704,
          1.035908579826355,
          0.5520029664039612,
          0.6377646327018738,
          0.35787612199783325,
          -0.8146811127662659,
          -0.34418240189552307,
          0.36593884229660034,
          -0.6440667510032654
        ],
        [
          1.4733796119689941,
          -0.08102541416883469,
          -0.9406983852386475,
          0.4228593409061432,
          2.525623083114624,
          0.42155393958091736,
          -1.665290117263794,
          -1.0709116458892822,
          -0.14111071825027466,
          1.0086501836776733,
          -0.6839990615844727,
          -0.2276594340801239,
          0.9726166725158691,
          1.256543755531311,
          -0.02953951805830002,
          -0.7863881587982178,
          -0.7499040365219116,
          -0.8389154672622681,
          0.3386705219745636,
          2.0499002933502197,
          0.8511070609092712,
          -0.5950069427490234,
          -1.3475642204284668,
          1.072156548500061,
          1.2041995525360107
        ],
        [
          0.46254459023475647,
          -1.708485722541809,
          0.6342904567718506,
          0.6729127764701843,
          0.7366986274719238,
          1.4965170621871948,
          -0.554520308971405,
          -1.3945025205612183,
          -1.4153708219528198,
          0.41515737771987915,
          -1.4491981267929077,
          0.7107114195823669,
          0.4810929298400879,
          1.2507548332214355,
          1.546358585357666,
          -0.5161786079406738,
          -0.23897889256477356,
          1.7348750829696655,
          1.8483710289001465,
          -0.07592403143644333,
          0.7533132433891296,
          0.18958830833435059,
          1.5227704048156738,
          2.094633102416992,
          0.739471971988678
        ],
        [
          0.5607869625091553,
          -1.0748858451843262,
          -1.6270498037338257,
          2.1049437522888184,
          -0.3861596882343292,
          0.6869137287139893,
          -0.05119594186544418,
          -1.239959955215454,
          -0.5237283706665039,
          -0.9071679711341858,
          0.9873564839363098,
          -2.187898874282837,
          1.236133337020874,
          -1.4410252571105957,
          0.9490904808044434,
          -0.2450188398361206,
          -1.0549299716949463,
          -2.0325236320495605,
          0.7807856202125549,
          -1.027449369430542,
          1.505628228187561,
          -1.6243386268615723,
          -0.7881277203559875,
          -0.6652976870536804,
          -1.1970974206924438
        ],
        [
          0.8424554467201233,
          -0.6973735094070435,
          0.9395671486854553,
          0.7187008857727051,
          -2.312675714492798,
          0.9271004796028137,
          0.6325728893280029,
          -1.0006766319274902,
          -0.36484041810035706,
          -0.025372250005602837,
          0.24837912619113922,
          -0.27262958884239197,
          -0.45812705159187317,
          -1.9674099683761597,
          1.6147197484970093,
          -0.6426268219947815,
          0.08768858760595322,
          -2.5966248512268066,
          -0.32214242219924927,
          1.604014277458191,
          1.1733170747756958,
          0.24756012856960297,
          1.3139370679855347,
          -4.139738082885742,
          -1.6041250228881836
        ],
        [
          -0.10427640378475189,
          -0.3868570923805237,
          2.6901562213897705,
          -2.865091323852539,
          1.7791169881820679,
          0.16226060688495636,
          0.9565578699111938,
          0.013782155700027943,
          0.1307360827922821,
          -2.112680196762085,
          2.149353265762329,
          -1.6986539363861084,
          1.9088631868362427,
          1.5855565071105957,
          -1.1029380559921265,
          -0.11010539531707764,
          2.701380729675293,
          2.075927734375,
          0.3672363758087158,
          2.475651979446411,
          -1.6893092393875122,
          1.3231650590896606,
          -1.0394999980926514,
          -0.5827088952064514,
          -0.04048345237970352
        ]
      ],
      "name": "trainable_2",
      "bias": [
        -3.068040370941162,
        -2.8959150314331055,
        -3.682176113128662,
        -2.8860979080200195,
        -5.073668956756592,
        -5.191233158111572,
        -3.115562915802002,
        -3.4094276428222656,
        -2.658862590789795,
        -2.519317626953125,
        -3.8107876777648926,
        -2.6187777519226074,
        -3.3543543815612793,
        -3.203355312347412,
        -3.1059679985046387,
        -3.3773579597473145,
        -1.9418220520019531,
        -2.7625741958618164,
        -4.463149547576904,
        -4.20795202255249,
        -2.0702946186065674,
        -4.01792573928833,
        -3.597187042236328,
        -2.9630136489868164,
        -3.8501205444335938
      ],
      "out_features": 25
    },
    {
      "type": "tanh",
      "name": "activation_3"
    },
    {
      "type": "dense",
      "has_bias": true,
      "in_features": 25,
      "weights": [
        [
          2.369539499282837,
          2.7902653217315674,
          0.9007574319839478,
          1.6720744371414185,
          0.8286468386650085,
          0.1645672619342804,
          -0.6037294864654541,
          0.9365487098693848,
          0.3825685977935791,
          1.3145601749420166,
          0.11060424149036407,
          0.9042474627494812,
          1.2504470348358154,
          0.6637685298919678,
          -0.2050696164369583,
          -0.2594689428806305,
          -0.1735542118549347,
          0.11041591316461563,
          0.9610978960990906,
          0.048136431723833084,
          2.9154233932495117,
          1.6376410722732544,
          1.0257620811462402,
          2.1587846279144287,
          2.024271249771118
        ],
        [
          0.7228645086288452,
          0.25611042976379395,
          0.49572113156318665,
          -0.1957341432571411,
          1.526366949081421,
          0.879856288433075,
          0.69853675365448,
          2.3338708877563477,
          1.6821478605270386,
          0.48663634061813354,
          0.7542678117752075,
          0.7527787685394287,
          0.487723171710968,
          1.4285386800765991,
          3.122767925262451,
          0.3514896333217621,
          0.5315842628479004,
          0.33600300550460815,
          -0.3792184293270111,
          1.290381908416748,
          -0.25942882895469666,
          3.4978082180023193,
          1.3735458850860596,
          2.14312744140625,
          0.15096129477024078
        ],
        [
          0.20650358498096466,
          -0.0760406032204628,
          -0.17533034086227417,
          0.5029774308204651,
          0.2708859443664551,
          2.086146593093872,
          0.1775030791759491,
          0.9863507747650146,
          0.40614908933639526,
          0.23567946255207062,
          0.9643684029579163,
          1.0664842128753662,
          1.0766105651855469,
          0.0868452861905098,
          -0.8775291442871094,
          0.7773464918136597,
          2.693331480026245,
          1.8088032007217407,
          1.1111538410186768,
          1.755089282989502,
          0.11792211979627609,
          1.6983723640441895,
          0.8086694478988647,
          2.087973117828369,
          0.17399819195270538
        ],
        [
          0.8865594267845154,
          2.00187611579895,
          0.523865282535553,
          1.6443933248519897,
          2.39660906791687,
          2.328120470046997,
          0.7923910617828369,
          1.1089508533477783,
          -0.7055849432945251,
          2.121782064437866,
          -0.33087146282196045,
          -0.9448280334472656,
          -0.06853986531496048,
          0.6957839727401733,
          0.12429478019475937,
          1.7643660306930542,
          -0.09427875280380249,
          1.6818209886550903,
          0.9388123154640198,
          0.6364803910255432,
          0.6499288082122803,
          -0.14741595089435577,
          -0.929422914981842,
          1.0400989055633545,
          -0.38256919384002686
        ],
        [
          2.216918706893921,
          -1.5099655389785767,
          0.9876866936683655,
          1.1779720783233643,
          1.8561023473739624,
          2.0649850368499756,
          0.8252407312393188,
          1.5326100587844849,
          1.3993771076202393,
          -0.41333913803100586,
          0.8275137543678284,
          2.121019124984741,
          1.402599811553955,
          -0.4601076543331146,
          0.8094608783721924,
          -0.5242362022399902,
          0.48213493824005127,
          -1.8066701889038086,
          1.369931697845459,
          0.5110297203063965,
          1.5210134983062744,
          2.008518695831299,
          0.4960573613643646,
          0.5422486066818237,
          -0.26847776770591736
        ],
        [
          0.6706721782684326,
          0.4320991337299347,
          -0.18929213285446167,
          1.0631505250930786,
          0.2624110281467438,
          1.0736186504364014,
          0.9493799805641174,
          0.33298924565315247,
          1.650286078453064,
          1.0072567462921143,
          -0.28483039140701294,
          -1.9649388790130615,
          -1.9473509788513184,
          -0.6508916020393372,
          -0.1515202820301056,
          0.383209228515625,
          -1.1314538717269897,
          1.629298210144043,
          0.9566671252250671,
          1.2995949983596802,
          1.1110938787460327,
          -0.5332907438278198,
          0.8223692774772644,
          0.41550517082214355,
          0.6786063313484192
        ],
        [
          0.08251562714576721,
          2.10929012298584,
          1.4356577396392822,
          0.8413203954696655,
          1.2131712436676025,
          1.1785742044448853,
          2.123614549636841,
          2.0367164611816406,
          0.92219477891922,
          0.8073354959487915,
          1.3039823770523071,
          1.3634320497512817,
          2.1829845905303955,
          2.32291841506958,
          0.7424636483192444,
          0.2530139088630676,
          1.3989983797073364,
          -0.09099743515253067,
          0.709059476852417,
          1.3850895166397095,
          0.8060986995697021,
          0.537529706954956,
          -0.13043330609798431,
          0.20840616524219513,
          0.8532460927963257
        ],
        [
          0.818635880947113,
          0.6608991026878357,
          0.773959755897522,
          0.6449993252754211,
          0.9986099600791931,
          1.924948811531067,
          1.2740811109542847,
          0.2247312366962433,
          -0.972282350063324,
          1.2302607297897339,
          1.7097835540771484,
          0.4490000605583191,
          1.707329273223877,
          -1.2167329788208008,
          0.8636379837989807,
          -0.09883014112710953,
          1.4070886373519897,
          -2.0385711193084717,
          2.2066454887390137,
          1.919289231300354,
          0.5856450796127319,
          0.9954525828361511,
          1.0621931552886963,
          1.9722522497177124,
          0.08237466216087341
        ],
        [
          0.8913760185241699,
          1.317093849182129,
          2.2153873443603516,
          2.0487935543060303,
          1.570602297782898,
          0.9206050634384155,
          1.1078543663024902,
          -0.3078790605068207,
          1.753950595855713,
          1.6894270181655884,
          2.4041147232055664,
          2.405205249786377,
          2.438474178314209,
          1.3935891389846802,
          2.1699893474578857,
          1.6362943649291992,
          1.97490656375885,
          -0.8271040320396423,
          0.936454713344574,
          1.158444881439209,
          1.030370831489563,
          0.9109559059143066,
          -0.6156491637229919,
          1.5650899410247803,
          -0.7209699749946594
        ],
        [
          -0.9482603669166565,
          0.7347381114959717,
          1.2143739461898804,
          0.5103455185890198,
          2.0762948989868164,
          0.4604043960571289,
          1.6730961799621582,
          1.1763837337493896,
          2.804248332977295,
          -0.450364351272583,
          -1.7595479488372803,
          0.7206034064292908,
          1.2572277784347534,
          1.0462197065353394,
          -0.7526643872261047,
          1.914650797843933,
          -0.6053375601768494,
          2.0000832080841064,
          1.0408570766448975,
          0.5196886658668518,
          1.6164978742599487,
          -0.0784817785024643,
          0.8824121952056885,
          1.2640107870101929,
          1.9710038900375366
        ],
        [
          0.4455016255378723,
          -0.7317510843276978,
          -0.0282681155949831,
          -0.14011962711811066,
          0.2756137251853943,
          0.5072669982910156,
          0.20750239491462708,
          0.7940178513526917,
          0.058112431317567825,
          3.052412748336792,
          1.2361788749694824,
          0.09304706752300262,
          1.8028727769851685,
          1.211539387702942,
          2.7164461612701416,
          0.7389960885047913,
          2.061621904373169,
          -1.1412413120269775,
          0.5282080769538879,
          2.111009359359741,
          0.7947962284088135,
          1.5311189889907837,
          0.3655685484409332,
          1.0471004247665405,
          -0.08911551535129547
        ],
        [
          0.6210318803787231,
          0.994709312915802,
          1.6118507385253906,
          2.7841460704803467,
          2.0046985149383545,
          -1.4260685443878174,
          1.0015966892242432,
          -0.30511829257011414,
          1.771389365196228,
          1.0703459978103638,
          1.7574549913406372,
          0.07368242740631104,
          0.7940419316291809,
          -1.4761884212493896,
          0.0962248146533966,
          0.41985023021698,
          0.02293459139764309,
          -0.06669654697179794,
          0.8959862589836121,
          1.749839425086975,
          2.4785029888153076,
          -0.830640435218811,
          1.9338812828063965,
          1.0107603073120117,
          0.15681491792201996
        ],
        [
          0.07892603427171707,
          -1.8111732006072998,
          0.14877626299858093,
          -0.2957722246646881,
          -0.4075485169887543,
          1.5595579147338867,
          1.4944424629211426,
          1.2734720706939697,
          2.5195486545562744,
          -0.8576979637145996,
          -0.743412971496582,
          0.6317055821418762,
          -1.1088011264801025,
          0.7548168897628784,
          -0.7771807312965393,
          0.8235974311828613,
          -0.24198783934116364,
          0.8481531739234924,
          2.816352367401123,
          2.0817203521728516,
          1.4247938394546509,
          0.49430176615715027,
          2.311736583709717,
          0.3872922956943512,
          1.9862151145935059
        ],
        [
          1.263225793838501,
          -0.4015287458896637,
          -1.94805109500885,
          0.02102753520011902,
          2.106595754623413,
          0.3622863292694092,
          0.3722977042198181,
          0.9856197237968445,
          1.4984760284423828,
          0.8893822431564331,
          1.648321270942688,
          0.11264786124229431,
          1.977667212486267,
          1.564958930015564,
          0.7284096479415894,
          0.1792389154434204,
          1.6298991441726685,
          0.6131837368011475,
          0.19538180530071259,
          0.5930512547492981,
          1.753424048423767,
          -0.12901990115642548,
          -0.08029258996248245,
          1.064823031425476,
          2.095076560974121
        ],
        [
          0.36192870140075684,
          1.861664056777954,
          1.3054893016815186,
          2.4673917293548584,
          0.6607204079627991,
          0.4354883134365082,
          0.8100272417068481,
          2.1183011531829834,
          1.1425658464431763,
          1.777254581451416,
          -0.40568453073501587,
          -0.00595408258959651,
          1.6155176162719727,
          -0.25785690546035767,
          0.33160513639450073,
          -0.1696242392063141,
          -0.4283931851387024,
          0.7976128458976746,
          1.9074786901474,
          1.2384262084960938,
          0.9398689270019531,
          -2.3044252395629883,
          1.6992096900939941,
          0.6807035207748413,
          1.3496779203414917
        ],
        [
          2.3629579544067383,
          -0.5876175165176392,
          2.2105178833007812,
          -0.5705776810646057,
          1.0956509113311768,
          0.5130720734596252,
          -0.24674154818058014,
          2.245173454284668,
          2.5331995487213135,
          0.22039304673671722,
          1.2107932567596436,
          1.5217103958129883,
          1.892876148223877,
          1.0891979932785034,
          0.20503127574920654,
          0.0641651526093483,
          1.2554033994674683,
          0.4821240305900574,
          2.3720543384552,
          2.3947737216949463,
          2.0763278007507324,
          -1.0566645860671997,
          1.6227985620498657,
          1.5671467781066895,
          0.14510269463062286
        ],
        [
          1.5634781122207642,
          -0.3008275032043457,
          0.8419898748397827,
          -1.0444915294647217,
          0.3827000856399536,
          2.4385180473327637,
          1.4600187540054321,
          0.3247402608394623,
          -0.4963086247444153,
          3.1077880859375,
          1.0210041999816895,
          -0.35512152314186096,
          0.06130652502179146,
          1.11896812915802,
          1.5625979900360107,
          -0.44335421919822693,
          0.9638465046882629,
          0.47245821356773376,
          1.505406141281128,
          0.38231727480888367,
          -0.017214180901646614,
          -0.46277356147766113,
          -0.8575434684753418,
          0.32551053166389465,
          1.0584944486618042
        ],
        [
          1.5632203817367554,
          1.5441335439682007,
          1.552162528038025,
          0.36827483773231506,
          0.5753836631774902,
          2.1819095611572266,
          0.011431209743022919,
          0.5319390892982483,
          0.5395956635475159,
          2.7745985984802246,
          1.0419234037399292,
          -0.5181082487106323,
          1.479374647140503,
          1.7357858419418335,
          1.1366435289382935,
          -0.6584388613700867,
          2.057457685470581,
          1.1111782789230347,
          0.5935001969337463,
          1.8720711469650269,
          0.8604498505592346,
          1.764977216720581,
          0.39545631408691406,
          1.9700531959533691,
          1.514699101448059
        ],
        [
          0.06504864990711212,
          -0.8431601524353027,
          0.48893865942955017,
          -0.5777871012687683,
          2.169205904006958,
          -0.7319742441177368,
          -1.520119547843933,
          -1.0563347339630127,
          -0.46190589666366577,
          0.3558099567890167,
          -0.6088636517524719,
          0.7955894470214844,
          -1.0737537145614624,
          1.504140853881836,
          1.920023798942566,
          1.7189640998840332,
          -0.07719264924526215,
          -0.08743900805711746,
          1.1118255853652954,
          -0.8206996917724609,
          0.917118489742279,
          1.3349977731704712,
          1.1040552854537964,
          -0.9320247769355774,
          0.7839496731758118
        ],
        [
          2.135800361633301,
          0.05521751940250397,
          -0.8008922338485718,
          -0.04200534522533417,
          -0.07779920846223831,
          2.461601734161377,
          1.4002118110656738,
          2.301133155822754,
          -0.3771212100982666,
          -0.16010111570358276,
          0.3649546504020691,
          0.1351066380739212,
          -2.387540578842163,
          1.0569692850112915,
          1.2126500606536865,
          0.08274073898792267,
          0.44314703345298767,
          -0.2778555154800415,
          1.1879448890686035,
          -0.207843616604805,
          0.6457729339599609,
          1.419438362121582,
          -0.604371190071106,
          -0.5075229406356812,
          1.3592603206634521
        ],
        [
          1.0095582008361816,
          1.3834432363510132,
          0.4585055410861969,
          0.6902964115142822,
          1.4346818923950195,
          -0.5345208644866943,
          4.03090763092041,
          -0.23445168137550354,
          -0.5067408680915833,
          2.5994772911071777,
          1.6790558099746704,
          0.344586044549942,
          -0.3015700876712799,
          1.2563021183013916,
          0.3057268261909485,
          1.2095223665237427,
          -1.6901580095291138,
          -0.6421814560890198,
          0.17893604934215546,
          0.5052393674850464,
          2.231470823287964,
          1.7145944833755493,
          1.8846625089645386,
          1.0392972230911255,
          0.3735215663909912
        ],
        [
          2.3643734455108643,
          0.6111907362937927,
          1.689803957939148,
          -0.5267075896263123,
          0.19534575939178467,
          -0.04563384875655174,
          -0.07324660569429398,
          -0.2522742748260498,
          0.5665990114212036,
          1.0444506406784058,
          1.3672680854797363,
          0.7728098034858704,
          0.3413359224796295,
          1.7927745580673218,
          1.5965100526809692,
          1.9682564735412598,
          0.8450614213943481,
          1.4978684186935425,
          1.452967882156372,
          0.9535813927650452,
          2.104823350906372,
          1.8299957513809204,
          -0.45531123876571655,
          1.3343323469161987,
          2.32128643989563
        ],
        [
          -0.5956876277923584,
          0.43777790665626526,
          0.1716916859149933,
          -2.0887205600738525,
          1.1137319803237915,
          -0.13089092075824738,
          -0.6056329607963562,
          0.4468245506286621,
          -2.580817699432373,
          -0.1777213215827942,
          0.17008580267429352,
          1.9299490451812744,
          0.2724171280860901,
          1.6410937309265137,
          3.4431281089782715,
          -1.2808443307876587,
          3.4200680255889893,
          1.0216546058654785,
          0.7907917499542236,
          -0.18225477635860443,
          -0.30847418308258057,
          0.6545022130012512,
          0.7623530626296997,
          0.8846737146377563,
          -0.0012329467572271824
        ],
        [
          -1.0967549085617065,
          0.8517241477966309,
          1.6216639280319214,
          0.7311102747917175,
          1.561182975769043,
          0.8439631462097168,
          1.3778589963912964,
          0.9727803468704224,
          0.7877560257911682,
          1.9075958728790283,
          -0.7426884770393372,
          1.4818516969680786,
          2.0822336673736572,
          -0.15268465876579285,
          1.5200854539871216,
          0.045756883919239044,
          2.110111951828003,
          1.7145025730133057,
          -0.2976588308811188,
          -0.5127098560333252,
          -0.03947972506284714,
          1.0324546098709106,
          1.6296197175979614,
          0.15542185306549072,
          2.8294107913970947
        ],
        [
          0.19706758856773376,
          1.8581918478012085,
          1.458287239074707,
          1.403999924659729,
          1.6170421838760376,
          3.4188132286071777,
          0.29229021072387695,
          1.9085919857025146,
          0.2518027126789093,
          1.3365306854248047,
          0.8350529670715332,
          -0.2105425000190735,
          0.22968615591526031,
          2.6612892150878906,
          0.22935591638088226,
          -0.7249692678451538,
          0.022845545783638954,
          -0.15698440372943878,
          0.4345882534980774,
          -0.7208449244499207,
          0.2364274263381958,
          0.9229092597961426,
          1.7739074230194092,
          2.5283048152923584,
          1.58708918094635
        ]
      ],
      "name": "trainable_4",
      "bias": [
        0.9826876521110535,
        0.4111289381980896,
        0.35575544834136963,
        -0.03451390936970711,
        0.5003005266189575,
        -0.11476700007915497,
        2.0043301582336426,
        -0.9337207674980164,
        0.08340451866388321,
        0.960185706615448,
        -0.15867167711257935,
        -0.23460066318511963,
        1.738527536392212,
        1.3391597270965576,
        0.3133440613746643,
        0.5189962983131409,
        1.2803497314453125,
        1.1912641525268555,
        1.8621985912322998,
        2.497777223587036,
        1.2617042064666748,
        0.9960693717002869,
        -0.9491801857948303,
        -1.5577423572540283,
        -0.2432420253753662
      ],
      "out_features": 25
    },
    {
      "type": "tanh",
      "name": "activation_5"
    },
    {
      "type": "dense",
      "has_bias": true,
      "in_features": 25,
      "weights": [
        [
          1.0770621299743652,
          0.9086641669273376,
          1.2275452613830566,
          1.453611135482788,
          -0.23062002658843994,
          2.900083541870117,
          1.4840655326843262,
          0.8698195219039917,
          -0.09417745471000671,
          0.5445750951766968,
          1.7546838521957397,
          0.3500574231147766,
          2.9091012477874756,
          0.3756266236305237,
          -0.5133952498435974,
          0.04938872903585434,
          2.5770623683929443,
          -0.05694055184721947,
          0.8153443932533264,
          1.4090352058410645,
          2.1248619556427,
          0.6534848809242249,
          0.08111617714166641,
          0.792597770690918,
          1.114223837852478
        ],
        [
          1.0431307554244995,
          1.6178431510925293,
          1.065857172012329,
          1.7998900413513184,
          1.8616373538970947,
          1.4314022064208984,
          -0.610835075378418,
          -0.475246399641037,
          0.7279568314552307,
          0.4384748339653015,
          -0.19037765264511108,
          3.1016902923583984,
          -0.04838234558701515,
          1.494441032409668,
          -0.42564868927001953,
          0.14142510294914246,
          1.7987966537475586,
          2.101757049560547,
          1.033566951751709,
          1.0153248310089111,
          2.900216579437256,
          1.9877772331237793,
          0.5406249761581421,
          1.7012685537338257,
          1.5389502048492432
        ],
        [
          0.911209225654602,
          0.8819050192832947,
          1.1723780632019043,
          -0.9585264921188354,
          0.19063876569271088,
          0.18401587009429932,
          -0.4903405010700226,
          0.32974037528038025,
          -0.34888607263565063,
          1.6286966800689697,
          1.802686095237732,
          0.7934631109237671,
          0.04132327064871788,
          1.6564059257507324,
          0.3267242908477783,
          1.6930732727050781,
          -0.41320815682411194,
          1.4621844291687012,
          1.8539788722991943,
          0.5339493751525879,
          -0.6972066760063171,
          1.6295346021652222,
          1.2314344644546509,
          1.07805597782135,
          3.2265641689300537
        ],
        [
          2.055259943008423,
          -0.2127751111984253,
          1.135011076927185,
          4.040698528289795,
          1.0559734106063843,
          2.8070857524871826,
          1.9311232566833496,
          0.5211890339851379,
          -0.13502487540245056,
          3.2583656311035156,
          2.447843074798584,
          1.5265114307403564,
          1.1347651481628418,
          0.11938104033470154,
          0.5966663360595703,
          0.4575028121471405,
          2.058868885040283,
          1.943017840385437,
          0.37840911746025085,
          -0.513045072555542,
          0.9778180718421936,
          0.30448198318481445,
          0.7335333824157715,
          2.463412046432495,
          -0.3573049306869507
        ],
        [
          0.5105271935462952,
          -0.7073986530303955,
          1.4799880981445312,
          2.5846543312072754,
          1.85909903049469,
          1.3618091344833374,
          -0.4006597697734833,
          -0.26724913716316223,
          0.9280892014503479,
          -0.6238009929656982,
          1.4672898054122925,
          2.843123435974121,
          1.0781610012054443,
          0.06562799215316772,
          2.355379104614258,
          -0.23958846926689148,
          0.20750831067562103,
          0.3992483615875244,
          -0.17595894634723663,
          -0.10547342151403427,
          -0.29643020033836365,
          1.7727495431900024,
          -0.14096081256866455,
          2.7576277256011963,
          1.0308763980865479
        ],
        [
          1.0644865036010742,
          -0.9638304114341736,
          0.6807677149772644,
          -0.14251486957073212,
          -0.396867573261261,
          1.8847917318344116,
          -0.7633784413337708,
          1.924910306930542,
          1.6189979314804077,
          1.7405750751495361,
          0.8072386980056763,
          -0.2506520748138428,
          -0.08249560743570328,
          0.8414923548698425,
          2.212925434112549,
          0.5745857954025269,
          -1.3170846700668335,
          0.7408886551856995,
          0.6601399779319763,
          -0.12895438075065613,
          0.7623265981674194,
          0.7727274298667908,
          1.6922634840011597,
          -0.30082178115844727,
          0.7272536158561707
        ],
        [
          0.30075109004974365,
          0.3211776614189148,
          1.2202445268630981,
          1.9786040782928467,
          0.9314415454864502,
          -1.172585129737854,
          -0.6892898082733154,
          -0.8356695175170898,
          0.7371627688407898,
          0.2364177405834198,
          0.8698517084121704,
          0.9074504375457764,
          -0.6732708811759949,
          0.7410443425178528,
          0.1940600425004959,
          1.1506896018981934,
          2.1879472732543945,
          2.303828239440918,
          1.1392571926116943,
          0.7690604329109192,
          1.019067406654358,
          -0.7405375242233276,
          1.2836568355560303,
          1.9201246500015259,
          1.7999356985092163
        ],
        [
          1.04289972782135,
          1.8760648965835571,
          0.654761552810669,
          1.6502044200897217,
          -0.7082024216651917,
          0.14812318980693817,
          0.7790192365646362,
          0.6412534713745117,
          1.2301316261291504,
          2.186122179031372,
          1.7282085418701172,
          0.7823663353919983,
          1.4303226470947266,
          -0.6562483310699463,
          0.7769729495048523,
          0.853859543800354,
          1.4154027700424194,
          0.7118804454803467,
          0.07986319810152054,
          2.5799880027770996,
          0.8476311564445496,
          0.717663586139679,
          0.34476181864738464,
          2.128830671310425,
          0.3534289598464966
        ],
        [
          1.5973716974258423,
          3.2831101417541504,
          0.5136861205101013,
          2.04459285736084,
          1.0497862100601196,
          1.1036330461502075,
          0.06534802168607712,
          0.1908995509147644,
          1.5863770246505737,
          2.112198829650879,
          1.0660432577133179,
          0.9080036878585815,
          0.5902712345123291,
          1.7513628005981445,
          0.8864190578460693,
          0.23463185131549835,
          2.873150587081909,
          0.005593703594058752,
          1.9615191221237183,
          -0.04556656256318092,
          1.39613938331604,
          1.1742323637008667,
          2.2774722576141357,
          -0.6734433770179749,
          2.0730040073394775
        ],
        [
          1.1917263269424438,
          2.6185991764068604,
          2.5395710468292236,
          1.0736500024795532,
          0.04240556061267853,
          0.7996436357498169,
          0.9208250045776367,
          2.597177743911743,
          0.5206429362297058,
          0.4522996246814728,
          1.3548774719238281,
          -0.3689793050289154,
          1.4912810325622559,
          0.9028230309486389,
          1.0367249250411987,
          2.1829278469085693,
          0.02601117640733719,
          1.0174683332443237,
          0.6317204833030701,
          0.3634422719478607,
          0.12197862565517426,
          1.1017918586730957,
          1.7186483144760132,
          2.7013237476348877,
          -0.5079637169837952
        ],
        [
          -0.3693416714668274,
          -0.2561657428741455,
          2.358535051345825,
          1.7849782705307007,
          2.8592705726623535,
          1.1670502424240112,
          1.5359163284301758,
          0.8406224846839905,
          -0.3334808349609375,
          -0.9190677404403687,
          1.7257460355758667,
          1.0485327243804932,
          0.9895612597465515,
          1.4414788484573364,
          1.5608853101730347,
          1.323682188987732,
          0.3917646110057831,
          -0.3323083817958832,
          0.6569480895996094,
          -0.14383047819137573,
          2.6906301975250244,
          0.9001359939575195,
          1.0331496000289917,
          0.4682842195034027,
          0.17469315230846405
        ],
        [
          1.6351393461227417,
          0.9004561901092529,
          0.7512404918670654,
          3.0733642578125,
          1.333575963973999,
          0.6183825731277466,
          0.19483867287635803,
          -0.039912138134241104,
          -0.8029218316078186,
          0.4752871096134186,
          -0.9153868556022644,
          0.5543509721755981,
          1.6736946105957031,
          1.618898630142212,
          1.7016855478286743,
          -0.6658334136009216,
          1.1949377059936523,
          2.1333301067352295,
          1.8879865407943726,
          -0.02654457651078701,
          0.9401012659072876,
          1.3680347204208374,
          0.8294578194618225,
          1.5399935245513916,
          0.18803726136684418
        ],
        [
          0.7935400009155273,
          -0.4589272737503052,
          1.019972801208496,
          0.881528913974762,
          0.8364135026931763,
          2.0406131744384766,
          2.145667552947998,
          1.8357477188110352,
          0.862594723701477,
          0.1490858942270279,
          -0.5534212589263916,
          0.3214021921157837,
          1.360049843788147,
          0.6429204940795898,
          2.222365379333496,
          0.330680787563324,
          0.8387004733085632,
          0.424648255109787,
          1.118029236793518,
          0.9076133966445923,
          1.3536264896392822,
          2.057933807373047,
          2.1974568367004395,
          -0.9774267077445984,
          0.5857743620872498
        ],
        [
          1.3646466732025146,
          1.062244176864624,
          2.2038910388946533,
          1.1244122982025146,
          1.5142532587051392,
          0.07750803977251053,
          1.7038196325302124,
          -0.2186388522386551,
          0.3488185703754425,
          0.2644999921321869,
          0.4565463066101074,
          1.2208024263381958,
          0.07503237575292587,
          2.5244510173797607,
          2.396915912628174,
          1.6911591291427612,
          0.8871133327484131,
          0.14242491126060486,
          0.602124035358429,
          1.3898924589157104,
          2.091745376586914,
          1.1468913555145264,
          2.1550161838531494,
          0.07587672024965286,
          2.6573894023895264
        ],
        [
          0.8241710662841797,
          -0.6168538331985474,
          1.9578019380569458,
          -0.09701400995254517,
          0.03564262390136719,
          1.4432017803192139,
          0.4761377274990082,
          -0.05092595890164375,
          2.0042197704315186,
          0.10813046246767044,
          0.749016284942627,
          0.24313972890377045,
          0.47134101390838623,
          1.3695358037948608,
          1.2268855571746826,
          0.7186846733093262,
          0.8233060240745544,
          1.108020544052124,
          1.4036859273910522,
          0.07827205955982208,
          0.7130535244941711,
          1.9457576274871826,
          1.8619025945663452,
          -0.2616386413574219,
          1.538256049156189
        ],
        [
          1.9566130638122559,
          1.006972074508667,
          2.4764404296875,
          -0.20012116432189941,
          0.6116135716438293,
          2.3173811435699463,
          1.1181138753890991,
          1.419299840927124,
          0.1559397429227829,
          0.46035584807395935,
          0.2270829677581787,
          2.4449198246002197,
          0.3179348111152649,
          0.6270339488983154,
          1.0546034574508667,
          0.10041283816099167,
          2.323894500732422,
          0.18543073534965515,
          3.3100948333740234,
          -0.6675527095794678,
          0.2884089946746826,
          1.7998827695846558,
          1.0351078510284424,
          1.9672788381576538,
          2.5109009742736816
        ],
        [
          0.9514299631118774,
          -1.487666368484497,
          1.986231803894043,
          0.4281553328037262,
          0.2030501812696457,
          2.1612844467163086,
          -1.5577208995819092,
          1.440269947052002,
          1.8248566389083862,
          0.4069801867008209,
          1.1277137994766235,
          0.43565744161605835,
          1.8326410055160522,
          -0.16675831377506256,
          0.24603056907653809,
          1.6556025743484497,
          1.4207682609558105,
          0.4218650758266449,
          1.7732938528060913,
          1.5382412672042847,
          -0.538623034954071,
          -1.048148274421692,
          2.3364813327789307,
          1.634937047958374,
          1.303451418876648
        ],
        [
          2.593369483947754,
          1.1780354976654053,
          0.9159344434738159,
          1.5545257329940796,
          0.07341928035020828,
          0.9512810111045837,
          0.7548816204071045,
          -0.08066128939390182,
          0.8346297144889832,
          1.030024766921997,
          1.1583367586135864,
          0.6706331372261047,
          0.33219945430755615,
          0.6049267053604126,
          1.696690320968628,
          -0.41244447231292725,
          1.8640871047973633,
          0.27169889211654663,
          0.5899866223335266,
          -0.16155754029750824,
          0.810170590877533,
          2.1581764221191406,
          2.1731481552124023,
          0.18787041306495667,
          0.3616631031036377
        ],
        [
          0.8923340439796448,
          1.2633599042892456,
          1.3286254405975342,
          0.8803114295005798,
          -0.5664173364639282,
          -0.08179467916488647,
          0.4068591594696045,
          -2.088832378387451,
          2.3413100242614746,
          0.6649062037467957,
          0.4802962839603424,
          0.9554483890533447,
          -0.6108692288398743,
          0.9184410572052002,
          1.4702142477035522,
          0.5956748127937317,
          0.013943184167146683,
          1.6524187326431274,
          1.2947115898132324,
          0.10823065042495728,
          1.9274210929870605,
          0.2261904925107956,
          3.1814727783203125,
          1.318901777267456,
          1.7382802963256836
        ],
        [
          -0.16840653121471405,
          0.0029759295284748077,
          0.5521719455718994,
          1.2203431129455566,
          3.0859158039093018,
          1.5162817239761353,
          1.8515214920043945,
          -0.7314234375953674,
          1.377293586730957,
          0.8815369606018066,
          -2.227958917617798,
          -0.5107231736183167,
          0.7504215240478516,
          1.0706361532211304,
          1.8855822086334229,
          3.258760690689087,
          0.8391116857528687,
          0.7172948718070984,
          2.0885486602783203,
          1.9639204740524292,
          1.420057773590088,
          0.10863497853279114,
          0.9936801791191101,
          1.438461422920227,
          1.2299842834472656
        ],
        [
          1.3366260528564453,
          1.424643635749817,
          1.641998052597046,
          2.378793239593506,
          1.4106485843658447,
          1.426192283630371,
          2.2433831691741943,
          -0.7084001302719116,
          2.0353081226348877,
          -0.22228291630744934,
          1.3373730182647705,
          -0.20914314687252045,
          0.31584432721138,
          0.03571099042892456,
          -0.9116038084030151,
          1.8922017812728882,
          -0.04755783826112747,
          1.1878283023834229,
          3.4009358882904053,
          3.7992453575134277,
          1.2198760509490967,
          0.6895523071289062,
          2.271610736846924,
          0.6023237109184265,
          1.3374779224395752
        ],
        [
          1.8114941120147705,
          -0.3103296756744385,
          -0.7519925832748413,
          1.906396746635437,
          2.3222508430480957,
          1.8809388875961304,
          0.11493565887212753,
          2.42362380027771,
          1.5058653354644775,
          -0.14739568531513214,
          1.1695369482040405,
          -0.5683726072311401,
          -0.13265658915042877,
          0.4187159538269043,
          3.3697807788848877,
          -0.2891356348991394,
          0.07393485307693481,
          -1.1132678985595703,
          1.7902685403823853,
          2.1851534843444824,
          -1.4166619777679443,
          1.2520756721496582,
          1.5012444257736206,
          1.1030447483062744,
          -0.02000446990132332
        ],
        [
          0.835969090461731,
          3.0883514881134033,
          0.7252607941627502,
          2.0566985607147217,
          0.9971948862075806,
          -1.1864469051361084,
          2.9897091388702393,
          0.4304850995540619,
          -1.3436377048492432,
          2.8042101860046387,
          1.5776387453079224,
          0.3630019724369049,
          0.748484194278717,
          0.9767814874649048,
          0.5503107309341431,
          2.165764808654785,
          1.1307097673416138,
          2.2351741790771484,
          0.02745080552995205,
          1.956508994102478,
          2.7466909885406494,
          1.4658501148223877,
          1.20970618724823,
          1.1491568088531494,
          -0.9087080955505371
        ],
        [
          1.3052749633789062,
          0.5095670819282532,
          0.4919736981391907,
          1.396105408668518,
          2.4351449012756348,
          1.5667961835861206,
          -0.6412256956100464,
          -0.9586432576179504,
          0.010135498829185963,
          1.4776215553283691,
          0.07808592170476913,
          1.9022626876831055,
          0.4345206320285797,
          2.0031471252441406,
          1.5521448850631714,
          2.5674924850463867,
          0.14694449305534363,
          1.1034237146377563,
          0.6256736516952515,
          0.12318999320268631,
          -0.3171716332435608,
          -0.003760810475796461,
          0.2702505886554718,
          -0.5621524453163147,
          1.6755808591842651
        ],
        [
          3.3461408615112305,
          -0.37994706630706787,
          0.18136706948280334,
          2.210561752319336,
          0.16689051687717438,
          1.862635612487793,
          1.127251386642456,
          0.35637614130973816,
          1.453517198562622,
          -0.05274359509348869,
          1.5034359693527222,
          1.4454548358917236,
          1.001878261566162,
          2.0246541500091553,
          0.4816173017024994,
          0.13209637999534607,
          0.22626987099647522,
          1.8084558248519897,
          1.517479658126831,
          1.2481240034103394,
          2.5133442878723145,
          -1.330195426940918,
          1.1296263933181763,
          0.20554609596729279,
          1.6341954469680786
        ]
      ],
      "name": "trainable_6",
      "bias": [
        2.014390468597412,
        0.8456652164459229,
        1.5562422275543213,
        1.429621934890747,
        2.0502333641052246,
        0.051097236573696136,
        0.7540992498397827,
        2.151468276977539,
        0.5894948244094849,
        -1.6631078720092773,
        3.035604953765869,
        0.5261462926864624,
        1.2871510982513428,
        2.5135154724121094,
        2.32680082321167,
        0.7566186189651489,
        0.4542614817619324,
        0.6018316745758057,
        1.33439302444458,
        0.9813752174377441,
        0.7656146287918091,
        0.8756698369979858,
        0.9250880479812622,
        2.006779432296753,
        2.6864118576049805
      ],
      "out_features": 25
    },
    {
      "type": "tanh",
      "name": "activation_7"
    },
    {
      "type": "dense",
      "has_bias": true,
      "in_features": 25,
      "weights": [
        [
          0.5225998759269714,
          0.03497384116053581
        ],
        [
          0.9451450109481812,
          2.846484899520874
        ],
        [
          1.2625725269317627,
          0.8543415665626526
        ],
        [
          0.045506879687309265,
          1.2928059101104736
        ],
        [
          1.5050586462020874,
          0.5160520076751709
        ],
        [
          1.9479337930679321,
          1.9058903455734253
        ],
        [
          1.475868582725525,
          1.0587968826293945
        ],
        [
          1.323596477508545,
          1.3688089847564697
        ],
        [
          -0.24488750100135803,
          -0.4412209391593933
        ],
        [
          1.4542227983474731,
          -0.991553783416748
        ],
        [
          -0.6057363748550415,
          2.2961363792419434
        ],
        [
          0.38581132888793945,
          -0.9664853811264038
        ],
        [
          -0.10883641988039017,
          3.146353006362915
        ],
        [
          1.2460004091262817,
          -0.8264506459236145
        ],
        [
          -0.16132164001464844,
          1.891398310661316
        ],
        [
          -1.5426726341247559,
          2.5603389739990234
        ],
        [
          1.7773762941360474,
          0.294282466173172
        ],
        [
          0.27940329909324646,
          -0.17978568375110626
        ],
        [
          -0.39363110065460205,
          0.6527963280677795
        ],
        [
          0.23498062789440155,
          1.1246451139450073
        ],
        [
          -0.8673427104949951,
          1.4291646480560303
        ],
        [
          -0.15888744592666626,
          1.3613786697387695
        ],
        [
          -1.3674579858779907,
          -0.8338285088539124
        ],
        [
          0.6699042320251465,
          0.3887924253940582
        ],
        [
          0.4729069471359253,
          -1.6428396701812744
        ]
      ],
      "name": "trainable_8",
      "bias": [
        2.511195182800293,
        3.5168042182922363
      ],
      "out_features": 2
    },
    {
      "type": "tanh",
      "name": "activation_9"
    },
    {
      "type": "mse",
      "name": "criterion_10"
    }
  ]
}