{
  "test_accuracy": 0.7832,
  "layers": [
    {
      "has_bias": true,
      "bias": [
        2.8565673828125,
        3.6036581993103027,
        2.8273367881774902,
        1.126164197921753,
        3.060624122619629,
        3.0237393379211426,
        1.962149739265442,
        4.232968330383301,
        0.8374743461608887,
        1.8266360759735107,
        4.713312149047852,
        0.707050085067749,
        2.4105606079101562,
        2.7141075134277344,
        0.639240026473999,
        3.009730815887451,
        2.642205238342285,
        1.630295753479004,
        3.135951042175293,
        1.6138849258422852,
        3.251112461090088,
        3.668522834777832,
        1.7144527435302734,
        6.028243064880371,
        3.5404152870178223
      ],
      "in_features": 2,
      "type": "dense",
      "name": "trainable_0",
      "out_features": 25,
      "weights": [
        [
          2.4573638439178467,
          -0.6982870101928711,
          -5.154040336608887,
          2.825605630874634,
          1.5018930435180664,
          0.7520055174827576,
          -4.519006252288818,
          2.7245450019836426,
          5.721863269805908,
          5.011911392211914,
          -4.580039978027344,
          3.75757098197937,
          7.496330261230469,
          3.966289520263672,
          4.247682571411133,
          3.539911985397339,
          -0.16185078024864197,
          6.744947910308838,
          7.098255634307861,
          7.144670486450195,
          2.8073296546936035,
          4.961526870727539,
          0.599835991859436,
          -7.935235023498535,
          2.5207571983337402
        ],
        [
          4.167982578277588,
          1.4838765859603882,
          3.397886037826538,
          0.48926788568496704,
          3.7646055221557617,
          6.505385875701904,
          5.167734146118164,
          -8.639521598815918,
          -2.8645458221435547,
          8.723658561706543,
          -8.077109336853027,
          0.3533759117126465,
          18.455772399902344,
          13.811861991882324,
          5.553647518157959,
          13.557760238647461,
          1.0170091390609741,
          4.231453895568848,
          16.39519500732422,
          -4.567204475402832,
          4.743814468383789,
          14.738917350769043,
          5.33867073059082,
          -2.7016913890838623,
          4.522557258605957
        ]
      ]
    },
    {
      "name": "activation_1",
      "type": "tanh"
    },
    {
      "has_bias": true,
      "bias": [
        5.070578575134277,
        2.8282558917999268,
        4.286224365234375,
        2.603863477706909,
        4.279568672180176,
        5.117959022521973,
        4.69381046295166,
        3.3124325275421143,
        4.484255790710449,
        2.294955015182495,
        3.663592576980591,
        5.835504531860352,
        3.8386991024017334,
        3.927593231201172,
        4.859790802001953,
        4.210287094116211,
        4.300110816955566,
        2.975782632827759,
        5.193342208862305,
        4.908055305480957,
        5.037814140319824,
        3.9021828174591064,
        2.931199312210083,
        2.947864294052124,
        5.399893760681152
      ],
      "in_features": 25,
      "type": "dense",
      "name": "trainable_2",
      "out_features": 25,
      "weights": [
        [
          1.4286696910858154,
          -0.35690760612487793,
          -1.3180955648422241,
          -0.12130153179168701,
          -0.5333073735237122,
          -1.228403925895691,
          -1.086700439453125,
          -1.3239386081695557,
          -1.6256362199783325,
          -0.163387730717659,
          -1.2067551612854004,
          1.819567322731018,
          0.47485169768333435,
          -1.839903473854065,
          -1.3376812934875488,
          0.924026370048523,
          1.3228542804718018,
          -1.1048911809921265,
          1.0258004665374756,
          -2.152462959289551,
          0.27760350704193115,
          -0.6366440653800964,
          -1.3704949617385864,
          0.976782500743866,
          -1.1183723211288452
        ],
        [
          -0.7947245240211487,
          -1.790238857269287,
          0.7290726900100708,
          -2.515777111053467,
          -2.1395554542541504,
          -0.825838029384613,
          -1.887366771697998,
          -0.25068891048431396,
          -0.7794853448867798,
          -0.9249892830848694,
          -0.5673110485076904,
          -1.3664149045944214,
          -0.11194983124732971,
          0.07340185344219208,
          -0.962219774723053,
          -1.2273045778274536,
          0.4286308288574219,
          0.7345158457756042,
          -0.4047912061214447,
          -0.7565606832504272,
          -1.3174060583114624,
          -0.8700564503669739,
          0.5004056692123413,
          1.4477274417877197,
          0.3098039925098419
        ],
        [
          0.9356727600097656,
          1.0743194818496704,
          0.4849686324596405,
          0.8046170473098755,
          -1.417715072631836,
          1.1648236513137817,
          -1.2392908334732056,
          -1.0698484182357788,
          -0.9455840587615967,
          -0.48977500200271606,
          0.22050029039382935,
          0.09884031862020493,
          2.707728385925293,
          -1.8878892660140991,
          1.4513665437698364,
          -1.484751582145691,
          -1.957129716873169,
          -0.9065637588500977,
          -1.6511718034744263,
          -2.166278839111328,
          1.1961838006973267,
          0.6267732977867126,
          -0.10240010172128677,
          0.795700192451477,
          -1.633558988571167
        ],
        [
          1.3557995557785034,
          -1.1017601490020752,
          1.1299662590026855,
          3.7779722213745117,
          -0.33110514283180237,
          2.202075242996216,
          -1.6883856058120728,
          -2.364504337310791,
          -0.4101058542728424,
          1.7282063961029053,
          -0.8052331209182739,
          -0.06070113554596901,
          0.049268413335084915,
          -1.6879011392593384,
          0.836214005947113,
          0.3112563192844391,
          -1.035991907119751,
          -2.935570240020752,
          -1.2237329483032227,
          -1.4848816394805908,
          -1.5364817380905151,
          1.1692547798156738,
          -0.3839215934276581,
          -1.552295207977295,
          0.5930892825126648
        ],
        [
          0.1778838187456131,
          0.6061118841171265,
          0.39494314789772034,
          1.2412439584732056,
          0.07695068418979645,
          -2.794671058654785,
          -0.9337573647499084,
          0.8715850114822388,
          1.1923484802246094,
          -0.6914144158363342,
          -1.5818835496902466,
          1.4322344064712524,
          0.5142210125923157,
          -0.16832968592643738,
          -1.0974764823913574,
          0.3423488736152649,
          0.7803968787193298,
          -1.2936292886734009,
          0.7309698462486267,
          1.5191247463226318,
          -4.2465362548828125,
          -2.043278217315674,
          -0.024806730449199677,
          -1.9054385423660278,
          -1.4211673736572266
        ],
        [
          -1.0986655950546265,
          -0.8797762989997864,
          -0.8181238174438477,
          0.5400989055633545,
          -0.5027082562446594,
          -0.40312132239341736,
          -1.761539340019226,
          -0.4942297339439392,
          0.8742424845695496,
          -0.3799596130847931,
          -0.8547775149345398,
          0.11240272969007492,
          -1.2187747955322266,
          0.13607941567897797,
          0.7790923714637756,
          -1.8403334617614746,
          -1.4330779314041138,
          -0.19714157283306122,
          0.6147831678390503,
          0.18477559089660645,
          -0.6078097820281982,
          0.43672841787338257,
          0.020710742101073265,
          -0.20187148451805115,
          -0.2871623635292053
        ],
        [
          1.924351692199707,
          1.3823550939559937,
          1.624525785446167,
          1.4060540199279785,
          -0.4920560121536255,
          4.506595611572266,
          0.09811192005872726,
          -3.2934062480926514,
          -2.097452402114868,
          4.236225128173828,
          0.9437625408172607,
          1.782729983329773,
          2.717484474182129,
          0.09685447067022324,
          1.3758087158203125,
          -0.3219875693321228,
          -4.481203079223633,
          -0.614085853099823,
          -3.54117488861084,
          -0.7314397692680359,
          3.3105733394622803,
          2.1325159072875977,
          0.8266255259513855,
          1.3585131168365479,
          -0.5573407411575317
        ],
        [
          0.8772558569908142,
          1.6537063121795654,
          2.9540278911590576,
          0.6148557662963867,
          -1.441049337387085,
          1.8555017709732056,
          -0.64202481508255,
          -3.9349191188812256,
          -2.8553848266601562,
          1.314176321029663,
          -0.2715506851673126,
          -0.3971073627471924,
          1.7685688734054565,
          0.15848621726036072,
          -1.284208059310913,
          -2.0663199424743652,
          -2.1983251571655273,
          0.03310028463602066,
          -1.5688107013702393,
          -1.4590981006622314,
          1.8658989667892456,
          1.3627784252166748,
          2.009056806564331,
          1.9176709651947021,
          0.31936100125312805
        ],
        [
          1.4845547676086426,
          -1.3091926574707031,
          -0.26051291823387146,
          1.994963526725769,
          -3.093341588973999,
          1.985207438468933,
          0.5158122777938843,
          -1.7854214906692505,
          -0.8951857089996338,
          3.1167235374450684,
          -0.26047879457473755,
          -0.4431248605251312,
          0.3094788193702698,
          -1.5376465320587158,
          0.8792170286178589,
          1.6253776550292969,
          -5.719293117523193,
          -0.9469333291053772,
          -3.946720600128174,
          -0.9327651858329773,
          1.3487133979797363,
          -0.14172592759132385,
          -1.1650203466415405,
          1.6129436492919922,
          0.23175835609436035
        ],
        [
          1.5110598802566528,
          1.7691013813018799,
          -1.0722877979278564,
          0.8326066136360168,
          0.683997631072998,
          -1.8304141759872437,
          -0.7178731560707092,
          -1.1818156242370605,
          0.32189464569091797,
          -0.441663533449173,
          1.7876718044281006,
          0.0391114205121994,
          -0.3046302795410156,
          0.674342691898346,
          0.7508234977722168,
          1.0767416954040527,
          -0.020322157070040703,
          1.3221244812011719,
          -0.16958637535572052,
          -0.5678420066833496,
          0.5757160782814026,
          -0.798621654510498,
          0.11957941949367523,
          -0.8327009677886963,
          0.27381858229637146
        ],
        [
          2.1123805046081543,
          -0.39019662141799927,
          0.9732223749160767,
          -1.410712718963623,
          -1.1783503293991089,
          -6.823479652404785,
          2.604121446609497,
          -1.4987671375274658,
          0.7198749780654907,
          -2.110038995742798,
          -3.305246353149414,
          -2.7319095134735107,
          -1.662338376045227,
          0.16282808780670166,
          -1.5261833667755127,
          1.857156753540039,
          3.5007872581481934,
          -0.9712768793106079,
          2.7275102138519287,
          1.9152727127075195,
          -6.177684307098389,
          -1.049353003501892,
          -0.42435792088508606,
          1.3224515914916992,
          1.157583236694336
        ],
        [
          0.3505997359752655,
          1.0055423974990845,
          -0.69855797290802,
          3.592571496963501,
          1.908022165298462,
          2.5929458141326904,
          -1.8704900741577148,
          1.768870234489441,
          0.41437822580337524,
          2.994448184967041,
          2.705084800720215,
          -1.2668404579162598,
          -1.6384329795837402,
          0.951095461845398,
          1.1824402809143066,
          -1.013282299041748,
          -0.34940478205680847,
          3.759582757949829,
          -0.6806665658950806,
          0.7275438904762268,
          3.149524688720703,
          0.05948663130402565,
          -1.4451289176940918,
          1.2694231271743774,
          -0.25055992603302
        ],
        [
          -1.1506356000900269,
          -0.313292533159256,
          0.46103033423423767,
          -2.4184224605560303,
          1.1075999736785889,
          -0.8969057202339172,
          0.813166618347168,
          1.0855129957199097,
          1.8408176898956299,
          -1.2348248958587646,
          -0.09269344806671143,
          1.0971813201904297,
          -0.0464264340698719,
          1.0092387199401855,
          -0.3700816333293915,
          -1.5801700353622437,
          0.9111659526824951,
          -1.2834956645965576,
          0.6502110362052917,
          1.6514924764633179,
          -1.669048547744751,
          -1.7568165063858032,
          0.768635094165802,
          0.6716179847717285,
          -0.38851702213287354
        ],
        [
          -0.949169397354126,
          0.5510830283164978,
          -0.6955088376998901,
          -0.6982783079147339,
          1.0607112646102905,
          0.8301435708999634,
          0.7636783719062805,
          0.467937707901001,
          -0.2597361207008362,
          -2.711239814758301,
          0.14110499620437622,
          -0.02670505829155445,
          -0.8205938339233398,
          2.479428291320801,
          3.4538638591766357,
          -0.10338453203439713,
          0.02526310831308365,
          0.28008249402046204,
          -0.017669174820184708,
          0.782294750213623,
          -1.0701953172683716,
          -2.169290542602539,
          1.4548457860946655,
          -1.3985224962234497,
          -0.5334899425506592
        ],
        [
          -2.0992188453674316,
          -2.397425413131714,
          -3.207526683807373,
          -0.8785950541496277,
          1.8515245914459229,
          -2.625969171524048,
          2.177663564682007,
          0.6876771450042725,
          3.344879150390625,
          -0.9151992201805115,
          2.22186279296875,
          -1.9323108196258545,
          -1.2112946510314941,
          -1.4712865352630615,
          1.0535516738891602,
          4.021393775939941,
          5.336385250091553,
          2.155686378479004,
          5.020185470581055,
          2.640728712081909,
          -1.6316168308258057,
          -0.040321968495845795,
          2.5758635997772217,
          -1.5006012916564941,
          1.4791916608810425
        ],
        [
          0.13002406060695648,
          0.6951022148132324,
          0.08520087599754333,
          -1.7119477987289429,
          0.7386041283607483,
          -1.3287354707717896,
          0.9336415529251099,
          -0.7002169489860535,
          0.627949595451355,
          -0.10960760712623596,
          0.9359835386276245,
          0.8014785051345825,
          -0.6711113452911377,
          0.8434196710586548,
          -0.15616895258426666,
          0.22535337507724762,
          1.3562449216842651,
          0.2071681171655655,
          -1.357178807258606,
          1.638997197151184,
          -1.6913245916366577,
          -0.36871638894081116,
          -0.10751502960920334,
          -1.1210079193115234,
          0.349226713180542
        ],
        [
          1.7541029453277588,
          0.0024725974071770906,
          0.4301854372024536,
          -0.008041122928261757,
          1.9763262271881104,
          -0.47153204679489136,
          1.073356032371521,
          1.4416067600250244,
          -0.7893802523612976,
          -1.2149678468704224,
          1.6235911846160889,
          1.3778667449951172,
          0.9449281692504883,
          2.1815433502197266,
          0.004203184973448515,
          -2.582746744155884,
          0.1682121455669403,
          0.9901773929595947,
          2.507878541946411,
          -0.8155593872070312,
          -0.8104407787322998,
          -1.5248326063156128,
          0.19694365561008453,
          0.4269261062145233,
          -0.9805141687393188
        ],
        [
          1.3359858989715576,
          1.387054204940796,
          -1.3115062713623047,
          0.4516611397266388,
          1.829278826713562,
          0.9467388987541199,
          0.3637569546699524,
          2.792444944381714,
          1.2047215700149536,
          1.6366302967071533,
          1.2531208992004395,
          -1.2434183359146118,
          -1.343680739402771,
          2.7389039993286133,
          -0.17397943139076233,
          0.5929408073425293,
          1.912195086479187,
          2.702378273010254,
          -0.9755522012710571,
          0.9050248861312866,
          3.5016205310821533,
          0.360292911529541,
          0.044614262878894806,
          1.1109708547592163,
          1.0748491287231445
        ],
        [
          -1.5441266298294067,
          -0.0013830263633280993,
          -0.33350053429603577,
          -1.1907368898391724,
          -0.32266712188720703,
          -0.5702576637268066,
          0.14819331467151642,
          2.213993549346924,
          1.0283985137939453,
          0.44029128551483154,
          -0.12077049911022186,
          -2.5236494541168213,
          0.39607736468315125,
          0.5157765746116638,
          -0.7642117738723755,
          0.22817647457122803,
          2.2429375648498535,
          -1.910732388496399,
          0.31416836380958557,
          -0.13245868682861328,
          0.5839380621910095,
          -2.4601891040802,
          1.3226011991500854,
          -0.6601743102073669,
          -0.040460456162691116
        ],
        [
          1.468625783920288,
          -0.6669914722442627,
          2.1013054847717285,
          3.46467661857605,
          -1.036972999572754,
          2.8955278396606445,
          -1.7774311304092407,
          -1.5610257387161255,
          -2.6935877799987793,
          2.413719415664673,
          -0.026863422244787216,
          0.08720909804105759,
          -0.767238974571228,
          -3.238642692565918,
          0.9452933669090271,
          -1.9696167707443237,
          -3.193422794342041,
          -0.8794935941696167,
          -3.3435282707214355,
          -1.2549957036972046,
          3.199528932571411,
          2.4647881984710693,
          -0.6371419429779053,
          0.4535806179046631,
          -0.40288662910461426
        ],
        [
          0.37976258993148804,
          0.6239323616027832,
          -0.49206581711769104,
          -2.0387604236602783,
          0.9582341313362122,
          -2.200059652328491,
          0.1491878181695938,
          1.2801076173782349,
          -0.10083524137735367,
          -2.5773022174835205,
          -1.1917531490325928,
          0.433685302734375,
          -0.49666550755500793,
          -1.3478056192398071,
          -1.609257459640503,
          0.4345593750476837,
          1.7244740724563599,
          -0.11014699190855026,
          1.1957118511199951,
          -0.9069385528564453,
          -2.845524787902832,
          -2.125065326690674,
          -1.3485264778137207,
          -0.4152475893497467,
          -0.14557728171348572
        ],
        [
          1.5021061897277832,
          -0.5005182027816772,
          -0.8297519087791443,
          -1.957925796508789,
          0.6143195629119873,
          -0.037717875093221664,
          -1.6465299129486084,
          0.7943447828292847,
          0.3295513391494751,
          -1.859639048576355,
          -2.3553624153137207,
          -0.5693572759628296,
          -0.20427122712135315,
          1.6712242364883423,
          1.7914464473724365,
          1.2520697116851807,
          1.2347689867019653,
          -0.4320620894432068,
          1.0067713260650635,
          -0.5663992762565613,
          -0.12240572273731232,
          -1.3536345958709717,
          0.48287859559059143,
          -1.0308928489685059,
          -2.7788546085357666
        ],
        [
          0.7558507323265076,
          1.0513850450515747,
          -0.623904824256897,
          -1.4074653387069702,
          0.3972664475440979,
          -0.02251238189637661,
          -0.8342722058296204,
          1.2877318859100342,
          -0.6074509024620056,
          -1.0723702907562256,
          -0.3320847451686859,
          -0.5062277913093567,
          -1.261972188949585,
          1.2597064971923828,
          -0.7236905694007874,
          -2.4098923206329346,
          -1.3463159799575806,
          0.06003005430102348,
          -1.1839828491210938,
          -0.9854640960693359,
          -0.052869658917188644,
          2.205848455429077,
          0.03805439919233322,
          -1.3022334575653076,
          -0.5662473440170288
        ],
        [
          3.445535182952881,
          1.4145833253860474,
          5.254150390625,
          1.2616592645645142,
          -0.9053953289985657,
          1.4903478622436523,
          1.2042441368103027,
          -2.930161476135254,
          -5.275720119476318,
          1.116377592086792,
          -0.29581859707832336,
          2.1255123615264893,
          4.629826068878174,
          1.6203949451446533,
          0.4306662380695343,
          -3.5501163005828857,
          -4.033915996551514,
          -2.4513089656829834,
          -2.921576738357544,
          -2.8541958332061768,
          0.9425025582313538,
          1.7271530628204346,
          -0.25333061814308167,
          2.0288898944854736,
          2.2858080863952637
        ],
        [
          0.25792640447616577,
          -1.141610026359558,
          1.055172324180603,
          0.539487898349762,
          -2.7364883422851562,
          -0.44661378860473633,
          -1.7908169031143188,
          0.3422488272190094,
          -2.021381139755249,
          -0.016641056165099144,
          -2.6314923763275146,
          -0.28159040212631226,
          -0.7712557911872864,
          -1.4056931734085083,
          -0.9486593008041382,
          0.5912864208221436,
          1.872067928314209,
          -0.8025741577148438,
          -0.015765991061925888,
          -1.5007230043411255,
          -2.741413116455078,
          -0.5116311311721802,
          -0.09071692079305649,
          -0.7400184273719788,
          0.16605207324028015
        ]
      ]
    },
    {
      "name": "activation_3",
      "type": "tanh"
    },
    {
      "has_bias": true,
      "bias": [
        -2.6601436138153076,
        -3.5780599117279053,
        -4.8382487297058105,
        -2.712362051010132,
        -0.25344645977020264,
        -1.7347588539123535,
        -0.5573700070381165,
        -3.047658681869507,
        -1.8683099746704102,
        -3.3334553241729736,
        -1.646151065826416,
        -2.713893175125122,
        -4.676015377044678,
        -3.177502393722534,
        -2.1214163303375244,
        -1.9351541996002197,
        -1.4068264961242676,
        -3.1463353633880615,
        -2.7476766109466553,
        -3.3490684032440186,
        -2.1068334579467773,
        -3.9170496463775635,
        -2.8746116161346436,
        -4.355809688568115,
        -0.9555692076683044
      ],
      "in_features": 25,
      "type": "dense",
      "name": "trainable_4",
      "out_features": 25,
      "weights": [
        [
          -0.925764799118042,
          1.704788088798523,
          -0.3413061499595642,
          0.4450549781322479,
          0.4096379280090332,
          -0.22499391436576843,
          2.007823944091797,
          -0.2513789236545563,
          2.0519397258758545,
          -1.3789499998092651,
          2.126675605773926,
          0.9181153774261475,
          -0.18935953080654144,
          -0.6127023696899414,
          0.016284404322504997,
          0.9418821930885315,
          0.38683369755744934,
          0.9803474545478821,
          0.8303219079971313,
          2.099482774734497,
          -2.021207332611084,
          -1.5349037647247314,
          -0.528434157371521,
          -1.3178317546844482,
          -1.498928427696228
        ],
        [
          0.21065223217010498,
          0.5402258038520813,
          0.22624880075454712,
          0.39983993768692017,
          2.030407190322876,
          0.8066927790641785,
          0.22437259554862976,
          1.6484591960906982,
          1.1344082355499268,
          -0.9108543395996094,
          0.3982499837875366,
          -1.7522341012954712,
          0.2022830694913864,
          -0.5715286135673523,
          0.31268277764320374,
          3.0984835624694824,
          -0.16147175431251526,
          0.4155273735523224,
          1.5745432376861572,
          -0.1221812441945076,
          -0.7774187922477722,
          -1.1077769994735718,
          -0.5809531211853027,
          -2.048246145248413,
          -2.389662504196167
        ],
        [
          0.17391839623451233,
          1.4051882028579712,
          -1.5623350143432617,
          -0.5913438200950623,
          -0.5444908738136292,
          -1.18787682056427,
          1.5191570520401,
          1.587226390838623,
          1.0671712160110474,
          -1.0692617893218994,
          -0.12171878665685654,
          -0.9091728329658508,
          -0.9851014614105225,
          0.16478167474269867,
          0.4634838402271271,
          -0.2309928685426712,
          -2.114438056945801,
          -0.20923063158988953,
          2.279263973236084,
          1.430631160736084,
          -0.5850209593772888,
          -0.1407543420791626,
          1.6157450675964355,
          -2.337333917617798,
          -0.7702394127845764
        ],
        [
          -1.0178459882736206,
          1.2805312871932983,
          -0.0011979321716353297,
          -0.98493492603302,
          -2.0865325927734375,
          -1.8255665302276611,
          1.1042735576629639,
          0.3883001208305359,
          1.6182373762130737,
          -1.742343783378601,
          1.1390758752822876,
          0.7746552228927612,
          0.3216245472431183,
          -0.7298752665519714,
          0.4990083873271942,
          -1.2073224782943726,
          0.333570271730423,
          -1.2942348718643188,
          -0.1710764467716217,
          1.4063762426376343,
          1.096943736076355,
          1.2139309644699097,
          1.1391350030899048,
          0.40986761450767517,
          1.236712098121643
        ],
        [
          1.263623595237732,
          0.8574479818344116,
          1.5923179388046265,
          -0.23301543295383453,
          1.0691715478897095,
          -0.835687518119812,
          -0.7967984676361084,
          -0.9452447295188904,
          0.7562004923820496,
          -0.40631842613220215,
          1.003125786781311,
          0.6412832736968994,
          0.9580058455467224,
          -1.1935933828353882,
          2.2468175888061523,
          -0.7550695538520813,
          0.6711912155151367,
          0.9220101833343506,
          0.0773048996925354,
          -1.1357699632644653,
          0.32897815108299255,
          -0.03903936594724655,
          2.576345682144165,
          -0.08129473030567169,
          1.4942383766174316
        ],
        [
          0.2842748761177063,
          0.11409612745046616,
          0.481462299823761,
          -2.3046419620513916,
          -1.874069094657898,
          -0.48368504643440247,
          -0.6162936091423035,
          -1.0421350002288818,
          1.2306803464889526,
          -1.322867751121521,
          0.4484429657459259,
          0.282257616519928,
          0.136353999376297,
          0.8976361155509949,
          0.6226286888122559,
          1.727665662765503,
          -1.7365034818649292,
          -0.5133646726608276,
          3.58856201171875,
          2.493682861328125,
          0.7311301231384277,
          -0.24355065822601318,
          1.4710170030593872,
          -1.6862432956695557,
          -1.7025179862976074
        ],
        [
          -0.14911673963069916,
          -0.6027296781539917,
          -0.5124749541282654,
          -0.6446264386177063,
          1.8280041217803955,
          2.1653168201446533,
          0.25601062178611755,
          -0.13530276715755463,
          -0.736299455165863,
          1.707476019859314,
          1.2092875242233276,
          -1.0334736108779907,
          -0.48278170824050903,
          2.07489275932312,
          -0.2531444728374481,
          0.6401126384735107,
          1.1249512434005737,
          -0.2527613341808319,
          -0.29208052158355713,
          -1.8628133535385132,
          -0.11776392161846161,
          0.9194732308387756,
          0.4657076895236969,
          -1.3701860904693604,
          0.11279848217964172
        ],
        [
          -0.3591819405555725,
          0.9184753894805908,
          1.6633670330047607,
          -0.08308640122413635,
          1.1198145151138306,
          1.4259088039398193,
          -1.4120402336120605,
          -1.1096112728118896,
          1.422041654586792,
          -0.018525535240769386,
          -1.2132165431976318,
          -0.7477039694786072,
          0.6154326796531677,
          -0.7522391676902771,
          1.7570220232009888,
          0.4545612931251526,
          0.49387985467910767,
          2.6118431091308594,
          -0.22710049152374268,
          -1.3652476072311401,
          -2.6150333881378174,
          1.4119436740875244,
          0.16425257921218872,
          -0.6627517938613892,
          0.5377733707427979
        ],
        [
          1.1543275117874146,
          -1.9779934883117676,
          1.0386066436767578,
          0.5129881501197815,
          0.9840291738510132,
          0.41909515857696533,
          -0.340874046087265,
          1.147804856300354,
          -0.673176646232605,
          -0.2759907841682434,
          -0.041722867637872696,
          0.7467230558395386,
          1.2726640701293945,
          1.8509716987609863,
          -1.2164556980133057,
          -1.0303171873092651,
          -0.2318291962146759,
          -0.13668756186962128,
          0.0377521887421608,
          -0.8032533526420593,
          -0.6636452674865723,
          0.9790188670158386,
          0.1566803753376007,
          -0.17695344984531403,
          2.2735536098480225
        ],
        [
          0.30832719802856445,
          1.3487958908081055,
          2.246751308441162,
          -0.44768449664115906,
          -1.4097495079040527,
          0.6903025507926941,
          0.46999919414520264,
          0.41596880555152893,
          1.8527212142944336,
          -1.2336913347244263,
          -0.901370644569397,
          -1.8246653079986572,
          1.5198018550872803,
          -0.48740246891975403,
          1.1790319681167603,
          -0.22051721811294556,
          -0.8425437211990356,
          0.696353554725647,
          -0.5161999464035034,
          3.217168092727661,
          1.51085364818573,
          0.45892080664634705,
          0.7603357434272766,
          0.7614067196846008,
          0.28108716011047363
        ],
        [
          -0.594528079032898,
          -1.440548062324524,
          1.1039707660675049,
          1.246573567390442,
          0.15702666342258453,
          -1.5429996252059937,
          0.9370149970054626,
          -0.5146665573120117,
          0.6227079629898071,
          0.4584214389324188,
          -0.3899359107017517,
          1.5844032764434814,
          -0.8413204550743103,
          -0.5158188939094543,
          1.1157360076904297,
          -0.18007050454616547,
          -1.45399010181427,
          0.23316088318824768,
          0.2620247006416321,
          0.115976482629776,
          -0.03542008250951767,
          -2.2433619499206543,
          0.7614584565162659,
          -0.6495646238327026,
          0.34382525086402893
        ],
        [
          -0.6500363349914551,
          1.237038493156433,
          -0.13066300749778748,
          -0.5875846147537231,
          -0.3794932961463928,
          0.6189948320388794,
          -0.08148995041847229,
          0.5677316188812256,
          0.8849322199821472,
          -0.7167589068412781,
          2.050337791442871,
          -3.0474255084991455,
          -0.9539968371391296,
          -0.23633477091789246,
          -1.8364001512527466,
          -1.5240482091903687,
          -1.2948734760284424,
          -0.33106929063796997,
          1.798187494277954,
          1.5776935815811157,
          -1.1475225687026978,
          0.7388118505477905,
          -1.1452680826187134,
          0.2722049057483673,
          -0.7585780024528503
        ],
        [
          -0.5703901052474976,
          1.6733535528182983,
          1.1549816131591797,
          0.16683416068553925,
          -1.1089469194412231,
          0.11132994294166565,
          -2.630897045135498,
          -0.7279046177864075,
          -0.49471601843833923,
          -2.141200542449951,
          0.6991971135139465,
          1.1148234605789185,
          -0.21971875429153442,
          -0.1583334058523178,
          -1.6466670036315918,
          -0.9865232110023499,
          -0.6780841946601868,
          0.18497055768966675,
          1.2863610982894897,
          1.3411822319030762,
          -1.1237683296203613,
          -0.12458299845457077,
          1.1229197978973389,
          -0.3321371376514435,
          -2.3334035873413086
        ],
        [
          -0.7501325011253357,
          -0.9469748139381409,
          0.3981228470802307,
          1.3303030729293823,
          0.805819571018219,
          1.003235936164856,
          -1.39936101436615,
          1.0300291776657104,
          0.06381021440029144,
          -0.20609208941459656,
          1.3580706119537354,
          -1.2327924966812134,
          -0.5133171081542969,
          -1.3277519941329956,
          0.9690549373626709,
          0.766228199005127,
          -0.9614812135696411,
          1.6621580123901367,
          -0.15670011937618256,
          -0.29898402094841003,
          -0.4185265898704529,
          -0.4422711133956909,
          1.1268960237503052,
          -1.0562598705291748,
          -2.0388786792755127
        ],
        [
          1.7664167881011963,
          0.21342062950134277,
          1.4994499683380127,
          -1.872056245803833,
          -1.8169875144958496,
          0.669162392616272,
          -1.0768671035766602,
          -0.004698026459664106,
          0.8117868304252625,
          0.3399220108985901,
          0.8315476179122925,
          0.5556570887565613,
          1.4771318435668945,
          -0.7148113250732422,
          1.2008463144302368,
          -0.5232387781143188,
          -0.4547220468521118,
          -0.8290111422538757,
          -0.22903476655483246,
          0.24409820139408112,
          1.061472773551941,
          2.5592353343963623,
          -1.0880051851272583,
          -1.0874682664871216,
          -0.3271614909172058
        ],
        [
          0.8948548436164856,
          1.2299927473068237,
          -0.17154909670352936,
          1.339215874671936,
          1.6414693593978882,
          0.20287157595157623,
          -0.9102842807769775,
          -1.346878170967102,
          1.2200539112091064,
          1.0015350580215454,
          -0.26249271631240845,
          1.5052947998046875,
          1.6051748991012573,
          0.010589241981506348,
          -2.1213161945343018,
          0.5285058617591858,
          0.31811612844467163,
          0.3662753701210022,
          -0.7818548083305359,
          -1.294405221939087,
          0.5957199335098267,
          0.10764330625534058,
          0.5349887609481812,
          -0.28336718678474426,
          0.40606898069381714
        ],
        [
          3.430565118789673,
          0.3681231141090393,
          -0.8214389085769653,
          0.3475002944469452,
          0.5372907519340515,
          2.033644437789917,
          -1.9304994344711304,
          0.025613538920879364,
          -1.1859138011932373,
          1.0824512243270874,
          0.5995105504989624,
          -0.059181246906518936,
          -0.1623380482196808,
          0.44506701827049255,
          -2.1440229415893555,
          0.7141967415809631,
          -0.13657069206237793,
          0.36287668347358704,
          -0.15694552659988403,
          -0.799547553062439,
          -0.4910149574279785,
          2.058110237121582,
          -2.045581817626953,
          0.34844574332237244,
          -0.10111620277166367
        ],
        [
          0.7370295524597168,
          -1.24815833568573,
          0.601101279258728,
          0.3781609833240509,
          1.2425020933151245,
          -0.8731127977371216,
          -0.21999594569206238,
          -0.7359169721603394,
          1.0838603973388672,
          0.4538617730140686,
          0.5145978331565857,
          -0.17396609485149384,
          1.189981460571289,
          1.381963849067688,
          -0.6392262578010559,
          1.7065675258636475,
          -0.4566565155982971,
          -2.4148411750793457,
          2.1597251892089844,
          -0.27842259407043457,
          0.7970402836799622,
          -1.0211553573608398,
          0.7614341378211975,
          -0.021410172805190086,
          -1.334609866142273
        ],
        [
          1.4272539615631104,
          0.48572012782096863,
          0.4541108012199402,
          -0.40842321515083313,
          1.3947052955627441,
          0.605494499206543,
          0.2723848223686218,
          -0.8859325051307678,
          -1.4038188457489014,
          0.24269159138202667,
          2.212571144104004,
          -0.25605130195617676,
          0.03184080496430397,
          0.48651236295700073,
          0.6070796251296997,
          0.35407906770706177,
          1.3834068775177002,
          1.1079727411270142,
          -1.555558204650879,
          -1.2693341970443726,
          -1.58327054977417,
          -0.04587296023964882,
          0.6598038673400879,
          1.0258375406265259,
          -0.22269752621650696
        ],
        [
          1.174170732498169,
          -1.4923574924468994,
          -1.5175144672393799,
          -0.02699553780257702,
          1.2492109537124634,
          1.5779335498809814,
          -0.621252715587616,
          1.3090274333953857,
          0.26244255900382996,
          -0.9218074679374695,
          0.20785462856292725,
          0.07266972213983536,
          0.7072269320487976,
          0.33666542172431946,
          0.07246103137731552,
          -0.2862197756767273,
          -1.442572832107544,
          -0.6380072236061096,
          -1.5158565044403076,
          -0.7833632826805115,
          -0.12400241941213608,
          1.0986106395721436,
          1.50453782081604,
          -0.13760800659656525,
          0.19346876442432404
        ],
        [
          -2.2248549461364746,
          0.3343565762042999,
          0.398477166891098,
          -1.0656377077102661,
          -0.5683188438415527,
          -0.3573143184185028,
          0.039863020181655884,
          -0.29780668020248413,
          0.6817871332168579,
          -0.7915143966674805,
          -0.6180423498153687,
          -0.28558292984962463,
          1.3458913564682007,
          2.1768271923065186,
          1.7801709175109863,
          -2.4344120025634766,
          -0.06732373684644699,
          0.483052521944046,
          1.6802544593811035,
          -0.597446084022522,
          0.9815224409103394,
          -0.45715975761413574,
          2.620945453643799,
          -2.6960597038269043,
          -3.2624356746673584
        ],
        [
          0.14016079902648926,
          -0.1951623558998108,
          -0.21082520484924316,
          0.8533700704574585,
          -1.3716212511062622,
          0.601233184337616,
          0.8423137664794922,
          -0.9976080656051636,
          0.878180205821991,
          -0.45659124851226807,
          0.7487823367118835,
          1.9788739681243896,
          0.6024255752563477,
          0.4656252861022949,
          0.8746094703674316,
          -0.6661379337310791,
          -0.5100057721138,
          -0.44602614641189575,
          1.7350220680236816,
          0.6455569267272949,
          -0.07737522572278976,
          0.16347962617874146,
          0.07081601768732071,
          0.8776608109474182,
          -1.9080568552017212
        ],
        [
          0.6309714913368225,
          1.2450679540634155,
          2.0252509117126465,
          0.11877553910017014,
          0.8270233869552612,
          2.7740654945373535,
          -0.5029603242874146,
          -1.0474377870559692,
          1.1643842458724976,
          -0.4473864436149597,
          0.19022339582443237,
          0.7545892000198364,
          0.1728021204471588,
          -1.851352334022522,
          1.2957712411880493,
          -1.3732823133468628,
          -0.27055519819259644,
          -1.3190127611160278,
          -0.8610228300094604,
          -0.34076830744743347,
          -0.2901066839694977,
          0.18216463923454285,
          1.006913423538208,
          0.07565813511610031,
          0.38147664070129395
        ],
        [
          -0.025299640372395515,
          1.0959678888320923,
          0.2110915333032608,
          -0.9773346185684204,
          0.21788319945335388,
          -2.1971378326416016,
          0.9341678023338318,
          0.28223344683647156,
          2.1232151985168457,
          0.22489580512046814,
          0.0849197506904602,
          -0.7908260226249695,
          -0.7951791286468506,
          -1.5445786714553833,
          -0.03976665809750557,
          0.8390222787857056,
          1.0535439252853394,
          -0.791562020778656,
          0.40873968601226807,
          -0.07226496189832687,
          -0.4636774957180023,
          -0.11984531581401825,
          -1.6751878261566162,
          -1.2721418142318726,
          0.104071244597435
        ],
        [
          -0.22110828757286072,
          0.6502377986907959,
          0.38500723242759705,
          -0.17142771184444427,
          0.6196512579917908,
          -0.759401798248291,
          -0.11344066262245178,
          1.2552270889282227,
          -0.07378484308719635,
          -1.9735321998596191,
          -1.049957036972046,
          -1.1801244020462036,
          1.0653870105743408,
          2.2772223949432373,
          -0.6988953351974487,
          1.170189619064331,
          1.1111741065979004,
          1.438710331916809,
          0.2760939300060272,
          -0.5046172738075256,
          0.12744492292404175,
          0.3420763909816742,
          0.8867548704147339,
          -0.3598940670490265,
          -1.2620646953582764
        ]
      ]
    },
    {
      "name": "activation_5",
      "type": "tanh"
    },
    {
      "has_bias": true,
      "bias": [
        -1.4772250652313232,
        0.5320597290992737,
        1.1266298294067383,
        1.859074592590332,
        1.432293176651001,
        0.040737614035606384,
        1.870715618133545,
        0.5685110688209534,
        2.599625587463379,
        1.9339449405670166,
        0.06916055828332901,
        2.854506492614746,
        1.3222160339355469,
        2.2735791206359863,
        0.7790414690971375,
        1.6229667663574219,
        0.6285449862480164,
        1.6312248706817627,
        1.291841745376587,
        0.16728070378303528,
        2.3369555473327637,
        -0.03452908992767334,
        1.4359984397888184,
        1.5877265930175781,
        1.5833678245544434
      ],
      "in_features": 25,
      "type": "dense",
      "name": "trainable_6",
      "out_features": 25,
      "weights": [
        [
          1.7325314283370972,
          1.680886149406433,
          1.3131496906280518,
          0.6085194945335388,
          -0.09781836718320847,
          0.17772215604782104,
          2.97615385055542,
          2.5115087032318115,
          -1.1352351903915405,
          0.4101113975048065,
          0.8875075578689575,
          0.3332906663417816,
          2.286282539367676,
          0.4143925905227661,
          1.6312404870986938,
          0.9072954654693604,
          0.5952455997467041,
          0.2998991310596466,
          0.22120998799800873,
          0.8619428277015686,
          0.14119654893875122,
          3.308532238006592,
          0.8311426639556885,
          1.130469799041748,
          1.765956997871399
        ],
        [
          2.4050610065460205,
          -0.1705205887556076,
          -0.9324789643287659,
          2.6390485763549805,
          1.5397261381149292,
          0.20492900907993317,
          1.3314192295074463,
          2.0311756134033203,
          1.2823244333267212,
          -0.36220553517341614,
          1.7882819175720215,
          -0.15447363257408142,
          1.7563363313674927,
          0.5236020684242249,
          0.8323690891265869,
          1.554723858833313,
          0.5633476972579956,
          1.3616347312927246,
          0.8576070070266724,
          1.1652384996414185,
          1.3379710912704468,
          0.034636326134204865,
          -0.23501113057136536,
          0.9679986238479614,
          -0.11892577260732651
        ],
        [
          0.3984279930591583,
          1.2241498231887817,
          1.1323647499084473,
          0.5309759378433228,
          1.8258907794952393,
          -0.2669355571269989,
          0.7436505556106567,
          2.037067174911499,
          1.2400671243667603,
          -0.21194490790367126,
          0.17510098218917847,
          1.508241891860962,
          0.045478735119104385,
          -0.13808020949363708,
          1.350850224494934,
          0.8299698829650879,
          1.305979609489441,
          0.11169934272766113,
          0.8568782210350037,
          2.9760189056396484,
          -1.7854093313217163,
          -0.1646805852651596,
          3.1216089725494385,
          -0.34002724289894104,
          2.5415585041046143
        ],
        [
          1.6357489824295044,
          2.0265707969665527,
          0.6226666569709778,
          0.9955093860626221,
          0.5246033668518066,
          0.1460760533809662,
          1.0422513484954834,
          1.4592572450637817,
          1.884443998336792,
          0.30714771151542664,
          0.5169010162353516,
          1.7359224557876587,
          1.0963457822799683,
          0.5759544968605042,
          0.9115915298461914,
          0.7843026518821716,
          0.34828981757164,
          0.5320396423339844,
          1.3721243143081665,
          0.5022179484367371,
          -1.5217229127883911,
          1.548229694366455,
          0.9173763394355774,
          0.27632033824920654,
          1.1973885297775269
        ],
        [
          1.8977820873260498,
          -0.07105076313018799,
          1.068272352218628,
          1.3189135789871216,
          0.19578008353710175,
          -0.6894168853759766,
          -0.05507636442780495,
          -0.6146960258483887,
          1.1664323806762695,
          1.32610285282135,
          -0.46140924096107483,
          2.6592612266540527,
          2.129713535308838,
          0.8603639006614685,
          0.8722542524337769,
          0.8865928649902344,
          2.1105117797851562,
          -0.7727826237678528,
          -0.9939129948616028,
          0.4240635633468628,
          1.0231664180755615,
          2.3050262928009033,
          1.350034475326538,
          2.2178356647491455,
          0.48332488536834717
        ],
        [
          1.217238426208496,
          1.1251510381698608,
          0.6523845195770264,
          0.3453209698200226,
          1.6075806617736816,
          0.12119335681200027,
          -0.2608944773674011,
          0.013599207624793053,
          2.023538827896118,
          0.176902636885643,
          0.4978819787502289,
          -1.1921809911727905,
          0.24867092072963715,
          -0.0753379687666893,
          1.1310701370239258,
          1.446653962135315,
          0.33673444390296936,
          1.8673593997955322,
          1.6531025171279907,
          0.2500021159648895,
          1.3452221155166626,
          1.5523160696029663,
          1.8126964569091797,
          -0.09615955501794815,
          -0.48915430903434753
        ],
        [
          1.6203504800796509,
          -0.6132171750068665,
          0.7854669690132141,
          -0.15892092883586884,
          1.0841327905654907,
          2.8472862243652344,
          1.8971331119537354,
          1.322779893875122,
          -0.10903859883546829,
          2.184353828430176,
          0.5045190453529358,
          0.36662328243255615,
          1.3752280473709106,
          2.7347004413604736,
          -0.7204267382621765,
          0.3676754832267761,
          0.9238060712814331,
          1.424609899520874,
          1.4284141063690186,
          1.6629564762115479,
          0.1858280450105667,
          0.05940593034029007,
          -0.32537326216697693,
          -0.19567938148975372,
          0.7108118534088135
        ],
        [
          -1.022047758102417,
          1.208763837814331,
          0.24063432216644287,
          1.2147704362869263,
          -0.7067316174507141,
          1.033994436264038,
          2.0768349170684814,
          1.4028249979019165,
          0.29336175322532654,
          0.1961904615163803,
          1.063593864440918,
          0.8606283068656921,
          0.04671504348516464,
          -0.6719896197319031,
          2.142688751220703,
          1.0850297212600708,
          3.737454652786255,
          -0.5320939421653748,
          -0.1725102812051773,
          3.2564783096313477,
          0.2679547965526581,
          -0.0327179878950119,
          1.1340540647506714,
          1.2712035179138184,
          1.148695707321167
        ],
        [
          1.1048285961151123,
          -1.019243597984314,
          0.40123245120048523,
          2.0451385974884033,
          2.40567946434021,
          0.32601991295814514,
          1.174345850944519,
          1.100605845451355,
          0.15375836193561554,
          1.1224596500396729,
          2.2126524448394775,
          -0.17251019179821014,
          0.12667454779148102,
          0.1742810755968094,
          0.27347689867019653,
          2.0315184593200684,
          1.0316673517227173,
          0.9759019613265991,
          2.332761764526367,
          -0.8312883973121643,
          0.2773345708847046,
          -1.8166694641113281,
          1.18180251121521,
          -1.5577458143234253,
          -0.11789670586585999
        ],
        [
          0.7493636608123779,
          0.14628785848617554,
          0.877878725528717,
          1.884032130241394,
          0.6271455883979797,
          1.4309816360473633,
          0.2698709964752197,
          -0.6679698824882507,
          -0.6855438947677612,
          0.41192516684532166,
          -0.8908180594444275,
          2.4042246341705322,
          1.582761526107788,
          1.4770132303237915,
          0.5762634873390198,
          -0.9762706160545349,
          -0.042937953025102615,
          2.6459105014801025,
          0.5879246592521667,
          1.383144497871399,
          -1.6315401792526245,
          2.413893699645996,
          1.2874428033828735,
          -0.9834660887718201,
          1.1911197900772095
        ],
        [
          -0.09193268418312073,
          1.6537647247314453,
          0.1074192151427269,
          0.4458730220794678,
          2.5372612476348877,
          -0.01467408612370491,
          1.3546518087387085,
          -0.2281985878944397,
          -0.307789146900177,
          0.20104725658893585,
          -1.4520188570022583,
          0.38424551486968994,
          -0.20761838555335999,
          0.19381818175315857,
          2.8186657428741455,
          1.090049386024475,
          1.3206615447998047,
          0.5501746535301208,
          -0.4145949184894562,
          0.32566243410110474,
          1.8111655712127686,
          -1.0879374742507935,
          0.48812517523765564,
          1.7375144958496094,
          0.5734742879867554
        ],
        [
          1.5669114589691162,
          -0.0912693440914154,
          2.604860782623291,
          1.417281985282898,
          -0.31094852089881897,
          3.50587797164917,
          1.811031699180603,
          1.9783484935760498,
          0.34884268045425415,
          0.6444668769836426,
          0.5069432854652405,
          0.23168067634105682,
          -0.28417912125587463,
          0.12276723235845566,
          -0.4139373302459717,
          1.2910820245742798,
          0.41740918159484863,
          1.5182777643203735,
          0.8180341720581055,
          2.3959240913391113,
          -1.326656699180603,
          1.012576699256897,
          1.157508134841919,
          0.11095153540372849,
          0.015194755978882313
        ],
        [
          0.5985292196273804,
          0.2653154134750366,
          0.28493770956993103,
          2.628986120223999,
          -1.5681570768356323,
          1.419120192527771,
          4.146054744720459,
          -0.5361493229866028,
          -0.3764192461967468,
          0.8061767816543579,
          1.048379898071289,
          -0.8340780735015869,
          -0.27485939860343933,
          0.2511810064315796,
          1.1448705196380615,
          1.6722161769866943,
          -0.33578863739967346,
          1.237823724746704,
          1.0918805599212646,
          -0.07891717553138733,
          -0.3442031741142273,
          1.1899604797363281,
          1.4283726215362549,
          1.3658490180969238,
          0.43488600850105286
        ],
        [
          1.620140790939331,
          -0.07372263818979263,
          0.4321873188018799,
          0.9123900532722473,
          -0.11492036283016205,
          1.4912109375,
          1.7411577701568604,
          -0.9998700022697449,
          1.6711630821228027,
          0.37577250599861145,
          1.830810308456421,
          -0.5039559006690979,
          0.41032934188842773,
          -0.28175464272499084,
          -0.1508258581161499,
          0.22232185304164886,
          1.0232762098312378,
          0.632189154624939,
          0.5243264436721802,
          2.261338710784912,
          -0.8277034759521484,
          1.7097560167312622,
          1.2153688669204712,
          1.8730908632278442,
          1.6173148155212402
        ],
        [
          1.1131484508514404,
          1.31505286693573,
          0.9395301938056946,
          2.7210772037506104,
          1.6076244115829468,
          -0.09370607137680054,
          1.293558120727539,
          1.2541698217391968,
          2.297102689743042,
          2.1702442169189453,
          2.1297199726104736,
          1.8808159828186035,
          0.10095266997814178,
          -1.0063594579696655,
          0.6100040078163147,
          0.2758282721042633,
          2.099527597427368,
          1.0140281915664673,
          1.8220018148422241,
          0.35499441623687744,
          -2.0248966217041016,
          0.3561001420021057,
          2.4800925254821777,
          1.5676393508911133,
          -1.6615263223648071
        ],
        [
          -1.1757389307022095,
          -1.925601601600647,
          1.5804604291915894,
          1.2442952394485474,
          1.1091150045394897,
          -0.4413132071495056,
          1.9561822414398193,
          1.1096715927124023,
          1.520098328590393,
          -0.16104276478290558,
          -0.8266451358795166,
          2.3179616928100586,
          -1.1775704622268677,
          -0.6354539394378662,
          -0.39479562640190125,
          -0.15272179245948792,
          1.3351821899414062,
          0.6576551198959351,
          1.478998064994812,
          0.7439327239990234,
          0.5916886329650879,
          0.4732750952243805,
          1.3100541830062866,
          1.9618178606033325,
          2.0305440425872803
        ],
        [
          0.16525503993034363,
          -0.9600260257720947,
          0.20447352528572083,
          1.2672147750854492,
          1.6668568849563599,
          0.9426326751708984,
          -0.8513035178184509,
          2.9174091815948486,
          -1.1096128225326538,
          0.7287699580192566,
          0.3880140483379364,
          -0.9592056274414062,
          0.7039693593978882,
          0.15481112897396088,
          0.9369691610336304,
          2.7312936782836914,
          1.2921204566955566,
          1.2432494163513184,
          0.9967203140258789,
          -0.24877779185771942,
          0.8110595941543579,
          1.9938938617706299,
          0.42415690422058105,
          -0.3302529752254486,
          1.5638447999954224
        ],
        [
          1.2783846855163574,
          0.4609763026237488,
          0.9664729833602905,
          1.319311499595642,
          0.9251039028167725,
          0.3767414689064026,
          1.34927237033844,
          -0.04602416977286339,
          0.3422280251979828,
          0.8397515416145325,
          1.7278720140457153,
          2.0897769927978516,
          1.1255115270614624,
          1.0232192277908325,
          2.768394708633423,
          1.4817959070205688,
          2.256786346435547,
          1.3050752878189087,
          0.42914387583732605,
          1.8243926763534546,
          -0.44077029824256897,
          1.7715123891830444,
          1.0783700942993164,
          0.27323639392852783,
          -1.2054579257965088
        ],
        [
          0.21358652412891388,
          2.1019179821014404,
          0.07976416498422623,
          1.0489872694015503,
          1.1565113067626953,
          -0.1973060965538025,
          0.7607549428939819,
          2.0156569480895996,
          0.27978238463401794,
          0.7606741189956665,
          -0.17016124725341797,
          -0.7246336936950684,
          0.6228576302528381,
          0.518202006816864,
          -0.5255439281463623,
          0.6013123989105225,
          0.9527523517608643,
          2.4918551445007324,
          -0.4317568838596344,
          0.029552433639764786,
          -0.8965113759040833,
          -1.3447669744491577,
          0.8212719559669495,
          2.4277400970458984,
          -1.136046290397644
        ],
        [
          2.090153217315674,
          0.5800430774688721,
          1.641480803489685,
          0.9067026376724243,
          2.244154930114746,
          1.4762237071990967,
          -1.130194067955017,
          1.6421231031417847,
          0.9677305221557617,
          1.5586854219436646,
          2.0365445613861084,
          1.3613086938858032,
          2.04952073097229,
          0.7987359762191772,
          0.5538660287857056,
          0.8411845564842224,
          1.258527398109436,
          -0.374245822429657,
          1.5701886415481567,
          2.2011828422546387,
          -0.39891985058784485,
          -1.6473029851913452,
          0.7719373106956482,
          -0.2125277817249298,
          -0.7426900267601013
        ],
        [
          0.3849634528160095,
          1.166581630706787,
          1.4576117992401123,
          0.09037968516349792,
          0.42773938179016113,
          1.759007453918457,
          0.9396557807922363,
          -0.5263161063194275,
          0.4394170045852661,
          1.7219539880752563,
          1.9763044118881226,
          -0.23787347972393036,
          1.3823673725128174,
          0.5207194089889526,
          0.9487611055374146,
          1.8719878196716309,
          0.5180620551109314,
          1.1272209882736206,
          0.375362753868103,
          3.376447916030884,
          -0.8065263032913208,
          0.6973247528076172,
          1.5889440774917603,
          -0.4163011610507965,
          0.14899206161499023
        ],
        [
          1.8035364151000977,
          2.1159863471984863,
          1.546968698501587,
          0.228022962808609,
          1.1198056936264038,
          0.20812948048114777,
          1.0884534120559692,
          0.6860072612762451,
          -0.7865391373634338,
          0.2736703157424927,
          -1.5630172491073608,
          -2.131676197052002,
          1.7007383108139038,
          -0.10351046174764633,
          0.271463543176651,
          0.5903655290603638,
          -0.2580457925796509,
          1.1080784797668457,
          0.8550012111663818,
          1.8190284967422485,
          0.01558031514286995,
          0.857329785823822,
          1.8028669357299805,
          0.6691561937332153,
          3.193464994430542
        ],
        [
          0.10882681608200073,
          0.019755888730287552,
          2.48543119430542,
          0.7845603227615356,
          0.2865764796733856,
          1.8006408214569092,
          -1.0991631746292114,
          0.649469792842865,
          -0.6692222356796265,
          1.12972092628479,
          1.1342220306396484,
          0.7784596681594849,
          0.8062840104103088,
          0.5715394616127014,
          -1.6310594081878662,
          2.055792808532715,
          1.4768427610397339,
          0.22659054398536682,
          -0.7480992674827576,
          -0.4216326177120209,
          -0.0826520025730133,
          0.13073353469371796,
          1.3606005907058716,
          1.6051568984985352,
          -0.29987791180610657
        ],
        [
          0.8875542283058167,
          1.6165038347244263,
          2.2932562828063965,
          1.0705395936965942,
          0.7835489511489868,
          1.9192575216293335,
          0.21331371366977692,
          1.6014751195907593,
          1.2368613481521606,
          0.09847138822078705,
          -1.3559050559997559,
          1.445622205734253,
          1.1593114137649536,
          -0.6164118051528931,
          -1.3239666223526,
          1.880304217338562,
          -0.16859275102615356,
          0.48068228363990784,
          1.3896714448928833,
          0.35651999711990356,
          0.16405260562896729,
          3.079353094100952,
          -1.0845632553100586,
          1.5586971044540405,
          0.4552696645259857
        ],
        [
          1.871567964553833,
          1.3681257963180542,
          1.3857715129852295,
          0.5917813777923584,
          0.7955009937286377,
          1.4943101406097412,
          1.4569226503372192,
          1.230301856994629,
          0.12993751466274261,
          1.021450161933899,
          -0.4427475929260254,
          1.0607572793960571,
          0.1467709243297577,
          -1.2215614318847656,
          1.803216576576233,
          2.5510976314544678,
          -0.5631802082061768,
          1.0127036571502686,
          -0.1584170162677765,
          0.9626785516738892,
          1.1893959045410156,
          0.9155091643333435,
          1.440407633781433,
          1.0701053142547607,
          -0.040374964475631714
        ]
      ]
    },
    {
      "name": "activation_7",
      "type": "tanh"
    },
    {
      "has_bias": true,
      "bias": [
        1.952015995979309,
        1.6846169233322144
      ],
      "in_features": 25,
      "type": "dense",
      "name": "trainable_8",
      "out_features": 2,
      "weights": [
        [
          0.020522750914096832,
          -0.040387775748968124
        ],
        [
          -0.004201281815767288,
          0.015834128484129906
        ],
        [
          -0.044247522950172424,
          0.03748970478773117
        ],
        [
          0.04478149488568306,
          -0.0900641530752182
        ],
        [
          -0.1501910239458084,
          0.0482449047267437
        ],
        [
          1.7067557573318481,
          0.7071985006332397
        ],
        [
          0.11358258128166199,
          -0.08276135474443436
        ],
        [
          -0.1136271208524704,
          0.12001119554042816
        ],
        [
          -0.15111371874809265,
          0.03359714150428772
        ],
        [
          0.08011999726295471,
          -0.0007945612305775285
        ],
        [
          -0.14188452064990997,
          0.20777887105941772
        ],
        [
          -0.04401899501681328,
          -0.04301450774073601
        ],
        [
          0.0269788671284914,
          -0.05834612995386124
        ],
        [
          0.020323116332292557,
          -0.009512089192867279
        ],
        [
          0.06485182046890259,
          -0.3035525381565094
        ],
        [
          0.05845889821648598,
          -0.01830866001546383
        ],
        [
          0.11444557458162308,
          0.029643751680850983
        ],
        [
          -0.054823137819767,
          -0.010532407090067863
        ],
        [
          0.14753898978233337,
          -0.17840439081192017
        ],
        [
          0.6607248187065125,
          0.1634465605020523
        ],
        [
          1.9671473503112793,
          -0.1947048306465149
        ],
        [
          0.7391778826713562,
          -0.015063227154314518
        ],
        [
          -0.09508006274700165,
          0.020107099786400795
        ],
        [
          0.011217082850635052,
          -0.027092965319752693
        ],
        [
          0.051367368549108505,
          -0.07521144300699234
        ]
      ]
    },
    {
      "name": "activation_9",
      "type": "tanh"
    },
    {
      "name": "criterion_10",
      "type": "mse"
    }
  ]
}