{"test_accuracy": 0.6035, "layers": [{"in_features": 2, "weights": [[-1.5329962968826294, 2.249290704727173, 1.8264291286468506, -1.2444021701812744, -0.0028067296370863914, 1.7789727449417114, -2.346992015838623, 5.073341369628906, -1.4129341840744019, 1.1678928136825562, 2.8062632083892822, 4.22575569152832, -2.787902355194092, -2.1705286502838135, 0.06077985465526581, 0.523064374923706, 0.5593697428703308, 2.657064914703369, 2.8054146766662598, -0.16320154070854187, 0.4004215598106384, 0.26581084728240967, 2.3008415699005127, -1.3179470300674438, 1.5169273614883423], [-1.4469720125198364, -0.6195687651634216, 1.0938218832015991, -0.19283545017242432, -1.1193714141845703, 0.7586140036582947, -0.37164780497550964, 0.06444672495126724, 0.8552722334861755, -0.1297924518585205, 2.899735689163208, -1.0619614124298096, -1.4792026281356812, 0.20852132141590118, 0.5214539170265198, 0.2023671418428421, 0.08804658055305481, 2.803013801574707, 0.9619972705841064, 0.19739151000976562, -0.7511522173881531, -0.1077977865934372, 0.13136811554431915, 1.2741458415985107, 0.1545787900686264]], "out_features": 25, "has_bias": true, "type": "dense", "bias": [-0.1896982491016388, -1.0088387727737427, 0.5694984197616577, -0.2001374065876007, 1.1971808671951294, 0.18747305870056152, 0.30623695254325867, -1.1402884721755981, 1.8904544115066528, 1.1579495668411255, 0.20642554759979248, -0.2613880932331085, -1.181388020515442, 1.6258794069290161, 1.5059758424758911, -0.19252708554267883, 1.0862791538238525, -0.7856162786483765, -0.8567972183227539, 1.7014509439468384, 1.074649691581726, 0.9660699367523193, -0.2512807846069336, -0.6379952430725098, 0.7809559106826782], "name": "trainable_0"}, {"type": "tanh", "name": "activation_1"}, {"in_features": 25, "weights": [[-0.17911075055599213, 0.6723983883857727, -0.05662745609879494, 1.117110252380371, 1.301108479499817, -0.62245774269104, 0.3932795822620392, 0.8218287825584412, -1.1373722553253174, -2.3468070030212402, -0.6232840418815613, -1.2768853902816772, -2.070863723754883, -1.321829915046692, 0.22306369245052338, 0.4716997444629669, 1.6719378232955933, -1.1511446237564087, 0.22760717570781708, 1.0915671586990356, -0.14167141914367676, 0.6907106041908264, 1.9070489406585693, -1.5386474132537842, 0.8027704954147339], [0.6417191028594971, -2.039964199066162, -0.206756591796875, 0.21870382130146027, -0.6893951892852783, -1.047703504562378, 0.25125524401664734, -0.907782256603241, -0.5039059519767761, -2.0811820030212402, -1.139661192893982, -0.08385828137397766, -2.0583014488220215, 0.0005139088025316596, 1.129408597946167, 0.5179622769355774, 1.0129814147949219, -2.1952695846557617, 1.643585205078125, -1.7474862337112427, 0.6999300718307495, 1.0850067138671875, -0.6394738554954529, -2.281374216079712, -0.5976244807243347], [1.303736925125122, 0.5508064031600952, 1.3738560676574707, 0.7709811329841614, -0.39217135310173035, 0.17591041326522827, -0.595952570438385, -0.17198465764522552, 2.4662930965423584, 1.5172375440597534, -0.2271277904510498, -1.2995471954345703, 0.634088933467865, 0.3051021695137024, -0.8904383182525635, 0.12537333369255066, -1.47039794921875, -0.4760107398033142, -1.3240091800689697, -1.5496656894683838, -1.944495439529419, -0.19123293459415436, -1.2222338914871216, -0.2401735782623291, -1.7370659112930298], [0.859470009803772, 0.9167559742927551, -0.42445844411849976, 2.0794918537139893, 1.3412678241729736, 0.11237871646881104, 0.26459845900535583, -0.1103774681687355, -0.8182474970817566, -0.18464748561382294, -1.1424305438995361, -0.5749716758728027, 0.3650725185871124, 0.5840975642204285, -0.0596495158970356, 1.0818111896514893, 0.030551334843039513, -1.4452192783355713, 0.04315613955259323, -0.7220368981361389, 0.3463400602340698, -1.2068966627120972, -0.43163174390792847, -3.249281883239746, -1.181657314300537], [1.13906991481781, 1.0633134841918945, 0.5215951800346375, -0.5857514142990112, 2.5587360858917236, -0.25930356979370117, 1.1848347187042236, -2.041033983230591, 0.9164280891418457, 0.31198740005493164, 0.6852279305458069, 0.39543625712394714, 1.1092543601989746, -0.1305403858423233, -0.3352951109409332, 0.3702755272388458, 0.07819513231515884, 1.1161967515945435, 1.0524507761001587, -0.5077661871910095, 2.1859307289123535, 0.13134457170963287, -0.5325061082839966, -0.8046845197677612, -2.6844496726989746], [0.9141879081726074, 0.6537502408027649, 0.3604651391506195, -0.8940914869308472, -1.8704577684402466, -0.09420090168714523, 0.6331624388694763, -1.5473647117614746, -1.39175283908844, -0.44901740550994873, 1.1739459037780762, 0.75779789686203, -1.960828423500061, 0.2924247086048126, -0.8012001514434814, 1.356408715248108, -0.5113221406936646, 0.3215515911579132, 1.071553111076355, 0.6718432307243347, -1.2398020029067993, -1.7230801582336426, -1.266310691833496, 1.0124931335449219, 0.07197483628988266], [0.01010472234338522, -0.3386068642139435, -1.1809258460998535, 2.0324008464813232, -0.8726508617401123, -0.6186200976371765, -0.08034495264291763, -1.1960755586624146, 2.242636203765869, -0.8126260042190552, -0.7301757335662842, 0.08779089152812958, 0.48723360896110535, 0.3072129189968109, 0.020261403173208237, -0.39699456095695496, -1.3190895318984985, -1.9105193614959717, 0.7527475953102112, 0.07501175254583359, -2.437152624130249, 0.9255957007408142, -0.003323049284517765, -1.4208184480667114, 0.043745096772909164], [0.9882431626319885, 2.2376363277435303, 0.9523443579673767, -2.104970932006836, 0.5216906070709229, 1.1551374197006226, 0.1871003806591034, 3.55381178855896, 0.06620776653289795, -0.7728264331817627, -1.4340957403182983, 1.460296630859375, 1.346005916595459, 1.9647598266601562, 2.178934335708618, 2.2096798419952393, 3.6461102962493896, 2.0290873050689697, 1.5105623006820679, -0.37278687953948975, 2.294498920440674, 0.10106735676527023, 1.7508232593536377, 0.7860312461853027, 0.21006722748279572], [2.150338888168335, 3.2582085132598877, 1.4077332019805908, 0.048911575227975845, 0.5543038249015808, 1.659501314163208, -1.14471435546875, -2.01204776763916, 1.1826808452606201, 1.2476989030838013, 0.5220158696174622, 0.711541473865509, 1.4749747514724731, 0.910834550857544, -2.0887393951416016, 0.49450013041496277, 0.7763493061065674, 2.1000847816467285, -0.7990694046020508, 0.9908560514450073, -1.083519458770752, -1.0929902791976929, -0.5220562815666199, 0.2997845411300659, -1.0128949880599976], [0.44956570863723755, 0.8845461010932922, 0.9094626903533936, -0.9052018523216248, -1.4541305303573608, 2.4513843059539795, -0.12294977903366089, -0.022847777232527733, -0.16557784378528595, 0.6978253722190857, 0.6390787363052368, -0.01912808232009411, -0.5874718427658081, 1.2794731855392456, -2.0799946784973145, 0.01705671101808548, -2.1672818660736084, -0.5493842363357544, -0.9208218455314636, -0.7559788823127747, 0.1166461929678917, 0.9830528497695923, -1.0212924480438232, -0.11950643360614777, -1.3394523859024048], [-0.6555747985839844, 0.441640704870224, -1.3334029912948608, -1.0223981142044067, -2.0999321937561035, -1.912556529045105, 0.3646116852760315, -0.8573933839797974, 0.5751767158508301, 0.8055456280708313, -0.1141572818160057, 1.4823068380355835, 1.0263376235961914, 1.3822388648986816, -1.36765456199646, -1.3893543481826782, -0.028364721685647964, 1.7723054885864258, -0.7227441668510437, -1.5529283285140991, -0.8497479557991028, -1.717729091644287, -1.3273485898971558, 1.1442738771438599, -1.0621541738510132], [0.3902002274990082, 1.1480817794799805, 1.2363208532333374, -0.6446282863616943, 1.2408500909805298, 3.871995210647583, -0.28613701462745667, 0.25677984952926636, 1.5587495565414429, -1.0768369436264038, -1.1288740634918213, 1.825051188468933, 0.24299608170986176, -1.1405380964279175, 3.356689929962158, 0.36954188346862793, 2.4732799530029297, 2.629854679107666, 0.14829324185848236, 3.115029811859131, -0.431612491607666, -0.19609905779361725, -0.19543227553367615, 0.5588456988334656, 0.8159377574920654], [-0.5219618082046509, -1.0755221843719482, -2.507324695587158, 0.6892949342727661, -0.3715271055698395, 0.1519164890050888, -0.019330572336912155, 0.6225757598876953, 0.8710963726043701, 0.6674457788467407, -0.8862751126289368, -3.6166141033172607, 1.2376086711883545, -0.6394286155700684, 3.767164945602417, 2.322695732116699, 4.7023420333862305, 1.0225671529769897, -0.5662850737571716, 1.622409701347351, 2.1965529918670654, 1.49687659740448, 0.017223523929715157, 0.5966141223907471, -1.3915836811065674], [0.4460460841655731, 1.3180832862854004, 1.3434380292892456, -0.6180539131164551, -0.006820538081228733, 0.8661597371101379, -1.1678094863891602, 0.7126360535621643, 1.006035566329956, 0.4582628309726715, -1.511765480041504, 0.3568243384361267, -0.6759912371635437, 1.2585186958312988, 1.6192750930786133, -0.33381351828575134, 2.077242374420166, 2.7913122177124023, 0.1681194007396698, 0.9149379134178162, 0.35667842626571655, 1.872148036956787, 0.20941436290740967, 0.3203662037849426, -0.958957850933075], [-0.2557266652584076, -0.09304270148277283, 1.6211965084075928, -1.5542620420455933, -1.2769548892974854, -0.5795490741729736, -0.7639284729957581, -2.0890846252441406, 1.2214949131011963, 1.5304100513458252, -0.023773668333888054, 2.375793933868408, 0.7366073131561279, -0.5566045641899109, 0.4526057541370392, -1.5874848365783691, -0.3696114420890808, 0.6647300720214844, -1.0472148656845093, -1.2691543102264404, -0.321647047996521, -0.13466428220272064, -0.8720669150352478, 1.149763584136963, -0.42915526032447815], [-1.4895912408828735, -0.556042492389679, -0.09254463762044907, -0.41466718912124634, -1.5519779920578003, 1.5042963027954102, 0.16853806376457214, 0.8517070412635803, -0.9519636631011963, 1.5620241165161133, -1.2891393899917603, -0.6425424814224243, 1.6004905700683594, -0.8810853362083435, -0.0006127241649664938, -1.1216171979904175, -1.1241588592529297, 0.8258116245269775, 1.2455490827560425, -1.0438939332962036, 0.6685616970062256, 1.4832998514175415, -3.034698009490967, -0.29352474212646484, -1.2898515462875366], [-0.2645210921764374, 0.6629883050918579, 0.5363768339157104, 1.089695692062378, -1.9458388090133667, 1.7730292081832886, -0.6764764785766602, -0.05228947848081589, 0.8918914794921875, -1.36248779296875, 1.4344104528427124, -1.006221890449524, -0.2855928838253021, -0.47466394305229187, -0.5720539689064026, 0.1757836788892746, 0.02321607992053032, 0.07738561928272247, -0.9245792031288147, -0.1470745950937271, -0.8853277564048767, 0.9808074235916138, -1.2762538194656372, -1.2894395589828491, -0.019478892907500267], [0.6905450820922852, 2.2483890056610107, 0.8805593252182007, -1.0499565601348877, -1.0521398782730103, 1.0160552263259888, -0.8382666707038879, 0.679591715335846, -0.5592316389083862, 0.2218874841928482, -0.18483823537826538, 2.3939249515533447, -1.7135759592056274, 1.03972327709198, -0.24260830879211426, 0.9735323190689087, 0.6966078877449036, 0.10441303253173828, -0.5001617074012756, -0.33016619086265564, 0.9540079832077026, 0.9554113745689392, -0.13097575306892395, -0.16230511665344238, -0.6099600791931152], [-0.30961334705352783, -0.005394679494202137, 0.008632183074951172, -0.7871418595314026, -0.5382910966873169, 0.9854723215103149, 0.7818045616149902, 0.21335914731025696, 0.4755147397518158, 0.14456109702587128, -1.2077265977859497, -0.15564928948879242, -1.085650086402893, 1.6464976072311401, 1.3226196765899658, -0.36414363980293274, 0.5242990851402283, 0.13042250275611877, 0.9512017369270325, 1.5509361028671265, 0.08951257914304733, 0.08731206506490707, 0.7448360919952393, 2.3032424449920654, 1.1600502729415894], [1.3243905305862427, 1.5651719570159912, -0.38363802433013916, -2.316084146499634, 0.7277015447616577, 1.7910629510879517, 1.199263572692871, 0.1017828956246376, 0.320019006729126, 0.08391305059194565, 0.6295058131217957, -0.8896206617355347, 2.249300718307495, 1.3225585222244263, -0.8459369540214539, 0.7095083594322205, -0.2441207319498062, 1.589390516281128, -2.6437621116638184, -1.0256134271621704, -0.07121086865663528, 0.14474919438362122, -0.17272169888019562, 0.47817152738571167, -0.573836624622345], [-0.3577968180179596, -1.0675674676895142, -0.22048266232013702, -0.6374916434288025, -1.2483594417572021, -0.3181207776069641, -1.0640863180160522, 2.557690382003784, 1.296562671661377, -1.6256014108657837, 1.3321921825408936, -0.34596312046051025, -1.0273618698120117, 0.7967590689659119, 0.23916564881801605, 0.3786708116531372, 0.6033279299736023, 0.1637897789478302, -0.5256739854812622, -0.29365506768226624, 0.36393702030181885, -0.8558599352836609, -0.8894580006599426, 0.4523414075374603, 0.2637482285499573], [0.5942361950874329, -0.8731950521469116, -1.692345142364502, 1.2714462280273438, 0.21181097626686096, 0.9320859909057617, -1.3767638206481934, 0.0807514488697052, -0.7507373690605164, 0.15710550546646118, 2.014760971069336, 0.11387813836336136, -0.710895836353302, 0.23702560365200043, -0.7178295850753784, 1.223647117614746, -1.4168282747268677, 0.3099250793457031, -0.16961732506752014, 0.7480427622795105, -0.4808506667613983, 0.27524030208587646, -2.0279669761657715, 0.45389068126678467, -1.1451667547225952], [0.35498300194740295, 0.5714624524116516, -0.7132368683815002, -0.3493756949901581, -2.9014132022857666, 1.445592999458313, -0.6993026733398438, -0.31023386120796204, 0.7055670619010925, 0.6033977270126343, -0.7024011015892029, -0.16619819402694702, 0.9361200332641602, 1.19503653049469, 0.35208359360694885, -0.4302581250667572, 2.99338436126709, 1.0126248598098755, 1.0673320293426514, 0.3549925684928894, 0.2953914701938629, 0.9901869297027588, -1.2152761220932007, 1.1668952703475952, -0.3188842833042145], [-0.08892383426427841, -1.2616040706634521, -0.35232439637184143, -0.2681741714477539, -2.0765607357025146, -1.424277663230896, -0.6703945994377136, 0.426500141620636, -0.7092647552490234, -0.41171127557754517, 0.16179689764976501, -0.31234636902809143, -0.3081907331943512, 1.6163040399551392, 0.3064723312854767, 0.9032303094863892, 0.8031185269355774, -2.184030532836914, 0.22961683571338654, -0.19825848937034607, -1.7321498394012451, 1.3518903255462646, -1.4602822065353394, -1.8423701524734497, 1.0181653499603271], [-0.9047412872314453, 1.3201440572738647, 0.3285103142261505, -1.674922227859497, -0.26658791303634644, 0.5419909954071045, -1.1585924625396729, 0.37778493762016296, 0.517724871635437, -0.6594432592391968, 0.8274489641189575, 2.706780195236206, 1.2579683065414429, 2.050649642944336, 0.450967401266098, 0.2977636456489563, -2.09360408782959, -0.8818655610084534, -0.8816530108451843, -1.5456551313400269, -1.3423362970352173, -0.0743742510676384, -1.4046177864074707, 1.0549155473709106, -0.461567759513855]], "out_features": 25, "has_bias": true, "type": "dense", "bias": [0.44295796751976013, -2.8573532104492188, -1.1042598485946655, 0.5754497051239014, -1.0863707065582275, 0.44212207198143005, -1.8970251083374023, -1.8193774223327637, -0.6626243591308594, -0.9611821174621582, -2.5422167778015137, -2.376885414123535, -0.7298731803894043, -0.6126165390014648, -2.6525650024414062, -3.9955391883850098, 0.6477001905441284, -1.023362636566162, -3.1463990211486816, -1.512084722518921, -1.9795808792114258, -3.069636821746826, -2.0579206943511963, -1.01582670211792, -0.8317805528640747], "name": "trainable_2"}, {"type": "tanh", "name": "activation_3"}, {"in_features": 25, "weights": [[1.7229872941970825, 1.7793214321136475, 0.40146350860595703, -0.06636667996644974, 2.1756861209869385, 1.082318663597107, -0.4978542625904083, 0.1029977947473526, 3.3194611072540283, 0.16385459899902344, 0.8065310120582581, 0.5917584300041199, 0.3315671384334564, 1.5692429542541504, 1.2427055835723877, 1.0651534795761108, 1.9800899028778076, 0.5069561004638672, 1.1299768686294556, 0.9954180121421814, 1.62800931930542, 0.18605682253837585, 1.0379269123077393, 1.4750514030456543, -0.11258681118488312], [-0.6028912663459778, 0.4600047767162323, 1.1985797882080078, -0.7443675994873047, 1.5985758304595947, 1.9641697406768799, 0.7090660929679871, 1.6506762504577637, 1.0684107542037964, -0.4000478684902191, 2.1298811435699463, 0.8002269268035889, -0.14403128623962402, 1.056839108467102, 0.8928722143173218, 0.4108879268169403, 1.7036380767822266, 0.5850166082382202, -0.3174198269844055, 0.5492268800735474, 1.6743628978729248, 1.277777910232544, 2.2221055030822754, 1.8292856216430664, 0.26924943923950195], [1.8516514301300049, 2.384809732437134, -1.2669202089309692, 0.7214088439941406, -0.06335296481847763, 2.8812336921691895, 1.3792896270751953, 1.134462833404541, 0.9042147397994995, 1.0657799243927002, 2.490391492843628, 0.407776415348053, 1.2311809062957764, 1.5533453226089478, 1.5752428770065308, 0.16168995201587677, 0.9014876484870911, 0.4196130633354187, 0.041979797184467316, 1.1764742136001587, 2.9345149993896484, 1.731048583984375, 0.6629559397697449, 1.5376166105270386, 0.4754224419593811], [1.1447757482528687, -0.3673507869243622, -1.3649879693984985, 2.775665283203125, 1.2497090101242065, 1.3224848508834839, 1.3864867687225342, 0.23436272144317627, 1.166648268699646, -0.06630730628967285, 2.246674060821533, 0.9606021642684937, 0.7400380373001099, 1.6785523891448975, 0.7286805510520935, -1.1288341283798218, 1.0735899209976196, -0.3155219256877899, -0.12109804898500443, -0.3039465844631195, -0.6702108383178711, 0.15060003101825714, 1.612858533859253, 2.080695390701294, 1.3557944297790527], [1.3171212673187256, 1.4545273780822754, 0.6840949654579163, 0.811574399471283, 1.1853618621826172, 1.1166778802871704, 2.3737406730651855, 1.2650915384292603, 2.927816867828369, 2.596468925476074, -0.5072234869003296, 1.435606598854065, 1.8535716533660889, 0.9482096433639526, 1.1052427291870117, 2.207163095474243, 1.767730951309204, 0.36698833107948303, 0.21392512321472168, 0.5407644510269165, 2.1184868812561035, -0.18370676040649414, -0.15966665744781494, 1.1136577129364014, 1.234334945678711], [-0.24822159111499786, 0.5744037628173828, 0.5876662731170654, 1.898041009902954, -0.4545951187610626, 0.3250831961631775, -0.3337500989437103, 1.5143742561340332, -0.16249188780784607, -0.19581392407417297, 1.201811671257019, -0.041990380734205246, -0.33933478593826294, -0.19248922169208527, -0.029297735542058945, 1.4765337705612183, 0.9433668255805969, 0.8883823752403259, 0.023207994177937508, 1.3703135251998901, 0.3709060251712799, 2.71390438079834, 0.9361228942871094, 1.6378520727157593, -1.281778335571289], [1.3428170680999756, -0.6547728180885315, -0.09603609144687653, -0.039634205400943756, 2.126448154449463, 1.8096718788146973, 3.4391138553619385, 1.0792014598846436, 1.389115571975708, 1.3523545265197754, 0.7128193378448486, 1.4105746746063232, 2.9748806953430176, 0.3646455705165863, 0.2473132312297821, 1.0923409461975098, 0.5303850173950195, -1.4183597564697266, 0.9403812289237976, 1.182038426399231, 0.25575077533721924, -0.029909057542681694, 2.1890742778778076, 0.22499755024909973, -0.31187599897384644], [-0.03508473187685013, 0.9122162461280823, 2.398635149002075, -0.9337383508682251, 0.44312602281570435, 1.2411755323410034, -0.24973748624324799, -0.9893478155136108, 0.8431887030601501, 2.401892900466919, 0.9544386267662048, -0.4538063108921051, 1.1657146215438843, 1.5680278539657593, -0.7773038148880005, 2.178867816925049, 1.5767349004745483, 0.0045444173738360405, 0.5509607195854187, -0.1404656320810318, 0.8235552906990051, 1.6854110956192017, 0.7147858738899231, 2.3857219219207764, 2.457127332687378], [0.5800167918205261, 0.7185903191566467, -2.634598731994629, -0.2197505384683609, 0.949589729309082, 0.6419863700866699, 0.07966772466897964, -1.020613193511963, 2.0931689739227295, 1.1810892820358276, 0.2784360647201538, 0.29741528630256653, 0.37421563267707825, -0.6574462056159973, 1.2847079038619995, -0.0355394221842289, 0.9469389915466309, -0.3333801329135895, -0.01040490623563528, -0.12281329929828644, -0.6347253322601318, -0.7397377490997314, 0.659416913986206, 1.1237889528274536, 0.055698931217193604], [-0.3333764374256134, 0.5158212184906006, 0.023811668157577515, 0.312267541885376, 1.8531415462493896, 0.7120931148529053, 0.25100675225257874, 1.035272479057312, 2.364105224609375, 0.8342726826667786, 2.9771857261657715, 2.4920525550842285, 0.8804059624671936, 0.9563419222831726, -0.04853811860084534, 2.0162720680236816, 0.46775710582733154, -0.18660598993301392, 1.8203080892562866, -0.049490172415971756, 1.32035231590271, 1.3301304578781128, 0.782489001750946, -0.10164246708154678, 0.7126436829566956], [2.69106388092041, 0.9233812093734741, 0.7040412425994873, 2.1621763706207275, 1.3426730632781982, 1.342692494392395, -1.1915627717971802, -0.0631389170885086, 2.649415969848633, 0.5295920372009277, -0.10508770495653152, 2.6765754222869873, 0.8790948987007141, 1.4863231182098389, -1.0350263118743896, 2.044520854949951, 0.17843447625637054, 1.48293936252594, 1.8320932388305664, 0.31836023926734924, -0.9630931615829468, -0.16889631748199463, 1.5341694355010986, -0.18605779111385345, 1.2445348501205444], [3.3172409534454346, 2.5124149322509766, 0.7157235741615295, -1.005876898765564, -0.19653785228729248, -0.011277456767857075, -1.3193261623382568, 1.2437437772750854, -0.16894951462745667, 2.8688461780548096, 0.13496753573417664, 1.0042006969451904, 1.724613070487976, 1.0665416717529297, 1.6582224369049072, -0.33048397302627563, 1.030775785446167, -1.3774112462997437, 0.7952518463134766, 1.1371817588806152, 0.14305751025676727, 1.3444774150848389, 1.048805594444275, 2.141693115234375, 0.9201895594596863], [2.9057998657226562, 2.805190086364746, 1.0924378633499146, 0.45682206749916077, 1.3376330137252808, 2.038759708404541, -0.48124805092811584, 0.4564553201198578, 2.693404197692871, 1.9566092491149902, 1.6858912706375122, 1.137917399406433, 1.916671872138977, -0.5055221915245056, 1.09158456325531, 0.046963486820459366, -1.4749910831451416, 0.19746705889701843, 2.7449772357940674, 1.0503787994384766, 0.9329620599746704, 0.7794416546821594, 2.3020009994506836, 1.8473329544067383, 1.1360185146331787], [2.520820379257202, -0.17714256048202515, 1.6967779397964478, 2.0820298194885254, -0.4918816089630127, 1.7444957494735718, 0.6471222043037415, 0.07963071018457413, 0.6397820115089417, 0.04175329953432083, -0.21404246985912323, -0.26767635345458984, 1.5775283575057983, 1.7461812496185303, -0.6082233786582947, -0.986100971698761, 1.1283557415008545, 0.9054694771766663, 1.3781194686889648, 0.8540233373641968, 0.01816497929394245, 1.3110897541046143, 1.867175579071045, -0.39505547285079956, -1.0211665630340576], [1.2766532897949219, 0.8653424978256226, 1.3487051725387573, 0.35530996322631836, 2.5990424156188965, 0.6713100671768188, 1.6088471412658691, 0.11418110132217407, 0.1524629443883896, 3.7414181232452393, -0.1179947480559349, 0.02551131695508957, 2.082109212875366, 2.290120840072632, 1.601008415222168, 0.332200288772583, 1.0870046615600586, 2.3718411922454834, -0.9419124126434326, 1.1951210498809814, 0.21508881449699402, 0.17839831113815308, -0.022260567173361778, -0.5447998642921448, 0.5190396904945374], [0.5550479888916016, 0.6016011834144592, 1.7932841777801514, 0.2910752296447754, 0.18456335365772247, 0.8660957217216492, -0.208792045712471, 0.07007486373186111, 0.3863590955734253, 0.7328761219978333, 0.5448365807533264, 1.710614800453186, 0.5842146873474121, 0.2576256990432739, 1.0843837261199951, 0.424955278635025, -0.40185442566871643, 2.3735477924346924, -0.5690169334411621, 2.113851547241211, -0.2888173758983612, 1.3590261936187744, 0.4968796968460083, 1.829978585243225, 1.4696072340011597], [-0.29215195775032043, 0.9132444262504578, 1.6523892879486084, -1.4205344915390015, 1.4152779579162598, -0.06002361699938774, 0.1598401665687561, 0.8391611576080322, 0.3042019307613373, 0.6009953022003174, -1.3200925588607788, 1.7883641719818115, 3.641331911087036, -0.4326779246330261, 1.940419316291809, 0.06999336183071136, 0.2855769991874695, 1.790236234664917, -0.07252100110054016, 0.1988627314567566, 0.9469835162162781, 0.42984673380851746, 0.5932604074478149, 0.4288436770439148, -1.5096824169158936], [2.101372241973877, 1.5595684051513672, 1.4394580125808716, 0.38591212034225464, 0.4150448143482208, 1.039438247680664, 1.5022374391555786, 1.7511780261993408, 0.73087477684021, -0.8721669316291809, 0.9296538829803467, 0.890670120716095, -0.016152113676071167, 2.266209125518799, 1.6324647665023804, 2.0307810306549072, 0.4862056076526642, 0.831205427646637, 0.4467378556728363, 0.6321364045143127, 0.4091821610927582, 2.0002596378326416, 1.562310814857483, 2.8910582065582275, -0.4424382448196411], [0.2075917273759842, 1.391917109489441, 2.532118797302246, 1.7036176919937134, 2.417678117752075, 0.7925612330436707, 0.294439435005188, 0.6612817049026489, 0.3228675127029419, 0.7752905488014221, 0.7685789465904236, -0.34560486674308777, 2.4687278270721436, 2.906862258911133, 1.2810205221176147, -0.25014498829841614, 0.3557593524456024, 1.422209620475769, -0.8369045257568359, -0.2956310212612152, 0.9857399463653564, 0.38371148705482483, 1.1826969385147095, 0.20512594282627106, 1.5262175798416138], [1.3217538595199585, 1.1333279609680176, -0.0652046874165535, 0.11623509973287582, 1.455461025238037, 0.7517760396003723, 1.0426362752914429, 1.2120596170425415, 0.04011166840791702, 0.7765153646469116, 0.580276370048523, 1.7914286851882935, 0.62529057264328, 1.6665900945663452, 0.46384936571121216, -1.3052655458450317, 2.1170082092285156, 1.5302605628967285, 0.28821495175361633, 0.7169322371482849, 0.8974342942237854, 0.7913097143173218, 0.903256893157959, 2.115325927734375, 0.183976411819458], [1.5952870845794678, -0.1364823430776596, 1.4577885866165161, -0.2840449810028076, 0.05542084202170372, 0.7429360151290894, 0.7265538573265076, 1.0887423753738403, 2.710465431213379, 1.776686429977417, 0.7722871899604797, 1.606492519378662, 1.7300400733947754, 2.0175750255584717, 0.9388870000839233, 1.1590673923492432, 2.8871028423309326, 1.0245417356491089, -0.04817545786499977, 0.9883272647857666, -0.04817776381969452, 2.837416172027588, 0.7136805057525635, 0.9601914882659912, 1.5112555027008057], [1.984796166419983, -0.11432161182165146, 0.3335546851158142, 1.9083195924758911, 1.1544163227081299, -0.21513158082962036, 0.4384329617023468, 1.0335525274276733, 1.9574191570281982, 1.6273611783981323, 1.1371523141860962, -0.6062156558036804, -1.0313482284545898, 2.7864389419555664, 0.2810056209564209, 0.04214808717370033, 1.7151819467544556, 1.2787796258926392, 0.972206711769104, -0.7294818162918091, 0.2377098798751831, 2.2502102851867676, 1.1873003244400024, -0.951797366142273, 1.0606497526168823], [0.6847612857818604, 2.0804901123046875, 2.6391568183898926, 1.575805902481079, 1.1703989505767822, 0.2992314398288727, 1.4447863101959229, 0.5712528824806213, 1.7479366064071655, 3.1344733238220215, 2.1381566524505615, 1.3204433917999268, 1.7306432723999023, 2.4758217334747314, 2.1899685859680176, 1.4253770112991333, 0.6989554762840271, 0.5961247682571411, 1.9799456596374512, -0.11788419634103775, 1.2251784801483154, 1.337491512298584, 1.750516414642334, 1.3460949659347534, -0.008113289251923561], [0.6036852598190308, 1.0738509893417358, 2.248260736465454, 0.5811418294906616, 1.9696422815322876, 2.66259765625, -0.3055335581302643, 1.4948675632476807, 0.8764764070510864, 0.4872106611728668, 1.5666141510009766, 0.9806230068206787, 0.9780583381652832, 0.8263816833496094, -0.2527927756309509, 0.8644538521766663, -0.607545793056488, 1.5379177331924438, -0.689224898815155, -0.8883737325668335, 0.8813179135322571, 1.5883541107177734, 0.7560870051383972, 1.6049742698669434, 0.1470356434583664], [0.01627516746520996, 1.2473578453063965, 1.4483450651168823, 2.918203353881836, 0.039041124284267426, 0.6101181507110596, 0.5476143956184387, 0.9908774495124817, 1.66328763961792, 2.5634303092956543, 2.430661678314209, 2.355177164077759, -1.6391031742095947, 3.0952069759368896, 2.329789400100708, 0.7696132659912109, -0.6383393406867981, 1.7563196420669556, -0.4309071898460388, 0.25612229108810425, 0.32436612248420715, 2.556478500366211, 1.9823696613311768, 0.36600252985954285, 1.7529746294021606]], "out_features": 25, "has_bias": true, "type": "dense", "bias": [0.5252331495285034, 0.8616693019866943, 1.011059045791626, -0.103394515812397, 1.8537474870681763, -1.195534110069275, -0.7053393125534058, 1.963744044303894, 0.5958019495010376, 2.042259693145752, -0.153534397482872, -0.7978942394256592, 0.48249638080596924, 0.5948554277420044, 1.5836282968521118, 0.5740610361099243, 1.2096513509750366, -0.36722952127456665, 2.017627716064453, 0.11642155796289444, -0.035857271403074265, 2.4853391647338867, -0.42824965715408325, -0.40199464559555054, -0.15455208718776703], "name": "trainable_4"}, {"type": "tanh", "name": "activation_5"}, {"in_features": 25, "weights": [[2.5094101428985596, -0.08775997161865234, 1.1678121089935303, 0.004718071781098843, -0.5535978674888611, 1.6956396102905273, 1.1788996458053589, 1.0020192861557007, -0.9541618227958679, 0.1874806135892868, -0.3143882751464844, 0.6533472537994385, 1.62541663646698, -0.2439735382795334, 0.5895244479179382, -0.16908825933933258, 1.2313482761383057, 2.1662118434906006, 0.3225688934326172, -1.093483328819275, -0.13400769233703613, 1.0328161716461182, 1.479115605354309, 0.9154568314552307, 0.8593986630439758], [1.4742780923843384, 0.7629722952842712, -0.5930731296539307, 0.8625783920288086, 2.0350401401519775, 1.4622061252593994, 0.6005118489265442, -1.139120101928711, 0.2881804406642914, 3.008491039276123, 0.6913970112800598, 1.6127090454101562, 0.20204709470272064, 0.8617804646492004, 0.3157844841480255, 0.23681209981441498, 1.9306809902191162, 0.2840880751609802, -1.3595949411392212, 3.0087637901306152, 1.0025252103805542, 2.2034287452697754, 2.8695034980773926, 0.6201059222221375, 0.14368483424186707], [0.7786145806312561, 0.9915945529937744, -0.547143816947937, 0.222212553024292, 0.814790666103363, -0.30015313625335693, 1.4488141536712646, 1.3922934532165527, 1.775246262550354, 1.9498262405395508, 1.5005594491958618, 0.6581165194511414, 1.0147801637649536, 1.1722923517227173, 1.6363804340362549, 0.8248116970062256, 1.3018807172775269, 2.439331531524658, 2.6327390670776367, 0.7068734169006348, 1.443101167678833, 0.8453564643859863, 0.7530940175056458, -0.6063432097434998, 1.205055594444275], [1.3149442672729492, 0.7948704957962036, 2.7298238277435303, 1.5207768678665161, 2.482553005218506, 0.6605242490768433, 1.3526531457901, -0.46397680044174194, -0.18324331939220428, 0.6300150752067566, -0.30588293075561523, 1.8688037395477295, 2.232741117477417, 1.1150691509246826, -0.20924012362957, 1.0354102849960327, 0.7791171669960022, 3.3612473011016846, 0.5364940166473389, 1.7929775714874268, 1.485750675201416, 0.7737155556678772, 0.43577688932418823, 1.4974076747894287, 1.6190297603607178], [1.0881377458572388, 1.2254233360290527, 1.0533907413482666, 1.5321592092514038, 1.0735077857971191, 1.4012988805770874, 0.6082407832145691, 0.19110693037509918, 1.4777171611785889, 1.228714942932129, 1.1905806064605713, 1.6426305770874023, 2.239797592163086, -2.5651869773864746, -0.10759744793176651, 0.18699787557125092, 1.2149875164031982, -0.056356579065322876, 2.9291505813598633, 2.295872449874878, 3.8236732482910156, 1.6563448905944824, 2.4495956897735596, 1.999064564704895, -0.25327643752098083], [1.7997239828109741, 0.6155754923820496, -0.4673908054828644, 0.5573087930679321, 1.997105598449707, 1.0465972423553467, 1.159919023513794, 1.3275288343429565, 0.6053399443626404, 0.8217901587486267, 0.574663519859314, 1.2441322803497314, 1.897167682647705, 0.05686434358358383, 0.16086189448833466, 1.5674669742584229, 0.5807347297668457, 0.5714101791381836, 0.5573545694351196, 1.4541743993759155, 2.0248641967773438, -0.334757924079895, 0.35759347677230835, -0.7173769474029541, 0.7937356233596802], [3.2462284564971924, 1.155057430267334, 0.9797300100326538, -0.16261444985866547, 0.8088651895523071, 1.146798014640808, 1.2147932052612305, -0.5302649736404419, 1.6783843040466309, 0.2877916991710663, -0.6965176463127136, 3.0424702167510986, 0.7983653545379639, 2.092386484146118, 0.24271300435066223, 1.7438371181488037, 0.4936515986919403, 1.0180084705352783, 1.2403429746627808, 1.1014206409454346, 1.156227707862854, 3.591658115386963, 1.0014840364456177, 0.7537567019462585, 2.1724913120269775], [0.1021987795829773, 1.7284313440322876, -2.0514237880706787, 0.621216356754303, 1.0056332349777222, 2.2557265758514404, 0.8985421061515808, 1.3157726526260376, 1.4297823905944824, 2.0307276248931885, 0.923349916934967, 1.3230913877487183, 0.6412263512611389, 0.635421633720398, 2.7031476497650146, -0.06976530700922012, 1.8270747661590576, 0.7398518919944763, 2.7888143062591553, -0.16632626950740814, 1.5199073553085327, 1.108217716217041, 2.398759126663208, 0.589948832988739, 1.6557567119598389], [0.9010977745056152, -0.1259920597076416, 2.4652466773986816, 0.7800036072731018, 2.177496910095215, -0.3041437268257141, 1.040084958076477, 0.5400546193122864, -0.7828009128570557, -1.6636260747909546, 1.703336477279663, -0.15120936930179596, 2.5947163105010986, 0.737278938293457, 0.7071780562400818, 1.4219781160354614, -0.06528298556804657, 1.848982572555542, -1.8686542510986328, -0.3276098966598511, 0.9488077163696289, -1.4074126482009888, -0.15749283134937286, 1.4332633018493652, 1.3102794885635376], [1.4182181358337402, -0.5376124382019043, 2.624830961227417, 1.4875235557556152, 2.083918809890747, 1.2346552610397339, 1.38210129737854, 0.8611428141593933, 2.5448408126831055, 0.7917966842651367, -0.19752003252506256, 1.1693387031555176, 1.0932220220565796, 0.2810351252555847, 2.2292075157165527, 1.7337336540222168, 1.1570508480072021, 1.0064949989318848, 1.8358430862426758, 0.05389532819390297, 2.4551196098327637, 0.7942489981651306, 2.318686008453369, -0.8716880083084106, 0.37208881974220276], [1.1756397485733032, 2.3017640113830566, 1.6550471782684326, 1.2985267639160156, 0.9493420124053955, 1.0734063386917114, 2.538539409637451, 0.8872944712638855, 0.9214115738868713, 1.1396563053131104, 1.68705415725708, 1.433993935585022, 1.367826223373413, -1.0650389194488525, 1.515849232673645, -1.4190870523452759, 1.5187596082687378, 0.6606013178825378, 0.23093947768211365, 1.1074620485305786, 2.4883878231048584, 1.4613913297653198, 2.5325424671173096, 3.031926393508911, 0.4115259647369385], [0.7116156220436096, 2.344519853591919, 2.6561331748962402, -0.0006442985613830388, -0.5055249929428101, 1.352286696434021, 0.3909059464931488, 1.8132030963897705, 0.8122677803039551, 1.6442914009094238, 2.331354856491089, 0.3328726589679718, 1.3112843036651611, 0.3091070353984833, 1.5176416635513306, 1.0225389003753662, 1.3455932140350342, 1.4168659448623657, -1.4665155410766602, 2.51015305519104, 1.8438308238983154, 1.3851656913757324, 1.1582117080688477, 1.425446629524231, -0.550562858581543], [0.9780192375183105, 0.0910818800330162, 0.15970654785633087, 0.21142561733722687, -0.18091534078121185, 2.4442126750946045, 0.6036323308944702, 0.37420305609703064, -0.5331407785415649, 1.7562583684921265, 1.7009040117263794, -0.14322338998317719, 0.6917167901992798, 1.3522428274154663, 2.1019837856292725, -2.3697352409362793, 2.805440664291382, 3.0943424701690674, 0.24335917830467224, 0.23959608376026154, 0.9252798557281494, 0.018942836672067642, 1.5328611135482788, -0.6581799387931824, -0.8975622057914734], [2.677233934402466, 0.637654185295105, 0.1407897174358368, 0.35275211930274963, 0.03819550946354866, -0.0579247884452343, 0.6007627248764038, 0.07822798192501068, 0.8867179155349731, 0.48596665263175964, -0.027304474264383316, 0.8954107761383057, -0.7324394583702087, 0.18328417837619781, 0.4307221472263336, 2.3104238510131836, -0.2697261869907379, 2.025902271270752, 0.5503367781639099, 0.8542741537094116, 1.1887060403823853, 1.0209729671478271, 3.1148624420166016, 2.3960514068603516, 0.30082640051841736], [0.5458189249038696, 0.9921486377716064, 1.780063271522522, 0.3155740201473236, -0.6898426413536072, -0.3085220158100128, 0.6173052191734314, 2.535895824432373, 1.8170875310897827, 2.5514018535614014, 0.4190986454486847, 1.803018569946289, 1.2504346370697021, 0.9096196293830872, 0.8575841188430786, 2.5176942348480225, 0.17233097553253174, 0.5921222567558289, 0.7082367539405823, 1.0241971015930176, 1.7292380332946777, 0.9011472463607788, 0.3033660352230072, 1.443617820739746, 1.2183078527450562], [2.238020420074463, 0.6480286121368408, 0.3507964015007019, 1.0484864711761475, 1.379711389541626, 1.5596356391906738, 1.5826658010482788, -0.19285207986831665, 0.34670135378837585, 4.064661979675293, 1.3246331214904785, 1.874475121498108, 0.5204009413719177, 0.9400128126144409, 1.5643326044082642, 1.7893342971801758, 0.07033906877040863, 1.7780894041061401, 0.48716431856155396, 1.4123319387435913, 1.4054268598556519, 1.9573935270309448, 1.9991811513900757, 2.132875919342041, -0.38549765944480896], [0.335971474647522, 1.4065446853637695, 0.47134873270988464, 0.8371472954750061, 0.1483522355556488, 0.5488705039024353, 0.9436737895011902, 1.003530740737915, -0.34748536348342896, 0.6441306471824646, 0.6801753640174866, -0.1930098980665207, 1.9994516372680664, 0.6948110461235046, 0.3657497763633728, 2.7472105026245117, 0.48473361134529114, 2.928532600402832, -0.044735658913850784, 1.1539278030395508, 0.6699483394622803, 1.0353590250015259, 1.37282395362854, -0.10435473173856735, 0.7065693140029907], [2.1021430492401123, 1.457594633102417, 1.2928047180175781, 1.0525034666061401, -0.3982858657836914, 0.1395641714334488, 1.8847440481185913, 0.5215306282043457, 2.0683183670043945, -0.08474250137805939, -0.471993088722229, 0.7422491312026978, -0.15026232600212097, 0.8364224433898926, -0.13416770100593567, 1.1513484716415405, 0.20702916383743286, 1.8223034143447876, 1.4774249792099, 0.32311737537384033, 0.7852713465690613, 0.7064031362533569, 1.0752688646316528, 0.6193342804908752, 0.1321943998336792], [0.16546306014060974, 1.4058864116668701, 0.30033114552497864, 1.170855164527893, 1.0253573656082153, 1.9209926128387451, 1.4554061889648438, -1.3947325944900513, 0.6276029944419861, 0.37908032536506653, 1.4493787288665771, 3.8893585205078125, 0.1667030304670334, 1.5095545053482056, 1.225170612335205, -0.3087698817253113, 0.3830176293849945, -0.35217228531837463, -0.12420099228620529, -0.47488483786582947, -0.22545166313648224, -0.39560213685035706, 1.350460171699524, -0.6251088976860046, -0.2856670320034027], [-0.10735011100769043, 1.082785725593567, 0.32412612438201904, -0.45538485050201416, 1.5012887716293335, 1.2271933555603027, 1.1489078998565674, 1.888516902923584, -0.12425179779529572, -0.16621580719947815, 1.5714640617370605, -0.5411168336868286, -0.06793812662363052, -0.4931239187717438, 0.3085002303123474, 1.123711347579956, 0.27590253949165344, -0.4091297388076782, -0.8763874173164368, 1.4261442422866821, 1.2986347675323486, 1.427829384803772, 1.8174173831939697, 0.4972212016582489, 2.913555860519409], [-0.38614675402641296, 0.06786737591028214, 1.1311228275299072, 1.341573715209961, 1.3459535837173462, -0.054605625569820404, 1.3865182399749756, 2.1383533477783203, 0.9764881134033203, 3.2568917274475098, -1.3582038879394531, 0.414591908454895, 1.992362141609192, 0.3968699872493744, 0.030356591567397118, 2.014169692993164, 0.5578870177268982, -1.0702791213989258, 1.828151822090149, 0.57068932056427, 0.6484953165054321, 2.111762046813965, 0.38875406980514526, -0.14156073331832886, 0.3333885371685028], [1.0955588817596436, 1.8691810369491577, 0.9068785309791565, 1.523166537284851, 1.511979103088379, -0.4124245345592499, 1.4793705940246582, 1.2695460319519043, 0.8294885754585266, 1.5506041049957275, 0.8126801252365112, 0.9292017817497253, 1.4705665111541748, -0.3527538776397705, 0.6219959259033203, -1.3918439149856567, 0.6491789817810059, 0.8845672607421875, -0.8402718901634216, 0.38171911239624023, 2.967376708984375, 1.08958899974823, 1.0779136419296265, -0.5300211906433105, 2.2194271087646484], [1.3769190311431885, 0.8484615683555603, -0.8879757523536682, 0.9468120336532593, 0.6677985787391663, 0.9763418436050415, -0.480627179145813, 1.2114254236221313, -0.058594197034835815, 0.7259774208068848, 1.2060844898223877, 0.34921929240226746, 1.064145803451538, 1.37758469581604, 1.236388087272644, 1.2578438520431519, 0.4033009707927704, 1.5336095094680786, -0.4914339780807495, 0.19986291229724884, 2.247464656829834, -0.2865932881832123, -0.3762228488922119, -0.42790648341178894, 1.5803035497665405], [0.4846906065940857, 1.1229559183120728, 1.4814573526382446, 4.189986228942871, -2.156855344772339, 1.2018412351608276, 2.8958709239959717, 2.0399420261383057, 0.9483440518379211, 1.3563693761825562, 0.08134249597787857, 1.6722427606582642, 1.8800392150878906, 0.9366748929023743, 2.7390668392181396, 1.5095404386520386, 2.912886381149292, -0.32041987776756287, 1.9082205295562744, 2.5049149990081787, 1.6832741498947144, 1.1676524877548218, 1.197978138923645, 0.47734519839286804, 0.2738964855670929], [0.7121061086654663, 0.6326934099197388, 2.9305877685546875, 1.1014844179153442, 2.382864236831665, 1.4157650470733643, 1.6931450366973877, -0.4350288510322571, 2.8064887523651123, 0.09671420603990555, 0.2012302428483963, 0.9320633411407471, 0.9409679174423218, 1.071500301361084, 3.1208550930023193, 2.093278169631958, 2.115403890609741, 2.7511556148529053, 1.153124213218689, 1.492069959640503, 0.9742555022239685, 0.691969096660614, 1.5516468286514282, 1.443502426147461, -0.5308072566986084]], "out_features": 25, "has_bias": true, "type": "dense", "bias": [2.009059190750122, 0.9404309391975403, 0.38364270329475403, 0.838408887386322, 1.4008804559707642, -0.30249473452568054, 1.7438217401504517, 1.4858835935592651, -0.8751770853996277, -0.0325782373547554, 2.0760562419891357, -0.12221629917621613, 1.0602530241012573, 0.8051820397377014, 2.462867021560669, -1.3258484601974487, 0.400055855512619, 1.5814288854599, 1.625717043876648, 2.5448648929595947, -0.18407776951789856, 1.056238055229187, 2.8378899097442627, 1.0248786211013794, 1.7622557878494263], "name": "trainable_6"}, {"type": "tanh", "name": "activation_7"}, {"in_features": 25, "weights": [[0.5764629244804382, 1.5052127838134766], [0.6128530502319336, -0.3510224223136902], [0.6716870665550232, 0.22274667024612427], [1.323911190032959, 1.7750929594039917], [1.571402907371521, -0.24450550973415375], [-0.19656586647033691, -0.1733020842075348], [1.7037153244018555, 3.116436243057251], [1.208870768547058, 0.46573665738105774], [1.817690372467041, 2.3978230953216553], [-1.4082142114639282, 1.2761229276657104], [2.015092372894287, 1.573096513748169], [2.965437650680542, 0.46403756737709045], [0.018892111256718636, 0.5781331062316895], [0.7853053212165833, 1.3832943439483643], [0.6550145149230957, 1.2837567329406738], [1.3381166458129883, 1.6761195659637451], [0.6860696077346802, 0.1350509077310562], [1.5640921592712402, 0.8456372618675232], [3.1324734687805176, 3.4596338272094727], [1.9765033721923828, 0.842464804649353], [-0.8155146837234497, 1.459162712097168], [0.19177542626857758, 0.26908254623413086], [1.2406367063522339, 0.534139096736908], [0.012705693952739239, -0.5172703266143799], [0.7231965065002441, 1.7254365682601929]], "out_features": 2, "has_bias": true, "type": "dense", "bias": [-1.2579103708267212, 1.2931932210922241], "name": "trainable_8"}, {"type": "tanh", "name": "activation_9"}, {"type": "mse", "name": "criterion_10"}]}