{"test_accuracy": 0.826, "layers": [{"type": "dense", "has_bias": true, "in_features": 2, "weights": [[-18.813501358032227, -2.3440091609954834, 17.9823055267334, 4.776251792907715, -28.19935417175293, 12.780630111694336, 4.907764911651611, 7.012772083282471, -10.3566312789917, 11.71571159362793, -16.688329696655273, 8.274859428405762, 13.76561164855957, 1.5169404745101929, 22.486122131347656, -16.801298141479492, 8.831951141357422, 12.808416366577148, 18.091197967529297, 2.2582082748413086, 0.07038956880569458, 5.967332363128662, 20.056381225585938, 14.501155853271484, -2.8886775970458984], [12.244149208068848, -30.697412490844727, 16.524459838867188, 2.6762688159942627, -12.879124641418457, 10.52104377746582, 5.150623321533203, 4.943671703338623, 1.8551247119903564, 12.455286026000977, -0.12575343251228333, 7.28908109664917, 13.442854881286621, -22.14118766784668, 15.300642967224121, 2.3249809741973877, 9.295162200927734, 6.34224796295166, 17.28644561767578, 0.054485149681568146, -18.652128219604492, 6.478646278381348, 19.133487701416016, 12.79037857055664, -0.7862067222595215]], "name": "trainable_0", "bias": [13.254340171813965, 12.172642707824707, 13.653170585632324, 15.28467845916748, 13.039168357849121, 14.104704856872559, 13.663323402404785, 14.537812232971191, 12.103533744812012, 11.97594928741455, 15.45482349395752, 14.691527366638184, 13.907658576965332, 14.145894050598145, 14.218396186828613, 13.090270042419434, 13.848435401916504, 14.59645938873291, 12.892327308654785, 12.454197883605957, 15.104599952697754, 14.447577476501465, 13.131796836853027, 12.774313926696777, 10.862858772277832], "out_features": 25}, {"type": "tanh", "name": "activation_1"}, {"type": "dense", "has_bias": true, "in_features": 25, "weights": [[7.274989128112793, 5.126297950744629, 2.73883318901062, 3.344818115234375, 7.588200569152832, 1.399993896484375, 3.756958484649658, 11.358073234558105, 4.7098002433776855, 0.27260270714759827, 9.682025909423828, 7.971772193908691, 4.079399585723877, 8.33254337310791, 5.6952314376831055, 9.047445297241211, 8.459224700927734, 9.778655052185059, 2.7963175773620605, 4.981164932250977, 7.554764270782471, 4.554969310760498, 2.34344220161438, 5.025148391723633, 7.310910224914551], [-10.604076385498047, -3.8916966915130615, -5.442285060882568, -2.7594757080078125, -5.22170877456665, 0.2949649393558502, -3.983084201812744, -7.8337016105651855, -4.162202835083008, 0.43954354524612427, -16.21863555908203, -5.098148822784424, -6.882399559020996, -8.120145797729492, -4.975566387176514, -9.834038734436035, -11.466238975524902, -8.763754844665527, -5.034343719482422, -4.887221336364746, -10.546768188476562, -5.870151042938232, -7.560733795166016, -5.195000648498535, -7.380447864532471], [0.7798815965652466, -2.5477969646453857, -0.49132266640663147, 0.06848139315843582, -3.5726795196533203, 1.1299301385879517, -1.1871260404586792, -0.24762746691703796, -3.242340087890625, 1.579133152961731, 1.4066393375396729, 0.8800036907196045, 1.3214573860168457, 1.5090233087539673, -0.2193705290555954, -2.008354663848877, -1.6760821342468262, -4.096162796020508, -0.4057302474975586, 0.7366681694984436, 0.5044053196907043, -2.8943772315979004, -1.6324515342712402, 0.8467928171157837, -1.2890502214431763], [2.2556588649749756, -1.8442294597625732, -1.7480813264846802, -0.3024936020374298, -0.6739416122436523, -0.9149889349937439, -1.5981041193008423, -1.703379511833191, -1.1578794717788696, 1.602929949760437, 1.2458970546722412, -0.3432466685771942, 0.9291208982467651, 0.7066231966018677, -1.0412126779556274, -2.5997464656829834, -0.755274772644043, -3.009235143661499, 0.2713395357131958, 0.11325477063655853, 0.5322942733764648, -1.8461214303970337, -0.7819708585739136, 1.797448754310608, 0.4937087893486023], [-15.508994102478027, -11.08737850189209, -7.619274139404297, -8.225800514221191, -8.539271354675293, -1.4383466243743896, -9.761825561523438, -14.91914176940918, -13.727327346801758, -2.7645175457000732, -16.54511260986328, -12.864940643310547, -5.877196311950684, -10.386274337768555, -10.83900260925293, -11.306989669799805, -8.661835670471191, -15.025091171264648, -3.7328357696533203, -4.883364677429199, -15.430072784423828, -11.925024032592773, -2.3952889442443848, -9.952689170837402, -9.697467803955078], [0.6315864324569702, -2.4991981983184814, 0.5507384538650513, 0.5580542087554932, -1.6451525688171387, 2.9110727310180664, -0.6523720026016235, 0.3447140157222748, -2.8796029090881348, 0.3709612488746643, -0.42584770917892456, 0.013401545584201813, 1.3130924701690674, 0.08968636393547058, -0.45309963822364807, -1.9017043113708496, -0.673675537109375, -2.784212350845337, 1.4172064065933228, -0.03022429160773754, 1.2708097696304321, -0.8499231934547424, -1.9684340953826904, -0.6369181871414185, -3.0625336170196533], [3.0534698963165283, -3.462578535079956, -2.9514362812042236, 0.0005121587309986353, -1.5095815658569336, 2.126771926879883, -1.306127905845642, -1.498794674873352, -1.5985153913497925, 1.3890804052352905, 0.21651846170425415, 1.520492672920227, 0.11896474659442902, -2.0180957317352295, 0.6662724018096924, -2.020674228668213, -0.2741720676422119, -2.4081461429595947, 1.0211433172225952, -0.7233081459999084, 3.1885931491851807, -1.8443769216537476, 1.1427271366119385, 1.3374460935592651, 0.0341188982129097], [3.3942673206329346, -2.2195088863372803, -2.0153143405914307, 1.3804850578308105, -1.9076330661773682, 1.5367156267166138, -1.8934661149978638, -0.6240410208702087, -2.3755855560302734, 2.700103521347046, -0.04511416703462601, 0.9141061305999756, 2.7990221977233887, -1.3173562288284302, 0.3609674870967865, -2.555889844894409, -0.07024382799863815, -4.432265281677246, -0.026119301095604897, 2.8523380756378174, 1.051719307899475, -0.5751617550849915, -0.8454329967498779, 2.022351026535034, 0.049148645251989365], [-2.319173574447632, 2.715618133544922, -0.6569105386734009, 0.496553897857666, -0.49780115485191345, -1.8052818775177002, 1.0630881786346436, 0.9784782528877258, 0.7829740047454834, -1.3729822635650635, -3.1127476692199707, 0.1396859884262085, -1.163874864578247, 0.42530426383018494, -3.2448182106018066, -0.14337728917598724, -2.5284340381622314, 2.454002618789673, -0.4216953217983246, -0.8382344245910645, -3.0829854011535645, 0.2179105579853058, -1.0032124519348145, -0.1881067305803299, -0.7385892868041992], [0.6645388603210449, -0.2892810106277466, -0.7725324630737305, -0.07392793148756027, -2.2389755249023438, 2.165428638458252, -1.6867831945419312, -1.590039849281311, -1.9132729768753052, 1.9350236654281616, -0.6983525156974792, 0.17251332104206085, 1.2321250438690186, -1.5029650926589966, -0.8196861743927002, -2.867969274520874, 0.5807610750198364, -1.8721261024475098, -0.1523365080356598, 2.2298033237457275, -1.101556420326233, -2.1610770225524902, -1.1892759799957275, -0.8899620771408081, -0.22204375267028809], [8.038965225219727, 4.314590930938721, 5.7311906814575195, 5.915802001953125, 3.032334804534912, 2.5195631980895996, 5.170116424560547, 7.998977184295654, 4.448789119720459, 1.8359397649765015, 13.178505897521973, 4.246634006500244, 4.778021335601807, 7.002508163452148, 4.809647083282471, 6.209538459777832, 8.436260223388672, 6.3518805503845215, 2.8482258319854736, 3.114346504211426, 8.360733985900879, 5.811334133148193, 5.575502872467041, 4.754888534545898, 7.022419452667236], [2.9278767108917236, -2.1065833568573, -2.5798118114471436, -0.4119391143321991, -0.05087299272418022, 1.6263536214828491, -1.7732311487197876, -2.113490581512451, -3.8084630966186523, 1.804730772972107, -0.2991052269935608, 1.2473937273025513, 2.2453083992004395, 0.31709104776382446, -0.004421093501150608, -1.975890874862671, -0.04367394745349884, -2.7864348888397217, 2.7579057216644287, 2.110907793045044, 2.6656367778778076, -2.1238021850585938, -0.7035877704620361, 3.269939661026001, -2.3637468814849854], [0.04641832411289215, -2.802255868911743, -3.3737833499908447, 2.5507497787475586, -2.169480323791504, 1.5639039278030396, -1.274232268333435, -0.9290370345115662, -2.8260374069213867, 1.7196327447891235, 0.09692629426717758, 2.612626552581787, 0.6457259654998779, -1.0880759954452515, 0.21772100031375885, -2.075401544570923, -0.04744778573513031, -2.012424945831299, 1.3922139406204224, 1.2344996929168701, 0.9333831071853638, -2.5105762481689453, -0.5325499773025513, 1.165568470954895, -2.1953999996185303], [3.9436190128326416, 2.2765727043151855, 2.58925461769104, 1.535542607307434, 3.3521006107330322, 2.1777143478393555, 2.3054044246673584, 3.4421465396881104, 4.329729080200195, -0.8010989427566528, 10.283584594726562, 1.6040542125701904, 2.06551194190979, 2.69730281829834, 2.9922714233398438, 3.981043815612793, 8.762715339660645, 4.605607509613037, 3.2304160594940186, 1.3389859199523926, 3.914793014526367, 2.4135289192199707, 10.299905776977539, 2.6440858840942383, 4.92362642288208], [0.35580646991729736, -1.3481323719024658, -1.3864983320236206, -0.6306692361831665, -1.7265942096710205, -0.2672775685787201, -2.3645777702331543, -1.7961233854293823, -0.7282747626304626, 2.4569509029388428, -1.2154364585876465, 1.8163236379623413, 0.6618597507476807, 0.5725376605987549, 1.2686847448349, -2.022979259490967, -2.9391419887542725, -3.1360700130462646, 2.3198535442352295, 1.5492444038391113, 2.3854544162750244, -2.9199142456054688, -0.2593134343624115, 1.5373204946517944, -3.0672428607940674], [4.710546970367432, 2.799959421157837, 1.8786365985870361, 3.002789258956909, 2.332916021347046, 0.7250524163246155, 2.9002819061279297, 5.849099159240723, 2.3238775730133057, 0.2241963893175125, 8.844215393066406, 4.153133869171143, 2.9169857501983643, 5.506288528442383, 1.5328489542007446, 4.039990425109863, 4.440713882446289, 3.961275577545166, 1.3452868461608887, 3.518749237060547, 6.576232433319092, 1.8904718160629272, 3.555840492248535, 2.675457239151001, 3.025812864303589], [2.1010448932647705, -1.6008269786834717, -1.126083254814148, -0.3813945949077606, -0.8643189668655396, 0.12660850584506989, -2.788893699645996, 0.16861940920352936, -3.6594138145446777, -0.25495514273643494, 0.20102724432945251, 4.244226455688477, 2.1039204597473145, -0.020297270268201828, 0.5577348470687866, -4.257132530212402, -1.1188766956329346, -3.8945491313934326, 0.2765248417854309, 0.36356693506240845, 0.8694196939468384, -1.2225703001022339, -0.5574033260345459, 0.5264403820037842, 0.10962945967912674], [1.3265475034713745, -1.1378073692321777, -0.2583881914615631, 1.5983333587646484, -2.233199119567871, 1.6581460237503052, -1.668122410774231, -0.7548686861991882, -1.7381619215011597, 2.6089184284210205, 0.02870047092437744, 3.8531527519226074, -0.6089589595794678, -0.034111060202121735, 2.1723246574401855, -4.1192626953125, -1.9202632904052734, -5.439632415771484, 1.0842088460922241, 2.2010304927825928, 2.451486825942993, -1.528586983680725, -0.8987274169921875, 1.6888145208358765, 0.05410459637641907], [1.5593334436416626, -1.923574686050415, -0.8364033699035645, 1.7344856262207031, -0.8550879955291748, 1.1023005247116089, -2.983635425567627, -2.4660255908966064, -1.4013117551803589, 0.8920108675956726, -0.29619938135147095, 0.6320517063140869, 1.4773223400115967, 0.568166971206665, 0.7419430017471313, -3.2825443744659424, -2.3403608798980713, -1.905456304550171, 0.2245337963104248, 1.30576753616333, 0.7933508157730103, -2.1544995307922363, -0.5791751146316528, 1.1480120420455933, -2.302300214767456], [0.7032463550567627, 0.22978273034095764, -1.7042514085769653, 1.2147923707962036, -2.7381715774536133, 0.6105453372001648, -0.9209362268447876, -1.0816473960876465, -2.434877395629883, -0.35840046405792236, 1.4203791618347168, 2.9963231086730957, -0.6518871784210205, 0.874663233757019, 0.8446570634841919, -1.8570942878723145, -1.6443970203399658, -0.6279472708702087, 1.0122041702270508, 1.084055781364441, 1.4842876195907593, -1.8609009981155396, -0.9006483554840088, 0.7610507011413574, -0.8773847222328186], [11.587852478027344, 9.37291431427002, 6.271698474884033, 5.744173049926758, 9.951089859008789, 0.04289434850215912, 7.238514423370361, 16.03627586364746, 10.65951919555664, 3.073636054992676, 15.492012977600098, 7.169369697570801, 5.3932976722717285, 11.933061599731445, 8.432254791259766, 10.52795696258545, 7.6554460525512695, 11.734411239624023, 3.3012168407440186, 5.410737037658691, 11.671961784362793, 8.172258377075195, 2.7439191341400146, 7.9235310554504395, 8.56420612335205], [0.6432347297668457, -3.617605447769165, -0.6661801338195801, 0.6517906188964844, -0.8837065696716309, 1.7629512548446655, -2.291166305541992, -1.998956322669983, -3.344132900238037, 0.49544525146484375, -1.097461223602295, 0.701830267906189, 0.5451759099960327, 1.1130346059799194, 0.7273198366165161, -2.9167368412017822, -0.3653460741043091, -0.6966329216957092, 2.0357255935668945, 0.05765437334775925, 1.0913392305374146, -1.6337577104568481, 0.989344596862793, 1.8137255907058716, -0.1364738494157791], [1.4525872468948364, -2.4457414150238037, -2.519763708114624, 2.541321277618408, -1.5812969207763672, 1.3912564516067505, -1.2484382390975952, -1.811832308769226, -1.7021855115890503, -0.15514317154884338, 1.6279568672180176, -1.532833456993103, 1.6559150218963623, -1.0909430980682373, 0.6721222400665283, -2.1550490856170654, -1.6445696353912354, -4.037395477294922, 1.1531277894973755, -0.6812513470649719, 2.4116885662078857, -2.9146170616149902, -1.5269923210144043, -0.40628156065940857, -1.648943543434143], [1.8234349489212036, -1.9919952154159546, 0.10716203600168228, 1.2022006511688232, -3.428131103515625, 1.658199429512024, -0.4923056960105896, -1.4917761087417603, -1.4620884656906128, 0.7565680146217346, 0.9914970397949219, 0.4582361876964569, 0.013436416164040565, -1.5328623056411743, 1.4072564840316772, -2.4446065425872803, -0.4308616518974304, -4.496114730834961, 0.0809408500790596, 1.9874389171600342, 2.162196397781372, -0.9695308804512024, 0.6310200691223145, -3.8172285556793213, -1.976859450340271], [-2.421015977859497, -1.593558669090271, 1.8863518238067627, -3.277660608291626, 0.6874504089355469, 0.06762444972991943, 0.16085369884967804, -1.5796914100646973, -1.183335304260254, -1.9151508808135986, -0.7376496195793152, -2.8033499717712402, 2.0571541786193848, -0.3711075782775879, -2.97414493560791, -0.6430106163024902, 0.5871103405952454, 0.5934054851531982, -0.2995895743370056, 1.830434799194336, -3.561762571334839, 0.21347811818122864, -0.573714554309845, -2.1416189670562744, 0.15991264581680298]], "name": "trainable_2", "bias": [-11.201765060424805, -11.02962875366211, -11.81594467163086, -11.019817352294922, -13.207517623901367, -13.325077056884766, -11.249265670776367, -11.54319953918457, -10.79256820678711, -10.652997970581055, -11.944557189941406, -10.75246810913086, -11.488094329833984, -11.337093353271484, -11.23967170715332, -11.5111083984375, -10.075506210327148, -10.896272659301758, -12.596921920776367, -12.341695785522461, -10.204008102416992, -12.15163803100586, -11.730953216552734, -11.096721649169922, -11.983863830566406], "out_features": 25}, {"type": "tanh", "name": "activation_3"}, {"type": "dense", "has_bias": true, "in_features": 25, "weights": [[2.070796012878418, 2.972966194152832, 0.9211550951004028, 1.9716449975967407, 0.5980972051620483, 0.1703716665506363, -0.4779094457626343, 0.7736079096794128, -0.0923525020480156, 0.8406194448471069, 0.013963095843791962, 0.9032792448997498, 0.9888975024223328, 0.787013590335846, -0.41049548983573914, -0.3304274082183838, -0.3507133424282074, 0.08939842134714127, 1.0717318058013916, -0.3250759541988373, 3.2046802043914795, 1.5626481771469116, 1.2915148735046387, 2.137017011642456, 2.3319101333618164], [0.8014200329780579, -0.03787732496857643, 0.475204735994339, -0.7190678715705872, 1.7351471185684204, 0.8806160092353821, 0.5946760773658752, 2.41363787651062, 1.997956395149231, 0.8361441493034363, 0.7432742118835449, 0.64214688539505, 0.6249812841415405, 1.2622195482254028, 3.2840383052825928, 0.24185867607593536, 0.6809716820716858, 0.2714066207408905, -0.3699735701084137, 1.5976558923721313, -0.6113174557685852, 3.4660868644714355, 0.9608544111251831, 2.1230309009552, -0.21760547161102295], [-0.07805664092302322, -0.597972571849823, -0.14715586602687836, -0.40316587686538696, 0.5494898557662964, 2.1784255504608154, 0.09740740060806274, 1.0242269039154053, 0.44863981008529663, 0.5435110330581665, 0.8486997485160828, 0.7669336795806885, 1.0316623449325562, -0.12184875458478928, -0.7770878076553345, 0.38653576374053955, 2.8496716022491455, 1.6283378601074219, 1.386592149734497, 2.001601219177246, -0.2213575541973114, 1.5174592733383179, 0.25608325004577637, 1.9843506813049316, -0.27588537335395813], [-0.08406413346529007, 1.8128002882003784, 0.47499537467956543, 1.2816312313079834, 1.870314121246338, 2.323516607284546, 0.899873673915863, 0.5565375685691833, -1.6046816110610962, 1.098738193511963, -0.9006480574607849, -1.2870014905929565, -0.6981316804885864, 0.6193217039108276, -0.2752324640750885, 1.1747382879257202, -0.4541221559047699, 1.3187466859817505, 1.2820892333984375, 0.07942920178174973, 0.49599385261535645, -0.6101011633872986, -1.315438985824585, 0.8637697100639343, -0.36669376492500305], [2.0564284324645996, -1.942808985710144, 0.9759009480476379, 0.41892197728157043, 2.088508367538452, 2.104846954345703, 0.7332736253738403, 1.5646324157714844, 1.549633264541626, -0.11204305291175842, 0.7424269914627075, 1.8876433372497559, 1.424481987953186, -0.666882336139679, 0.9377568364143372, -0.8288333415985107, 0.6243489384651184, -1.946360468864441, 1.518078088760376, 0.7573273181915283, 1.1599116325378418, 1.877044916152954, -0.01827021688222885, 0.4602438807487488, -0.6947171092033386], [-0.3061824142932892, 0.35022637248039246, -0.3161424398422241, 0.7402723431587219, -0.5049073696136475, 0.9640958905220032, 0.9936298131942749, -0.32106873393058777, 0.7173367738723755, -0.05014682561159134, -0.9494091868400574, -2.3176684379577637, -2.5739035606384277, -0.8167504072189331, -0.5438460111618042, -0.10023806244134903, -1.5696828365325928, 1.245492935180664, 1.085599660873413, 0.6673921942710876, 0.8746044039726257, -1.0197091102600098, 0.40302255749702454, 0.2026083916425705, 0.6641590595245361], [-0.014240219257771969, 1.7165439128875732, 1.4181857109069824, 0.14946451783180237, 1.4374154806137085, 1.2072349786758423, 2.026634931564331, 2.072697401046753, 1.1154353618621826, 1.1084096431732178, 1.2338050603866577, 1.1635056734085083, 2.234055280685425, 2.1249263286590576, 0.8790159821510315, 0.007563658989965916, 1.5410536527633667, -0.21266844868659973, 0.8122739195823669, 1.6453765630722046, 0.4402604401111603, 0.4353082478046417, -0.623569905757904, 0.1393483579158783, 0.44248834252357483], [2.605978012084961, 0.6819062829017639, 0.9306803345680237, 1.2807878255844116, 2.4826459884643555, 2.3539252281188965, 0.9206749200820923, 1.450823426246643, -0.05651490017771721, 4.15305757522583, 3.355295419692993, 1.1211434602737427, 3.0160326957702637, -0.27501240372657776, 1.576035499572754, 0.723936915397644, 2.2146008014678955, -1.3943241834640503, 1.7819819450378418, 2.9990322589874268, 1.9729024171829224, 2.1452207565307617, 2.8036365509033203, 2.220423698425293, 0.35559573769569397], [1.0512608289718628, 1.0595067739486694, 2.1959238052368164, 1.6080520153045654, 1.7815037965774536, 0.9207867383956909, 0.9966073632240295, -0.20887605845928192, 2.1290338039398193, 2.0648891925811768, 2.4176316261291504, 2.3331282138824463, 2.616593360900879, 1.2350386381149292, 2.3457469940185547, 1.5987217426300049, 2.1325948238372803, -0.8661589622497559, 0.9008458852767944, 1.4862793684005737, 0.6847084760665894, 0.9158788323402405, -0.995334267616272, 1.5584074258804321, -1.07252836227417], [-1.2740554809570312, 0.8997921347618103, 1.2248473167419434, 0.7766498923301697, 1.8134980201721191, 0.4631650447845459, 1.7805182933807373, 0.9867638349533081, 2.31207275390625, -0.9433446526527405, -1.8746118545532227, 0.6998738646507263, 0.9835569262504578, 1.147132396697998, -0.9638925790786743, 1.8182291984558105, -0.7987253665924072, 1.9554444551467896, 1.1367931365966797, 0.12330740690231323, 1.8802984952926636, -0.1729290932416916, 1.1209897994995117, 1.2252248525619507, 2.2594192028045654], [-1.4470943212509155, -2.227327823638916, -0.08441954106092453, -2.408155679702759, -0.26286810636520386, 1.1454532146453857, -0.2747131884098053, 0.2566644847393036, -1.7804542779922485, 3.4968485832214355, 1.2343305349349976, -1.293966293334961, 1.0312039852142334, 1.0846613645553589, 2.379424571990967, -1.7777578830718994, 1.7478374242782593, -2.2093029022216797, 2.164604663848877, 1.5829436779022217, 1.5289467573165894, 0.7797274589538574, 0.19996963441371918, 0.22975656390190125, -0.49867865443229675], [0.2731679081916809, 1.1455717086791992, 1.628997802734375, 3.0312986373901367, 1.7613301277160645, -1.4208030700683594, 1.127416729927063, -0.49640777707099915, 1.270348072052002, 0.5553452372550964, 1.626573920249939, 0.045952554792165756, 0.5028439164161682, -1.3707921504974365, -0.12056446820497513, 0.3136667013168335, -0.1650133728981018, -0.11181796342134476, 1.0198416709899902, 1.3557366132736206, 2.7265543937683105, -0.9323291182518005, 2.136484146118164, 0.9767622947692871, 0.4392434060573578], [-0.5630236268043518, -1.9338864088058472, 0.14020922780036926, -0.5137960314750671, -0.6853961944580078, 1.698681116104126, 1.4723236560821533, 1.023759126663208, 1.5882277488708496, -1.1825625896453857, -0.8296249508857727, 0.35077187418937683, -1.4946765899658203, 0.8174964189529419, -1.0277385711669922, 0.23025979101657867, -0.5191794037818909, 0.6081157326698303, 3.187074899673462, 1.6400463581085205, 1.795709490776062, 0.255984902381897, 2.526231050491333, 0.20386023819446564, 2.1737427711486816], [1.4804267883300781, -0.9694031476974487, -1.8843477964401245, -0.6015995144844055, 3.000561237335205, 0.5650655627250671, 0.27048707008361816, 1.2248977422714233, 1.6199897527694702, 2.4833884239196777, 2.278796672821045, -0.06557248532772064, 2.40458083152771, 2.0338187217712402, 0.9979091286659241, -0.40130236744880676, 2.2720134258270264, 0.638253390789032, 0.4020506739616394, 0.941754162311554, 2.3899080753326416, 0.17800430953502655, 0.3577403128147125, 0.9543888568878174, 1.8635886907577515], [0.1476963311433792, 1.8463237285614014, 1.3771922588348389, 2.6469714641571045, 0.6991943717002869, 0.5707413554191589, 0.8920365571975708, 2.1313841342926025, 0.5573491454124451, 1.6567732095718384, -0.2644686996936798, 0.015433743596076965, 1.4926824569702148, -0.08078823983669281, 0.19343174993991852, -0.2888668477535248, -0.4271567165851593, 0.800847589969635, 1.9735082387924194, 1.0406725406646729, 1.4181584119796753, -2.1584880352020264, 2.0693047046661377, 0.7090521454811096, 1.6348036527633667], [2.0302352905273438, -1.0985183715820312, 2.198171377182007, -1.4392446279525757, 1.349821925163269, 0.5690010190010071, -0.33214884996414185, 2.249598503112793, 2.575287103652954, 0.4771806597709656, 1.0901963710784912, 1.2223033905029297, 1.832780122756958, 0.8816152215003967, 0.293263703584671, -0.3268061578273773, 1.3534036874771118, 0.29206207394599915, 2.6091504096984863, 2.6447763442993164, 1.7108498811721802, -1.2345097064971924, 1.0766066312789917, 1.48244047164917, -0.3138463497161865], [0.5609415769577026, -1.0679123401641846, 0.6113801598548889, -2.203770875930786, 0.1251000016927719, 2.2517738342285156, 1.0092017650604248, -0.29948854446411133, -1.1028908491134644, 2.940497398376465, 0.5735527873039246, -1.1706509590148926, -0.32833540439605713, 0.9463377594947815, 1.449102759361267, -1.5520098209381104, 0.7097629904747009, -0.22611068189144135, 1.316462755203247, -0.09231722354888916, -0.26472052931785583, -1.009968638420105, -1.3899234533309937, -0.12111890316009521, 0.42400339245796204], [1.3745126724243164, 1.303314208984375, 1.498559594154358, -0.2368166744709015, 0.7002188563346863, 1.9982764720916748, 0.09228982031345367, 0.44721490144729614, 0.9375457763671875, 2.761115789413452, 0.7847589254379272, -0.6581839919090271, 1.4849648475646973, 1.5829288959503174, 1.3490898609161377, -0.6471976637840271, 2.180603504180908, 1.0791351795196533, 0.6837561130523682, 1.7835643291473389, 0.31752005219459534, 1.490330696105957, -0.2829728424549103, 1.8169218301773071, 1.147212028503418], [-0.5863898396492004, -0.7959648966789246, 0.4756886065006256, -0.5716058611869812, 1.7205158472061157, -0.7630333304405212, -1.4021580219268799, -1.444272518157959, -1.1739132404327393, -0.4734381437301636, -0.9881604909896851, 0.6087287068367004, -1.5474371910095215, 1.5102684497833252, 1.6164404153823853, 1.4303867816925049, -0.369806170463562, -0.2865988612174988, 1.3063039779663086, -1.3375152349472046, 0.9401160478591919, 1.051126480102539, 1.0151457786560059, -1.0304813385009766, 0.9387001395225525], [1.6866581439971924, 0.16304737329483032, -0.8047599792480469, 0.11655990779399872, -0.41020306944847107, 2.4547107219696045, 1.4989312887191772, 2.0331685543060303, -0.9657775163650513, -0.770871639251709, 0.16011041402816772, 0.0461408868432045, -2.7337067127227783, 1.1103193759918213, 0.9733811616897583, -0.09054257720708847, 0.2193751186132431, -0.38133299350738525, 1.3110406398773193, -0.6520381569862366, 0.8179918527603149, 1.2603683471679688, -0.4799611568450928, -0.5732557773590088, 1.5829346179962158], [0.6255947351455688, 1.516951084136963, 0.47722455859184265, 0.9105132818222046, 1.1811903715133667, -0.529458224773407, 4.165960311889648, -0.44040530920028687, -1.0582921504974365, 2.0511038303375244, 1.5248292684555054, 0.2996017336845398, -0.6152178049087524, 1.3583353757858276, 0.08000142872333527, 1.0806105136871338, -1.881221890449524, -0.7024856209754944, 0.32884639501571655, 0.10536264628171921, 2.4661505222320557, 1.5952168703079224, 2.0510032176971436, 1.0031291246414185, 0.6471291184425354], [2.228010892868042, 0.18955837190151215, 1.6742138862609863, -1.260772705078125, 0.42812708020210266, -0.00686591025441885, -0.17191685736179352, -0.21309088170528412, 0.7268956303596497, 1.3737547397613525, 1.3012839555740356, 0.5532230138778687, 0.38191670179367065, 1.5951176881790161, 1.7334598302841187, 1.6714810132980347, 0.992381751537323, 1.3666085004806519, 1.593915581703186, 1.2190139293670654, 1.7630584239959717, 1.7179564237594604, -0.9426486492156982, 1.2583094835281372, 1.907719612121582], [-3.256629705429077, -1.288996696472168, 0.027825430035591125, -5.095421314239502, 0.7873247861862183, 0.1858825534582138, -1.1609939336776733, -0.580335259437561, -4.629342079162598, 0.31170654296875, -0.7229859232902527, 0.23415811359882355, -0.9004032611846924, 0.9565148949623108, 2.90124773979187, -3.694152593612671, 2.8329782485961914, -0.36197084188461304, 2.0053629875183105, -0.909637451171875, -0.48099765181541443, -0.46910709142684937, -0.4589863121509552, 0.06240149214863777, -0.7873380184173584], [-1.7642130851745605, 0.8414691090583801, 1.6288914680480957, 0.688334047794342, 1.2193613052368164, 0.8432464599609375, 1.5145429372787476, 0.6037961840629578, 0.057743191719055176, 1.122165322303772, -1.103525161743164, 1.291532278060913, 1.60198974609375, -0.13732971251010895, 1.2189627885818481, -0.2544093728065491, 1.8498033285140991, 1.5109959840774536, -0.06240106746554375, -1.0164839029312134, -0.01453401055186987, 0.7614620923995972, 1.4952455759048462, 0.06551255285739899, 2.977566719055176], [-1.0431417226791382, 0.836699903011322, 1.3873118162155151, -0.3731955885887146, 1.7768008708953857, 3.493595838546753, 0.14938920736312866, 1.2544766664505005, -0.39193421602249146, 1.2063032388687134, 0.27243170142173767, -1.024411916732788, -0.31173738837242126, 2.2865660190582275, 0.12096573412418365, -1.961044430732727, -0.089200958609581, -0.7348369359970093, 1.0137128829956055, -0.9078946709632874, -0.38109394907951355, 0.2524970769882202, 0.7251948118209839, 2.0183165073394775, 0.7825620770454407]], "name": "trainable_4", "bias": [0.5612079501152039, -0.01033579558134079, -0.06570973992347717, -0.45598092675209045, 0.07883460819721222, -0.5362346172332764, 1.582869052886963, -1.3551905155181885, -0.33806008100509644, 0.5387067198753357, -0.5801385045051575, -0.6560685038566589, 1.3170387744903564, 0.9176753163337708, -0.10812123119831085, 0.09752650558948517, 0.8588677048683167, 0.7697860598564148, 1.4407169818878174, 2.0763254165649414, 0.8402224183082581, 0.5745899081230164, -1.370650291442871, -1.9792251586914062, -0.6647091507911682], "out_features": 25}, {"type": "tanh", "name": "activation_5"}, {"type": "dense", "has_bias": true, "in_features": 25, "weights": [[0.9944573640823364, 0.7876080274581909, 1.3109740018844604, 1.3055014610290527, -0.2906654477119446, 2.8228464126586914, 1.3677153587341309, 0.7893081903457642, -0.12902940809726715, 0.4503690004348755, 1.7188738584518433, 0.28302329778671265, 2.9780499935150146, 0.3366047441959381, -0.4296422302722931, 0.10340140014886856, 2.620579481124878, -0.07848034799098969, 0.8862310647964478, 1.362768530845642, 2.1163723468780518, 0.6747552156448364, 0.19849903881549835, 0.6940765976905823, 1.0776293277740479], [1.100756049156189, 1.6247894763946533, 0.8965109586715698, 1.9419068098068237, 1.8132083415985107, 1.3333827257156372, -0.6357477307319641, -0.526989221572876, 0.7925605177879333, 0.44365251064300537, -0.12105552107095718, 3.1590912342071533, -0.11997229605913162, 1.447651743888855, -0.48231470584869385, 0.19014722108840942, 1.6145356893539429, 2.1012208461761475, 1.0203890800476074, 1.036783218383789, 2.9726643562316895, 1.9717390537261963, 0.5441397428512573, 1.771666169166565, 1.5720547437667847], [0.8125737309455872, 0.6816281676292419, 1.2014329433441162, -1.1165752410888672, 0.09252367913722992, -0.05067334696650505, -0.6741838455200195, 0.1571008414030075, -0.3658343553543091, 1.4940426349639893, 1.7718946933746338, 0.728492259979248, 0.09113645553588867, 1.570508360862732, 0.41833946108818054, 1.7916876077651978, -0.5187847018241882, 1.4275932312011719, 1.9431819915771484, 0.4652811884880066, -0.677876353263855, 1.650675892829895, 1.426887035369873, 0.9608766436576843, 3.200937032699585], [2.1201694011688232, -0.15695390105247498, 0.9948312044143677, 4.182620048522949, 1.0433332920074463, 2.778130531311035, 1.9522491693496704, 0.526046633720398, -0.0828520655632019, 3.297396659851074, 2.4998507499694824, 1.5852171182632446, 1.0578054189682007, 0.10896763950586319, 0.520718514919281, 0.46053239703178406, 1.9293899536132812, 1.9516526460647583, 0.3360807001590729, -0.48247119784355164, 1.0206918716430664, 0.28299713134765625, 0.6939113140106201, 2.5406405925750732, -0.32360967993736267], [0.36120840907096863, -0.4922366440296173, 1.22095787525177, 2.6330244541168213, 1.5581597089767456, 1.133985161781311, -0.6406853795051575, -0.3921707570552826, 1.016219139099121, -1.1393330097198486, 1.8437185287475586, 2.60146164894104, 1.6236419677734375, -0.44160938262939453, 2.709695816040039, 0.6126932501792908, -0.5250901579856873, 0.27986735105514526, 0.06445847451686859, 0.12039097398519516, 0.1418066918849945, 2.0068345069885254, 0.02950911782681942, 2.58282470703125, 0.6581036448478699], [0.9698692560195923, -1.117366909980774, 0.7688823938369751, -0.30111467838287354, -0.556096613407135, 1.694372296333313, -0.8901645541191101, 1.812388300895691, 1.593898892402649, 1.6682283878326416, 0.7628939747810364, -0.323504775762558, -0.025683678686618805, 0.7752426862716675, 2.2367095947265625, 0.6628668308258057, -1.4538058042526245, 0.7118685841560364, 0.6965697407722473, -0.14208172261714935, 0.7532587051391602, 0.8214386105537415, 1.8095455169677734, -0.412494033575058, 0.6742099523544312], [0.3609326481819153, 0.326507568359375, 1.0510752201080322, 2.1197516918182373, 0.8863985538482666, -1.2690671682357788, -0.713295578956604, -0.88749760389328, 0.8015420436859131, 0.2475772649049759, 0.9314384460449219, 0.9681634902954102, -0.7520038485527039, 0.6998788714408875, 0.1323084831237793, 1.1911450624465942, 2.0122177600860596, 2.3049302101135254, 1.122787594795227, 0.7886366844177246, 1.086793303489685, -0.7604067325592041, 1.2834279537200928, 1.9919507503509521, 1.8380634784698486], [0.9276652932167053, 1.5129947662353516, 0.5998979806900024, 1.4410237073898315, -0.9704580903053284, -0.27152204513549805, 0.491549551486969, 0.3562450706958771, 1.2490200996398926, 1.9409749507904053, 1.6182610988616943, 0.7369759678840637, 1.3406708240509033, -0.7405752539634705, 0.7758215665817261, 0.8860000967979431, 1.2407218217849731, 0.6745224595069885, 0.1470784693956375, 2.457843780517578, 0.8394080996513367, 0.6828480362892151, 0.6296008825302124, 1.982501745223999, 0.4189780056476593], [1.5644080638885498, 3.181521415710449, 0.6921694278717041, 1.865786075592041, 1.1356464624404907, 1.1879023313522339, 0.09081317484378815, 0.2249215841293335, 1.5349209308624268, 2.2028491497039795, 0.8795439600944519, 0.9163222908973694, 0.52512127161026, 1.8784947395324707, 0.8633242845535278, 0.018138570711016655, 3.1187546253204346, 0.023942559957504272, 1.9398289918899536, -0.10711154341697693, 1.2292976379394531, 1.1263679265975952, 2.263948917388916, -0.743035078048706, 2.1311042308807373], [1.0761630535125732, 2.610914945602417, 2.3221864700317383, 0.9895824193954468, -0.1323600858449936, 0.6516954898834229, 0.7907199263572693, 2.515709161758423, 0.5969334244728088, 0.16490663588047028, 1.4845045804977417, -0.341522216796875, 1.7722153663635254, 0.5992051362991333, 1.2077161073684692, 2.689115285873413, -0.24189089238643646, 0.9615513682365417, 0.7463096976280212, 0.47772762179374695, 0.2735413908958435, 1.2386878728866577, 1.808645248413086, 2.5841524600982666, -0.6926507949829102], [-0.4425657093524933, -0.3558485209941864, 2.4653964042663574, 1.6370097398757935, 2.8388843536376953, 1.1367902755737305, 1.4533332586288452, 0.7918843030929565, -0.376639187335968, -0.9791085720062256, 1.676461100578308, 0.9892920851707458, 1.0551037788391113, 1.4280537366867065, 1.6391079425811768, 1.3429985046386719, 0.4775521159172058, -0.34729376435279846, 0.7149141430854797, -0.18594695627689362, 2.662912607192993, 0.91810142993927, 1.1198452711105347, 0.38021939992904663, 0.14538274705410004], [1.566754937171936, 0.8995893001556396, 0.9082293510437012, 2.9460644721984863, 1.3602262735366821, 0.6959436535835266, 0.18743611872196198, -0.0070121996104717255, -0.8614442348480225, 0.424180805683136, -0.8632840514183044, 0.47890347242355347, 1.8032379150390625, 1.6202030181884766, 1.8035554885864258, -0.6410043835639954, 1.3359410762786865, 2.1215715408325195, 1.9337456226348877, -0.04070137068629265, 0.911257266998291, 1.4073772430419922, 0.8514829277992249, 1.4622859954833984, 0.12131369858980179], [0.7193649411201477, -0.5613157749176025, 1.1245163679122925, 0.7335712313652039, 0.813023030757904, 2.0061283111572266, 2.0586376190185547, 1.7827999591827393, 0.8202555179595947, 0.08640765398740768, -0.6013419032096863, 0.2614763081073761, 1.4259111881256104, 0.6268067359924316, 2.3018691539764404, 0.3534749448299408, 0.9215402007102966, 0.40890419483184814, 1.1777973175048828, 0.864761471748352, 1.327986717224121, 2.076340436935425, 2.2878923416137695, -1.0664368867874146, 0.5562168955802917], [1.281803011894226, 0.6191393136978149, 2.168734073638916, 0.8551539778709412, 1.2810405492782593, -0.3144270181655884, 1.4704276323318481, -0.4796256422996521, 0.3740991950035095, 0.21456582844257355, 0.18559737503528595, 1.2823997735977173, -0.19817593693733215, 2.466139793395996, 2.2335216999053955, 1.6999619007110596, 0.944828450679779, 0.13726192712783813, 0.5857846140861511, 1.2873231172561646, 1.9490103721618652, 1.0603092908859253, 2.3627536296844482, -0.05442000553011894, 2.7996437549591064], [0.7641996741294861, -0.6370722055435181, 2.1344821453094482, -0.24721206724643707, 0.03241324797272682, 1.470888614654541, 0.5096946358680725, -0.024636857211589813, 1.9565980434417725, 0.0776778906583786, 0.6769247055053711, 0.20879943668842316, 0.5637060403823853, 1.3289592266082764, 1.312206506729126, 0.7354596853256226, 1.1589088439941406, 1.1045033931732178, 1.4640777111053467, 0.1881929486989975, 0.6408948302268982, 1.9179673194885254, 1.7373785972595215, -0.3347410559654236, 1.578160285949707], [1.9220538139343262, 1.2169071435928345, 2.2452633380889893, 0.056885525584220886, 0.5277764201164246, 2.2977046966552734, 1.0233720541000366, 1.4061853885650635, 0.22131860256195068, 0.2078133374452591, 0.6282557249069214, 2.222609758377075, 0.6011619567871094, 0.4483603835105896, 1.2214607000350952, 0.500880241394043, 1.8843116760253906, 0.12753011286258698, 3.4002227783203125, -0.6459112763404846, 0.5930575132369995, 1.9460338354110718, 1.1681915521621704, 1.9815618991851807, 2.2771897315979004], [0.8578393459320068, -1.653383493423462, 2.037405490875244, 0.2814349830150604, 0.10825400799512863, 1.9825029373168945, -1.720458984375, 1.2938140630722046, 1.8016033172607422, 0.2807651460170746, 1.1145131587982178, 0.3626868426799774, 1.9149342775344849, -0.24787653982639313, 0.35810035467147827, 1.7623755931854248, 1.365083932876587, 0.3876597583293915, 1.881490707397461, 1.4814796447753906, -0.5132696628570557, -1.018280267715454, 2.509960651397705, 1.5263948440551758, 1.26547372341156], [2.6574270725250244, 1.2343292236328125, 0.7716599106788635, 1.703633189201355, 0.0536392480134964, 0.9081371426582336, 0.776176929473877, -0.08877071738243103, 0.8903613686561584, 1.0563491582870483, 1.229252576828003, 0.7262418270111084, 0.2750549614429474, 0.5776296854019165, 1.6358113288879395, -0.38079118728637695, 1.7199993133544922, 0.2764645218849182, 0.5632249116897583, -0.12997330725193024, 0.8711631298065186, 2.1432998180389404, 2.1386756896972656, 0.2660216689109802, 0.38760390877723694], [0.8301014304161072, 0.6797422766685486, 0.9121469855308533, 0.5572428703308105, -0.855312705039978, -0.6429151296615601, 0.06617440283298492, -2.4647843837738037, 2.46891188621521, 0.6105713248252869, 0.08304145187139511, 1.1939148902893066, -1.0362337827682495, 0.82475745677948, 1.2158249616622925, 0.561043381690979, -0.37012946605682373, 1.6464691162109375, 1.254515290260315, -0.010644003748893738, 1.7720359563827515, 0.08688196539878845, 3.44651460647583, 1.1701115369796753, 1.9195667505264282], [-0.28836989402770996, -0.30712881684303284, 0.5189618468284607, 1.0444986820220947, 2.8332698345184326, 1.1206450462341309, 1.5568137168884277, -1.010773777961731, 1.391114354133606, 0.636976957321167, -2.2611753940582275, -0.5819525122642517, 0.7516472339630127, 0.9608736634254456, 1.9634867906570435, 3.345940113067627, 0.5817136764526367, 0.6692572236061096, 2.2372729778289795, 1.8623065948486328, 1.4683014154434204, 0.09867624193429947, 1.2791423797607422, 1.2933146953582764, 1.2427735328674316], [1.3968740701675415, 1.425990343093872, 1.471198558807373, 2.5189008712768555, 1.3642427921295166, 1.3261252641677856, 2.215709686279297, -0.7628803849220276, 2.100062847137451, -0.2107088714838028, 1.396102786064148, -0.14714205265045166, 0.2336922585964203, -0.005135480780154467, -0.975097119808197, 1.9311515092849731, -0.22582831978797913, 1.1892859935760498, 3.3842978477478027, 3.8177332878112793, 1.2861928939819336, 0.6684491634368896, 2.2732348442077637, 0.6738884449005127, 1.377565622329712], [1.7321176528930664, -0.44410955905914307, -0.6690061092376709, 1.7528774738311768, 2.269878625869751, 1.794252872467041, -0.006045996211469173, 2.3283321857452393, 1.4714363813400269, -0.22537794709205627, 1.1166294813156128, -0.6294373273849487, -0.0844201147556305, 0.38966184854507446, 3.442701816558838, -0.2567260265350342, 0.11385087668895721, -1.13260817527771, 1.8571585416793823, 2.1313624382019043, -1.4332606792449951, 1.2652291059494019, 1.621138572692871, 1.00630521774292, -0.041525546461343765], [0.8967416882514954, 3.112095355987549, 0.5625162124633789, 2.2017369270324707, 0.9582754373550415, -1.2687242031097412, 2.9788546562194824, 0.3900541365146637, -1.2814451456069946, 2.8154783248901367, 1.6480034589767456, 0.4209830164909363, 0.6807871460914612, 0.9362348914146423, 0.49352794885635376, 2.209630012512207, 0.9613230228424072, 2.2364501953125, 0.01059176865965128, 1.980357050895691, 2.8162004947662354, 1.4497170448303223, 1.2011030912399292, 1.2227826118469238, -0.8767240643501282], [1.1978561878204346, 0.2751399278640747, 0.499032586812973, 1.2395395040512085, 2.2680182456970215, 1.2621365785598755, -0.876417875289917, -1.172074556350708, 0.0017301390180364251, 1.3047932386398315, 0.06626337766647339, 1.825649380683899, 0.4956222474575043, 1.8881441354751587, 1.6622378826141357, 2.7109286785125732, -0.011464971117675304, 1.0585933923721313, 0.7443774342536926, 0.048510193824768066, -0.2712284028530121, 0.025384653359651566, 0.5073339343070984, -0.6872798204421997, 1.6487183570861816], [3.4063191413879395, -0.37087705731391907, 0.013712525367736816, 2.352238655090332, 0.12318093329668045, 1.7698954343795776, 1.1072516441345215, 0.30853983759880066, 1.5174384117126465, -0.041763946413993835, 1.5673681497573853, 1.5060478448867798, 0.9257411360740662, 1.9837162494659424, 0.4205569624900818, 0.1732027530670166, 0.04924954101443291, 1.8096822500228882, 1.5004514455795288, 1.2687543630599976, 2.580815076828003, -1.3494114875793457, 1.1270498037338257, 0.27735161781311035, 1.6704515218734741]], "name": "trainable_6", "bias": [2.179260730743408, 1.0105575323104858, 1.7211283445358276, 1.5945080518722534, 2.2151036262512207, 0.21599164605140686, 0.9189990162849426, 2.316338539123535, 0.7543938755989075, -1.498221755027771, 3.2004752159118652, 0.691045343875885, 1.4520372152328491, 2.6783857345581055, 2.491671085357666, 0.9215176701545715, 0.6191592812538147, 0.7667307257652283, 1.4992791414260864, 1.1462613344192505, 0.9305173754692078, 1.0405610799789429, 1.0899721384048462, 2.171649932861328, 2.8512821197509766], "out_features": 25}, {"type": "tanh", "name": "activation_7"}, {"type": "dense", "has_bias": true, "in_features": 25, "weights": [[0.15522854030132294, -0.15525896847248077], [0.8880870342254639, 2.743109703063965], [0.8785263895988464, 0.8085660934448242], [-0.1124761551618576, 0.9537156224250793], [0.8633115887641907, 0.510033905506134], [1.5829356908798218, 1.9387719631195068], [1.439934492111206, 0.9935699701309204], [1.177600622177124, 1.4137301445007324], [-0.30777209997177124, -0.14931786060333252], [0.9069457054138184, -0.9957956075668335], [-0.6877245306968689, 2.109098196029663], [0.04283451288938522, -0.8137264251708984], [-0.4516778588294983, 3.178760051727295], [1.044832468032837, -0.9515346884727478], [-0.6677783131599426, 1.8300756216049194], [-1.380628228187561, 2.2393641471862793], [1.2392598390579224, 0.23436041176319122], [0.2394712269306183, -0.2653040587902069], [-0.8381873965263367, 0.6445305347442627], [0.20265193283557892, 0.7930046319961548], [-0.9197566509246826, 1.2183427810668945], [-0.17282375693321228, 1.1435940265655518], [-1.1921708583831787, -0.8410388827323914], [0.16391921043395996, 0.05449075996875763], [0.17598961293697357, -1.818986415863037]], "name": "trainable_8", "bias": [2.4973208904266357, 3.502929925918579], "out_features": 2}, {"type": "tanh", "name": "activation_9"}, {"type": "mse", "name": "criterion_10"}]}