{"test_accuracy": 0.8086, "layers": [{"type": "dense", "has_bias": true, "in_features": 2, "weights": [[-16.015869140625, -5.808729648590088, 13.471305847167969, 2.132664918899536, -23.77448844909668, 8.874370574951172, 1.0362814664840698, 3.671424150466919, -13.131868362426758, 6.488767147064209, -11.806355476379395, 4.204554080963135, 8.8645601272583, 4.545618057250977, 18.291259765625, -9.969293594360352, 4.870559215545654, 9.420919418334961, 13.308757781982422, 0.9229708909988403, 3.3149659633636475, 1.7353320121765137, 14.176499366760254, 10.109180450439453, -7.002819061279297], [13.639901161193848, -16.029226303100586, 13.083985328674316, 0.5002780556678772, -9.515880584716797, 8.041180610656738, 1.4696298837661743, 1.883879542350769, -4.098506927490234, 7.720914840698242, -0.006997853517532349, 3.2051315307617188, 9.257960319519043, -18.73468017578125, 11.941990852355957, 2.575640916824341, 6.124411106109619, 3.5878758430480957, 13.05469799041748, -0.868979811668396, -12.040899276733398, 2.589233636856079, 14.065362930297852, 8.868021011352539, -2.214407444000244]], "name": "trainable_0", "bias": [5.908437252044678, 4.826755523681641, 6.307240009307861, 7.9387664794921875, 5.693244457244873, 6.758795261383057, 6.317392826080322, 7.191890239715576, 4.757657051086426, 4.630072593688965, 8.108892440795898, 7.345614433288574, 6.561746597290039, 6.799976825714111, 6.872490406036377, 5.7443461418151855, 6.502501487731934, 7.2505388259887695, 5.546425819396973, 5.108309745788574, 7.7586822509765625, 7.101674556732178, 5.7858805656433105, 5.4284162521362305, 3.5169785022735596], "out_features": 25}, {"type": "tanh", "name": "activation_1"}, {"type": "dense", "has_bias": true, "in_features": 25, "weights": [[5.219249725341797, 3.4156177043914795, 1.4525667428970337, 2.782130002975464, 6.126257419586182, 1.7027140855789185, 2.1562440395355225, 8.218080520629883, 2.4916045665740967, -0.7143862247467041, 8.471084594726562, 6.235485553741455, 3.5027198791503906, 5.124844551086426, 4.372431755065918, 7.178313732147217, 8.412374496459961, 7.815715312957764, 2.466207265853882, 4.690029144287109, 5.606706142425537, 2.873328924179077, 4.575505256652832, 3.9870729446411133, 6.266680717468262], [-8.874046325683594, -2.4847378730773926, -4.0879316329956055, -1.6631444692611694, -3.767347812652588, 0.4364783763885498, -2.6679985523223877, -7.175174713134766, -2.7635910511016846, 1.1173771619796753, -13.793052673339844, -3.6502349376678467, -5.769239902496338, -7.030447483062744, -3.638402223587036, -8.034377098083496, -10.634132385253906, -7.095584869384766, -4.383228778839111, -4.118862628936768, -8.767395973205566, -4.639338493347168, -7.6909098625183105, -4.113697528839111, -5.86348819732666], [0.6688107848167419, -1.937626600265503, -0.30369412899017334, 0.05481161177158356, -3.3634564876556396, 0.7999800443649292, -0.7700725793838501, 0.3813571333885193, -2.7220346927642822, 1.6104843616485596, 1.3518867492675781, 0.7502471208572388, 1.1276941299438477, 1.2665011882781982, 0.19920654594898224, -1.6927239894866943, -1.8222227096557617, -3.745457410812378, -0.6446822881698608, 0.7748377323150635, 0.32824480533599854, -2.603623151779175, -1.0210485458374023, 1.071807622909546, -1.5636959075927734], [2.143385410308838, -1.2354755401611328, -1.561510443687439, -0.3168923854827881, -0.46577680110931396, -1.2447476387023926, -1.1822880506515503, -1.0763577222824097, -0.639238178730011, 1.6337575912475586, 1.1896021366119385, -0.47400251030921936, 0.7348407506942749, 0.46283045411109924, -0.6235511898994446, -2.285573959350586, -0.9014963507652283, -2.659989356994629, 0.03209548071026802, 0.15105094015598297, 0.35491877794265747, -1.5565370321273804, -0.17035849392414093, 2.0216100215911865, 0.21821501851081848], [-12.933300018310547, -8.373343467712402, -5.703824520111084, -7.039114475250244, -6.416965484619141, -1.7498688697814941, -7.466897964477539, -10.144417762756348, -10.565688133239746, -2.1853458881378174, -13.48347282409668, -10.935907363891602, -5.226215362548828, -6.809345245361328, -8.514721870422363, -8.628511428833008, -7.868235111236572, -11.765613555908203, -3.1143980026245117, -4.375474452972412, -12.847833633422852, -9.47951602935791, -3.648597240447998, -8.246310234069824, -7.9458136558532715], [0.5202351808547974, -1.8893659114837646, 0.7381066083908081, 0.5442019701004028, -1.43618905544281, 2.5811543464660645, -0.23562738299369812, 0.9731916189193726, -2.3597195148468018, 0.40217509865760803, -0.4809570908546448, -0.1165861263871193, 1.1191928386688232, -0.15317177772521973, -0.03476284071803093, -1.5864386558532715, -0.8198536038398743, -2.4338557720184326, 1.1781865358352661, 0.00783397164195776, 1.0943725109100342, -0.5594496726989746, -1.3569921255111694, -0.41211065649986267, -3.337371826171875], [2.9139404296875, -2.8859164714813232, -2.788174867630005, -0.0288253091275692, -1.3249064683914185, 1.801177978515625, -0.9185440540313721, -0.9144356846809387, -1.1192090511322021, 1.4067347049713135, 0.1288304328918457, 1.3673491477966309, -0.08698204159736633, -2.2903740406036377, 1.0631637573242188, -1.7395519018173218, -0.42053472995758057, -2.091445207595825, 0.7761701345443726, -0.6937366127967834, 2.984910011291504, -1.583283543586731, 1.7616959810256958, 1.5422836542129517, -0.25868740677833557], [3.281156539916992, -1.6118268966674805, -1.829579472541809, 1.3655458688735962, -1.7003673315048218, 1.207127332687378, -1.478634238243103, 0.0013248967006802559, -1.8583252429962158, 2.7304558753967285, -0.10248695313930511, 0.7826859951019287, 2.6042733192443848, -1.5622754096984863, 0.7778971791267395, -2.2428770065307617, -0.21661394834518433, -4.084108829498291, -0.26561909914016724, 2.8897643089294434, 0.873528242111206, -0.2865666151046753, -0.2337450236082077, 2.2458879947662354, -0.22703757882118225], [-5.706161022186279, -0.6412385106086731, -3.011895179748535, -0.7133051156997681, -2.8741989135742188, -1.0181032419204712, -2.1249232292175293, -4.518507480621338, -3.3854777812957764, -3.2753570079803467, -4.9237961769104, -2.5946640968322754, -2.2419357299804688, -3.6087002754211426, -5.613513469696045, -3.641416311264038, -1.7741010189056396, -1.075265884399414, -1.1490577459335327, -1.5873006582260132, -6.201000690460205, -3.1554617881774902, 1.0758136510849, -2.0895864963531494, -2.4963996410369873], [0.528721034526825, 0.2894378900527954, -0.6092858910560608, -0.10324810445308685, -2.054635524749756, 1.8397916555404663, -1.297763466835022, -1.004254698753357, -1.4347835779190063, 1.9529553651809692, -0.7854250073432922, 0.023373804986476898, 1.0253393650054932, -1.7745850086212158, -0.42075014114379883, -2.585646152496338, 0.4312671720981598, -1.552709937095642, -0.3976888656616211, 2.2580761909484863, -1.3015718460083008, -1.8984915018081665, -0.5756463408470154, -0.6838943958282471, -0.5169184803962708], [6.410828590393066, 2.0026721954345703, 3.537407398223877, 4.6533966064453125, 0.980220377445221, 3.2185513973236084, 2.661569118499756, 3.3723535537719727, 1.780912160873413, 0.9279577732086182, 9.378296852111816, 2.958075523376465, 3.420958995819092, 3.6865220069885254, 3.665276288986206, 3.2551610469818115, 6.947568893432617, 3.4022159576416016, 2.1628215312957764, 2.4038338661193848, 6.219376564025879, 3.415602445602417, 4.285017490386963, 3.4267895221710205, 4.665944576263428], [2.8160948753356934, -1.497279167175293, -2.3928346633911133, -0.42605525255203247, 0.15767885744571686, 1.29653000831604, -1.3569530248641968, -1.4857593774795532, -3.2892510890960693, 1.8357272148132324, -0.3547544479370117, 1.1170414686203003, 2.0511817932128906, 0.07373172044754028, 0.41357120871543884, -1.6611754894256592, -0.18988701701164246, -2.436610698699951, 2.5187594890594482, 2.1488142013549805, 2.4887609481811523, -1.833786129951477, -0.09205786138772964, 3.4944307804107666, -2.6389031410217285], [-0.06488494575023651, -2.192366361618042, -3.186363697052002, 2.536916494369507, -1.9604822397232056, 1.2339991331100464, -0.8574337959289551, -0.3004522919654846, -2.306105852127075, 1.7508639097213745, 0.04188382253050804, 2.4826836585998535, 0.4518392086029053, -1.3308653831481934, 0.6361081004142761, -1.7600712776184082, -0.19361406564712524, -1.6620124578475952, 1.1532092094421387, 1.272569179534912, 0.7570024728775024, -2.2200727462768555, 0.07889745384454727, 1.390411138534546, -2.4702091217041016], [7.7332963943481445, 5.282776355743408, 4.187559604644775, 2.8207507133483887, 5.295467376708984, 2.1437318325042725, 4.611931324005127, 5.5573625564575195, 7.605301856994629, 0.4460907578468323, 11.621410369873047, 4.600405693054199, 2.4757742881774902, 4.836183547973633, 5.450649738311768, 6.588506698608398, 8.2404146194458, 7.6540679931640625, 3.2796175479888916, 1.920784592628479, 6.82685661315918, 4.741001129150391, 6.511392593383789, 4.594157695770264, 6.0524678230285645], [0.244863361120224, -0.7377870678901672, -1.1987249851226807, -0.6442552804946899, -1.5172194242477417, -0.5972541570663452, -1.947365641593933, -1.1668976545333862, -0.2077634483575821, 2.4883697032928467, -1.2700023651123047, 1.6866551637649536, 0.46816080808639526, 0.330182284116745, 1.687368392944336, -1.7071681022644043, -3.085239887237549, -2.7851908206939697, 2.0809338092803955, 1.587456464767456, 2.2094130516052246, -2.629009485244751, 0.35209909081459045, 1.762434720993042, -3.341764450073242], [3.59749436378479, 1.5089486837387085, 0.6284250020980835, 2.3636326789855957, 1.1524792909622192, 1.3619314432144165, 1.5306912660598755, 2.973184585571289, 0.6299228668212891, -0.28510215878486633, 7.058305263519287, 3.1771464347839355, 2.3935794830322266, 2.6155223846435547, 0.7136883735656738, 2.454244375228882, 3.749852418899536, 2.2513177394866943, 1.0381337404251099, 3.3510448932647705, 5.135920524597168, 0.5176512598991394, 3.2049593925476074, 1.9276580810546875, 1.8708226680755615], [1.9883660078048706, -0.9926037788391113, -0.9399406909942627, -0.3960515856742859, -0.6566216349601746, -0.2030835896730423, -2.373579502105713, 0.794849157333374, -3.141695737838745, -0.22443059086799622, 0.1443093717098236, 4.113219738006592, 1.9093440771102905, -0.2646574079990387, 0.9750171303749084, -3.9435691833496094, -1.2651605606079102, -3.5458061695098877, 0.03717368468642235, 0.4011293053627014, 0.6917232275009155, -0.9335325956344604, 0.054278358817100525, 0.7502825856208801, -0.1661699414253235], [1.2150131464004517, -0.5281975865364075, -0.07119710743427277, 1.5843721628189087, -2.0244317054748535, 1.3282815217971802, -1.2515836954116821, -0.12676775455474854, -1.2184953689575195, 2.6400396823883057, -0.026654165238142014, 3.7230029106140137, -0.8029606938362122, -0.27721932530403137, 2.590482473373413, -3.8042283058166504, -2.066455602645874, -5.089524745941162, 0.8451237678527832, 2.2390241622924805, 2.274843215942383, -1.2382858991622925, -0.28725677728652954, 1.9135031700134277, -0.22086572647094727], [1.4476045370101929, -1.3143327236175537, -0.6494971513748169, 1.7203751802444458, -0.6465826630592346, 0.7724879384040833, -2.5673987865448, -1.8383084535598755, -0.8820249438285828, 0.9229878187179565, -0.3519355058670044, 0.5017826557159424, 1.2831685543060303, 0.3247697055339813, 1.1599719524383545, -2.9678664207458496, -2.486654758453369, -1.5556708574295044, -0.014616409316658974, 1.3436338901519775, 0.6165266036987305, -1.8644963502883911, 0.03217629715800285, 1.3724942207336426, -2.577587604522705], [0.3659612238407135, 0.5314578413963318, -1.7510045766830444, 1.045777678489685, -2.753345251083374, 0.3207142651081085, -0.7768864631652832, -0.8064353466033936, -2.261371612548828, -0.4336414039134979, 1.0230990648269653, 2.6900675296783447, -0.9688645005226135, 0.37316998839378357, 1.0753107070922852, -1.8603943586349487, -1.8309305906295776, -0.5932024717330933, 0.707146942615509, 1.0367792844772339, 1.0613353252410889, -1.830815315246582, -0.31223368644714355, 0.8098952174186707, -1.3535593748092651], [6.922758102416992, 4.124745845794678, 2.645275115966797, 3.8083930015563965, 6.023836135864258, 0.9986916184425354, 2.5788023471832275, 6.422577381134033, 4.327212810516357, 0.6712281703948975, 11.932544708251953, 3.38222599029541, 3.7071189880371094, 5.698111534118652, 4.722893238067627, 5.147691249847412, 8.595085144042969, 6.337616920471191, 2.054704427719116, 4.270723342895508, 7.304904937744141, 3.2746503353118896, 6.242546081542969, 5.022616386413574, 6.195556640625], [0.5291378498077393, -3.010974645614624, -0.4811416268348694, 0.6364164352416992, -0.6771389245986938, 1.4334830045700073, -1.8772426843643188, -1.3747968673706055, -2.82837176322937, 0.5253058671951294, -1.155641794204712, 0.5696083307266235, 0.35011643171310425, 0.8673036098480225, 1.1435966491699219, -2.6047630310058594, -0.5115217566490173, -0.34951838850975037, 1.796096920967102, 0.09484304487705231, 0.9122934341430664, -1.3461560010910034, 1.6016048192977905, 2.036573648452759, -0.4130821228027344], [1.3413463830947876, -1.835831880569458, -2.3323307037353516, 2.5275065898895264, -1.3722642660140991, 1.0613552331924438, -0.831612229347229, -1.1831978559494019, -1.1821587085723877, -0.123890720307827, 1.5729286670684814, -1.6627310514450073, 1.4620411396026611, -1.3337035179138184, 1.0905559062957764, -1.839677095413208, -1.7907629013061523, -3.686934232711792, 0.9141263961791992, -0.6431627869606018, 2.235342502593994, -2.624077320098877, -0.9156202673912048, -0.18142490088939667, -1.9237797260284424], [1.708846926689148, -1.3863856792449951, 0.29122793674468994, 1.1862314939498901, -3.222541093826294, 1.3289034366607666, -0.07931213825941086, -0.8693294525146484, -0.9472325444221497, 0.7860316038131714, 0.931986927986145, 0.32569238543510437, -0.18223437666893005, -1.779784917831421, 1.8229014873504639, -2.1337857246398926, -0.5776229500770569, -4.150001049041748, -0.15898825228214264, 2.0241708755493164, 1.9825528860092163, -0.6827051639556885, 1.2425705194473267, -3.594891309738159, -2.2544407844543457], [-2.124152421951294, -0.9399144053459167, 2.22747802734375, -3.1455695629119873, 1.2103043794631958, -0.32420429587364197, 0.6138219237327576, -0.48136115074157715, -0.48603761196136475, -1.9616587162017822, -0.33308157324790955, -2.4919967651367188, 1.8239355087280273, 0.2521914839744568, -2.2760748863220215, -0.18614104390144348, 0.8384825587272644, 1.2536460161209106, -0.4959602653980255, 1.8278175592422485, -3.389402151107788, 0.6688601970672607, -0.6175186634063721, -1.6372668743133545, -0.0960087850689888]], "name": "trainable_2", "bias": [-8.253812789916992, -8.081683158874512, -8.86799430847168, -8.071867942810059, -10.259567260742188, -10.377126693725586, -8.301313400268555, -8.59524154663086, -7.844623565673828, -7.705062389373779, -8.99660873413086, -7.8045334815979, -8.540136337280273, -8.389142990112305, -8.29172134399414, -8.563152313232422, -7.127562046051025, -7.948326587677002, -9.648971557617188, -9.393745422363281, -7.25603723526001, -9.20368766784668, -8.783002853393555, -8.148778915405273, -9.03591537475586], "out_features": 25}, {"type": "tanh", "name": "activation_3"}, {"type": "dense", "has_bias": true, "in_features": 25, "weights": [[2.202997922897339, 3.040457248687744, 0.9104124307632446, 2.0709972381591797, 0.5984348058700562, 0.11674268543720245, -0.433349609375, 0.898435115814209, 0.055913206189870834, 0.9628574848175049, 0.06600955128669739, 0.9948791265487671, 1.1239068508148193, 0.7717357277870178, -0.32030513882637024, -0.28672295808792114, -0.25843819975852966, 0.15739575028419495, 0.9117323756217957, -0.23332959413528442, 3.2226157188415527, 1.6676630973815918, 1.2617703676223755, 2.1881954669952393, 2.3153367042541504], [0.8229003548622131, -0.028832778334617615, 0.47715556621551514, -0.6571974754333496, 1.7412718534469604, 0.9241054654121399, 0.5259027481079102, 2.339245080947876, 1.9623394012451172, 0.8045636415481567, 0.7692317366600037, 0.629088819026947, 0.5822701454162598, 1.3007079362869263, 3.226811170578003, 0.305323988199234, 0.6030830144882202, 0.2634725272655487, -0.3109736740589142, 1.5338916778564453, -0.5857023596763611, 3.433107376098633, 1.0973196029663086, 2.088845729827881, -0.15940864384174347], [0.10697922110557556, -0.4834335744380951, -0.18947958946228027, -0.15972676873207092, 0.49896857142448425, 2.1653807163238525, 0.008235896937549114, 0.9486045241355896, 0.5430970788002014, 0.5189291834831238, 0.9176717400550842, 0.8385162353515625, 1.0722627639770508, -0.07351917773485184, -0.8017560243606567, 0.5558034777641296, 2.7465569972991943, 1.668839693069458, 1.3015941381454468, 1.9478589296340942, -0.21236200630664825, 1.54342782497406, 0.45052531361579895, 1.970788836479187, -0.1915138065814972], [0.4428527355194092, 2.0169904232025146, 0.5125793814659119, 1.709114909172058, 2.077576160430908, 2.3079493045806885, 0.9348307251930237, 0.9260338544845581, -1.2347393035888672, 1.6039257049560547, -0.5264756679534912, -1.0289921760559082, -0.3431161344051361, 0.7091633081436157, -0.0638260692358017, 1.4483948945999146, -0.23584403097629547, 1.584439754486084, 1.00070059299469, 0.2729276716709137, 0.8218399882316589, -0.2689214050769806, -0.9373837113380432, 0.9843586087226868, -0.2123156189918518], [2.1226565837860107, -1.901353359222412, 0.9614595770835876, 0.5362176895141602, 2.063098192214966, 2.12391996383667, 0.6552882194519043, 1.4795212745666504, 1.5522818565368652, -0.15694767236709595, 0.7681311964988708, 1.8989464044570923, 1.400160789489746, -0.6301429867744446, 0.8841058611869812, -0.7377578020095825, 0.5254825949668884, -1.9448084831237793, 1.5287889242172241, 0.6850026845932007, 1.1687463521957397, 1.8522082567214966, 0.12717363238334656, 0.4275040924549103, -0.633443295955658], [0.0023498008958995342, 0.4341336488723755, -0.25292161107063293, 0.9925100207328796, -0.35640886425971985, 0.9747081398963928, 1.0482053756713867, -0.059515055269002914, 0.9645339846611023, 0.19481152296066284, -0.7004817724227905, -2.1781890392303467, -2.3676226139068604, -0.7771356701850891, -0.38759347796440125, 0.027743114158511162, -1.383108377456665, 1.409500241279602, 0.9550157189369202, 0.7651495337486267, 1.0726954936981201, -0.793194591999054, 0.5791694521903992, 0.2909267544746399, 0.7464077472686768], [0.03154105320572853, 1.7408767938613892, 1.4113976955413818, 0.23865047097206116, 1.422298789024353, 1.2365344762802124, 1.9507228136062622, 1.9892501831054688, 1.0992863178253174, 1.066483497619629, 1.2562791109085083, 1.1622952222824097, 2.199899196624756, 2.1605958938598633, 0.8198503851890564, 0.08487396687269211, 1.4463772773742676, -0.2179005891084671, 0.842889130115509, 1.5712096691131592, 0.45242488384246826, 0.40475067496299744, -0.48484939336776733, 0.10277017205953598, 0.49923816323280334], [1.3038182258605957, 0.4867234230041504, 0.8060775399208069, 0.534827470779419, 1.352529525756836, 2.040085792541504, 1.0499897003173828, 0.5341413617134094, -0.5157044529914856, 1.9532177448272705, 2.0765953063964844, 0.5355463027954102, 2.100270986557007, -0.817065954208374, 1.1395466327667236, 0.2444925606250763, 1.6442480087280273, -1.9338657855987549, 2.1772444248199463, 2.2152199745178223, 0.791186511516571, 1.2244155406951904, 1.361558437347412, 1.94252610206604, -0.04101012274622917], [1.0102770328521729, 1.0396013259887695, 2.2038445472717285, 1.601078987121582, 1.7939079999923706, 0.9713180661201477, 0.9368122220039368, -0.297454297542572, 2.04850435256958, 2.0079610347747803, 2.4193403720855713, 2.2892837524414062, 2.538196325302124, 1.2668720483779907, 2.275447130203247, 1.6189558506011963, 2.049849510192871, -0.8954905867576599, 1.0042402744293213, 1.414678692817688, 0.7034518122673035, 0.8566359877586365, -0.8895807862281799, 1.5189701318740845, -1.0278253555297852], [-1.1890883445739746, 0.9403703212738037, 1.2150239944458008, 0.8304895162582397, 1.8059687614440918, 0.40964752435684204, 1.833625078201294, 1.092313528060913, 2.422189474105835, -0.8580121397972107, -1.8512780666351318, 0.7669364809989929, 1.0886731147766113, 1.1235685348510742, -0.8843384385108948, 1.8283634185791016, -0.7129694223403931, 2.007948875427246, 1.007991909980774, 0.20437513291835785, 1.8828768730163574, -0.09342408180236816, 1.0530564785003662, 1.269828200340271, 2.2304728031158447], [-0.6689983010292053, -1.958871841430664, -0.005793292541056871, -1.775531530380249, 0.07981278002262115, 1.165845274925232, -0.23047271370887756, 0.7996270656585693, -1.303635597229004, 4.2400689125061035, 1.8298356533050537, -0.9207174777984619, 1.5259952545166016, 1.2539169788360596, 2.6753299236297607, -1.374206781387329, 2.065492868423462, -1.8239836692810059, 1.841794729232788, 1.851701259613037, 2.0401930809020996, 1.2760478258132935, 0.8202620148658752, 0.4008938670158386, -0.24359916150569916], [0.4065679609775543, 1.2131556272506714, 1.618692398071289, 3.1312499046325684, 1.763188123703003, -1.4742690324783325, 1.1718991994857788, -0.369905561208725, 1.4144797325134277, 0.679031252861023, 1.6804313659667969, 0.13799050450325012, 0.6384660601615906, -1.385023593902588, -0.02966897375881672, 0.35735511779785156, -0.07185014337301254, -0.04255147650837898, 0.8614473342895508, 1.448883056640625, 2.7482399940490723, -0.8266043663024902, 2.113764762878418, 1.0285704135894775, 0.42567190527915955], [-0.4305229187011719, -1.8674335479736328, 0.13022540509700775, -0.4171472489833832, -0.6781488060951233, 1.6473560333251953, 1.5187280178070068, 1.1508355140686035, 1.7422672510147095, -1.0539026260375977, -0.7744202613830566, 0.44161608815193176, -1.3595789670944214, 0.8030350804328918, -0.9368246793746948, 0.27397817373275757, -0.42566606402397156, 0.6780629754066467, 3.0296378135681152, 1.73214590549469, 1.8220553398132324, 0.3612789213657379, 2.4938220977783203, 0.253837525844574, 2.154503583908081], [0.8582789301872253, -0.8810848593711853, -2.003192901611328, -0.7851855158805847, 2.2103991508483887, 0.21606263518333435, 0.3497737944126129, 0.6422299742698669, 1.5644456148147583, 1.1614333391189575, 1.407494068145752, -0.3079090416431427, 1.8981026411056519, 1.7044615745544434, 0.7682232856750488, -0.5508391261100769, 1.832496166229248, 0.36077389121055603, 0.405138224363327, 0.4245089292526245, 1.5611106157302856, -0.39562496542930603, -0.5374111533164978, 0.7915655970573425, 1.660400152206421], [0.03903473913669586, 1.922425627708435, 1.3143091201782227, 2.6426103115081787, 0.413976788520813, 0.42770111560821533, 0.9597030282020569, 2.017913818359375, 0.681351363658905, 1.3787567615509033, -0.5076757669448853, -0.018950482830405235, 1.4133268594741821, -0.1980174034833908, 0.17548970878124237, -0.4041251540184021, -0.5218453407287598, 0.7621194124221802, 1.921431541442871, 0.9247035384178162, 1.1929973363876343, -2.3236732482910156, 1.7999438047409058, 0.6634217500686646, 1.5675747394561768], [2.2446494102478027, -0.9891850352287292, 2.1751046180725098, -1.2300612926483154, 1.3072675466537476, 0.5742496848106384, -0.41987577080726624, 2.1863253116607666, 2.6695101261138916, 0.4633573591709137, 1.1509560346603394, 1.2924789190292358, 1.877437710762024, 0.919607937335968, 0.26600414514541626, -0.15078502893447876, 1.2847957611083984, 0.33321747183799744, 2.534511089324951, 2.5735909938812256, 1.7141293287277222, -1.2063759565353394, 1.2533016204833984, 1.46506929397583, -0.2306576520204544], [0.33059099316596985, -1.2478537559509277, 0.6190766096115112, -2.4583170413970947, 0.03173820674419403, 2.30816388130188, 1.051275372505188, -0.29854992032051086, -1.2424043416976929, 3.191039800643921, 0.5085987448692322, -1.330984115600586, -0.43042659759521484, 0.8073309063911438, 1.4268100261688232, -1.7171248197555542, 0.7444049715995789, -0.27875056862831116, 1.7004761695861816, -0.20785656571388245, -0.27527958154678345, -1.0436171293258667, -1.5744458436965942, -0.18216995894908905, 0.3865448832511902], [1.5334177017211914, 1.3822381496429443, 1.473289132118225, -0.09424078464508057, 0.6682702898979187, 2.017652750015259, 0.012259071692824364, 0.36583656072616577, 0.9927849769592285, 2.729475259780884, 0.8266697525978088, -0.6190115809440613, 1.4936500787734985, 1.613797903060913, 1.3034343719482422, -0.5129597783088684, 2.1177966594696045, 1.0988454818725586, 0.6436964273452759, 1.7051411867141724, 0.3104058504104614, 1.4988902807235718, -0.13673748075962067, 1.797348141670227, 1.212717056274414], [-0.24835827946662903, -0.6621031165122986, 0.47853386402130127, -0.31943127512931824, 1.8481063842773438, -0.7920321226119995, -1.3701499700546265, -1.192514419555664, -0.8858758211135864, -0.12307799607515335, -0.7600036263465881, 0.8032777309417725, -1.2831032276153564, 1.5499763488769531, 1.7695462703704834, 1.5964332818984985, -0.21100196242332458, -0.11726551502943039, 1.081210732460022, -1.1675777435302734, 1.1240047216415405, 1.2810667753219604, 1.1977075338363647, -0.9430122971534729, 1.0020428895950317], [1.8110905885696411, 0.22825069725513458, -0.8151633143424988, 0.2081729620695114, -0.4090123176574707, 2.4022445678710938, 1.545247197151184, 2.1544644832611084, -0.8149353265762329, -0.6525798439979553, 0.20737430453300476, 0.13556787371635437, -2.603952169418335, 1.0928370952606201, 1.0617754459381104, -0.05128299072384834, 0.3104720711708069, -0.31520551443099976, 1.1545629501342773, -0.5641724467277527, 0.8298894166946411, 1.3612409830093384, -0.5220655202865601, -0.5244171619415283, 1.5606155395507812], [0.818476676940918, 1.6190074682235718, 0.46740642189979553, 1.062395691871643, 1.2001056671142578, -0.5822209715843201, 4.203503608703613, -0.2849307656288147, -0.847849428653717, 2.2277491092681885, 1.6177425384521484, 0.4225468337535858, -0.44375964999198914, 1.3568077087402344, 0.18479101359844208, 1.1647083759307861, -1.778977632522583, -0.6059121489524841, 0.13949134945869446, 0.21446287631988525, 2.5198562145233154, 1.7317979335784912, 2.0879149436950684, 1.0636578798294067, 0.6523125767707825], [2.311286687850952, 0.23100455105304718, 1.6625374555587769, -1.1427310705184937, 0.4016857445240021, 0.015256969258189201, -0.25383564829826355, -0.2972862720489502, 0.7337701320648193, 1.3325384855270386, 1.3297373056411743, 0.5665550231933594, 0.36373335123062134, 1.6298348903656006, 1.6763956546783447, 1.7684786319732666, 0.8942179083824158, 1.368240237236023, 1.5976272821426392, 1.140189528465271, 1.7683579921722412, 1.6984561681747437, -0.7985303997993469, 1.223682165145874, 1.9663159847259521], [-2.773916244506836, -1.0547897815704346, -0.04950088635087013, -4.640176296234131, 0.8003647923469543, 0.06827262043952942, -1.2209043502807617, -0.5071056485176086, -4.361423015594482, 0.5643740892410278, -0.5260079503059387, 0.3645496070384979, -0.7033236622810364, 1.0282598733901978, 2.987205982208252, -3.578040361404419, 2.8275039196014404, -0.21650350093841553, 1.642677903175354, -0.9720442891120911, -0.3662598431110382, -0.3365989029407501, -0.15469086170196533, 0.06859628111124039, -0.7334038615226746], [-1.3951643705368042, 1.0198445320129395, 1.6242375373840332, 0.991755485534668, 1.2967901229858398, 0.7915769815444946, 1.5481594800949097, 0.8577028512954712, 0.3804131746292114, 1.4403945207595825, -0.8823018074035645, 1.5013331174850464, 1.8756024837493896, -0.08969563245773315, 1.3740037679672241, -0.06783250719308853, 1.9951061010360718, 1.6991690397262573, -0.3103675842285156, -0.8489263653755188, 0.16670402884483337, 0.9902684092521667, 1.7176971435546875, 0.1551634669303894, 3.061734914779663], [-0.4938960075378418, 1.1515090465545654, 1.3633610010147095, 0.24246340990066528, 1.7131624221801758, 3.472705364227295, 0.06979238986968994, 1.5377082824707031, 0.029410958290100098, 1.3170527219772339, 0.49991071224212646, -0.7173717021942139, -0.06299348175525665, 2.3323206901550293, 0.17569999396800995, -1.5208708047866821, -0.09107806533575058, -0.5288744568824768, 0.7740384340286255, -0.8493743538856506, -0.2692655324935913, 0.48724865913391113, 1.1049102544784546, 2.179401397705078, 1.0285465717315674]], "name": "trainable_4", "bias": [1.126198649406433, 0.5546481013298035, 0.499276727437973, 0.10900581628084183, 0.6438180804252625, 0.028751246631145477, 2.147848129272461, -0.7902023196220398, 0.2269260734319687, 1.1036969423294067, -0.015152526088058949, -0.09108390659093857, 1.8820313215255737, 1.4826713800430298, 0.4568638205528259, 0.6625102162361145, 1.4238613843917847, 1.334774374961853, 2.0057053565979004, 2.641293525695801, 1.4052151441574097, 1.1395796537399292, -0.8056613802909851, -1.4142330884933472, -0.09972483664751053], "out_features": 25}, {"type": "tanh", "name": "activation_5"}, {"type": "dense", "has_bias": true, "in_features": 25, "weights": [[1.008882999420166, 0.8139537572860718, 1.3035434484481812, 1.3099298477172852, -0.2784932255744934, 2.846604824066162, 1.4109935760498047, 0.822121798992157, -0.12710033357143402, 0.4798518121242523, 1.7351044416427612, 0.29379981756210327, 2.9775259494781494, 0.3841441571712494, -0.4589911103248596, 0.08160343766212463, 2.6011781692504883, -0.07548202574253082, 0.841029167175293, 1.3750947713851929, 2.112205743789673, 0.6791806221008301, 0.14388670027256012, 0.7074831128120422, 1.0584803819656372], [1.093172311782837, 1.6456111669540405, 0.9443890452384949, 1.9370193481445312, 1.8393359184265137, 1.3840932846069336, -0.6151999831199646, -0.4998198449611664, 0.7763209342956543, 0.4489198923110962, -0.15650233626365662, 3.148257255554199, -0.12586545944213867, 1.4401295185089111, -0.4729442894458771, 0.16244414448738098, 1.6900399923324585, 2.1079540252685547, 1.034178376197815, 1.0354516506195068, 2.9442636966705322, 1.964145302772522, 0.5462990999221802, 1.7662297487258911, 1.593360424041748], [0.8304715156555176, 0.7395891547203064, 1.2107195854187012, -1.1077830791473389, 0.1193256750702858, 0.038323868066072464, -0.6186910271644592, 0.22822345793247223, -0.3699049949645996, 1.5363065004348755, 1.7888178825378418, 0.7371106147766113, 0.10221162438392639, 1.6313045024871826, 0.3872968256473541, 1.7580022811889648, -0.47740694880485535, 1.4346243143081665, 1.8883640766143799, 0.4861656129360199, -0.6905983090400696, 1.6566232442855835, 1.3439579010009766, 0.9790330529212952, 3.1743040084838867], [2.1075735092163086, -0.17929381132125854, 1.0109660625457764, 4.175851345062256, 1.0384212732315063, 2.765303611755371, 1.9352219104766846, 0.5011594295501709, -0.08827884495258331, 3.2777981758117676, 2.4744136333465576, 1.5762555599212646, 1.0490243434906006, 0.0725574791431427, 0.5416971445083618, 0.4656057357788086, 1.9566456079483032, 1.9514106512069702, 0.37315458059310913, -0.49461737275123596, 1.0147744417190552, 0.2752116024494171, 0.7389938235282898, 2.5288326740264893, -0.2993887960910797], [0.40590181946754456, -0.798899233341217, 1.182602882385254, 2.5123977661132812, 1.5421658754348755, 0.9751409292221069, -0.7091689705848694, -0.5175781846046448, 1.0200275182724, -0.9778692722320557, 1.5688117742538452, 2.7263426780700684, 1.1982049942016602, -0.2988419830799103, 2.4628124237060547, 0.2594521939754486, -0.5010669231414795, 0.3260202705860138, -0.025612086057662964, -0.02311176434159279, -0.04151593893766403, 1.843624234199524, 0.11413750797510147, 2.5971386432647705, 0.9160301089286804], [0.9851536154747009, -1.138524055480957, 0.7180285453796387, -0.3060514032840729, -0.5420159101486206, 1.6995946168899536, -0.9008678793907166, 1.8078505992889404, 1.6008332967758179, 1.6754698753356934, 0.7640808820724487, -0.3019524812698364, -0.06018303707242012, 0.8297647833824158, 2.235908031463623, 0.586531400680542, -1.456273078918457, 0.7154765725135803, 0.7086144089698792, -0.1808498054742813, 0.7488157153129578, 0.7742647528648376, 1.809766411781311, -0.4008188247680664, 0.703865110874176], [0.3534436821937561, 0.36254286766052246, 1.1048563718795776, 2.117826461791992, 0.9175347685813904, -1.2057437896728516, -0.6838830709457397, -0.8502227663993835, 0.7836058735847473, 0.2527637779712677, 0.9022721648216248, 0.9545891880989075, -0.7486456036567688, 0.6928988099098206, 0.14558959007263184, 1.166091799736023, 2.094223737716675, 2.3117599487304688, 1.135759711265564, 0.7911832928657532, 1.0593693256378174, -0.7646960020065308, 1.2783433198928833, 1.9874403476715088, 1.853894829750061], [0.9424469470977783, 1.5902827978134155, 0.60784512758255, 1.4611272811889648, -0.9342501759529114, -0.17350086569786072, 0.5416417121887207, 0.4277532398700714, 1.246792197227478, 1.9683724641799927, 1.6650270223617554, 0.7365637421607971, 1.3892014026641846, -0.7055281400680542, 0.7969360947608948, 0.8926237225532532, 1.2753162384033203, 0.6759178638458252, 0.13329263031482697, 2.485917091369629, 0.8496818542480469, 0.7010473012924194, 0.5507144927978516, 1.9997413158416748, 0.37256014347076416], [1.5752359628677368, 3.149350643157959, 0.64793461561203, 1.8629316091537476, 1.1157628297805786, 1.1411607265472412, 0.08048035204410553, 0.2038636952638626, 1.5487394332885742, 2.221271514892578, 0.8908838033676147, 0.9339120984077454, 0.5030809044837952, 1.9047472476959229, 0.8331779837608337, 0.014113086275756359, 3.055248975753784, 0.022166114300489426, 1.9120526313781738, -0.10993681848049164, 1.2393072843551636, 1.12361478805542, 2.2543118000030518, -0.7359390258789062, 2.1255037784576416], [1.1115480661392212, 2.426865816116333, 2.3345224857330322, 0.9036275148391724, -0.10788596421480179, 0.6024940609931946, 0.7923620343208313, 2.470104694366455, 0.5799246430397034, 0.3086790442466736, 1.2785710096359253, -0.2595664858818054, 1.4568088054656982, 0.729284942150116, 1.0168827772140503, 2.3890931606292725, -0.17916055023670197, 1.0043388605117798, 0.6612855792045593, 0.3887868821620941, 0.11694686859846115, 1.1159579753875732, 1.8311598300933838, 2.6024465560913086, -0.518633246421814], [-0.4285779595375061, -0.326326847076416, 2.4560329914093018, 1.6430704593658447, 2.850874185562134, 1.1616296768188477, 1.4962078332901, 0.8266323804855347, -0.37367093563079834, -0.9523425698280334, 1.6968978643417358, 0.998727560043335, 1.0601774454116821, 1.4726240634918213, 1.613074779510498, 1.327195644378662, 0.45728176832199097, -0.3450334966182709, 0.6712771654129028, -0.17235122621059418, 2.661823034286499, 0.9244893193244934, 1.0651557445526123, 0.3935074806213379, 0.1224723756313324], [1.5800215005874634, 0.848680317401886, 0.8609797358512878, 2.933637857437134, 1.340147614479065, 0.6396802067756653, 0.17554904520511627, -0.0343596525490284, -0.8473498225212097, 0.45248597860336304, -0.939445972442627, 0.5055462121963501, 1.7494558095932007, 1.6606041193008423, 1.7526288032531738, -0.6733846664428711, 1.278586983680725, 2.1235482692718506, 1.895606279373169, -0.05035437270998955, 0.904609203338623, 1.392987847328186, 0.843372642993927, 1.4700071811676025, 0.1334860622882843], [0.733460009098053, -0.5307368040084839, 1.1157537698745728, 0.7398827075958252, 0.8256207704544067, 2.03175950050354, 2.1028518676757812, 1.818770170211792, 0.8229668736457825, 0.11328785866498947, -0.5806145668029785, 0.2708105742931366, 1.4316753149032593, 0.6715574264526367, 2.276002883911133, 0.3376423120498657, 0.9013186693191528, 0.41125181317329407, 1.1340090036392212, 0.8787893056869507, 1.3268917798995972, 2.0829532146453857, 2.232311964035034, -1.0529886484146118, 0.532871425151825], [1.2904623746871948, 0.7353814840316772, 2.1683902740478516, 0.8966795206069946, 1.323923110961914, -0.20751695334911346, 1.5152055025100708, -0.4070795476436615, 0.36726969480514526, 0.1671498715877533, 0.2842702567577362, 1.2593839168548584, -0.08056893199682236, 2.4428951740264893, 2.319164991378784, 1.761193871498108, 0.9600555300712585, 0.12979966402053833, 0.6258995532989502, 1.326798439025879, 2.000166654586792, 1.0910700559616089, 2.327360153198242, -0.037515364587306976, 2.7363805770874023], [0.7785792946815491, -0.5951043963432312, 2.1295595169067383, -0.2361556738615036, 0.0625884011387825, 1.5309288501739502, 0.5384430885314941, 0.022800598293542862, 1.9570029973983765, 0.06307736784219742, 0.7068709135055542, 0.2156965732574463, 0.5793179869651794, 1.3310768604278564, 1.2812466621398926, 0.752377450466156, 1.1776461601257324, 1.1071135997772217, 1.4205138683319092, 0.1760057806968689, 0.6456186175346375, 1.9444457292556763, 1.741400122642517, -0.3203175365924835, 1.5310511589050293], [1.9559557437896729, 1.10660719871521, 2.273491621017456, 0.0036953084636479616, 0.5180054903030396, 2.2346858978271484, 1.023170828819275, 1.3558108806610107, 0.21484503149986267, 0.3073776364326477, 0.4563271999359131, 2.2961764335632324, 0.4429982006549835, 0.5245786905288696, 1.1550790071487427, 0.34959185123443604, 1.9155964851379395, 0.14836063981056213, 3.3819613456726074, -0.6872982978820801, 0.4995131492614746, 1.8819220066070557, 1.1365442276000977, 1.998465657234192, 2.3897135257720947], [0.8776460886001587, -1.595092535018921, 2.0513882637023926, 0.2870796024799347, 0.14780943095684052, 2.074894666671753, -1.655090093612671, 1.3706927299499512, 1.7954484224319458, 0.3314448297023773, 1.1205374002456665, 0.37400925159454346, 1.9135966300964355, -0.1763710081577301, 0.3169723451137543, 1.7119770050048828, 1.4140745401382446, 0.3974630832672119, 1.8154147863388062, 1.5016186237335205, -0.5362462997436523, -1.0164878368377686, 2.4192490577697754, 1.5459423065185547, 1.244607925415039], [2.647616147994995, 1.2351545095443726, 0.8070555329322815, 1.6966962814331055, 0.06647425144910812, 0.9322943091392517, 0.7746481895446777, -0.08449161797761917, 0.878700315952301, 1.048922061920166, 1.1946347951889038, 0.7165341973304749, 0.26423728466033936, 0.5597699284553528, 1.6507314443588257, -0.3975971043109894, 1.7785799503326416, 0.2805197238922119, 0.5847796201705933, -0.13584086298942566, 0.8498632907867432, 2.1363208293914795, 2.1588022708892822, 0.2576242685317993, 0.4117298126220703], [0.8096092343330383, 0.8332107067108154, 0.9945507645606995, 0.6166410446166992, -0.8091466426849365, -0.5077827572822571, 0.1285553127527237, -2.3745789527893066, 2.4450409412384033, 0.5544995665550232, 0.25405243039131165, 1.1271061897277832, -0.8847015500068665, 0.765181839466095, 1.3200780153274536, 0.6520946621894836, -0.30161142349243164, 1.638041377067566, 1.3056668043136597, 0.03018094412982464, 1.8346811532974243, 0.1372493952512741, 3.415231227874756, 1.166959285736084, 1.8514385223388672], [-0.2681743800640106, -0.2509239614009857, 0.5295207500457764, 1.0503867864608765, 2.86683988571167, 1.214599847793579, 1.6184712648391724, -0.9365658760070801, 1.3872326612472534, 0.6855730414390564, -2.253889322280884, -0.5699113607406616, 0.7516611218452454, 1.0296684503555298, 1.9240429401397705, 3.310102701187134, 0.6308401226997375, 0.6784934401512146, 2.179023504257202, 1.8837683200836182, 1.4474390745162964, 0.10131015628576279, 1.192415714263916, 1.313071846961975, 1.2210419178009033], [1.3895057439804077, 1.4687379598617554, 1.5274832248687744, 2.5183513164520264, 1.3975387811660767, 1.394924521446228, 2.250782012939453, -0.7214862108230591, 2.0814528465270996, -0.2056741714477539, 1.3700120449066162, -0.16201885044574738, 0.24134497344493866, -0.012003542855381966, -0.959959864616394, 1.9074746370315552, -0.1409648209810257, 1.1959117650985718, 3.397028684616089, 3.821833848953247, 1.2599124908447266, 0.6656239032745361, 2.265014410018921, 0.6698681712150574, 1.3908509016036987], [1.7465300559997559, -0.4019545316696167, -0.6726400852203369, 1.7620981931686401, 2.2869720458984375, 1.8336093425750732, 0.04665599390864372, 2.3760595321655273, 1.4725065231323242, -0.19892404973506927, 1.142439365386963, -0.6217852830886841, -0.07004541158676147, 0.43458783626556396, 3.420917272567749, -0.26938292384147644, 0.10341189056634903, -1.1301041841506958, 1.812997817993164, 2.1488513946533203, -1.4340858459472656, 1.2750566005706787, 1.5589878559112549, 1.0207656621932983, -0.07011728733778], [0.8894339799880981, 3.1399776935577393, 0.6134532690048218, 2.1976327896118164, 0.9870452284812927, -1.2118477821350098, 3.0033979415893555, 0.42175209522247314, -1.2985196113586426, 2.821747303009033, 1.6125694513320923, 0.40937456488609314, 0.6775658130645752, 0.9300082325935364, 0.5035079717636108, 2.181333541870117, 1.040939211845398, 2.243525266647339, 0.023167645558714867, 1.9807322025299072, 2.786947727203369, 1.443130612373352, 1.199544906616211, 1.2178081274032593, -0.857083261013031], [1.2194424867630005, 0.36369356513023376, 0.52814781665802, 1.2515366077423096, 2.3413405418395996, 1.3989639282226562, -0.787304162979126, -1.0712350606918335, -0.009540748782455921, 1.3715691566467285, 0.08060059696435928, 1.8326481580734253, 0.5128791332244873, 1.9644477367401123, 1.629255771636963, 2.6602938175201416, 0.06322808563709259, 1.069939136505127, 0.6747467517852783, 0.07762161642313004, -0.2950301766395569, 0.03061675652861595, 0.3960162103176117, -0.6642872095108032, 1.6175494194030762], [3.3990142345428467, -0.33659306168556213, 0.06716667115688324, 2.3497822284698486, 0.15404368937015533, 1.8321988582611084, 1.1363848447799683, 0.3443533778190613, 1.499674916267395, -0.035789359360933304, 1.5351985692977905, 1.4928679466247559, 0.9269962906837463, 1.9774656295776367, 0.43256765604019165, 0.14652428030967712, 0.13143090903759003, 1.8166974782943726, 1.5128817558288574, 1.2707442045211792, 2.552596092224121, -1.3544164896011353, 1.12241530418396, 0.2728419303894043, 1.68744957447052]], "name": "trainable_6", "bias": [2.2190141677856445, 1.050306797027588, 1.760876178741455, 1.6342558860778809, 2.254857063293457, 0.25573602318763733, 0.9587376713752747, 2.3560919761657715, 0.7941325306892395, -1.4584739208221436, 3.2402286529541016, 0.730783998966217, 1.4917850494384766, 2.718139171600342, 2.5314245223999023, 0.9612563252449036, 0.6588979363441467, 0.8064693808555603, 1.5390269756317139, 1.186009168624878, 0.9702560305595398, 1.0803089141845703, 1.1297199726104736, 2.2114033699035645, 2.891035556793213], "out_features": 25}, {"type": "tanh", "name": "activation_7"}, {"type": "dense", "has_bias": true, "in_features": 25, "weights": [[0.3694252371788025, -0.18584291636943817], [0.9474058151245117, 2.751189947128296], [0.8099604845046997, 0.8484241962432861], [-0.049886636435985565, 0.9816530346870422], [1.0032975673675537, 0.5283517241477966], [1.727151870727539, 1.9516748189926147], [1.515378475189209, 1.0041111707687378], [1.2128655910491943, 1.4200109243392944], [-0.3135831952095032, -0.2572880685329437], [1.0006908178329468, -0.980597972869873], [-0.6075385212898254, 2.1546342372894287], [0.2707102298736572, -0.8999617695808411], [-0.3342614769935608, 3.1908645629882812], [1.0769524574279785, -0.9153891205787659], [-0.6236347556114197, 1.898101568222046], [-1.3755474090576172, 2.305715322494507], [1.3880739212036133, 0.20232170820236206], [0.3020215928554535, -0.24844589829444885], [-0.8155706524848938, 0.6624019145965576], [0.1944519579410553, 0.9221606850624084], [-0.8585606217384338, 1.2522895336151123], [-0.21811114251613617, 1.2142174243927002], [-1.3424084186553955, -0.8573454022407532], [0.3472329080104828, 0.06842704117298126], [0.17453667521476746, -1.7872674465179443]], "name": "trainable_8", "bias": [2.51715087890625, 3.5227599143981934], "out_features": 2}, {"type": "tanh", "name": "activation_9"}, {"type": "mse", "name": "criterion_10"}]}