{"test_accuracy": 0.8501, "layers": [{"type": "dense", "has_bias": true, "in_features": 2, "weights": [[-16.367345809936523, -2.4957518577575684, 15.545648574829102, 3.320417642593384, -36.541378021240234, 10.49458122253418, 2.563251495361328, 4.813504219055176, -13.75125503540039, 8.645151138305664, -15.405062675476074, 5.935070037841797, 10.979119300842285, 2.423612117767334, 20.59975242614746, -14.070144653320312, 6.64775276184082, 10.963174819946289, 15.745508193969727, 1.5231424570083618, 6.312683582305908, 3.7377617359161377, 16.79750633239746, 11.974916458129883, -3.5776617527008057], [10.71531867980957, -22.795665740966797, 14.910806655883789, 1.7060259580612183, -6.343555927276611, 9.093978881835938, 3.6466939449310303, 3.4342856407165527, -0.2864227890968323, 10.574326515197754, -1.774785041809082, 5.284509658813477, 11.67197322845459, -22.495851516723633, 13.582005500793457, 1.7808051109313965, 7.894130706787109, 4.627861022949219, 15.372992515563965, -0.6528356671333313, -16.65707778930664, 5.106171607971191, 16.94064712524414, 11.334586143493652, 0.2827031910419464]], "name": "trainable_0", "bias": [10.717084884643555, 9.63537883758545, 11.115915298461914, 12.747430801391602, 10.501912117004395, 11.567455291748047, 11.126070022583008, 12.000560760498047, 9.566266059875488, 9.438685417175293, 12.917564392089844, 12.154281616210938, 11.37040901184082, 11.608644485473633, 11.681146621704102, 10.553010940551758, 11.311178207397461, 12.059207916259766, 10.355082511901855, 9.916947364807129, 12.567352294921875, 11.91032600402832, 10.59454345703125, 10.237067222595215, 8.325581550598145], "out_features": 25}, {"type": "tanh", "name": "activation_1"}, {"type": "dense", "has_bias": true, "in_features": 25, "weights": [[5.701089382171631, 3.7170376777648926, 1.65871000289917, 2.9101297855377197, 6.348409652709961, 1.704862356185913, 2.4349982738494873, 8.620234489440918, 2.842252016067505, -0.42060908675193787, 8.732954025268555, 6.611277103424072, 3.737090587615967, 5.875371932983398, 4.456908226013184, 7.467133522033691, 8.24730396270752, 8.103633880615234, 2.5712406635284424, 4.753671169281006, 6.000038146972656, 3.1696343421936035, 3.9385533332824707, 4.184597492218018, 6.471469879150391], [-10.551959991455078, -4.20614767074585, -5.596471786499023, -2.6874477863311768, -5.368100166320801, 0.5755586624145508, -4.215423107147217, -8.956722259521484, -4.427326679229736, 0.5004068613052368, -16.229684829711914, -5.006165027618408, -6.857736110687256, -8.276697158813477, -4.970184803009033, -10.026021957397461, -11.633017539978027, -9.002388954162598, -4.848543167114258, -4.838085651397705, -10.461023330688477, -6.071563720703125, -7.927958965301514, -5.322646617889404, -7.24412727355957], [0.6514225006103516, -2.1993916034698486, -0.40089279413223267, 0.08981772512197495, -3.4707260131835938, 0.8672648668289185, -0.9909470677375793, -0.050388120114803314, -3.0283076763153076, 1.6345007419586182, 1.3109042644500732, 0.7428320050239563, 1.3268927335739136, 1.3850332498550415, -0.015533201396465302, -1.8967313766479492, -1.9360435009002686, -4.021788120269775, -0.5113438367843628, 0.8186275362968445, 0.31475239992141724, -2.754220485687256, -0.9252839088439941, 0.9746326208114624, -1.5441093444824219], [2.1272008419036865, -1.4958293437957764, -1.657645344734192, -0.2811572253704071, -0.5719859600067139, -1.1776530742645264, -1.4019238948822021, -1.5061390399932861, -0.9438390135765076, 1.6582980155944824, 1.1501636505126953, -0.4804166853427887, 0.9345462918281555, 0.5826314091682434, -0.8373748064041138, -2.488123893737793, -1.0152339935302734, -2.934861421585083, 0.16572639346122742, 0.1952112466096878, 0.34264296293258667, -1.7059574127197266, -0.07480224221944809, 1.9252873659133911, 0.23864753544330597], [-15.479106903076172, -11.353188514709473, -7.693061351776123, -8.215798377990723, -8.609697341918945, -1.204395055770874, -9.92506217956543, -14.46558666229248, -13.937979698181152, -3.077340841293335, -16.151145935058594, -12.863621711730957, -5.944319248199463, -10.6405611038208, -10.608437538146973, -11.4091215133667, -8.240249633789062, -15.02595329284668, -3.670881509780884, -4.959442615509033, -15.31653881072998, -12.139914512634277, -2.6332690715789795, -10.030967712402344, -9.359342575073242], [0.5031275153160095, -2.1507933139801025, 0.6411681771278381, 0.579389214515686, -1.5431971549987793, 2.648400068283081, -0.45619672536849976, 0.5419539213180542, -2.6655709743499756, 0.4263280928134918, -0.5215829014778137, -0.1237700805068016, 1.3185275793075562, -0.03430727869272232, -0.24926342070102692, -1.790083646774292, -0.9336352944374084, -2.7098400592803955, 1.3115954399108887, 0.051731452345848083, 1.08115816116333, -0.709762454032898, -1.2612687349319458, -0.5090778470039368, -3.317599058151245], [2.924987554550171, -3.1142055988311768, -2.8610265254974365, 0.02183380350470543, -1.4076495170593262, 1.8641101121902466, -1.109978437423706, -1.3016176223754883, -1.3845093250274658, 1.4444372653961182, 0.1207510381937027, 1.383302092552185, 0.12437595427036285, -2.1421244144439697, 0.8700840473175049, -1.9090865850448608, -0.534142255783081, -2.333808660507202, 0.9155279397964478, -0.641357958316803, 2.9989068508148193, -1.704240083694458, 1.8498879671096802, 1.4652677774429321, -0.22096920013427734], [3.2658073902130127, -1.8711073398590088, -1.9248725175857544, 1.4018275737762451, -1.805678367614746, 1.2740522623062134, -1.6972885131835938, -0.4268048107624054, -2.1615545749664307, 2.7554690837860107, -0.14084970951080322, 0.7769337296485901, 2.8044350147247314, -1.4413481950759888, 0.5648022890090942, -2.444269895553589, -0.3302043676376343, -4.357888698577881, -0.1317322552204132, 2.934300661087036, 0.8620673418045044, -0.4349985122680664, -0.13826537132263184, 2.1501898765563965, -0.20591695606708527], [-3.9013428688049316, 1.3485291004180908, -1.7912791967391968, -0.08694624155759811, -1.6802639961242676, -1.4751076698303223, -0.2871202528476715, -2.139723300933838, -1.0134332180023193, -1.9785388708114624, -4.437292098999023, -1.2221813201904297, -1.5961960554122925, -1.9015041589736938, -4.489952564239502, -1.7699596881866455, -3.1212756633758545, 0.6463019251823425, -0.6571840643882751, -1.0346158742904663, -4.679566383361816, -1.176568865776062, -0.09977851808071136, -1.0371533632278442, -1.8057976961135864], [0.5359319448471069, 0.058929603546857834, -0.6822561621665955, -0.05267787352204323, -2.1371703147888184, 1.9027962684631348, -1.4907821416854858, -1.3931710720062256, -1.6994471549987793, 1.9903188943862915, -0.7942780256271362, 0.03521908074617386, 1.2374751567840576, -1.6272004842758179, -0.616012692451477, -2.7565536499023438, 0.320750892162323, -1.7979719638824463, -0.2579740285873413, 2.3117127418518066, -1.2913641929626465, -2.021083354949951, -0.48211669921875, -0.7622220516204834, -0.4772408902645111], [7.014843463897705, 3.1462559700012207, 4.674281597137451, 5.332857131958008, 1.9688798189163208, 3.1292006969451904, 3.9447925090789795, 4.838759422302246, 2.854985475540161, 1.4639191627502441, 11.611163139343262, 3.325394868850708, 4.492563247680664, 4.865320205688477, 3.859858989715576, 4.755895614624023, 7.688930988311768, 4.7042365074157715, 2.6459412574768066, 2.9938600063323975, 7.05898904800415, 4.617595195770264, 6.068214416503906, 4.024481773376465, 6.016303062438965], [2.7994186878204346, -1.7581840753555298, -2.4893758296966553, -0.39060303568840027, 0.05108334869146347, 1.363689661026001, -1.5770514011383057, -1.9162406921386719, -3.5944297313690186, 1.8600983619689941, -0.3948396146297455, 1.1102219820022583, 2.250722646713257, 0.19309842586517334, 0.19941630959510803, -1.8642692565917969, -0.303632915019989, -2.712062120437622, 2.6522979736328125, 2.192870855331421, 2.475975513458252, -1.9836440086364746, 0.0035810554400086403, 3.3977794647216797, -2.618811845779419], [-0.08204030990600586, -2.453850507736206, -3.2833480834960938, 2.5720767974853516, -2.0675268173217773, 1.3012402057647705, -1.0780528783798218, -0.7317968606948853, -2.6120049953460693, 1.7750003337860107, 0.0011931974440813065, 2.4754507541656494, 0.651150643825531, -1.2120665311813354, 0.421557754278183, -1.9637798070907593, -0.30740708112716675, -1.938055157661438, 1.2866029739379883, 1.3164539337158203, 0.7437314987182617, -2.370419502258301, 0.17461836338043213, 1.2934061288833618, -2.450465679168701], [4.230031490325928, 2.1054365634918213, 1.8985687494277954, 1.2862602472305298, 2.792341947555542, 2.4224348068237305, 1.8436665534973145, 1.56636643409729, 4.049225330352783, -0.7605850696563721, 8.751924514770508, 1.7808139324188232, 1.5080244541168213, 1.59409761428833, 2.9513633251190186, 3.283989429473877, 7.575834274291992, 4.131153106689453, 3.0316030979156494, 1.1564236879348755, 3.754456043243408, 2.0622599124908447, 8.560425758361816, 2.3296384811401367, 4.165062427520752], [0.2273494005203247, -0.9997314810752869, -1.2960619926452637, -0.6093329191207886, -1.6246371269226074, -0.5299433469772339, -2.168398857116699, -1.5988829135894775, -0.5142364501953125, 2.512317657470703, -1.3111698627471924, 1.6791527271270752, 0.6672853827476501, 0.44854557514190674, 1.4725228548049927, -1.91135835647583, -3.1990907192230225, -3.0616953372955322, 2.214245557785034, 1.6311991214752197, 2.195794105529785, -2.7797560691833496, 0.44785264134407043, 1.6651593446731567, -3.3223066329956055], [3.4979820251464844, 1.3513180017471313, 0.5954187512397766, 2.3951098918914795, 1.0220179557800293, 1.3716667890548706, 1.4337350130081177, 2.740344285964966, 0.4695929288864136, -0.255817711353302, 6.991450786590576, 3.066892385482788, 2.5021235942840576, 2.927110433578491, 0.46193045377731323, 2.2969281673431396, 3.593268632888794, 2.0813283920288086, 1.1051746606826782, 3.3109705448150635, 5.104894161224365, 0.4458083510398865, 3.5047411918640137, 1.7865818738937378, 1.8955336809158325], [1.9725799560546875, -1.2524323463439941, -1.0356509685516357, -0.3600609004497528, -0.762367844581604, -0.13605642318725586, -2.5927205085754395, 0.3658504784107208, -3.445385694503784, -0.19959115982055664, 0.10528991371393204, 4.1070756912231445, 2.1093318462371826, -0.14429667592048645, 0.7615680694580078, -4.145514011383057, -1.3788394927978516, -3.820183515548706, 0.17091095447540283, 0.44552016258239746, 0.6797648668289185, -1.082411289215088, 0.14976386725902557, 0.6542778015136719, -0.14543813467025757], [1.1980935335159302, -0.7894054055213928, -0.16795724630355835, 1.6196768283843994, -2.131244659423828, 1.3954823017120361, -1.471942663192749, -0.55762779712677, -1.5241234302520752, 2.664285182952881, -0.06703256815671921, 3.715977430343628, -0.6035341620445251, -0.15810394287109375, 2.3761606216430664, -4.007630825042725, -2.180213451385498, -5.3652544021606445, 0.9785938262939453, 2.2829933166503906, 2.2618250846862793, -1.3884239196777344, -0.19155892729759216, 1.8166524171829224, -0.20095957815647125], [1.430871605873108, -1.5751848220825195, -0.745980441570282, 1.7558250427246094, -0.7531405687332153, 0.8396364450454712, -2.7874670028686523, -2.2687911987304688, -1.187284231185913, 0.9473724365234375, -0.3919426500797272, 0.49487242102622986, 1.482753872871399, 0.4441596269607544, 0.9457716941833496, -3.1709325313568115, -2.600311756134033, -1.8310972452163696, 0.11891982704401016, 1.3877193927764893, 0.6036916971206665, -2.014350175857544, 0.12799440324306488, 1.275844693183899, -2.557371139526367], [0.5713508129119873, 0.5740925669670105, -1.6165995597839355, 1.2346819639205933, -2.639106273651123, 0.3487858772277832, -0.7282944917678833, -0.8923141956329346, -2.225397825241089, -0.3044479787349701, 1.32161545753479, 2.8562395572662354, -0.6475659608840942, 0.7458571195602417, 1.0448793172836304, -1.749492883682251, -1.904736042022705, -0.5579760074615479, 0.906272828578949, 1.165310263633728, 1.2913094758987427, -1.7241936922073364, -0.19273602962493896, 0.886756956577301, -1.13419771194458], [10.318368911743164, 8.205754280090332, 5.375603675842285, 5.423938751220703, 8.897381782531738, 0.2883726954460144, 6.141010761260986, 13.082231521606445, 9.04592514038086, 2.6441705226898193, 14.839168548583984, 6.094492435455322, 5.102548122406006, 9.912013053894043, 7.400423049926758, 9.179759979248047, 7.571279525756836, 10.330241203308105, 3.088489294052124, 5.2483134269714355, 10.413276672363281, 6.986597061157227, 4.339378356933594, 7.225131511688232, 7.88383150100708], [0.5147738456726074, -3.2692019939422607, -0.5757516026496887, 0.6731254458427429, -0.7817531824111938, 1.5002878904342651, -2.0949907302856445, -1.8017218112945557, -3.1301019191741943, 0.5508074760437012, -1.1931984424591064, 0.564657986164093, 0.5506024956703186, 0.9890392422676086, 0.9311550855636597, -2.805116891860962, -0.6253065466880798, -0.6222721338272095, 1.9301148653030396, 0.13960929214954376, 0.9016872644424438, -1.493596076965332, 1.696513295173645, 1.941562533378601, -0.3915387988090515], [1.3241304159164429, -2.0973398685455322, -2.429330348968506, 2.5626468658447266, -1.4793434143066406, 1.1285934448242188, -1.0522613525390625, -1.6146008968353271, -1.4881508350372314, -0.09977780282497406, 1.532219409942627, -1.6700079441070557, 1.6613491773605347, -1.2149370908737183, 0.875956654548645, -2.0434322357177734, -1.9045310020446777, -3.9630208015441895, 1.0475165843963623, -0.5992928147315979, 2.222024917602539, -2.7744626998901367, -0.8198258876800537, -0.27844491600990295, -1.9040043354034424], [1.6949576139450073, -1.643625020980835, 0.1975695788860321, 1.2235307693481445, -3.326200008392334, 1.3955409526824951, -0.29615315794944763, -1.2945964336395264, -1.2480835914611816, 0.8119220733642578, 0.8957334756851196, 0.3210446834564209, 0.01884930394589901, -1.6568905115127563, 1.6110678911209106, -2.3330166339874268, -0.6908289790153503, -4.4217705726623535, -0.02467535063624382, 2.069391965866089, 1.9725205898284912, -0.8293949365615845, 1.338192105293274, -3.6894044876098633, -2.2319467067718506], [-2.6128385066986084, -1.3264586925506592, 1.921119213104248, -3.273564577102661, 0.7396062612533569, -0.186163067817688, 0.29071110486984253, -1.4029653072357178, -1.0518614053726196, -1.895232081413269, -0.8846840858459473, -3.001648426055908, 2.023350715637207, -0.620354175567627, -2.850093126296997, -0.6161321401596069, 0.3208562433719635, 0.5832748413085938, -0.40368032455444336, 1.8983556032180786, -3.809281349182129, 0.2846516966819763, 0.10525604337453842, -2.058236598968506, -0.09146370738744736]], "name": "trainable_2", "bias": [-10.082720756530762, -9.910584449768066, -10.696900367736816, -9.900773048400879, -12.088473320007324, -12.206032752990723, -10.130221366882324, -10.424155235290527, -9.673523902893066, -9.533953666687012, -10.825512886047363, -9.633423805236816, -10.369050025939941, -10.218049049377441, -10.120627403259277, -10.392064094543457, -8.956460952758789, -9.777228355407715, -11.477877616882324, -11.222651481628418, -9.084961891174316, -11.032593727111816, -10.611908912658691, -9.977677345275879, -10.864819526672363], "out_features": 25}, {"type": "tanh", "name": "activation_3"}, {"type": "dense", "has_bias": true, "in_features": 25, "weights": [[2.1127517223358154, 3.0143864154815674, 0.9208637475967407, 2.0244061946868896, 0.5683655142784119, 0.1757533848285675, -0.45122960209846497, 0.8322152495384216, -0.001752499840222299, 0.8146263360977173, 0.007836805656552315, 0.9826904535293579, 1.0403521060943604, 0.7675116062164307, -0.34905222058296204, -0.2728455066680908, -0.30606529116630554, 0.11479992419481277, 1.0366028547286987, -0.2774314880371094, 3.179469347000122, 1.6098381280899048, 1.254760980606079, 2.1744322776794434, 2.3333890438079834], [0.8730558753013611, -0.021976632997393608, 0.4660662114620209, -0.6470553874969482, 1.762527346611023, 0.8650331497192383, 0.5489366054534912, 2.3870294094085693, 1.994836688041687, 0.9233198165893555, 0.8018561601638794, 0.6211689710617065, 0.6409180164337158, 1.296208381652832, 3.2453980445861816, 0.2652745246887207, 0.640192449092865, 0.28979891538619995, -0.41703423857688904, 1.566007375717163, -0.5632604360580444, 3.4704697132110596, 1.0663821697235107, 2.0947906970977783, -0.19364623725414276], [0.008154142647981644, -0.5748541951179504, -0.16137851774692535, -0.3300304114818573, 0.5609055757522583, 2.1541688442230225, 0.04686214402318001, 0.9877261519432068, 0.45457249879837036, 0.6163788437843323, 0.8972643613815308, 0.750048816204071, 1.0462065935134888, -0.092806376516819, -0.8204987645149231, 0.41420820355415344, 2.798738956451416, 1.6445412635803223, 1.3242079019546509, 1.957062840461731, -0.18823376297950745, 1.5170881748199463, 0.35342514514923096, 1.9532859325408936, -0.256987065076828], [0.13274021446704865, 1.908922553062439, 0.502494752407074, 1.480948567390442, 1.9398795366287231, 2.346078395843506, 0.9214346408843994, 0.721776008605957, -1.4216325283050537, 1.2478089332580566, -0.7649513483047485, -1.1450941562652588, -0.5565321445465088, 0.6418889164924622, -0.1603216677904129, 1.3360202312469482, -0.35596001148223877, 1.4403002262115479, 1.1863083839416504, 0.15375614166259766, 0.6196926832199097, -0.4579281508922577, -1.171976089477539, 0.9282696843147278, -0.2845716178417206], [2.1196556091308594, -1.9283720254898071, 0.9639036059379578, 0.48035576939582825, 2.1035244464874268, 2.0830390453338623, 0.6852408051490784, 1.5253722667694092, 1.5429744720458984, -0.04347119852900505, 0.7863531112670898, 1.862973690032959, 1.4293067455291748, -0.6375957131385803, 0.8916773200035095, -0.8124741315841675, 0.5718643069267273, -1.9349864721298218, 1.46986985206604, 0.7141079902648926, 1.1951929330825806, 1.8690674304962158, 0.07458800077438354, 0.4283256530761719, -0.6774759888648987], [-0.30326175689697266, 0.3952542841434479, -0.3057125508785248, 0.8014935255050659, -0.6200767159461975, 0.9462612867355347, 1.0260127782821655, -0.3172549605369568, 0.8313990235328674, -0.26292309165000916, -1.0139092206954956, -2.303196907043457, -2.582747220993042, -0.8631107807159424, -0.5015991926193237, -0.06001732498407364, -1.5628091096878052, 1.2560100555419922, 1.0556597709655762, 0.6262621283531189, 0.7944185137748718, -1.014538288116455, 0.3231669068336487, 0.22034989297389984, 0.6643410921096802], [0.06628371775150299, 1.7381514310836792, 1.4043163061141968, 0.2286299616098404, 1.449959635734558, 1.1832250356674194, 1.9761360883712769, 2.0364954471588135, 1.119597315788269, 1.1834254264831543, 1.2840272188186646, 1.1456891298294067, 2.248745918273926, 2.155489683151245, 0.8358907699584961, 0.03483101725578308, 1.4889838695526123, -0.19606170058250427, 0.7517551183700562, 1.6032994985580444, 0.4765879213809967, 0.4345058798789978, -0.5228016972541809, 0.10790064930915833, 0.4627240002155304], [2.15531325340271, 0.5867066383361816, 0.920218288898468, 0.9958391785621643, 2.0733423233032227, 2.2852320671081543, 0.9798202514648438, 1.171310544013977, -0.21368098258972168, 3.476377248764038, 2.9218292236328125, 0.8898341655731201, 2.702568769454956, -0.42059147357940674, 1.4730967283248901, 0.5787508487701416, 2.0526862144470215, -1.5797656774520874, 1.9582715034484863, 2.7449960708618164, 1.5915526151657104, 1.8698893785476685, 2.2982046604156494, 2.1397533416748047, 0.22357532382011414], [1.0635637044906616, 1.048176884651184, 2.192289352416992, 1.6143581867218018, 1.815063238143921, 0.9119890332221985, 0.9594839215278625, -0.25006943941116333, 2.0830023288726807, 2.1271018981933594, 2.4520678520202637, 2.282834053039551, 2.5976624488830566, 1.2626539468765259, 2.2947933673858643, 1.5808970928192139, 2.089315176010132, -0.8680711984634399, 0.8966434597969055, 1.4472593069076538, 0.7258695363998413, 0.8937029838562012, -0.9200143814086914, 1.5257185697555542, -1.0609172582626343], [-1.2535940408706665, 0.9260927438735962, 1.2259737253189087, 0.8073283433914185, 1.7819626331329346, 0.468652606010437, 1.8123648166656494, 1.0387184619903564, 2.381220579147339, -0.9854669570922852, -1.8920879364013672, 0.7677853107452393, 1.0209553241729736, 1.125333547592163, -0.9067199230194092, 1.8587746620178223, -0.7559806108474731, 1.9759665727615356, 1.1202410459518433, 0.16812588274478912, 1.854731798171997, -0.13745884597301483, 1.0724258422851562, 1.2608000040054321, 2.2587239742279053], [-1.3169689178466797, -2.1566848754882812, -0.05925802141427994, -2.2716312408447266, -0.2511634826660156, 1.1530004739761353, -0.24842971563339233, 0.36487406492233276, -1.6542695760726929, 3.5419347286224365, 1.2941168546676636, -1.2254765033721924, 1.1121770143508911, 1.0829321146011353, 2.467515468597412, -1.6681009531021118, 1.8140794038772583, -2.127835750579834, 2.093923807144165, 1.6096524000167847, 1.5866413116455078, 0.8790212869644165, 0.2557438611984253, 0.2762816250324249, -0.44476184248924255], [0.3102378845214844, 1.18233060836792, 1.6291271448135376, 3.0791709423065186, 1.7311118841171265, -1.4153164625167847, 1.155210018157959, -0.43930742144584656, 1.3533909320831299, 0.5257114768028259, 1.617811679840088, 0.12268554419279099, 0.5510926842689514, -1.3909021615982056, -0.06008177995681763, 0.3674599230289459, -0.12066686898469925, -0.0878215804696083, 0.9887565970420837, 1.4025400876998901, 2.7011802196502686, -0.8876404166221619, 2.0969457626342773, 1.013734221458435, 0.4399452209472656], [-0.4908754229545593, -1.878602147102356, 0.14108522236347198, -0.43633079528808594, -0.7014236450195312, 1.7061406373977661, 1.4964255094528198, 1.0990358591079712, 1.7039258480072021, -1.178314208984375, -0.812644898891449, 0.4445824921131134, -1.4247334003448486, 0.8057093024253845, -0.9582481384277344, 0.30720460414886475, -0.4681994915008545, 0.6477574706077576, 3.1395833492279053, 1.697112798690796, 1.7960610389709473, 0.3193952441215515, 2.519387722015381, 0.24554480612277985, 2.1852028369903564], [1.2512104511260986, -0.9561528563499451, -1.915500521659851, -0.6840571165084839, 2.645273208618164, 0.46278584003448486, 0.3137931823730469, 1.0389078855514526, 1.615656852722168, 1.9917614459991455, 1.9542256593704224, -0.17267239093780518, 2.2227556705474854, 1.9193204641342163, 0.9526078701019287, -0.4937479794025421, 2.135183811187744, 0.5438603162765503, 0.4006573557853699, 0.7529855966567993, 2.0919125080108643, 0.0008732179412618279, 0.01997106708586216, 0.9013087153434753, 1.783820629119873], [0.32168278098106384, 1.9430617094039917, 1.3900089263916016, 2.821415662765503, 0.7343441247940063, 0.5951057076454163, 0.9185899496078491, 2.2654385566711426, 0.7457455992698669, 1.7558351755142212, -0.1632932424545288, 0.1495792716741562, 1.6105091571807861, -0.0665506049990654, 0.28960540890693665, -0.16491276025772095, -0.35727202892303467, 0.9016172885894775, 1.912215232849121, 1.1122989654541016, 1.5115560293197632, -2.044429063796997, 2.185210704803467, 0.7640331983566284, 1.711145043373108], [2.1786911487579346, -1.0471744537353516, 2.18068528175354, -1.349923014640808, 1.3520817756652832, 0.5407445430755615, -0.38424447178840637, 2.215405225753784, 2.6180505752563477, 0.5536819100379944, 1.1452176570892334, 1.2268524169921875, 1.8692774772644043, 0.905380129814148, 0.2563587427139282, -0.27012398838996887, 1.3188649415969849, 0.31995484232902527, 2.5111260414123535, 2.5925817489624023, 1.7295520305633545, -1.2152695655822754, 1.1722066402435303, 1.4586082696914673, -0.2924416959285736], [0.2790985703468323, -1.0917861461639404, 0.5908287167549133, -2.341242790222168, -0.23259036242961884, 2.1696510314941406, 1.0431615114212036, -0.5346277952194214, -1.1564652919769287, 2.4639487266540527, 0.23526205122470856, -1.3153986930847168, -0.5418258905410767, 0.8241401314735413, 1.3756250143051147, -1.6225042343139648, 0.5645168423652649, -0.34834933280944824, 1.3938391208648682, -0.31509658694267273, -0.571953535079956, -1.2052241563796997, -1.7577606439590454, -0.17779220640659332, 0.3398131728172302], [1.578052043914795, 1.385365605354309, 1.4646443128585815, -0.09457026422023773, 0.6941172480583191, 1.9617996215820312, 0.03639392927289009, 0.4153894782066345, 1.0204778909683228, 2.8496739864349365, 0.8585378527641296, -0.6302372813224792, 1.5486857891082764, 1.6095093488693237, 1.321694016456604, -0.5558839440345764, 2.16048264503479, 1.1242830753326416, 0.54488205909729, 1.7383273839950562, 0.33568936586380005, 1.5327627658843994, -0.16921201348304749, 1.803604245185852, 1.1787737607955933], [-0.3438311815261841, -0.6868100166320801, 0.485234797000885, -0.3695678114891052, 1.8102357387542725, -0.7361394166946411, -1.3908848762512207, -1.265209436416626, -0.9449429512023926, -0.2781745195388794, -0.8256522417068481, 0.7882704734802246, -1.3676327466964722, 1.5433629751205444, 1.7377498149871826, 1.60944664478302, -0.2640574872493744, -0.16350656747817993, 1.2018126249313354, -1.211234211921692, 1.0754395723342896, 1.2186452150344849, 1.1859511137008667, -0.9577485918998718, 1.01724374294281], [1.7455312013626099, 0.21609586477279663, -0.8056265115737915, 0.18472690880298615, -0.4361063838005066, 2.459871768951416, 1.522829532623291, 2.098782777786255, -0.8556997776031494, -0.7827593684196472, 0.16426333785057068, 0.1345418393611908, -2.6718404293060303, 1.0940254926681519, 1.0385138988494873, -0.02086479961872101, 0.26558467745780945, -0.3480914533138275, 1.2654086351394653, -0.6003361940383911, 0.7996940612792969, 1.3158891201019287, -0.501738965511322, -0.533786416053772, 1.589047908782959], [0.7079309225082397, 1.5829366445541382, 0.4765736162662506, 0.9982269406318665, 1.162806749343872, -0.5243759155273438, 4.187461853027344, -0.3625991940498352, -0.918393075466156, 2.0616300106048584, 1.54426109790802, 0.4006905257701874, -0.5395911335945129, 1.34731125831604, 0.15048064291477203, 1.1662468910217285, -1.8317463397979736, -0.6573359370231628, 0.27207326889038086, 0.1638353317975998, 2.461841344833374, 1.6624380350112915, 2.0578393936157227, 1.0460392236709595, 0.6612534523010254], [2.3431077003479004, 0.22755660116672516, 1.6554651260375977, -1.157935619354248, 0.4293954372406006, -0.03779284283518791, -0.2277999073266983, -0.2504667341709137, 0.7530899047851562, 1.4480911493301392, 1.3547821044921875, 0.5487095713615417, 0.4097069501876831, 1.6245211362838745, 1.6922255754470825, 1.7173280715942383, 0.937359094619751, 1.389674425125122, 1.5083091259002686, 1.1720900535583496, 1.7919780015945435, 1.7254095077514648, -0.8380782008171082, 1.2287774085998535, 1.9296364784240723], [-3.0376358032226562, -1.141700029373169, -0.043484870344400406, -4.862663269042969, 0.6805326342582703, 0.12125401198863983, -1.2220731973648071, -0.6452615857124329, -4.516061305999756, 0.23680253326892853, -0.7188282012939453, 0.2511560916900635, -0.8494546413421631, 0.9978058338165283, 2.9255783557891846, -3.6184511184692383, 2.772886276245117, -0.33571234345436096, 1.7677977085113525, -0.964791476726532, -0.4926542043685913, -0.48228612542152405, -0.33605775237083435, 0.05711072310805321, -0.7922937273979187], [-1.6769568920135498, 0.9151447415351868, 1.6256248950958252, 0.7874544262886047, 1.1842014789581299, 0.83836430311203, 1.536185383796692, 0.6764794588088989, 0.21150538325309753, 1.1174432039260864, -1.0915478467941284, 1.3937880992889404, 1.674520492553711, -0.14908519387245178, 1.288215160369873, -0.16478589177131653, 1.8900363445281982, 1.569612741470337, -0.12758022546768188, -0.9673977494239807, -0.010180212557315826, 0.8239672780036926, 1.5118098258972168, 0.10506509244441986, 3.0037899017333984], [-0.917284369468689, 0.9043062329292297, 1.393290400505066, -0.23955853283405304, 1.7580798864364624, 3.506528377532959, 0.13726477324962616, 1.3232927322387695, -0.26700037717819214, 1.2156933546066284, 0.3040805757045746, -0.9684572815895081, -0.25924035906791687, 2.2760369777679443, 0.09310596436262131, -1.8670306205749512, -0.08508308231830597, -0.6809552907943726, 0.9705373048782349, -0.9207372665405273, -0.37353071570396423, 0.3304184377193451, 0.7711602449417114, 2.0553040504455566, 0.8492255806922913]], "name": "trainable_4", "bias": [0.7529917359352112, 0.18144918978214264, 0.12607501447200775, -0.2641952633857727, 0.2706198990345001, -0.3444480895996094, 1.7746524810791016, -1.1634066104888916, -0.14627519249916077, 0.7304907441139221, -0.38835203647613525, -0.4642830491065979, 1.5088222026824951, 1.1094621419906616, 0.08366335928440094, 0.2893114984035492, 1.0506527423858643, 0.9615705609321594, 1.632500410079956, 2.268110513687134, 1.0320073366165161, 0.7663738131523132, -1.1788666248321533, -1.7874422073364258, -0.4729239344596863], "out_features": 25}, {"type": "tanh", "name": "activation_5"}, {"type": "dense", "has_bias": true, "in_features": 25, "weights": [[0.9969883561134338, 0.8180969953536987, 1.3274297714233398, 1.3063877820968628, -0.27278223633766174, 2.861348867416382, 1.416367769241333, 0.826222836971283, -0.13381464779376984, 0.45836395025253296, 1.7275456190109253, 0.2801397740840912, 2.9751853942871094, 0.37265434861183167, -0.4615951180458069, 0.08200020343065262, 2.6370458602905273, -0.07352173328399658, 0.8419767618179321, 1.3728770017623901, 2.1012070178985596, 0.684275209903717, 0.15989316999912262, 0.6977874040603638, 1.0690100193023682], [1.1038953065872192, 1.6267722845077515, 0.912629246711731, 1.9382342100143433, 1.8256481885910034, 1.352390170097351, -0.6347647309303284, -0.5181664228439331, 0.7858337163925171, 0.4667600691318512, -0.15124741196632385, 3.163372278213501, -0.12995456159114838, 1.4470574855804443, -0.4711185395717621, 0.16492952406406403, 1.6444275379180908, 2.1047849655151367, 1.0369515419006348, 1.0338386297225952, 2.9576563835144043, 1.9572333097457886, 0.5414840579032898, 1.7740602493286133, 1.586710810661316], [0.8145095109939575, 0.7183293700218201, 1.2160650491714478, -1.1124496459960938, 0.10867268592119217, 0.003289585467427969, -0.6459805965423584, 0.20237480103969574, -0.36953380703926086, 1.4979313611984253, 1.7884832620620728, 0.7233314514160156, 0.09961288422346115, 1.6012486219406128, 0.39288130402565, 1.7807865142822266, -0.4861055314540863, 1.4314557313919067, 1.9018762111663818, 0.477719247341156, -0.6872163414955139, 1.6634726524353027, 1.3880598545074463, 0.9645925164222717, 3.1860952377319336], [2.119126558303833, -0.18480682373046875, 0.9858153462409973, 4.179522514343262, 1.031312108039856, 2.7480037212371826, 1.9275476932525635, 0.495064914226532, -0.08108574897050858, 3.297825813293457, 2.4830548763275146, 1.5897258520126343, 1.0519977807998657, 0.08240624517202377, 0.5453618168830872, 0.4672102630138397, 1.918818473815918, 1.9490033388137817, 0.37342485785484314, -0.49269580841064453, 1.027157187461853, 0.27043458819389343, 0.7249274253845215, 2.5381855964660645, -0.3102077543735504], [0.36843281984329224, -0.5964770317077637, 1.2051856517791748, 2.5927464962005615, 1.5513187646865845, 1.0763357877731323, -0.6767104268074036, -0.43840140104293823, 1.016102910041809, -1.0762944221496582, 1.7671228647232056, 2.6344285011291504, 1.4847699403762817, -0.4016321301460266, 2.6454436779022217, 0.4954161047935486, -0.5216255187988281, 0.29351234436035156, 0.053811926394701004, 0.07534069567918777, 0.08475922793149948, 1.9459015130996704, 0.060164377093315125, 2.5815532207489014, 0.7471069097518921], [0.9697685241699219, -1.1764259338378906, 0.7279426455497742, -0.31767547130584717, -0.5688284039497375, 1.6490386724472046, -0.9327983856201172, 1.7753485441207886, 1.6022977828979492, 1.6898449659347534, 0.7484748363494873, -0.3109568953514099, -0.08238004148006439, 0.7959781289100647, 2.228461503982544, 0.6007295846939087, -1.4707677364349365, 0.7138020396232605, 0.7184606790542603, -0.18093954026699066, 0.7421795725822449, 0.7809953689575195, 1.8434526920318604, -0.41623997688293457, 0.7250243425369263], [0.3642825484275818, 0.34092432260513306, 1.0721079111099243, 2.1182031631469727, 0.9030073285102844, -1.239809274673462, -0.704935610294342, -0.8703828454017639, 0.7934404611587524, 0.2711227834224701, 0.9044659733772278, 0.9704773426055908, -0.7553116679191589, 0.7002235054969788, 0.1460753232240677, 1.1672247648239136, 2.0477936267852783, 2.308661937713623, 1.1382975578308105, 0.7886683940887451, 1.0719324350357056, -0.7725045680999756, 1.2747632265090942, 1.9950886964797974, 1.8487296104431152], [0.9248756170272827, 1.5456748008728027, 0.6009218096733093, 1.4518693685531616, -0.9696913957595825, -0.24083730578422546, 0.4947434067726135, 0.3830145299434662, 1.2513622045516968, 1.92322838306427, 1.6595433950424194, 0.7258076667785645, 1.3744142055511475, -0.74045729637146, 0.796488344669342, 0.9139339923858643, 1.2458806037902832, 0.671286940574646, 0.15202204883098602, 2.470073699951172, 0.8546594977378845, 0.7036922574043274, 0.6114435195922852, 1.9824509620666504, 0.3925682008266449], [1.5638666152954102, 3.1572742462158203, 0.6745253801345825, 1.8596285581588745, 1.124362826347351, 1.1615221500396729, 0.09051220118999481, 0.21232599020004272, 1.5410470962524414, 2.2019522190093994, 0.8841648101806641, 0.9201916456222534, 0.5010518431663513, 1.8958135843276978, 0.8294990658760071, 0.011660220101475716, 3.095196008682251, 0.02481192536652088, 1.9109677076339722, -0.11116372793912888, 1.2263513803482056, 1.128611445426941, 2.266374111175537, -0.7450020909309387, 2.1357288360595703], [1.0872271060943604, 2.5014901161193848, 2.314565896987915, 0.9411857724189758, -0.12878599762916565, 0.6059543490409851, 0.7706703543663025, 2.47822904586792, 0.5917285084724426, 0.24963900446891785, 1.3831110000610352, -0.30190014839172363, 1.6045253276824951, 0.6619977355003357, 1.1205247640609741, 2.5344207286834717, -0.21856127679347992, 0.9812000393867493, 0.7178602814674377, 0.43081310391426086, 0.19397878646850586, 1.1668493747711182, 1.8264546394348145, 2.5854673385620117, -0.5873712301254272], [-0.440562903881073, -0.3231647312641144, 2.479362726211548, 1.6393753290176392, 2.855937957763672, 1.1751290559768677, 1.5006494522094727, 0.8292086124420166, -0.38016900420188904, -0.97411048412323, 1.689241886138916, 0.9851605892181396, 1.0574032068252563, 1.4607951641082764, 1.6104469299316406, 1.3280541896820068, 0.4923281967639923, -0.3431689739227295, 0.6726246476173401, -0.1747637838125229, 2.6510202884674072, 0.929521381855011, 1.0819971561431885, 0.38367384672164917, 0.13326004147529602], [1.5663549900054932, 0.8851152062416077, 0.8942697644233704, 2.941502094268799, 1.3520711660385132, 0.6774447560310364, 0.19270683825016022, -0.01325350534170866, -0.8564000725746155, 0.4181433916091919, -0.8892747163772583, 0.48158881068229675, 1.7846473455429077, 1.6380985975265503, 1.7720003128051758, -0.6462094783782959, 1.3166836500167847, 2.1224725246429443, 1.9042471647262573, -0.04244818165898323, 0.9084357023239136, 1.411525845527649, 0.849265456199646, 1.4612122774124146, 0.12260094285011292], [0.7210936546325684, -0.5294321775436401, 1.137380838394165, 0.7362476587295532, 0.8289169073104858, 2.0420618057250977, 2.1045453548431396, 1.8184541463851929, 0.8171433210372925, 0.0899064913392067, -0.587242841720581, 0.25711140036582947, 1.4293677806854248, 0.6578952670097351, 2.274444341659546, 0.34088295698165894, 0.9338057041168213, 0.41261526942253113, 1.1368082761764526, 0.8758016228675842, 1.3176096677780151, 2.0882019996643066, 2.251601219177246, -1.0632259845733643, 0.5434930324554443], [1.277906894683838, 0.6461277604103088, 2.158372163772583, 0.8678094744682312, 1.2862529754638672, -0.2965123653411865, 1.461854100227356, -0.4676252603530884, 0.377061665058136, 0.19921554625034332, 0.2315177619457245, 1.2708886861801147, -0.15858100354671478, 2.442624568939209, 2.280052900314331, 1.7351634502410889, 0.9388103485107422, 0.13197104632854462, 0.6263784170150757, 1.2957351207733154, 1.9734042882919312, 1.0691004991531372, 2.363527536392212, -0.05591379478573799, 2.7794430255889893], [0.7683880925178528, -0.5465508699417114, 2.180936098098755, -0.23181942105293274, 0.08564703911542892, 1.5829274654388428, 0.5805572271347046, 0.0625431090593338, 1.9441063404083252, 0.09265762567520142, 0.7084707021713257, 0.1951545923948288, 0.6051984429359436, 1.3548051118850708, 1.2839198112487793, 0.7542704343795776, 1.22068190574646, 1.1108686923980713, 1.4123443365097046, 0.21978320181369781, 0.6303841471672058, 1.9494496583938599, 1.670333981513977, -0.32592976093292236, 1.5282655954360962], [1.916189432144165, 1.1360554695129395, 2.2106430530548096, 0.045634206384420395, 0.47476619482040405, 2.190685749053955, 0.9538266658782959, 1.3227254152297974, 0.2342967540025711, 0.18269117176532745, 0.6139742732048035, 2.2311339378356934, 0.5735917687416077, 0.4228948950767517, 1.263249397277832, 0.4942779242992401, 1.8209739923477173, 0.11938576400279999, 3.4567363262176514, -0.6827935576438904, 0.6101056337356567, 1.9284368753433228, 1.2302974462509155, 1.9728984832763672, 2.31235671043396], [0.860585629940033, -1.6139976978302002, 2.055535316467285, 0.28468576073646545, 0.12921148538589478, 2.0385303497314453, -1.6857396364212036, 1.3434218168258667, 1.7965645790100098, 0.28839629888534546, 1.1271564960479736, 0.358149915933609, 1.9197187423706055, -0.21204563975334167, 0.3290494978427887, 1.7444334030151367, 1.4004218578338623, 0.392756849527359, 1.836630940437317, 1.494377851486206, -0.5271584987640381, -1.0063828229904175, 2.4661829471588135, 1.5308576822280884, 1.2521213293075562], [2.659731864929199, 1.2298778295516968, 0.7829818725585938, 1.6997283697128296, 0.06084582582116127, 0.9170641899108887, 0.7692439556121826, -0.08923956006765366, 0.8853844404220581, 1.0729867219924927, 1.2008748054504395, 0.7307271957397461, 0.2647571265697479, 0.572297990322113, 1.650119662284851, -0.4001837372779846, 1.7430397272109985, 0.27881601452827454, 0.5831596255302429, -0.13430142402648926, 0.8599283695220947, 2.12983775138855, 2.1429216861724854, 0.26741230487823486, 0.4023174047470093], [0.8295454978942871, 0.7215796113014221, 0.9367926120758057, 0.5726875066757202, -0.8380353450775146, -0.6016672849655151, 0.07872729003429413, -2.438891649246216, 2.461085081100464, 0.6107466220855713, 0.12700921297073364, 1.1844584941864014, -1.0001360177993774, 0.8076934814453125, 1.2551045417785645, 0.5718010663986206, -0.3529096841812134, 1.6450039148330688, 1.283043622970581, -0.0019328698981553316, 1.7856398820877075, 0.08893787860870361, 3.435899019241333, 1.171665906906128, 1.9079976081848145], [-0.28582441806793213, -0.2673720717430115, 0.5368126630783081, 1.0482540130615234, 2.853408098220825, 1.1783987283706665, 1.590358853340149, -0.9614529013633728, 1.3866937160491943, 0.6434265971183777, -2.247016668319702, -0.5868788361549377, 0.7581676244735718, 0.9953615069389343, 1.9358880519866943, 3.330087184906006, 0.6180815100669861, 0.6740256547927856, 2.1935317516326904, 1.8753873109817505, 1.4557456970214844, 0.1111539900302887, 1.236144781112671, 1.2976628541946411, 1.2286077737808228], [1.3999990224838257, 1.4484139680862427, 1.4947212934494019, 2.5193941593170166, 1.3827524185180664, 1.3609662055969238, 2.2289950847625732, -0.7416161298751831, 2.0913589000701904, -0.18844544887542725, 1.3756250143051147, -0.14681637287139893, 0.23670841753482819, -0.005832286551594734, -0.958023726940155, 1.9107176065444946, -0.18802359700202942, 1.1924912929534912, 3.40042781829834, 3.819714069366455, 1.2738512754440308, 0.6586190462112427, 2.261699914932251, 0.6774188280105591, 1.3845665454864502], [1.7344868183135986, -0.40449705719947815, -0.6517012715339661, 1.7567789554595947, 2.2902233600616455, 1.8419452905654907, 0.04790304973721504, 2.3749756813049316, 1.466819167137146, -0.21974819898605347, 1.1313416957855225, -0.634576141834259, -0.0780445858836174, 0.42341411113739014, 3.4156107902526855, -0.2713463306427002, 0.1358157992362976, -1.1280949115753174, 1.813781976699829, 2.1444737911224365, -1.445157527923584, 1.2779990434646606, 1.5786397457122803, 1.010495662689209, -0.056266915053129196], [0.9001474976539612, 3.125094175338745, 0.5830875635147095, 2.199751853942871, 0.974550724029541, -1.2405259609222412, 2.986621141433716, 0.4063209593296051, -1.2894431352615356, 2.8393969535827637, 1.619936466217041, 0.42378726601600647, 0.6761069297790527, 0.936879575252533, 0.5065436363220215, 2.184858560562134, 0.9964956641197205, 2.2402825355529785, 0.02590729482471943, 1.979997992515564, 2.8008997440338135, 1.437135100364685, 1.1929582357406616, 1.225869059562683, -0.8652656674385071], [1.200805902481079, 0.32057780027389526, 0.5199480056762695, 1.2441779375076294, 2.300110340118408, 1.3290116786956787, -0.8377217054367065, -1.11776864528656, -0.004105184692889452, 1.3179023265838623, 0.08100171387195587, 1.8200631141662598, 0.5048482418060303, 1.9241403341293335, 1.6344289779663086, 2.693512439727783, 0.02920045517385006, 1.063866376876831, 0.6989814639091492, 0.06329512596130371, -0.2848605513572693, 0.0372818224132061, 0.46003156900405884, -0.6822729706764221, 1.6335800886154175], [3.4097177982330322, -0.35222193598747253, 0.03651844710111618, 2.3517208099365234, 0.14130404591560364, 1.802897572517395, 1.119175910949707, 0.32840317487716675, 1.5088437795639038, -0.018117111176252365, 1.5421881675720215, 1.5074256658554077, 0.9250360131263733, 1.9843298196792603, 0.435383677482605, 0.14988777041435242, 0.08670680224895477, 1.8134671449661255, 1.5156508684158325, 1.269822597503662, 2.566448450088501, -1.3605786561965942, 1.1161959171295166, 0.2808495759963989, 1.6795752048492432]], "name": "trainable_6", "bias": [2.1795408725738525, 1.0108388662338257, 1.7214090824127197, 1.5947887897491455, 2.215383768081665, 0.2162710577249527, 0.9192755222320557, 2.3166186809539795, 0.7546703815460205, -1.497941017150879, 3.2007553577423096, 0.691321849822998, 1.4523179531097412, 2.67866587638855, 2.4919512271881104, 0.9217941761016846, 0.6194357872009277, 0.7670072317123413, 1.4995598793029785, 1.1465420722961426, 0.9307938814163208, 1.040841817855835, 1.0902528762817383, 2.1719300746917725, 2.851562261581421], "out_features": 25}, {"type": "tanh", "name": "activation_7"}, {"type": "dense", "has_bias": true, "in_features": 25, "weights": [[0.18754155933856964, -0.1411811262369156], [0.9190504550933838, 2.7433462142944336], [0.854822039604187, 0.7976104617118835], [-0.0797593966126442, 0.9645342230796814], [0.9322116374969482, 0.5225547552108765], [1.685634732246399, 1.9510068893432617], [1.4876642227172852, 0.9980420470237732], [1.2211215496063232, 1.4210197925567627], [-0.30975496768951416, -0.1826271116733551], [0.914362370967865, -1.0287880897521973], [-0.6550541520118713, 2.131629228591919], [0.0753215029835701, -0.8066760897636414], [-0.37966814637184143, 3.1902544498443604], [1.042599081993103, -0.9378694891929626], [-0.6545699834823608, 1.8617945909500122], [-1.3892945051193237, 2.251958131790161], [1.327589988708496, 0.2383762151002884], [0.27358686923980713, -0.2598657011985779], [-0.8575631976127625, 0.6549617648124695], [0.20510272681713104, 0.8614165782928467], [-0.8873685002326965, 1.2301459312438965], [-0.20704440772533417, 1.1463240385055542], [-1.252322793006897, -0.8630808591842651], [0.1984347403049469, 0.08106061071157455], [0.16115997731685638, -1.8332492113113403]], "name": "trainable_8", "bias": [2.50099515914917, 3.5066041946411133], "out_features": 2}, {"type": "tanh", "name": "activation_9"}, {"type": "mse", "name": "criterion_10"}]}