{"test_accuracy": 0.9354, "layers": [{"has_bias": true, "bias": [16.53226661682129, 17.279264450073242, 16.5030517578125, 14.802029609680176, 16.736324310302734, 16.699420928955078, 15.637860298156738, 17.908578872680664, 14.513282775878906, 15.502421379089355, 18.38889503479004, 14.382827758789062, 16.086332321166992, 16.389780044555664, 14.315037727355957, 16.685405731201172, 16.31791114807129, 15.306131362915039, 16.81172752380371, 15.289726257324219, 16.926856994628906, 17.344064712524414, 15.390280723571777, 19.70393180847168, 17.216054916381836], "in_features": 2, "type": "dense", "name": "trainable_0", "out_features": 25, "weights": [[-8.876442909240723, -15.057833671569824, -24.90073585510254, -8.182963371276855, -9.51263427734375, -10.525662422180176, -38.99566650390625, 3.7139222621917725, 13.742115020751953, -8.493189811706543, -39.03402328491211, -5.210141181945801, -12.444287300109863, -12.036049842834473, -0.6691563725471497, -12.188130378723145, -2.4458372592926025, -6.780127048492432, -12.719655990600586, 73.63337707519531, -8.93598461151123, -13.066722869873047, -9.747644424438477, -22.5103759765625, -9.552704811096191], [-8.212200164794922, -5.0169878005981445, 14.501606941223145, -11.45309829711914, -7.4422760009765625, -6.485133171081543, 76.3548812866211, -20.824247360229492, -21.933332443237305, -7.100588321685791, -41.30245590209961, -9.171754837036133, -3.6246280670166016, -4.450037002563477, 2.3514111042022705, -4.6193060874938965, -17.4472713470459, -9.24514102935791, -4.110286712646484, -37.298973083496094, -8.203804969787598, -4.417036533355713, -10.228776931762695, 0.798957109451294, -8.064720153808594]]}, {"name": "activation_1", "type": "tanh"}, {"has_bias": true, "bias": [2.082515001296997, -0.15977178514003754, 1.2981867790222168, -0.3841542601585388, 1.2915329933166504, 2.1298916339874268, 1.705768346786499, 0.32442164421081543, 1.4961907863616943, -0.693061888217926, 0.6755831837654114, 2.8474037647247314, 0.8506849408149719, 0.9395751953125, 1.8717286586761475, 1.222243070602417, 1.3120660781860352, -0.012235553003847599, 2.2052652835845947, 1.9199869632720947, 2.0497448444366455, 0.914162278175354, -0.05682416260242462, -0.04015694186091423, 2.4118282794952393], "in_features": 25, "type": "dense", "name": "trainable_2", "out_features": 25, "weights": [[0.8605864644050598, 0.05468129739165306, -3.200667142868042, -1.1855320930480957, -0.6030787229537964, -3.9443469047546387, 1.1894299983978271, -0.9728581309318542, -0.025830840691924095, -2.6314008235931396, -2.619943618774414, 1.9977632761001587, -0.8788435459136963, -2.462827682495117, -1.7623403072357178, 2.538637161254883, 4.532497406005859, -0.6077651977539062, 4.042832851409912, 0.2584075629711151, -2.297741174697876, -1.718581199645996, -1.7601470947265625, -0.8068608045578003, 0.04203098639845848], [-0.6163898706436157, -2.2046101093292236, 3.2424092292785645, 0.8052771091461182, -2.7477073669433594, 6.1241374015808105, -6.231033802032471, -1.2893407344818115, -1.902879238128662, 3.0549800395965576, 2.700702667236328, -1.2847424745559692, 3.752711296081543, 1.5230873823165894, -0.42316892743110657, -2.7532594203948975, -2.795325517654419, 0.2682752013206482, -5.0219221115112305, -3.1157426834106445, 3.866187810897827, 4.017345905303955, 0.24032244086265564, 4.483382701873779, -2.277282953262329], [1.779611587524414, 0.44989120960235596, 3.479283094406128, 3.0445756912231445, -0.6975124478340149, 7.620395183563232, -4.8682966232299805, -3.424032688140869, -2.4150779247283936, 1.5270670652389526, 3.7680070400238037, -1.489943265914917, 4.625361442565918, -1.8766204118728638, 0.6512853503227234, -2.9429712295532227, -6.63960599899292, -0.15438875555992126, -5.375504970550537, -4.383124351501465, 5.451512813568115, 5.80672550201416, -0.9590398669242859, 3.6004369258880615, -3.573148250579834], [1.0917444229125977, -1.7210463285446167, 2.4860408306121826, 5.1355743408203125, -1.3047338724136353, 4.60939884185791, -3.0714616775512695, -3.4393038749694824, -0.5349058508872986, 2.9849581718444824, 0.2922531068325043, -0.3666161298751831, 1.038987159729004, -1.7645018100738525, 0.6859756708145142, -0.35607174038887024, -2.9040117263793945, -3.774629831314087, -2.9598963260650635, -3.100490093231201, -0.5433747172355652, 3.9605157375335693, -0.8156725764274597, 0.6751561760902405, -0.12472409009933472], [-0.4048105776309967, 1.092295527458191, -1.8149123191833496, -0.10379015654325485, 0.13418520987033844, -6.0897440910339355, 1.8053478002548218, 1.465003252029419, 3.028170347213745, -3.554333448410034, -3.269697666168213, 1.6437700986862183, -1.1896617412567139, -0.9053704738616943, -1.5235567092895508, 2.166583776473999, 4.427650451660156, -0.6941099166870117, 4.237937927246094, 4.296749591827393, -7.333706855773926, -3.585115432739258, -0.4011076092720032, -4.019707202911377, -0.010024533607065678], [-1.6843452453613281, -0.4466473162174225, -2.86323618888855, -0.6706162095069885, -0.5253996253013611, -3.421525478363037, 0.7522537708282471, -0.03308771923184395, 2.6120753288269043, -3.0634615421295166, -2.4036333560943604, 0.28124624490737915, -2.760272741317749, -0.5575419068336487, 0.3583504259586334, -0.11900787055492401, 1.9670615196228027, 0.3501878082752228, 3.9101550579071045, 2.757869005203247, -3.4517571926116943, -0.8555108308792114, -0.369005411863327, -2.1648051738739014, 1.0312830209732056], [0.9522952437400818, 0.7084566950798035, 6.479453086853027, 6.345855236053467, -2.1769797801971436, 17.849029541015625, -9.621756553649902, -6.068265914916992, -8.158956527709961, 9.40352725982666, 6.370684623718262, 1.7527568340301514, 11.790509223937988, 2.9736969470977783, 1.1425830125808716, -4.2461347579956055, -9.406596183776855, -2.149624824523926, -12.211148262023926, -5.074000835418701, 13.88330364227295, 10.204253196716309, 0.8578078746795654, 8.083690643310547, -5.284856796264648], [0.37921983003616333, 1.755263090133667, 5.0113420486450195, 0.9453772306442261, -1.1025675535202026, 6.0193610191345215, -2.579771041870117, -3.614563226699829, -5.220420837402344, 2.721071243286133, 3.378995895385742, 0.7166546583175659, 3.460134267807007, 2.2234597206115723, -0.5701186656951904, -4.333440780639648, -5.655440807342529, -0.14458748698234558, -5.972640514373779, -3.1794228553771973, 8.479958534240723, 2.0001978874206543, 2.270371198654175, 4.5746169090271, -0.48095256090164185], [1.1257388591766357, -2.129098653793335, 0.916968047618866, 2.9625256061553955, -3.0809669494628906, 4.250802993774414, -1.5833640098571777, -3.4299838542938232, -2.5207550525665283, 6.234312534332275, 2.8752551078796387, -1.2018311023712158, 0.8316004872322083, -2.1140565872192383, 0.281473845243454, 0.38125044107437134, -9.192754745483398, -1.216293215751648, -5.492036819458008, -3.246034860610962, 5.437772750854492, 3.240241289138794, -0.8302118182182312, 3.0203051567077637, -0.013585827313363552], [0.9242506623268127, 2.264540910720825, -3.3598809242248535, -0.561731219291687, 0.7692213654518127, -5.217548370361328, 2.1017680168151855, -0.5422985553741455, 2.194352865219116, -3.366861581802368, 0.054541170597076416, 0.24981525540351868, -2.064889907836914, -0.07643602043390274, 0.32361578941345215, 2.9353482723236084, 3.7027928829193115, 1.9498188495635986, 3.426223039627075, 2.2808613777160645, -2.592690944671631, -2.4152567386627197, -0.2541463077068329, -3.024073839187622, 1.7157610654830933], [0.686382532119751, 0.6685537099838257, -5.087392330169678, -8.408012390136719, 1.6835945844650269, -20.215576171875, 13.190156936645508, 2.6457786560058594, 6.425227165222168, -7.435604572296143, -10.866900444030762, -2.1667935848236084, -8.424712181091309, -1.101111650466919, -1.1497619152069092, 6.7771077156066895, 10.694815635681152, -2.307192802429199, 10.534704208374023, 7.538314342498779, -15.67928695678711, -11.355566024780273, -0.6567246317863464, 0.39135923981666565, 5.553792953491211], [-0.4602873623371124, 0.9857025146484375, -3.909979820251465, 1.6625802516937256, 2.133668899536133, -2.643315553665161, 2.228196620941162, 2.2883529663085938, 3.025573968887329, -0.6751728057861328, 0.3799223303794861, -1.6675723791122437, -4.7124528884887695, -0.9063611626625061, 0.6533705592155457, 1.4196937084197998, 4.010810852050781, 4.473147392272949, 3.6961612701416016, 3.9016213417053223, -1.3540703058242798, -2.2420616149902344, -1.9099537134170532, -1.6291061639785767, 1.853258490562439], [-1.7485077381134033, 0.19526585936546326, -1.9322346448898315, -3.90109920501709, 1.2169967889785767, -4.439630508422852, 3.760179281234741, 1.7854667901992798, 3.7910709381103516, -4.2664594650268555, -1.90963876247406, 1.3081188201904297, -1.8899476528167725, 0.23138736188411713, -0.7956091165542603, 0.3341798782348633, 4.787273406982422, -0.6126810312271118, 4.401588439941406, 4.608416557312012, -4.958352088928223, -3.4859769344329834, 0.3902409076690674, -1.627732276916504, 1.1040704250335693], [-1.5436128377914429, 1.0457653999328613, -3.046367883682251, -2.1425185203552246, 1.154503583908081, -2.6393253803253174, 3.652926206588745, 1.1384007930755615, 1.6515977382659912, -5.688198566436768, -1.632413625717163, 0.17917874455451965, -2.625688314437866, 1.7141700983047485, 3.025437355041504, 1.7835816144943237, 3.831995725631714, 0.9293278455734253, 3.670961618423462, 3.681187391281128, -4.303706645965576, -3.837660074234009, 1.0826293230056763, -3.646648406982422, 0.9338207840919495], [-2.7243168354034424, -1.8516062498092651, -5.937718391418457, -2.5601487159729004, 2.091671943664551, -6.557710647583008, 5.436100482940674, 1.5957419872283936, 5.423855781555176, -4.233156204223633, 0.2206743359565735, -1.6941086053848267, -3.323068618774414, -2.2920312881469727, 0.6453189253807068, 6.0777668952941895, 9.654654502868652, 2.9807963371276855, 9.143081665039062, 5.953281879425049, -5.25704288482666, -2.1073522567749023, 2.2329509258270264, -4.17519474029541, 3.0653364658355713], [-0.4599412977695465, 1.1902873516082764, -2.2264459133148193, -3.13393497467041, 0.8201763033866882, -4.747738361358643, 3.7826337814331055, -0.04815593361854553, 2.5251059532165527, -3.05556583404541, -0.8114662170410156, 1.0054807662963867, -2.442774534225464, 0.08377659320831299, -0.586419403553009, 2.0941731929779053, 5.104310989379883, 0.8419232368469238, 2.2815215587615967, 4.495208263397217, -4.878900051116943, -1.9997578859329224, -0.4823782444000244, -3.3207781314849854, 1.8080885410308838], [0.7391759753227234, -1.522613763809204, 2.3665215969085693, 2.7545406818389893, 1.6319806575775146, 5.653250694274902, -2.242518663406372, -0.27137500047683716, -2.21689510345459, 2.43741512298584, 5.433704376220703, 1.4501031637191772, 3.1651012897491455, 2.3545663356781006, 0.5607242584228516, -4.006841659545898, -3.155369997024536, -0.6861335635185242, -3.7555058002471924, -2.3252689838409424, 4.352012634277344, 1.130603313446045, -0.11941446363925934, 3.1199564933776855, -3.4789938926696777], [0.7516329288482666, 1.5495158433914185, -2.8485841751098633, -0.13226032257080078, 1.6088998317718506, -0.8600108027458191, 1.980642318725586, 2.7592759132385254, 2.438250780105591, -0.15090492367744446, 0.4174234867095947, -1.1918089389801025, -2.142061948776245, 2.1356587409973145, -0.6176630854606628, 1.8885103464126587, 4.469918727874756, 3.166914463043213, 1.1274023056030273, 2.80387020111084, 1.7332912683486938, -0.007673617918044329, -0.4038134217262268, -0.23326444625854492, 1.7372816801071167], [-2.1538500785827637, 0.5283138155937195, -2.861543893814087, -2.7565667629241943, -0.15893879532814026, -4.293859481811523, 3.247232437133789, 2.992433547973633, 3.0497379302978516, -2.7143914699554443, -2.043339967727661, -2.3024983406066895, -1.5605976581573486, -0.28299614787101746, -1.1798934936523438, 2.2132914066314697, 6.301851749420166, -1.190006136894226, 4.219300270080566, 2.9846386909484863, -2.8623173236846924, -4.344756603240967, 0.9439176917076111, -3.106257200241089, 1.5027021169662476], [0.44202396273612976, -0.6806257963180542, 7.2744927406311035, 7.613052845001221, -2.920915126800537, 15.899282455444336, -13.667814254760742, -2.8349804878234863, -9.24570369720459, 8.50155258178711, 6.679021835327148, 0.6708046793937683, 7.325475215911865, 1.569991946220398, 1.0196702480316162, -7.499233245849609, -9.366522789001465, -2.5538599491119385, -11.886530876159668, -6.733989715576172, 16.00372314453125, 11.991460800170898, 0.0625237375497818, 8.38734245300293, -5.079901218414307], [-0.21622899174690247, 1.1479852199554443, -2.8732714653015137, -3.5260186195373535, 1.0777209997177124, -5.755030155181885, 3.105849027633667, 1.9994398355484009, 1.8502123355865479, -5.611967086791992, -3.0233659744262695, 0.6613349318504333, -2.3506460189819336, -2.1249988079071045, -2.0346267223358154, 2.3565099239349365, 5.618710994720459, 0.5635548233985901, 4.953125953674316, 2.075382947921753, -6.148138999938965, -3.882578134536743, -1.7198419570922852, -2.7206830978393555, 1.353940725326538], [0.9003233909606934, 0.01841888763010502, -3.2818400859832764, -3.4761502742767334, 0.7467098832130432, -3.6580283641815186, 1.3641431331634521, 1.5292882919311523, 2.3082265853881836, -4.941236972808838, -4.216362953186035, -0.3506152033805847, -2.097642183303833, 0.8840193152427673, 1.3685939311981201, 3.1974258422851562, 5.198234558105469, 0.2609144449234009, 4.832805633544922, 2.460693597793579, -3.481682777404785, -3.150407552719116, 0.10993704944849014, -3.3929498195648193, -1.2673028707504272], [0.9973310232162476, 0.2727193236351013, 1.5127663612365723, 1.0542374849319458, 0.2531735599040985, 4.280942440032959, -2.9095969200134277, 0.2888844907283783, -0.8382958173751831, 1.7482788562774658, 1.8685436248779297, -0.7738537192344666, 0.9279547333717346, 1.350799322128296, -0.5562891960144043, -3.2536356449127197, -4.3653645515441895, -0.346342533826828, -5.179050445556641, -2.7419662475585938, 2.6488196849823, 5.128091335296631, -0.3800385296344757, 1.7218531370162964, -2.113539695739746], [1.8478055000305176, -0.10182791948318481, 6.38435697555542, 2.5785036087036133, -0.29985159635543823, 6.868680000305176, -0.8412918448448181, -3.838984489440918, -5.203665256500244, 3.084319591522217, 4.19020414352417, -0.0973062589764595, 6.955864429473877, 2.64286470413208, 1.3496476411819458, -4.806061267852783, -8.82872486114502, -2.07033109664917, -6.538549423217773, -4.7755279541015625, 5.30626916885376, 6.76762580871582, -0.04640194773674011, 3.4852077960968018, 0.034466635435819626], [-0.31894591450691223, -0.6480087637901306, -1.1182067394256592, -0.8011083006858826, -2.6893153190612793, -3.7122507095336914, 0.9276343584060669, 0.9367223381996155, -0.1856144368648529, -2.8607053756713867, -4.299071311950684, -0.0752907544374466, -2.4462594985961914, -2.14532208442688, -1.384161353111267, 2.4053025245666504, 5.4489030838012695, -0.21269726753234863, 3.454460620880127, 1.237918496131897, -5.798943042755127, -2.032390832901001, -0.4685446321964264, -2.816356897354126, 1.5908231735229492]]}, {"name": "activation_3", "type": "tanh"}, {"has_bias": true, "bias": [0.4136476218700409, -0.5042819976806641, -1.7644866704940796, 0.36142995953559875, 2.8203516006469727, 1.3389993906021118, 2.5164265632629395, 0.026140758767724037, 1.2054613828659058, -0.2596672475337982, 1.4276131391525269, 0.359898179769516, -1.6022599935531616, -0.10370707511901855, 0.9523587226867676, 1.1386100053787231, 1.6669551134109497, -0.0725388303399086, 0.32611414790153503, -0.27528509497642517, 0.9669473171234131, -0.8432506322860718, 0.19918034970760345, -1.2820128202438354, 2.118239402770996], "in_features": 25, "type": "dense", "name": "trainable_4", "out_features": 25, "weights": [[-0.8602854013442993, 1.4678155183792114, -0.14048001170158386, 0.40617045760154724, 0.36278748512268066, -0.5604697465896606, 2.1241283416748047, -0.3933267593383789, 1.618421196937561, -1.3014663457870483, 1.6422996520996094, 1.1511074304580688, 0.29989153146743774, -0.16014429926872253, 0.02756102755665779, 0.5729025602340698, 0.06318459659814835, 0.6937887668609619, 0.8633807897567749, 1.7756361961364746, -1.4493612051010132, -1.1669564247131348, -0.3075684607028961, -1.1322616338729858, -1.8227794170379639], [0.8232280611991882, 0.8834666013717651, -0.24539092183113098, 0.29073306918144226, 2.2208073139190674, 0.9838613271713257, 0.3248043358325958, 1.8589560985565186, 0.9755781888961792, -0.7060197591781616, 0.5216695070266724, -1.3907378911972046, 0.22789689898490906, -0.4923943281173706, -0.3559417724609375, 2.980008363723755, -0.019492771476507187, 0.6013826727867126, 1.2089074850082397, -0.2095022052526474, -0.27608293294906616, -0.807915449142456, -0.49092602729797363, -1.7991015911102295, -2.3153891563415527], [-0.7599352598190308, 1.1198911666870117, 0.1874142289161682, 0.4850858151912689, -1.138442873954773, -2.428131341934204, 1.3724961280822754, 0.739007830619812, 0.8911159634590149, -0.8037905693054199, -1.0311899185180664, -1.0589338541030884, 0.21138572692871094, 0.7208174467086792, 2.2224907875061035, -0.4148619771003723, -3.14013671875, -0.7280789017677307, 3.9215891361236572, 1.6507107019424438, -0.8786255121231079, -0.1325955092906952, 1.626546859741211, -2.2166049480438232, -1.12138032913208], [-1.265769600868225, 1.2993769645690918, 0.9383359551429749, -0.33279532194137573, -2.2862277030944824, -2.7151780128479004, 0.16829372942447662, -0.9111648797988892, 1.4646332263946533, -1.9083917140960693, 0.3681706488132477, 0.20647776126861572, -0.048434000462293625, -1.1503745317459106, 1.6057451963424683, -1.2524387836456299, -0.9003133177757263, -1.9680715799331665, 0.5815645456314087, 1.0415757894515991, 0.3615732192993164, 0.7079799771308899, 0.9003110527992249, 0.16519208252429962, -0.33490654826164246], [1.5083603858947754, 0.8977539539337158, 0.7090204358100891, -0.57305908203125, 1.0806752443313599, -0.31442564725875854, -1.225348711013794, -0.8467740416526794, 0.9009801149368286, -0.7685454487800598, 1.3782358169555664, -0.15267400443553925, 0.3286438584327698, -1.6825110912322998, 1.2033759355545044, -0.7282847166061401, 1.0202252864837646, 0.7864236831665039, -0.46101391315460205, -1.366669774055481, -0.06149107590317726, -0.027621235698461533, 1.6487709283828735, -0.2631905972957611, 1.7022833824157715], [-0.48275381326675415, 0.22408388555049896, 1.7833619117736816, -1.1790993213653564, -2.8534584045410156, -1.8730120658874512, -0.9964203238487244, -2.58321475982666, 1.4006887674331665, -1.3566948175430298, -0.8957544565200806, -0.2990393042564392, 0.027384184300899506, 0.7779017686843872, 2.1712286472320557, 1.141330361366272, -2.950108051300049, -1.626980185508728, 4.852884292602539, 2.513174533843994, 0.22659313678741455, -0.9755905270576477, 1.5474940538406372, -1.8354558944702148, -3.740642786026001], [0.1171979010105133, -0.9117169380187988, -1.7823408842086792, -1.496598720550537, 1.9422589540481567, 2.8811919689178467, 1.0738157033920288, 0.9080532789230347, -0.9665612578392029, 1.8014311790466309, 1.850387454032898, 0.10491187870502472, -0.2709389626979828, 2.1856155395507812, -1.2815437316894531, 0.5522196888923645, 2.2573699951171875, 0.26157382130622864, -1.2922205924987793, -1.5905574560165405, 0.5035520195960999, 1.2324694395065308, 0.6174646615982056, -1.0550522804260254, 1.7919197082519531], [0.3546243906021118, 1.1234891414642334, 0.3883545994758606, -0.7192636728286743, 1.5166621208190918, 2.372619152069092, -0.8021438717842102, 0.140886127948761, 1.5402153730392456, -0.07549267262220383, -0.20279422402381897, -0.6263285875320435, 0.11162873357534409, -0.79740309715271, 0.15722760558128357, 0.5357773900032043, 1.6305276155471802, 3.136265277862549, -1.3588358163833618, -1.2960115671157837, -2.231127977371216, 1.5127373933792114, 0.05434081703424454, -0.4080673158168793, 1.4356015920639038], [0.9911689162254333, -1.7700647115707397, 0.07123446464538574, 0.11801846325397491, 0.9339014291763306, 0.880323588848114, -0.28636401891708374, 1.5112276077270508, -0.3395414352416992, -0.46551012992858887, 0.14358901977539062, 0.3841662108898163, 0.4001237154006958, 1.3048185110092163, -2.085618019104004, -1.062078595161438, 0.21957871317863464, 0.28900355100631714, -0.5650535821914673, -0.5204071998596191, -0.779035747051239, 0.278539776802063, -0.04119587317109108, -0.23315073549747467, 2.1135239601135254], [-0.5884690880775452, 1.1719162464141846, 2.986231803894043, -0.26733383536338806, -2.122004270553589, -0.6794889569282532, -0.4555366337299347, -0.874644935131073, 1.418911099433899, -1.7080134153366089, -1.2897855043411255, -2.706468105316162, 1.2653003931045532, -1.000607967376709, 1.786620020866394, -0.4259147346019745, -1.8123884201049805, -0.6503058671951294, 0.4182739555835724, 2.433403730392456, 0.36522814631462097, 0.027208052575588226, 0.28774529695510864, 0.49754658341407776, -1.2468584775924683], [-0.6540539264678955, -0.8845247626304626, 1.383286714553833, 1.3909249305725098, -0.21062257885932922, -1.7636083364486694, 0.9631236791610718, -1.064941644668579, 0.9460116624832153, 0.06065826117992401, -0.7002620100975037, 1.2929275035858154, -0.9035634994506836, -0.49406442046165466, 1.3255783319473267, -0.15882985293865204, -2.0570123195648193, -0.4934401512145996, 0.9536432027816772, 0.00026472192257642746, 0.01620645821094513, -2.3027687072753906, 0.9012757539749146, -0.7144112586975098, -0.39326605200767517], [-0.2582698464393616, 1.66378653049469, -0.14200112223625183, -0.42965343594551086, -0.29146909713745117, 0.6643826961517334, 0.07665478438138962, 0.5730386972427368, 0.8211036324501038, -0.37310928106307983, 1.8478970527648926, -2.7175731658935547, -0.906994640827179, -0.037112992256879807, -1.9914716482162476, -1.6001793146133423, -1.4684091806411743, -0.1327715367078781, 1.9208638668060303, 1.5842816829681396, -0.6894299983978271, 0.9082462191581726, -1.0942113399505615, 0.5156911611557007, -0.955839991569519], [-0.9327219128608704, 1.4850807189941406, 2.252811908721924, 1.1040877103805542, -2.008371114730835, -0.9691500067710876, -2.2362632751464844, -1.4124987125396729, -0.47831928730010986, -1.9178714752197266, -0.8046669960021973, 1.6252132654190063, 0.5497576594352722, 0.474585622549057, -0.03833579644560814, -1.174708366394043, -1.4680588245391846, -0.48499900102615356, 2.251207113265991, 1.5223883390426636, -0.8821627497673035, -0.29670801758766174, 1.7881993055343628, -0.383706659078598, -3.212661027908325], [-0.08465861529111862, -0.9915566444396973, 0.39319610595703125, 1.4942567348480225, 0.46359917521476746, 0.9246702194213867, -1.8000353574752808, 0.8167590498924255, -0.10631121695041656, 0.01189679279923439, 0.919514536857605, -1.2740066051483154, -0.12952210009098053, -1.088365912437439, 1.1082634925842285, 0.3846038579940796, -1.200635313987732, 1.5959234237670898, -0.17659996449947357, -0.6585969924926758, -0.18182601034641266, 0.2477734535932541, 0.9251440167427063, -1.3962311744689941, -2.0331873893737793], [2.220050096511841, 0.5745299458503723, 1.1212636232376099, -1.849457859992981, -1.5405339002609253, 0.6860789656639099, -1.5798602104187012, -0.2249903529882431, 0.7963885068893433, 0.16952911019325256, 1.0533241033554077, 0.09009160846471786, 1.0012707710266113, -0.957882285118103, 0.7778026461601257, -0.599006175994873, -0.7034975290298462, -0.9286989569664001, -0.23302511870861053, 0.1050579622387886, 1.064967393875122, 2.6481547355651855, -1.2165842056274414, -1.1612787246704102, -0.7808069586753845], [0.5423819422721863, 0.9777361154556274, -0.6835260391235352, 0.6501963138580322, 1.7678190469741821, 0.587227463722229, -0.9173421859741211, -0.6415677666664124, 1.056876540184021, 0.7111126184463501, 0.04214758798480034, 1.4151369333267212, 0.47652190923690796, -0.3867082893848419, -2.7159981727600098, 0.6376951932907104, 0.782978355884552, 0.6159091591835022, -1.8372349739074707, -1.2459293603897095, 0.6370075345039368, -0.2811667323112488, 0.5134456157684326, -0.2134648859500885, 0.6016189455986023], [5.287610054016113, 1.0101841688156128, -2.540386915206909, -0.49415507912635803, 2.157784938812256, 3.494352340698242, -3.716493606567383, 0.7277628183364868, -0.8992294669151306, 0.48783499002456665, 3.0366568565368652, -1.8634154796600342, -1.3800374269485474, -0.6852958798408508, -4.236186504364014, 1.1729774475097656, 0.8652955889701843, 1.0795727968215942, -1.8011493682861328, -1.5709612369537354, -1.2892398834228516, 2.65323543548584, -3.099433660507202, -0.3405206799507141, 0.51114821434021], [1.741735577583313, -0.5821773409843445, -0.6805018782615662, -0.1508501172065735, 1.6570314168930054, 0.2854744791984558, 0.5470014214515686, -0.139883890748024, 1.1068153381347656, 0.6432580947875977, 1.4013757705688477, 0.3736410439014435, 0.9338997602462769, 1.5777565240859985, -2.311182737350464, 2.1304125785827637, 0.37353411316871643, -2.008169651031494, 1.507848858833313, -0.5702868103981018, 1.449776530265808, -0.3982366621494293, 0.8784258365631104, 0.5572142004966736, -0.651481568813324], [2.0282082557678223, 0.24223610758781433, -1.0825169086456299, -1.1261768341064453, 1.7715524435043335, 1.6220778226852417, 0.7465351223945618, 0.8076608180999756, -1.597264051437378, 0.8474847078323364, 2.6467201709747314, 0.8963645696640015, -0.4762639105319977, 0.5479944348335266, -1.2334177494049072, 0.35055452585220337, 2.490294933319092, 2.485663414001465, -3.189648151397705, -0.8544641137123108, -0.7568740844726562, 0.12807437777519226, 0.7019058465957642, 1.4412373304367065, 0.8867079615592957], [2.8575286865234375, -0.8432862162590027, -3.1408185958862305, -0.8808514475822449, 2.590204954147339, 3.0329315662384033, -2.0589308738708496, 2.241673707962036, 0.4758654832839966, -1.2957757711410522, 2.2992465496063232, -0.9752680063247681, -0.47553566098213196, -0.5325489044189453, -2.022458076477051, 0.11254346370697021, -0.4155847728252411, 0.2816244959831238, -3.20295786857605, -1.2984473705291748, -0.27479174733161926, 1.51822829246521, 0.6923185586929321, -0.7153089642524719, 0.9624947905540466], [-2.1660842895507812, 0.7094578146934509, 1.737810730934143, -0.3351598381996155, -0.7150036692619324, -1.0100399255752563, -0.3771463930606842, -1.1011598110198975, 0.5688146352767944, -1.0505207777023315, -0.8542200326919556, -0.888322651386261, 1.251444697380066, 2.1058030128479004, 2.5989575386047363, -1.8051316738128662, -0.7944453954696655, -0.4823665916919708, 2.3805620670318604, -0.9945463538169861, 0.33934634923934937, -0.6771532893180847, 2.367159843444824, -2.713980197906494, -4.080604553222656], [-0.8010250926017761, -0.566972017288208, 1.0088460445404053, 1.5874327421188354, -2.3760011196136475, -0.6798621416091919, 1.124726414680481, -2.3507943153381348, 0.97581946849823, -0.38454458117485046, -0.8130098581314087, 2.0502359867095947, 0.9436553120613098, 0.7804580330848694, 2.259680986404419, -0.9273636937141418, -1.72012197971344, -1.501896619796753, 2.7126691341400146, 0.7214774489402771, -0.3283567726612091, -0.4456731677055359, 0.656172513961792, 0.6285556554794312, -3.5549020767211914], [0.7086262702941895, 1.3190594911575317, 1.86249577999115, -0.03422078117728233, 0.7443285584449768, 2.26888108253479, -0.5367592573165894, -0.8815577626228333, 1.0143855810165405, -0.5129930973052979, 0.30818474292755127, 0.6500397324562073, -0.05799339339137077, -1.8960257768630981, 0.8725644946098328, -1.2559218406677246, -0.23336172103881836, -1.5814586877822876, -0.8638150691986084, -0.5793798565864563, -0.12304899841547012, 0.4029490351676941, 0.7917047739028931, 0.3247902989387512, 0.45594021677970886], [-1.4620211124420166, 0.6232053637504578, 2.5396599769592285, 0.04823184013366699, -0.9155786037445068, -3.932695150375366, 0.9097682237625122, -1.2019232511520386, 1.9424015283584595, 0.334473192691803, -1.6205300092697144, -0.8359804153442383, 0.24047353863716125, -1.204522967338562, 2.591106653213501, 0.27848705649375916, -0.4524511694908142, -1.5248819589614868, 2.546187162399292, 0.2757318615913391, -0.8052346110343933, -0.5841964483261108, -1.271094560623169, -1.4643797874450684, -1.1511591672897339], [-0.190870463848114, -0.025665728375315666, -0.530666172504425, -0.7825968861579895, 0.7968135476112366, -0.06269621104001999, 0.1022687554359436, 1.4615321159362793, -0.7347524166107178, -1.4150447845458984, -0.8461359143257141, -0.8325226902961731, 0.7805134057998657, 1.9808881282806396, -1.3815277814865112, 0.7887765169143677, 1.7255065441131592, 2.0135183334350586, -0.6272741556167603, -0.42396828532218933, 0.024407926946878433, 0.612729549407959, 0.7557367086410522, -0.10452166944742203, -0.24511995911598206]]}, {"name": "activation_5", "type": "tanh"}, {"has_bias": true, "bias": [-0.9625563621520996, 1.046728253364563, 1.6412888765335083, 2.373725652694702, 1.9469107389450073, 0.555417537689209, 2.385366201400757, 1.0831786394119263, 3.114280939102173, 2.4486024379730225, 0.5838394165039062, 3.36916184425354, 1.836875081062317, 2.7882344722747803, 1.2937062978744507, 2.137627363204956, 1.1432112455368042, 2.1458828449249268, 1.806500792503357, 0.6819583177566528, 2.8516108989715576, 0.48014700412750244, 1.950619101524353, 2.102386236190796, 2.098027467727661], "in_features": 25, "type": "dense", "name": "trainable_6", "out_features": 25, "weights": [[1.8854267597198486, 1.6608387231826782, 1.3177354335784912, 0.6505799293518066, -0.24347425997257233, 0.5630775094032288, 2.816659688949585, 2.192997694015503, -1.4971504211425781, 0.23843275010585785, 0.7561083436012268, 0.4070078730583191, 2.1734848022460938, 0.19050928950309753, 2.247939348220825, 0.8091805577278137, 0.6198234558105469, 0.22966629266738892, 0.21670463681221008, 1.1299792528152466, 1.0288077592849731, 3.562298536300659, 0.7028871774673462, 0.925970196723938, 1.7296383380889893], [2.3924620151519775, -0.22187171876430511, -0.7378377318382263, 2.4436087608337402, 1.2112234830856323, -0.3044891655445099, 1.3865644931793213, 2.024199962615967, 1.3004562854766846, -0.2643422782421112, 1.733859896659851, -0.10313335061073303, 1.6645559072494507, 0.4617958068847656, 0.5017302632331848, 1.5195584297180176, 0.4339388310909271, 1.4690139293670654, 0.7096028327941895, 1.180012583732605, 0.5593507289886475, 0.019920354709029198, -0.1636650711297989, 1.0088074207305908, -0.08032334595918655], [0.2620197534561157, 0.9414435625076294, 1.2367851734161377, 0.39053648710250854, 1.7241792678833008, -1.3380248546600342, 0.854266345500946, 2.2251198291778564, 1.4527472257614136, -0.10372595489025116, 0.21846050024032593, 1.4119702577590942, 0.12443480640649796, -0.011653739027678967, 0.6285296678543091, 0.8349481225013733, 1.2195144891738892, 0.2968108355998993, 0.8167451024055481, 2.80135178565979, -2.7267906665802, -0.35507968068122864, 3.0029640197753906, -0.25905948877334595, 2.546377420425415], [1.6518173217773438, 1.9011415243148804, 0.5337421894073486, 0.9864532947540283, 0.3787785470485687, 0.17878323793411255, 1.076753854751587, 1.3793305158615112, 1.8032305240631104, 0.2657472789287567, 0.4564349353313446, 1.5940001010894775, 1.1324890851974487, 0.44710251688957214, 0.9445065259933472, 0.7581771016120911, 0.45059484243392944, 0.5442190766334534, 1.2681509256362915, 0.6090176105499268, -1.678100824356079, 1.5060746669769287, 0.9825801849365234, 0.297621488571167, 1.0957677364349365], [1.8545217514038086, 0.028967123478651047, 0.9878597259521484, 1.300864577293396, 0.23103033006191254, -0.05436774343252182, -0.24264085292816162, -0.7464585900306702, 1.0150783061981201, 1.1833068132400513, -0.4040592610836029, 2.668290615081787, 2.040637254714966, 0.7527177333831787, 1.1219277381896973, 0.7728464603424072, 2.046360492706299, -0.7896411418914795, -0.8957570195198059, 0.64937424659729, 1.214969515800476, 2.328434944152832, 1.2496910095214844, 2.0882210731506348, 0.267983615398407], [1.285163402557373, 1.1190935373306274, 0.6296513080596924, 0.36640605330467224, 1.4974451065063477, 0.9876545071601868, -0.39042431116104126, -0.2537836730480194, 1.652638554573059, 0.10767089575529099, 0.4590558111667633, -1.0946608781814575, 0.11781688779592514, -0.258828341960907, 1.5598238706588745, 1.3260397911071777, 0.3665403425693512, 1.754697322845459, 1.6381025314331055, 0.6089008450508118, 1.7077142000198364, 1.7778457403182983, 1.6497920751571655, -0.22481459379196167, -0.5550616383552551], [1.3514821529388428, -0.5389882326126099, 0.6633357405662537, -0.2235766053199768, 1.336941123008728, 3.1332242488861084, 1.981255054473877, 1.4540109634399414, 0.19865219295024872, 2.2897188663482666, 0.5937370657920837, 0.29211854934692383, 1.3409912586212158, 2.815967321395874, -1.419370412826538, 0.3936377763748169, 0.8315229415893555, 1.386731743812561, 1.4453662633895874, 1.3730427026748657, -1.1856290102005005, -0.20334267616271973, -0.23194514214992523, -0.003357541048899293, 0.6850472092628479], [-1.0301586389541626, 1.4059194326400757, 0.15739616751670837, 1.1666849851608276, -0.5313076972961426, 1.571932315826416, 1.9464819431304932, 1.2929208278656006, 0.2823907434940338, 0.14298710227012634, 1.089711308479309, 0.8401380777359009, -0.02884826622903347, -0.6161965131759644, 2.271251916885376, 0.9915944933891296, 3.5742340087890625, -0.52662593126297, -0.14606499671936035, 3.0611162185668945, 0.2615737318992615, -0.15637904405593872, 1.150330662727356, 1.2090829610824585, 1.0165598392486572], [1.3027640581130981, -1.0674408674240112, 0.645632266998291, 2.040098190307617, 1.9876981973648071, 0.21143628656864166, 1.258217215538025, 0.9257748126983643, -0.09483231604099274, 1.0183724164962769, 1.9430150985717773, -0.11748382449150085, 0.16531892120838165, 0.030964568257331848, 0.5476177334785461, 2.0933711528778076, 1.1528459787368774, 1.0885109901428223, 2.1684038639068604, -0.5499326586723328, 1.3642736673355103, -1.4853744506835938, 1.133242130279541, -1.471846580505371, 0.11726316064596176], [0.5978721380233765, 0.3204159736633301, 0.7036561965942383, 1.8461953401565552, 1.0537031888961792, 1.7774180173873901, 0.22622086107730865, -0.6566143035888672, -0.5654670000076294, 0.3078852593898773, -0.7903088331222534, 2.268038272857666, 1.4110394716262817, 1.6016062498092651, 0.6719223856925964, -1.0465627908706665, -0.0947241485118866, 2.381608009338379, 0.599994957447052, 1.1456352472305298, -1.4469618797302246, 2.210751533508301, 1.2413686513900757, -0.9700384736061096, 1.2571685314178467], [0.17968173325061798, 1.569913387298584, 0.3510051369667053, 0.5207197070121765, 2.3470847606658936, -0.8556450605392456, 1.3325992822647095, -0.22878892719745636, -0.5186749696731567, 0.3476735055446625, -1.3987985849380493, 0.4068702757358551, -0.270409494638443, 0.1471022218465805, 2.838676691055298, 1.1136397123336792, 1.252198338508606, 0.6658214330673218, -0.4338993728160858, 0.49971550703048706, 3.100287914276123, -0.9524815678596497, 0.38643503189086914, 1.4681042432785034, 0.6320473551750183], [1.2309465408325195, 0.0562453418970108, 2.3162810802459717, 1.476427435874939, -0.010531258769333363, 3.7601726055145264, 1.7240891456604004, 2.0174508094787598, 0.4902266263961792, 0.710871696472168, 0.6506845355033875, 0.32286444306373596, -0.35746461153030396, 0.1352853626012802, -0.5282659530639648, 1.2771445512771606, 0.5055726170539856, 1.2867372035980225, 0.7914042472839355, 2.28971529006958, -1.042172908782959, 0.8173450827598572, 1.2031795978546143, 0.0667499452829361, 0.006824001669883728], [0.317035973072052, 0.19265325367450714, 0.13939043879508972, 2.489287853240967, -1.31563138961792, 0.3434840440750122, 3.946267604827881, -0.40164831280708313, -0.06195354461669922, 0.6133212447166443, 1.0936094522476196, -0.8133700489997864, -0.33620473742485046, 0.27990469336509705, 0.9574716687202454, 1.47246515750885, -0.34464865922927856, 0.9982185363769531, 1.1304054260253906, -0.45889127254486084, -1.6408162117004395, 0.944004476070404, 1.332396149635315, 1.3309826850891113, 0.2794813811779022], [1.4030952453613281, 0.03944569081068039, 0.1796293705701828, 0.930812656879425, 0.27412062883377075, 1.526197075843811, 1.553049921989441, -0.8579061627388, 1.7867252826690674, 0.3057299554347992, 1.890749216079712, -0.4099281132221222, 0.3594936728477478, -0.20651015639305115, -0.13419707119464874, 0.15926124155521393, 1.0601829290390015, 0.4026789367198944, 0.5821308493614197, 1.928342342376709, -1.434535026550293, 1.52354896068573, 1.171264886856079, 1.7693992853164673, 1.5230050086975098], [1.0798407793045044, 1.1377999782562256, 1.0154685974121094, 2.5884335041046143, 1.4932960271835327, -0.5672775506973267, 1.4578543901443481, 1.2694348096847534, 2.398758888244629, 2.0146756172180176, 1.9750289916992188, 1.7495287656784058, 0.2643621265888214, -0.8520069122314453, 0.45482587814331055, 0.361025869846344, 2.005851984024048, 1.0843744277954102, 1.7440204620361328, 0.2326643317937851, -1.9832473993301392, 0.3161320388317108, 2.4849698543548584, 1.6977940797805786, -1.4650602340698242], [-1.0452078580856323, -1.7565497159957886, 1.4970194101333618, 1.228306531906128, 1.0112799406051636, 0.2939651310443878, 1.8081326484680176, 0.9494264721870422, 1.2611730098724365, -0.10066788643598557, -0.775413990020752, 2.177746534347534, -1.1114253997802734, -0.6208105087280273, -0.30711907148361206, -0.14059403538703918, 1.2080684900283813, 0.6622353792190552, 1.390350341796875, 0.9311869740486145, 0.6247958540916443, 0.5721538662910461, 1.2987949848175049, 1.7542023658752441, 1.8353149890899658], [0.0923566073179245, -0.7538383603096008, 0.09033893048763275, 1.1708605289459229, 1.891762375831604, 1.5839567184448242, -0.9590978026390076, 2.701406240463257, -1.0775465965270996, 0.6211531758308411, 0.34903812408447266, -0.9713018536567688, 0.5689623951911926, 0.2059284895658493, 1.164603352546692, 2.53589129447937, 1.1875983476638794, 1.1113386154174805, 1.0192574262619019, -0.2877466678619385, 1.399052619934082, 1.9054633378982544, 0.43612492084503174, -0.335640549659729, 1.444684386253357], [1.2568652629852295, 0.6554877161979675, 0.9376745223999023, 1.184403419494629, 1.073156476020813, 1.5420783758163452, 1.157631754875183, -0.15185679495334625, 0.21513831615447998, 0.7911544442176819, 1.7574539184570312, 1.9591724872589111, 0.9725337624549866, 0.9566910862922668, 2.775343894958496, 1.3432093858718872, 2.141328811645508, 1.1895593404769897, 0.4536699056625366, 1.9016093015670776, -0.06429370492696762, 1.7805567979812622, 0.9739291071891785, 0.18206006288528442, -1.2789019346237183], [0.2328774780035019, 1.8273837566375732, 0.12042311578989029, 1.0730385780334473, 0.9246289134025574, -1.0924656391143799, 0.9194358587265015, 2.0830490589141846, 0.28094178438186646, 0.8402068018913269, -0.2542566657066345, -0.683933436870575, 0.7555591464042664, 0.4195807874202728, -0.7406305074691772, 0.7335269451141357, 0.9744514226913452, 2.503608465194702, -0.4282928705215454, -0.05554855242371559, -1.4481651782989502, -1.1978299617767334, 0.822651207447052, 2.3811452388763428, -1.0084856748580933], [2.124424695968628, 0.5087960362434387, 1.7151305675506592, 0.8875656723976135, 1.9967255592346191, 0.9583772420883179, -0.859684944152832, 1.604013442993164, 0.9501938819885254, 1.5951851606369019, 1.88153076171875, 1.293979525566101, 2.089958906173706, 0.7701336741447449, 0.4124554991722107, 0.9240110516548157, 1.2327302694320679, -0.26924753189086914, 1.400469422340393, 2.0353262424468994, -0.4228183329105377, -1.5074704885482788, 0.858755886554718, -0.1200418546795845, -0.5440229773521423], [0.35954946279525757, 1.1255451440811157, 1.2633438110351562, 0.1244393140077591, 0.5349075794219971, 2.3890888690948486, 0.9555935263633728, -0.5693036317825317, 0.4384203255176544, 1.4444782733917236, 1.7838493585586548, -0.19289280474185944, 1.4071651697158813, 0.5000575184822083, 0.948645830154419, 1.8621435165405273, 0.659925103187561, 0.9938828945159912, 0.2935679852962494, 3.3812272548675537, -0.19533078372478485, 0.7889683246612549, 1.5242629051208496, -0.23970948159694672, 0.2996809184551239], [1.6916582584381104, 2.1165430545806885, 1.4430724382400513, 0.1810721606016159, 1.2390660047531128, 0.7276584506034851, 0.8744416236877441, 0.6827107071876526, -0.7249153256416321, 0.31648656725883484, -1.3287172317504883, -1.950022578239441, 1.4888545274734497, -0.07795462012290955, 0.24903732538223267, 0.4500179886817932, -0.2730703353881836, 1.036301612854004, 0.8659750819206238, 1.8816908597946167, -0.25117915868759155, 0.7521279454231262, 1.7084792852401733, 0.5154853463172913, 2.9079067707061768], [0.004092599265277386, -0.008071170188486576, 2.3606810569763184, 0.6951385736465454, 0.2550119459629059, 1.806863784790039, -0.9662414789199829, 0.6949054002761841, -0.5209338665008545, 0.926095724105835, 1.0037821531295776, 0.7240318655967712, 0.820241391658783, 0.4336826205253601, -1.6182153224945068, 1.9729137420654297, 1.4055646657943726, 0.1980912685394287, -0.6683509349822998, -0.4695935845375061, -0.4619249999523163, 0.10744262486696243, 1.214095115661621, 1.6736327409744263, -0.15031003952026367], [0.7027217149734497, 1.7179603576660156, 2.0484673976898193, 1.023858904838562, 1.2217696905136108, 1.7884504795074463, 0.10436142981052399, 1.5434503555297852, 1.324944019317627, 0.05016825348138809, -1.2479578256607056, 1.3871837854385376, 1.0387637615203857, -0.4185914695262909, -1.4087969064712524, 1.8021962642669678, -0.14314045011997223, 0.2809501886367798, 1.3398674726486206, 0.08240316063165665, -0.3452201783657074, 2.8531100749969482, -1.090971827507019, 1.5756596326828003, 0.4395841956138611], [1.6860073804855347, 1.4993841648101807, 1.2003579139709473, 0.5262918472290039, 1.2002471685409546, 1.992920994758606, 1.3186843395233154, 1.163667917251587, 0.2326613962650299, 0.9040346145629883, -0.32817351818084717, 0.9806337356567383, 0.05488342419266701, -0.9978023171424866, 1.7954612970352173, 2.436398506164551, -0.5627384781837463, 0.8101634979248047, -0.11798880994319916, 0.8250738978385925, 1.2358161211013794, 0.7063563466072083, 1.3512669801712036, 1.0594143867492676, -0.055086273699998856]]}, {"name": "activation_7", "type": "tanh"}, {"has_bias": true, "bias": [1.267511010169983, 1.0001044273376465], "in_features": 25, "type": "dense", "name": "trainable_8", "out_features": 2, "weights": [[0.04296223074197769, -0.07882966846227646], [0.08868428319692612, -0.047831710427999496], [0.11091455072164536, -0.11006415635347366], [0.020507674664258957, 0.01638784073293209], [0.14785759150981903, -0.046988729387521744], [0.26835232973098755, -0.012889711186289787], [-0.047703709453344345, 0.09381338208913803], [-0.06890574097633362, 0.03143768385052681], [-0.1600889265537262, 0.016090139746665955], [-0.05375901982188225, 0.008495223708450794], [-0.06846240162849426, 0.011772165074944496], [0.030871300026774406, 0.015668824315071106], [0.06334861367940903, 0.035063888877630234], [-0.04580778628587723, -0.03277568146586418], [0.03327884525060654, -0.006621732842177153], [0.049007348716259, -0.05533616244792938], [-0.05924871936440468, 0.005589446984231472], [0.046333134174346924, 0.001516078133136034], [-0.14421342313289642, 0.043788228183984756], [0.08729682117700577, -0.04760788381099701], [0.0689508393406868, -0.6551362872123718], [0.15503272414207458, -0.06596405804157257], [-0.05594368651509285, 0.060319699347019196], [-0.009846851229667664, -0.021545378491282463], [0.06839947402477264, -0.06207527592778206]]}, {"name": "activation_9", "type": "tanh"}, {"name": "criterion_10", "type": "mse"}]}