{
  "test_accuracy": 0.9266,
  "layers": [
    {
      "has_bias": true,
      "bias": [
        14.50013256072998,
        15.247152328491211,
        14.47092342376709,
        12.769791603088379,
        14.704166412353516,
        14.667292594909668,
        13.605731010437012,
        15.876441955566406,
        12.481114387512207,
        13.470257759094238,
        16.356767654418945,
        12.350665092468262,
        14.054143905639648,
        14.35764217376709,
        12.282866477966309,
        14.653281211853027,
        14.285747528076172,
        13.273940086364746,
        14.779544830322266,
        13.257527351379395,
        14.894676208496094,
        15.311965942382812,
        13.358086585998535,
        17.67180824279785,
        15.183921813964844
      ],
      "in_features": 2,
      "type": "dense",
      "name": "trainable_0",
      "out_features": 25,
      "weights": [
        [
          -7.5568060874938965,
          -14.504558563232422,
          -22.78131103515625,
          -6.898990631103516,
          -8.067240715026855,
          -9.280328750610352,
          -38.02727127075195,
          0.23543313145637512,
          11.748050689697266,
          -7.319669246673584,
          -37.40902328491211,
          -4.022398948669434,
          -11.22678279876709,
          -10.852601051330566,
          5.600836753845215,
          -10.964805603027344,
          -2.7552998065948486,
          -5.699520587921143,
          -11.490684509277344,
          63.58860397338867,
          -7.567915916442871,
          -11.810428619384766,
          -8.647629737854004,
          -20.87700843811035,
          -8.18107795715332
        ],
        [
          -7.326870441436768,
          -4.213705539703369,
          12.238554000854492,
          -11.269948959350586,
          -6.81121826171875,
          -5.526855945587158,
          69.47567749023438,
          -18.248130798339844,
          -19.949176788330078,
          -6.225939750671387,
          -33.345951080322266,
          -8.52538013458252,
          -2.8190221786499023,
          -3.3712551593780518,
          7.351861476898193,
          -3.8874385356903076,
          -16.266128540039062,
          -8.331622123718262,
          -3.425680637359619,
          -36.02900695800781,
          -7.544839859008789,
          -3.380114793777466,
          -9.996088027954102,
          -0.029038414359092712,
          -7.439254283905029
        ]
      ]
    },
    {
      "name": "activation_1",
      "type": "tanh"
    },
    {
      "has_bias": true,
      "bias": [
        2.435816526412964,
        0.19352248311042786,
        1.6514794826507568,
        -0.030859868973493576,
        1.644826889038086,
        2.483191728591919,
        2.0590617656707764,
        0.6777167916297913,
        1.8494830131530762,
        -0.33976903557777405,
        1.028879165649414,
        3.2006924152374268,
        1.2039785385131836,
        1.2928681373596191,
        2.225023031234741,
        1.5755364894866943,
        1.665358543395996,
        0.34105899930000305,
        2.558561086654663,
        2.273277997970581,
        2.4030473232269287,
        1.2674565315246582,
        0.29646992683410645,
        0.31313738226890564,
        2.7651169300079346
      ],
      "in_features": 25,
      "type": "dense",
      "name": "trainable_2",
      "out_features": 25,
      "weights": [
        [
          0.9284921884536743,
          -0.009734675288200378,
          -2.993283748626709,
          -0.9744488000869751,
          -0.6803616881370544,
          -3.667335271835327,
          0.8756530284881592,
          -1.1138273477554321,
          -0.18081629276275635,
          -2.0997350215911865,
          -2.5309484004974365,
          1.993385910987854,
          -0.6788427829742432,
          -2.386579990386963,
          -1.750751256942749,
          2.313349723815918,
          4.22393274307251,
          -0.7638565897941589,
          3.7915890216827393,
          -0.09107023477554321,
          -2.1004254817962646,
          -1.470772624015808,
          -1.7391785383224487,
          -0.5718629956245422,
          -0.13355912268161774
        ],
        [
          -0.5727757215499878,
          -2.161128282546997,
          3.1078667640686035,
          0.8048774600028992,
          -2.728070020675659,
          6.032489776611328,
          -6.2654852867126465,
          -1.4069021940231323,
          -1.9597970247268677,
          3.3657844066619873,
          2.5988545417785645,
          -1.162009596824646,
          3.775397777557373,
          1.6642826795578003,
          -0.40560182929039,
          -2.906290292739868,
          -2.4643430709838867,
          0.2697969973087311,
          -4.971493244171143,
          -2.970135450363159,
          3.674961805343628,
          4.104600429534912,
          0.41036224365234375,
          4.247685432434082,
          -2.447190284729004
        ],
        [
          1.6960382461547852,
          0.4401034414768219,
          3.1141788959503174,
          2.881826400756836,
          -0.6732465624809265,
          7.238945960998535,
          -4.559295654296875,
          -3.2541773319244385,
          -2.358372449874878,
          1.2237509489059448,
          3.6090071201324463,
          -1.537522792816162,
          4.331335067749023,
          -1.8323073387145996,
          0.7147197723388672,
          -2.852874755859375,
          -6.374593257904053,
          -0.07662464678287506,
          -5.120372295379639,
          -4.131392478942871,
          5.101496696472168,
          5.549335479736328,
          -0.8378467559814453,
          3.1351869106292725,
          -3.6252694129943848
        ],
        [
          1.1522125005722046,
          -1.6012929677963257,
          2.08475661277771,
          4.823195934295654,
          -1.176010012626648,
          4.242011547088623,
          -2.7926461696624756,
          -3.3205156326293945,
          -0.4542219042778015,
          2.957648754119873,
          0.03873160481452942,
          -0.34486401081085205,
          0.9521560668945312,
          -1.737213134765625,
          0.6180884838104248,
          -0.21259106695652008,
          -2.288447618484497,
          -3.628312826156616,
          -2.3564867973327637,
          -2.746018886566162,
          -0.914901852607727,
          3.5785536766052246,
          -0.6614245772361755,
          0.10745063424110413,
          -0.08595316112041473
        ],
        [
          -0.3309587240219116,
          1.0253199338912964,
          -1.5516868829727173,
          0.13634012639522552,
          0.0409100241959095,
          -5.752665042877197,
          1.4426112174987793,
          1.295728325843811,
          2.8550734519958496,
          -2.979188919067383,
          -3.150451183319092,
          1.6359155178070068,
          -0.9470069408416748,
          -0.8209320902824402,
          -1.5163004398345947,
          1.9161326885223389,
          4.030826091766357,
          -0.8710903525352478,
          3.9163730144500732,
          3.893918991088867,
          -7.078476905822754,
          -3.286719560623169,
          -0.38789597153663635,
          -3.731128692626953,
          -0.19603072106838226
        ],
        [
          -1.612877607345581,
          -0.5128401517868042,
          -2.614741802215576,
          -0.4393353760242462,
          -0.612750768661499,
          -3.103395938873291,
          0.40376153588294983,
          -0.19149437546730042,
          2.443514823913574,
          -2.499650478363037,
          -2.294119358062744,
          0.27533653378486633,
          -2.5307745933532715,
          -0.4756612777709961,
          0.36668768525123596,
          -0.36115995049476624,
          1.5917081832885742,
          0.179287388920784,
          3.606797695159912,
          2.3716933727264404,
          -3.214019298553467,
          -0.5744571685791016,
          -0.3528323769569397,
          -1.892160415649414,
          0.8482499718666077
        ],
        [
          1.0525349378585815,
          0.6382384300231934,
          6.269775390625,
          6.282907485961914,
          -2.0521233081817627,
          17.606279373168945,
          -9.488070487976074,
          -5.975593090057373,
          -8.245543479919434,
          9.494498252868652,
          6.260568618774414,
          1.8318947553634644,
          11.51457405090332,
          2.873076915740967,
          1.229508399963379,
          -4.2840776443481445,
          -9.260120391845703,
          -2.0447826385498047,
          -12.144488334655762,
          -5.026394844055176,
          13.703936576843262,
          10.068612098693848,
          0.9118611216545105,
          7.812603950500488,
          -5.377936363220215
        ],
        [
          0.3691021800041199,
          1.763784646987915,
          4.477368354797363,
          0.6660383939743042,
          -0.9115904569625854,
          5.478147029876709,
          -2.1386396884918213,
          -3.309939384460449,
          -5.049760341644287,
          2.5984020233154297,
          2.930060625076294,
          0.7007914185523987,
          2.9906435012817383,
          2.065114974975586,
          -0.5886699557304382,
          -4.089745044708252,
          -5.0044403076171875,
          0.04930810257792473,
          -5.318572998046875,
          -2.7293360233306885,
          7.929710388183594,
          1.371570348739624,
          2.3186256885528564,
          4.039191722869873,
          -0.3580624461174011
        ],
        [
          0.9960439205169678,
          -2.1867141723632812,
          0.34188970923423767,
          2.853933095932007,
          -2.9658942222595215,
          3.808147668838501,
          -1.2882623672485352,
          -3.18892240524292,
          -2.378863573074341,
          6.094796180725098,
          2.418534278869629,
          -1.1847057342529297,
          0.468193918466568,
          -2.289266347885132,
          0.30428656935691833,
          0.636741578578949,
          -8.570910453796387,
          -1.0364078283309937,
          -4.953841686248779,
          -2.7657976150512695,
          4.803372859954834,
          2.741530656814575,
          -0.8985352516174316,
          2.4303364753723145,
          -0.006751706823706627
        ],
        [
          0.998707115650177,
          2.19832444190979,
          -3.082021474838257,
          -0.31570181250572205,
          0.6737245321273804,
          -4.8671088218688965,
          1.7287108898162842,
          -0.7143514156341553,
          2.0170788764953613,
          -2.784395456314087,
          0.1789861023426056,
          0.24318429827690125,
          -1.8144503831863403,
          0.01037263497710228,
          0.33148491382598877,
          2.680340528488159,
          3.2944016456604004,
          1.7683645486831665,
          3.0870413780212402,
          1.8697980642318726,
          -2.3256287574768066,
          -2.1098721027374268,
          -0.24164694547653198,
          -2.7237942218780518,
          1.5276541709899902
        ],
        [
          0.8131029009819031,
          0.8964848518371582,
          -5.46901798248291,
          -8.79563045501709,
          1.9988677501678467,
          -20.613056182861328,
          13.43222713470459,
          2.8758819103240967,
          6.654167175292969,
          -7.993181228637695,
          -11.150437355041504,
          -2.128497838973999,
          -8.7033109664917,
          -1.175277829170227,
          -1.2149311304092407,
          6.934075355529785,
          11.142363548278809,
          -1.9612406492233276,
          10.746493339538574,
          7.939693927764893,
          -15.933223724365234,
          -11.722806930541992,
          -0.6416515707969666,
          -0.9670245051383972,
          5.758678436279297
        ],
        [
          -0.3889751136302948,
          0.9222472906112671,
          -3.666541576385498,
          1.8890103101730347,
          2.04646897315979,
          -2.322645425796509,
          1.8892743587493896,
          2.1344821453094482,
          2.8625829219818115,
          -0.11864583194255829,
          0.4880724251270294,
          -1.6747111082077026,
          -4.489127159118652,
          -0.8240321278572083,
          0.6673203110694885,
          1.1795787811279297,
          3.6577301025390625,
          4.306467056274414,
          3.4085915088653564,
          3.5228071212768555,
          -1.1218883991241455,
          -1.9652094841003418,
          -1.892028570175171,
          -1.3616493940353394,
          1.6740233898162842
        ],
        [
          -1.6759675741195679,
          0.1320030242204666,
          -1.6754910945892334,
          -3.6695196628570557,
          1.1314051151275635,
          -4.12269401550293,
          3.4120495319366455,
          1.6274477243423462,
          3.623138666152954,
          -3.6974661350250244,
          -1.8005908727645874,
          1.3031901121139526,
          -1.6586723327636719,
          0.3121560215950012,
          -0.7914016842842102,
          0.09255165606737137,
          4.393503665924072,
          -0.7842158675193787,
          4.091197967529297,
          4.222743511199951,
          -4.719932556152344,
          -3.204836845397949,
          0.4085191488265991,
          -1.354617953300476,
          0.9233666062355042
        ],
        [
          -1.4696531295776367,
          0.9814386367797852,
          -2.763399600982666,
          -1.8979140520095825,
          1.0612908601760864,
          -2.293884515762329,
          3.2822465896606445,
          0.9686345458030701,
          1.475148320198059,
          -5.102618217468262,
          -1.5102765560150146,
          0.17342020571231842,
          -2.3760788440704346,
          1.7996302843093872,
          3.0306129455566406,
          1.5305575132369995,
          3.4123733043670654,
          0.7489256858825684,
          3.332775831222534,
          3.2728054523468018,
          -4.039344310760498,
          -3.535092830657959,
          1.0967158079147339,
          -3.3490729331970215,
          0.7478876709938049
        ],
        [
          -2.637937545776367,
          -1.9236797094345093,
          -5.526469707489014,
          -2.2442538738250732,
          1.9609230756759644,
          -6.055121421813965,
          4.940484523773193,
          1.3626527786254883,
          5.2018280029296875,
          -3.540538787841797,
          0.4163129925727844,
          -1.7082875967025757,
          -2.969373941421509,
          -2.181460380554199,
          0.651451587677002,
          5.7613911628723145,
          9.045877456665039,
          2.750535249710083,
          8.635710716247559,
          5.416355133056641,
          -4.848062038421631,
          -1.6859327554702759,
          2.2279443740844727,
          -3.741300582885742,
          2.852052927017212
        ],
        [
          -0.3884384036064148,
          1.1264550685882568,
          -1.9671599864959717,
          -2.9011459350585938,
          0.7330201864242554,
          -4.428462505340576,
          3.432737350463867,
          -0.20722104609012604,
          2.3568477630615234,
          -2.488269090652466,
          -0.7016814947128296,
          1.0004738569259644,
          -2.210780143737793,
          0.16508415341377258,
          -0.5803620219230652,
          1.85196852684021,
          4.7188262939453125,
          0.6703816652297974,
          1.9722305536270142,
          4.108282089233398,
          -4.639238357543945,
          -1.7168564796447754,
          -0.4651302993297577,
          -3.046234607696533,
          1.626625418663025
        ],
        [
          0.8000233769416809,
          -1.5288914442062378,
          2.173360586166382,
          2.558659076690674,
          1.779742956161499,
          5.373904705047607,
          -1.9724615812301636,
          -0.052996207028627396,
          -2.1813862323760986,
          2.4852685928344727,
          5.1773681640625,
          1.3551687002182007,
          3.0029549598693848,
          2.2359530925750732,
          0.49848270416259766,
          -3.864889144897461,
          -2.9102602005004883,
          -0.5626521110534668,
          -3.3266849517822266,
          -2.200863838195801,
          4.027527809143066,
          0.7963331937789917,
          -0.06456396728754044,
          2.8192098140716553,
          -3.441563606262207
        ],
        [
          0.8151729702949524,
          1.4895353317260742,
          -2.6682381629943848,
          0.05878980830311775,
          1.5420511960983276,
          -0.6180927157402039,
          1.7007652521133423,
          2.639430046081543,
          2.2971103191375732,
          0.3543657064437866,
          0.4860139489173889,
          -1.1921101808547974,
          -1.9706313610076904,
          2.2072486877441406,
          -0.6013397574424744,
          1.6801483631134033,
          4.217799186706543,
          3.024454355239868,
          0.917212724685669,
          2.4919159412384033,
          1.8938583135604858,
          0.2061588168144226,
          -0.3767930567264557,
          -0.030866842716932297,
          1.5716594457626343
        ],
        [
          -2.08066725730896,
          0.46426233649253845,
          -2.5958549976348877,
          -2.520541191101074,
          -0.24756360054016113,
          -3.967257499694824,
          2.891176462173462,
          2.8293228149414062,
          2.8791701793670654,
          -2.1397294998168945,
          -1.9294573068618774,
          -2.308253526687622,
          -1.3227977752685547,
          -0.2009926587343216,
          -1.1758599281311035,
          1.9674755334854126,
          5.897865295410156,
          -1.3646042346954346,
          3.8996007442474365,
          2.589940071105957,
          -2.614962339401245,
          -4.055248737335205,
          0.9604469537734985,
          -2.8247835636138916,
          1.3200422525405884
        ],
        [
          0.4771486818790436,
          -0.6398483514785767,
          6.7412614822387695,
          7.5365777015686035,
          -2.7317922115325928,
          15.419870376586914,
          -13.307228088378906,
          -2.7339963912963867,
          -9.115161895751953,
          8.36802864074707,
          6.292863845825195,
          0.8368871808052063,
          6.978036403656006,
          1.4651952981948853,
          1.0529965162277222,
          -7.330655574798584,
          -8.479743957519531,
          -2.446746826171875,
          -11.538797378540039,
          -6.093728065490723,
          15.352148056030273,
          11.404902458190918,
          0.08055584132671356,
          7.71169900894165,
          -4.9502410888671875
        ],
        [
          -0.14149557054042816,
          1.0805517435073853,
          -2.6014366149902344,
          -3.280099391937256,
          0.9812467098236084,
          -5.405388355255127,
          2.7333247661590576,
          1.825225830078125,
          1.6736809015274048,
          -5.030989646911621,
          -2.898456335067749,
          0.6531178951263428,
          -2.0999317169189453,
          -2.0386879444122314,
          -2.0272061824798584,
          2.1010494232177734,
          5.211613655090332,
          0.38232749700546265,
          4.61677885055542,
          1.663265585899353,
          -5.881974220275879,
          -3.5750861167907715,
          -1.7078087329864502,
          -2.422013998031616,
          1.165740966796875
        ],
        [
          0.974713146686554,
          -0.047004252672195435,
          -2.992748975753784,
          -3.227409601211548,
          0.6511526107788086,
          -3.3037772178649902,
          0.9860216379165649,
          1.3559846878051758,
          2.1289219856262207,
          -4.3497796058654785,
          -4.089882850646973,
          -0.35694554448127747,
          -1.842072606086731,
          0.9704649448394775,
          1.3733103275299072,
          2.940845251083374,
          4.764698028564453,
          0.07712612301111221,
          4.481537342071533,
          2.0445265769958496,
          -3.2090840339660645,
          -2.840956926345825,
          0.12299028784036636,
          -3.0878841876983643,
          -1.4551420211791992
        ],
        [
          0.9411189556121826,
          0.35745370388031006,
          0.8910597562789917,
          0.7204444408416748,
          0.34995710849761963,
          3.8374381065368652,
          -2.5379528999328613,
          0.47908538579940796,
          -0.6883100867271423,
          1.8189338445663452,
          1.6387009620666504,
          -0.7262517213821411,
          0.6856553554534912,
          1.4242852926254272,
          -0.5601569414138794,
          -3.0970516204833984,
          -3.6307339668273926,
          -0.21185392141342163,
          -4.573399543762207,
          -2.286133289337158,
          2.2521064281463623,
          4.736943244934082,
          -0.21421107649803162,
          1.026910662651062,
          -2.0891470909118652
        ],
        [
          2.0582964420318604,
          -0.05719594657421112,
          6.521361827850342,
          2.643561840057373,
          -0.33194199204444885,
          7.047388076782227,
          -1.0489100217819214,
          -3.830735921859741,
          -5.328011989593506,
          3.5667474269866943,
          4.3163676261901855,
          -0.11042824387550354,
          7.007087707519531,
          2.8574187755584717,
          1.2647241353988647,
          -5.050411701202393,
          -9.100332260131836,
          -2.169515371322632,
          -6.841103553771973,
          -4.926905155181885,
          5.29191255569458,
          6.969418525695801,
          0.011574465781450272,
          3.5226776599884033,
          -0.17016705870628357
        ],
        [
          -0.24918940663337708,
          -0.7133353352546692,
          -0.8951926231384277,
          -0.5821121335029602,
          -2.771239995956421,
          -3.419827461242676,
          0.6013001203536987,
          0.7870360612869263,
          -0.3450273871421814,
          -2.3170018196105957,
          -4.20196008682251,
          -0.0810137540102005,
          -2.234504222869873,
          -2.06719708442688,
          -1.3741801977157593,
          2.1731674671173096,
          5.115865707397461,
          -0.37396663427352905,
          3.1868014335632324,
          0.8731767535209656,
          -5.586659908294678,
          -1.7697532176971436,
          -0.4498358964920044,
          -2.5671417713165283,
          1.4126838445663452
        ]
      ]
    },
    {
      "name": "activation_3",
      "type": "tanh"
    },
    {
      "has_bias": true,
      "bias": [
        0.12321821600198746,
        -0.794712245464325,
        -2.05491042137146,
        0.07100023329257965,
        2.5299105644226074,
        1.0485756397247314,
        2.225985527038574,
        -0.2642897665500641,
        0.9150362610816956,
        -0.5500969886779785,
        1.1371893882751465,
        0.06946830451488495,
        -1.892683744430542,
        -0.3941347599029541,
        0.6619322896003723,
        0.8481848835945129,
        1.3765313625335693,
        -0.36296725273132324,
        0.03568398952484131,
        -0.5657146573066711,
        0.6765171885490417,
        -1.1336793899536133,
        -0.09124831110239029,
        -1.5724365711212158,
        1.8277997970581055
      ],
      "in_features": 25,
      "type": "dense",
      "name": "trainable_4",
      "out_features": 25,
      "weights": [
        [
          -0.8051429390907288,
          1.4793611764907837,
          -0.19133013486862183,
          0.3611840009689331,
          0.45067098736763,
          -0.4744388461112976,
          2.150869846343994,
          -0.3376539349555969,
          1.7486844062805176,
          -1.2964545488357544,
          1.7645069360733032,
          1.1832497119903564,
          0.20883305370807648,
          -0.17830386757850647,
          -0.036137066781520844,
          0.6969141364097595,
          0.1442030668258667,
          0.7763472199440002,
          0.7957701683044434,
          1.8583896160125732,
          -1.3690415620803833,
          -1.2265937328338623,
          -0.2596473693847656,
          -1.1244703531265259,
          -1.732461929321289
        ],
        [
          0.8311476707458496,
          0.9139310121536255,
          -0.27926743030548096,
          0.2881568670272827,
          2.2568519115448,
          1.044497013092041,
          0.2967138886451721,
          1.8572134971618652,
          1.0473291873931885,
          -0.7167474627494812,
          0.6105945706367493,
          -1.4580785036087036,
          0.18286263942718506,
          -0.546445369720459,
          -0.34492626786231995,
          3.038599967956543,
          0.05643097683787346,
          0.5941771864891052,
          1.1770508289337158,
          -0.18831530213356018,
          -0.3074198365211487,
          -0.7685890793800354,
          -0.5098492503166199,
          -1.7820780277252197,
          -2.2786195278167725
        ],
        [
          -0.7054108381271362,
          1.1752855777740479,
          0.08238860964775085,
          0.39684489369392395,
          -1.0675673484802246,
          -2.3231446743011475,
          1.427034616470337,
          0.7315953373908997,
          0.9790403842926025,
          -0.827498197555542,
          -0.9733760356903076,
          -1.0087718963623047,
          0.15603399276733398,
          0.6807142496109009,
          2.133998155593872,
          -0.34817901253700256,
          -3.0811266899108887,
          -0.6856832504272461,
          3.921093225479126,
          1.6916998624801636,
          -0.861605703830719,
          -0.1649775207042694,
          1.6577013731002808,
          -2.193315029144287,
          -1.0731749534606934
        ],
        [
          -1.3450690507888794,
          1.2587471008300781,
          1.00588059425354,
          -0.26976701617240906,
          -2.3671529293060303,
          -2.7767043113708496,
          0.19996768236160278,
          -0.9395265579223633,
          1.4644354581832886,
          -1.830526351928711,
          0.28878578543663025,
          0.2084086835384369,
          0.010985062457621098,
          -1.1423014402389526,
          1.6855134963989258,
          -1.242526650428772,
          -0.8760092258453369,
          -1.9827812910079956,
          0.5757958292961121,
          1.0661442279815674,
          0.3660382926464081,
          0.7406390309333801,
          0.895279586315155,
          0.20687022805213928,
          -0.34609663486480713
        ],
        [
          1.5058869123458862,
          0.9105099439620972,
          0.8420297503471375,
          -0.4357069134712219,
          1.0340077877044678,
          -0.36173945665359497,
          -1.193313479423523,
          -0.8133770227432251,
          0.8352050185203552,
          -0.7069091796875,
          1.2245433330535889,
          -0.09213954210281372,
          0.4513872563838959,
          -1.5766105651855469,
          1.3626652956008911,
          -0.8050643801689148,
          0.9534665942192078,
          0.8142040371894836,
          -0.34700512886047363,
          -1.3664897680282593,
          -0.040275558829307556,
          -0.034901492297649384,
          1.699888825416565,
          -0.29067692160606384,
          1.655735731124878
        ],
        [
          -0.537795901298523,
          0.1917559802532196,
          1.8199516534805298,
          -1.1567612886428833,
          -2.8965067863464355,
          -1.9204213619232178,
          -0.9764671921730042,
          -2.6018083095550537,
          1.397575855255127,
          -1.2847477197647095,
          -0.9307076930999756,
          -0.31116339564323425,
          0.061575911939144135,
          0.7794210314750671,
          2.2156450748443604,
          1.1550735235214233,
          -2.9257993698120117,
          -1.6308923959732056,
          4.817039489746094,
          2.528998613357544,
          0.2379673272371292,
          -0.9550055861473083,
          1.5405383110046387,
          -1.7956640720367432,
          -3.7312703132629395
        ],
        [
          0.2465265542268753,
          -0.8547300696372986,
          -1.8108160495758057,
          -1.488900065422058,
          2.0846962928771973,
          2.9885616302490234,
          1.0649265050888062,
          0.9904100894927979,
          -0.8834044337272644,
          1.7834211587905884,
          1.9876806735992432,
          0.16337567567825317,
          -0.3321935832500458,
          2.235645055770874,
          -1.3405870199203491,
          0.591716468334198,
          2.335700035095215,
          0.35059812664985657,
          -1.3362290859222412,
          -1.5585514307022095,
          0.5660731196403503,
          1.2431952953338623,
          0.650497555732727,
          -1.0503545999526978,
          1.8884811401367188
        ],
        [
          0.3460211157798767,
          1.1379653215408325,
          0.4515012800693512,
          -0.6626995205879211,
          1.475677490234375,
          2.319885015487671,
          -0.7859692573547363,
          0.11913803964853287,
          1.4613145589828491,
          -0.07601901888847351,
          -0.3371019661426544,
          -0.5970990061759949,
          0.1776992827653885,
          -0.7403069734573364,
          0.22711537778377533,
          0.46996957063674927,
          1.5298805236816406,
          3.114769697189331,
          -1.2530360221862793,
          -1.327554702758789,
          -2.2761785984039307,
          1.4601998329162598,
          0.055626314133405685,
          -0.45894718170166016,
          1.331419587135315
        ],
        [
          0.9958096146583557,
          -1.766197919845581,
          0.15379977226257324,
          0.21487821638584137,
          0.9548084735870361,
          0.8220183253288269,
          -0.3185054659843445,
          1.5156590938568115,
          -0.407258003950119,
          -0.42402806878089905,
          0.06686629354953766,
          0.3954121768474579,
          0.4809422791004181,
          1.3991960287094116,
          -2.0120716094970703,
          -1.119089961051941,
          0.17344489693641663,
          0.275343656539917,
          -0.572899341583252,
          -0.5671494007110596,
          -0.7828022241592407,
          0.33458423614501953,
          -0.04501527175307274,
          -0.23871156573295593,
          2.076829671859741
        ],
        [
          -0.5145617723464966,
          1.210144281387329,
          2.9555118083953857,
          -0.310618132352829,
          -2.0860166549682617,
          -0.6285476684570312,
          -0.3883935809135437,
          -0.8550460934638977,
          1.4872355461120605,
          -1.7110768556594849,
          -1.2881770133972168,
          -2.6365413665771484,
          1.2647966146469116,
          -1.0074245929718018,
          1.7762131690979004,
          -0.36054715514183044,
          -1.7663215398788452,
          -0.608212411403656,
          0.46029701828956604,
          2.4736709594726562,
          0.4027239978313446,
          -0.0036307794507592916,
          0.33290109038352966,
          0.5221374034881592,
          -1.2102857828140259
        ],
        [
          -0.7394246459007263,
          -0.9084009528160095,
          1.4728853702545166,
          1.4649683237075806,
          -0.2845485508441925,
          -1.8426498174667358,
          0.9886602759361267,
          -1.09255850315094,
          0.9385564923286438,
          0.1307692676782608,
          -0.7989048957824707,
          1.27695631980896,
          -0.8162497878074646,
          -0.4764527976512909,
          1.4430441856384277,
          -0.15151740610599518,
          -2.0686726570129395,
          -0.5125939846038818,
          0.9615402221679688,
          0.019571395590901375,
          -0.002167378319427371,
          -2.2987749576568604,
          0.883898913860321,
          -0.6927130818367004,
          -0.4183800518512726
        ],
        [
          -0.3083699643611908,
          1.6587642431259155,
          -0.1295539140701294,
          -0.40926438570022583,
          -0.2886861562728882,
          0.6706233620643616,
          0.03524591401219368,
          0.5751919150352478,
          0.8470118641853333,
          -0.38714414834976196,
          1.8807706832885742,
          -2.803095579147339,
          -0.9146578907966614,
          -0.08402661234140396,
          -1.9571391344070435,
          -1.5646015405654907,
          -1.419954776763916,
          -0.15104901790618896,
          1.8597084283828735,
          1.607319951057434,
          -0.7453587055206299,
          0.9395400881767273,
          -1.118290901184082,
          0.5263527631759644,
          -0.9487269520759583
        ],
        [
          -0.9187930822372437,
          1.4890741109848022,
          2.1758079528808594,
          1.0360356569290161,
          -1.9585033655166626,
          -0.902202844619751,
          -2.2648353576660156,
          -1.4269832372665405,
          -0.38501253724098206,
          -1.9693360328674316,
          -0.6526063084602356,
          1.5640537738800049,
          0.4551965594291687,
          0.3713668882846832,
          -0.11648643016815186,
          -1.1110774278640747,
          -1.3843755722045898,
          -0.4863210916519165,
          2.1815178394317627,
          1.547744870185852,
          -0.8838712573051453,
          -0.25126999616622925,
          1.7742393016815186,
          -0.3487626314163208,
          -3.1491618156433105
        ],
        [
          -0.11396697908639908,
          -0.9795328974723816,
          0.43072980642318726,
          1.5095367431640625,
          0.4537741243839264,
          0.9181439876556396,
          -1.782631754875183,
          0.7777860760688782,
          0.000365546002285555,
          -0.0006343586719594896,
          0.9266073107719421,
          -1.3053429126739502,
          -0.13765765726566315,
          -1.157006025314331,
          1.2011762857437134,
          0.4310571551322937,
          -1.1621485948562622,
          1.6123478412628174,
          -0.14045698940753937,
          -0.5816149711608887,
          -0.2029922604560852,
          0.15708044171333313,
          0.9291107058525085,
          -1.3782227039337158,
          -2.0315635204315186
        ],
        [
          2.1255455017089844,
          0.5625771880149841,
          1.2268816232681274,
          -1.773621678352356,
          -1.6059167385101318,
          0.6179521083831787,
          -1.5612614154815674,
          -0.23694773018360138,
          0.8053121566772461,
          0.20801210403442383,
          0.9622644782066345,
          0.058858565986156464,
          1.0860837697982788,
          -0.9469312429428101,
          0.9266040325164795,
          -0.5781620740890503,
          -0.7276268601417542,
          -0.9452049136161804,
          -0.20999068021774292,
          0.13821877539157867,
          1.0314586162567139,
          2.6407577991485596,
          -1.2309565544128418,
          -1.1512755155563354,
          -0.813250720500946
        ],
        [
          0.5250744819641113,
          0.9961848855018616,
          -0.6113588213920593,
          0.746596097946167,
          1.7507400512695312,
          0.5456420183181763,
          -0.9325395822525024,
          -0.6808720827102661,
          1.0113589763641357,
          0.7335690259933472,
          -0.04874511808156967,
          1.412412166595459,
          0.5859516263008118,
          -0.3528132140636444,
          -2.6272380352020264,
          0.5583176612854004,
          0.7587050199508667,
          0.5715783834457397,
          -1.7647716999053955,
          -1.280657410621643,
          0.5913741588592529,
          -0.18695294857025146,
          0.4920780062675476,
          -0.20868900418281555,
          0.5399832129478455
        ],
        [
          5.138160705566406,
          0.9462237358093262,
          -2.3318684101104736,
          -0.3486150801181793,
          2.01421856880188,
          3.29713773727417,
          -3.726201057434082,
          0.6814625859260559,
          -1.0128439664840698,
          0.5306127071380615,
          2.7532718181610107,
          -1.9038288593292236,
          -1.2091015577316284,
          -0.6211063861846924,
          -4.005712032318115,
          1.0668259859085083,
          0.7183369994163513,
          1.0081299543380737,
          -1.7208560705184937,
          -1.5767698287963867,
          -1.4026143550872803,
          2.6161177158355713,
          -3.14746356010437,
          -0.3549506962299347,
          0.3805137574672699
        ],
        [
          1.6221113204956055,
          -0.5841387510299683,
          -0.563186526298523,
          -0.04066069796681404,
          1.5326331853866577,
          0.20813049376010895,
          0.5496650338172913,
          -0.17857307195663452,
          1.065811038017273,
          0.6408071517944336,
          1.2744255065917969,
          0.3093341290950775,
          1.0587228536605835,
          1.57832932472229,
          -2.1289336681365967,
          2.135228395462036,
          0.29754507541656494,
          -2.0598692893981934,
          1.5704889297485352,
          -0.5607183575630188,
          1.3651058673858643,
          -0.37925997376441956,
          0.8572642207145691,
          0.5418265461921692,
          -0.7343246936798096
        ],
        [
          2.0294113159179688,
          0.24339187145233154,
          -0.9886537790298462,
          -1.0151160955429077,
          1.7509765625,
          1.5669937133789062,
          0.7323670983314514,
          0.8119351863861084,
          -1.6634701490402222,
          0.8974750638008118,
          2.5723488330841064,
          0.9050027132034302,
          -0.37238195538520813,
          0.6319450736045837,
          -1.124082326889038,
          0.28635174036026,
          2.442859411239624,
          2.471928358078003,
          -3.161618947982788,
          -0.8759620189666748,
          -0.7572938799858093,
          0.20489554107189178,
          0.7145787477493286,
          1.4415127038955688,
          0.8513174653053284
        ],
        [
          2.7539703845977783,
          -0.9038849472999573,
          -2.9516923427581787,
          -0.7444459199905396,
          2.4828693866729736,
          2.8763818740844727,
          -2.0409903526306152,
          2.226567029953003,
          0.376739501953125,
          -1.213821291923523,
          2.0853400230407715,
          -0.9787561893463135,
          -0.34330037236213684,
          -0.46165645122528076,
          -1.8338571786880493,
          0.05223853141069412,
          -0.5099725127220154,
          0.2509327530860901,
          -3.148724317550659,
          -1.2938569784164429,
          -0.3255866765975952,
          1.5241796970367432,
          0.6740614175796509,
          -0.6938473582267761,
          0.8878324031829834
        ],
        [
          -2.220701217651367,
          0.67954421043396,
          1.6489429473876953,
          -0.43229615688323975,
          -0.765741229057312,
          -0.982094943523407,
          -0.40933749079704285,
          -1.1272674798965454,
          0.582447350025177,
          -1.0812569856643677,
          -0.7790793776512146,
          -0.9558545351028442,
          1.1898702383041382,
          2.027759075164795,
          2.4971017837524414,
          -1.791670322418213,
          -0.7201218605041504,
          -0.5280901789665222,
          2.2883965969085693,
          -1.037546992301941,
          0.32579976320266724,
          -0.640466570854187,
          2.3390860557556152,
          -2.7124836444854736,
          -4.050161361694336
        ],
        [
          -0.8273336887359619,
          -0.5688081383705139,
          1.020355224609375,
          1.6063345670700073,
          -2.3812808990478516,
          -0.6868376135826111,
          1.121707797050476,
          -2.363466501235962,
          1.0127208232879639,
          -0.38792672753334045,
          -0.774639904499054,
          2.0283255577087402,
          0.9402952790260315,
          0.7428947687149048,
          2.2821083068847656,
          -0.8712967038154602,
          -1.6824524402618408,
          -1.5072226524353027,
          2.657194137573242,
          0.7526565790176392,
          -0.33283209800720215,
          -0.4158423840999603,
          0.6478824019432068,
          0.677297055721283,
          -3.5262677669525146
        ],
        [
          0.718094527721405,
          1.3367416858673096,
          1.8665803670883179,
          -0.03009822592139244,
          0.6951227784156799,
          2.237555503845215,
          -0.4992792010307312,
          -0.9150470495223999,
          0.9862099885940552,
          -0.49563726782798767,
          0.24008861184120178,
          0.7064613103866577,
          -0.01285497285425663,
          -1.8598135709762573,
          0.8922287821769714,
          -1.3278559446334839,
          -0.2657982110977173,
          -1.5801331996917725,
          -0.7865269780158997,
          -0.5971526503562927,
          -0.07659181207418442,
          0.4033675789833069,
          0.8247512578964233,
          0.30792567133903503,
          0.43954169750213623
        ],
        [
          -1.3830718994140625,
          0.6772943139076233,
          2.3364696502685547,
          -0.1128222718834877,
          -0.7681215405464172,
          -3.7982873916625977,
          0.8931535482406616,
          -1.1898210048675537,
          2.1000490188598633,
          0.2655186951160431,
          -1.4221198558807373,
          -0.8399060368537903,
          0.06590480357408524,
          -1.3010985851287842,
          2.3867757320404053,
          0.3939373195171356,
          -0.32343125343322754,
          -1.4924472570419312,
          2.4482860565185547,
          0.2936001420021057,
          -0.7786932587623596,
          -0.6789658069610596,
          -1.2810873985290527,
          -1.465726375579834,
          -1.0561058521270752
        ],
        [
          -0.1340528428554535,
          0.02767322212457657,
          -0.5408392548561096,
          -0.7838312983512878,
          0.8585162162780762,
          -0.0344393365085125,
          0.07316350191831589,
          1.5529638528823853,
          -0.6977391242980957,
          -1.4910883903503418,
          -0.783652663230896,
          -0.8178907632827759,
          0.7697240114212036,
          2.032344341278076,
          -1.3951760530471802,
          0.8122063279151917,
          1.7302935123443604,
          2.024549722671509,
          -0.6645020842552185,
          -0.4141582250595093,
          0.02922491542994976,
          0.5319245457649231,
          0.7612858414649963,
          -0.15918473899364471,
          -0.22815273702144623
        ]
      ]
    },
    {
      "name": "activation_5",
      "type": "tanh"
    },
    {
      "has_bias": true,
      "bias": [
        -0.9870271682739258,
        1.0222618579864502,
        1.6168224811553955,
        2.349250078201294,
        1.9224443435668945,
        0.5309467315673828,
        2.3608906269073486,
        1.0587122440338135,
        3.0898053646087646,
        2.4241268634796143,
        0.5593686103820801,
        3.344686269760132,
        1.812408685684204,
        2.763758897781372,
        1.269239902496338,
        2.113151788711548,
        1.1187448501586914,
        2.1214072704315186,
        1.7820343971252441,
        0.6574875116348267,
        2.8271353244781494,
        0.4556696116924286,
        1.9261527061462402,
        2.0779106616973877,
        2.073551893234253
      ],
      "in_features": 25,
      "type": "dense",
      "name": "trainable_6",
      "out_features": 25,
      "weights": [
        [
          1.877209186553955,
          1.6714978218078613,
          1.3032524585723877,
          0.6394269466400146,
          -0.25806835293769836,
          0.5361551642417908,
          2.8284740447998047,
          2.1884524822235107,
          -1.4722845554351807,
          0.22947867214679718,
          0.7663545608520508,
          0.39037829637527466,
          2.17686128616333,
          0.19545702636241913,
          2.2722113132476807,
          0.804787814617157,
          0.6197506785392761,
          0.21471229195594788,
          0.2429911494255066,
          1.1124367713928223,
          0.9881407022476196,
          3.546783447265625,
          0.7232112884521484,
          0.9485956430435181,
          1.7318401336669922
        ],
        [
          2.3789560794830322,
          -0.22181916236877441,
          -0.7339216470718384,
          2.4595024585723877,
          1.2394254207611084,
          -0.29941752552986145,
          1.3842778205871582,
          2.0426230430603027,
          1.2992653846740723,
          -0.25520622730255127,
          1.7466241121292114,
          -0.08958374708890915,
          1.6612131595611572,
          0.473908931016922,
          0.48257166147232056,
          1.5205739736557007,
          0.4350096583366394,
          1.4815813302993774,
          0.7029126286506653,
          1.1775449514389038,
          0.5922556519508362,
          0.005279711447656155,
          -0.1716037541627884,
          1.0014897584915161,
          -0.08890342712402344
        ],
        [
          0.2613413333892822,
          0.9490935206413269,
          1.250265121459961,
          0.40307965874671936,
          1.7374323606491089,
          -1.327705979347229,
          0.8384105563163757,
          2.240898370742798,
          1.442527174949646,
          -0.09002254158258438,
          0.21977412700653076,
          1.4295696020126343,
          0.11820872128009796,
          -0.011913702823221684,
          0.6098843812942505,
          0.8354800343513489,
          1.227660059928894,
          0.3150642216205597,
          0.8114917874336243,
          2.808783769607544,
          -2.6929705142974854,
          -0.3535103499889374,
          2.992337226867676,
          -0.2749401032924652,
          2.5459842681884766
        ],
        [
          1.632554531097412,
          1.910048007965088,
          0.5580583214759827,
          0.9900400638580322,
          0.42636838555336,
          0.17834347486495972,
          1.063798189163208,
          1.3803443908691406,
          1.8009777069091797,
          0.25643911957740784,
          0.46363162994384766,
          1.6123181581497192,
          1.118143916130066,
          0.45266351103782654,
          0.9393545389175415,
          0.7544587850570679,
          0.43410176038742065,
          0.5507119297981262,
          1.2654954195022583,
          0.5995838046073914,
          -1.654983401298523,
          1.5013808012008667,
          0.9672984480857849,
          0.28409963846206665,
          1.0976487398147583
        ],
        [
          1.8760218620300293,
          0.017408547922968864,
          0.9857660531997681,
          1.3014566898345947,
          0.21007056534290314,
          -0.057107873260974884,
          -0.22774581611156464,
          -0.7618380784988403,
          1.0255911350250244,
          1.1818112134933472,
          -0.41677144169807434,
          2.654419422149658,
          2.0639030933380127,
          0.7462697625160217,
          1.1403508186340332,
          0.7796968221664429,
          2.0544140338897705,
          -0.7949551939964294,
          -0.8978231549263,
          0.6502206325531006,
          1.1746760606765747,
          2.3444788455963135,
          1.276587963104248,
          2.1061532497406006,
          0.2730528712272644
        ],
        [
          1.2926456928253174,
          1.1139823198318481,
          0.6234147548675537,
          0.3586205542087555,
          1.486620306968689,
          0.9885748028755188,
          -0.37483862042427063,
          -0.26365774869918823,
          1.655720591545105,
          0.09650580585002899,
          0.4477512538433075,
          -1.118709683418274,
          0.1405370533466339,
          -0.2613738775253296,
          1.580136775970459,
          1.338486909866333,
          0.35896316170692444,
          1.7550042867660522,
          1.6475412845611572,
          0.6004824638366699,
          1.6446330547332764,
          1.7886666059494019,
          1.6670745611190796,
          -0.213028684258461,
          -0.550383985042572
        ],
        [
          1.3701640367507935,
          -0.5429929494857788,
          0.6822734475135803,
          -0.21459050476551056,
          1.332405924797058,
          3.1570873260498047,
          1.9848347902297974,
          1.4534645080566406,
          0.18117713928222656,
          2.3026585578918457,
          0.5951086282730103,
          0.29758766293525696,
          1.3503689765930176,
          2.8281211853027344,
          -1.4377409219741821,
          0.40694519877433777,
          0.8358466625213623,
          1.4137887954711914,
          1.430140733718872,
          1.3997446298599243,
          -1.0827744007110596,
          -0.19160789251327515,
          -0.2346065640449524,
          -0.014144845306873322,
          0.690100371837616
        ],
        [
          -1.0005828142166138,
          1.3961098194122314,
          0.1413467675447464,
          1.17393159866333,
          -0.5621692538261414,
          1.58143150806427,
          1.9586217403411865,
          1.3010534048080444,
          0.28174564242362976,
          0.14622236788272858,
          1.078427791595459,
          0.8354721665382385,
          -0.014250853098928928,
          -0.6241860389709473,
          2.284379482269287,
          0.9963123202323914,
          3.595534086227417,
          -0.5495928525924683,
          -0.13296625018119812,
          3.0760018825531006,
          0.22450679540634155,
          -0.13424712419509888,
          1.174275279045105,
          1.2148009538650513,
          1.0112216472625732
        ],
        [
          1.2614250183105469,
          -1.0735572576522827,
          0.6274114847183228,
          2.048179864883423,
          2.020305633544922,
          0.20203591883182526,
          1.275863766670227,
          0.9309382438659668,
          -0.07844379544258118,
          1.0191004276275635,
          1.9683037996292114,
          -0.10929671674966812,
          0.1863056868314743,
          0.020288409665226936,
          0.542826235294342,
          2.080768346786499,
          1.1293418407440186,
          1.0929200649261475,
          2.1887407302856445,
          -0.5815252065658569,
          1.2115567922592163,
          -1.511595606803894,
          1.1473612785339355,
          -1.477895736694336,
          0.09599076211452484
        ],
        [
          0.6227578520774841,
          0.3061329424381256,
          0.6783702373504639,
          1.849452257156372,
          1.0057262182235718,
          1.7656971216201782,
          0.2409970611333847,
          -0.6348341703414917,
          -0.5682440400123596,
          0.3149165213108063,
          -0.8063070178031921,
          2.258537530899048,
          1.4352245330810547,
          1.6022168397903442,
          0.6743729710578918,
          -1.047285795211792,
          -0.0818706527352333,
          2.3751981258392334,
          0.6068246960639954,
          1.1452425718307495,
          -1.4847999811172485,
          2.2210850715637207,
          1.2564533948898315,
          -0.9676531553268433,
          1.2390538454055786
        ],
        [
          0.1560136377811432,
          1.5741503238677979,
          0.32813751697540283,
          0.5118244886398315,
          2.3517448902130127,
          -0.8750350475311279,
          1.3380800485610962,
          -0.22568099200725555,
          -0.4960031807422638,
          0.3365708589553833,
          -1.3958170413970947,
          0.4017411768436432,
          -0.270128071308136,
          0.1343335509300232,
          2.8562369346618652,
          1.0997377634048462,
          1.249314546585083,
          0.6375109553337097,
          -0.41918468475341797,
          0.47512611746788025,
          2.942974090576172,
          -0.9674544334411621,
          0.3987647294998169,
          1.4825116395950317,
          0.6209936738014221
        ],
        [
          1.2423955202102661,
          0.05192146077752113,
          2.335106611251831,
          1.470604658126831,
          -0.01439445186406374,
          3.776228189468384,
          1.7444356679916382,
          2.001255512237549,
          0.48184075951576233,
          0.6933825016021729,
          0.6420347094535828,
          0.30463626980781555,
          -0.354917049407959,
          0.13410362601280212,
          -0.5214894413948059,
          1.2784909009933472,
          0.49080249667167664,
          1.2860110998153687,
          0.7777743935585022,
          2.2912583351135254,
          -1.0874474048614502,
          0.82895827293396,
          1.1994138956069946,
          0.0761420875787735,
          0.014667699113488197
        ],
        [
          0.3362208902835846,
          0.18951524794101715,
          0.16279104351997375,
          2.498241901397705,
          -1.3190388679504395,
          0.3610748052597046,
          3.9408605098724365,
          -0.40268245339393616,
          -0.08263026922941208,
          0.6242027282714844,
          1.0920506715774536,
          -0.8081227540969849,
          -0.3388817608356476,
          0.29369309544563293,
          0.9390884041786194,
          1.4868088960647583,
          -0.33967357873916626,
          1.0210458040237427,
          1.1159634590148926,
          -0.4359380006790161,
          -1.5011223554611206,
          0.956286609172821,
          1.3234899044036865,
          1.318750023841858,
          0.28960084915161133
        ],
        [
          1.4307739734649658,
          0.03233944624662399,
          0.2040002942085266,
          0.9185307025909424,
          0.2621154487133026,
          1.534584879875183,
          1.5552499294281006,
          -0.8789539933204651,
          1.7832411527633667,
          0.2914832830429077,
          1.8850247859954834,
          -0.4262525737285614,
          0.35378947854042053,
          -0.20063866674900055,
          -0.12520405650138855,
          0.16921040415763855,
          1.06511390209198,
          0.39407801628112793,
          0.5766473412513733,
          1.955478549003601,
          -1.3654754161834717,
          1.5395333766937256,
          1.1772173643112183,
          1.791532278060913,
          1.5486515760421753
        ],
        [
          1.0746631622314453,
          1.1506036520004272,
          1.0201079845428467,
          2.5985264778137207,
          1.5134470462799072,
          -0.5610806941986084,
          1.4399971961975098,
          1.2757118940353394,
          2.393695831298828,
          2.0334229469299316,
          1.9871718883514404,
          1.7780851125717163,
          0.24580062925815582,
          -0.857785165309906,
          0.4371872842311859,
          0.3548148274421692,
          2.0115623474121094,
          1.0950859785079956,
          1.74191153049469,
          0.2385379523038864,
          -1.9306143522262573,
          0.3090428113937378,
          2.4732258319854736,
          1.6805411577224731,
          -1.470000147819519
        ],
        [
          -1.0503325462341309,
          -1.7495752573013306,
          1.5028927326202393,
          1.2283897399902344,
          1.0377280712127686,
          0.30258771777153015,
          1.8095389604568481,
          0.9363457560539246,
          1.2709320783615112,
          -0.11352250725030899,
          -0.7794135212898254,
          2.1890921592712402,
          -1.1269317865371704,
          -0.628174901008606,
          -0.29331067204475403,
          -0.14586235582828522,
          1.2180873155593872,
          0.6508301496505737,
          1.3903465270996094,
          0.935880184173584,
          0.6583153009414673,
          0.577511191368103,
          1.299749493598938,
          1.7708896398544312,
          1.8471828699111938
        ],
        [
          0.13104021549224854,
          -0.7570734620094299,
          0.07885958254337311,
          1.1780325174331665,
          1.8703714609146118,
          1.6110684871673584,
          -0.9583751559257507,
          2.713256597518921,
          -1.0989476442337036,
          0.6280143857002258,
          0.32131850719451904,
          -0.9762285351753235,
          0.5806233882904053,
          0.19677214324474335,
          1.1744835376739502,
          2.550459384918213,
          1.2088953256607056,
          1.0963925123214722,
          1.0152531862258911,
          -0.26614707708358765,
          1.3843430280685425,
          1.9381468296051025,
          0.446047842502594,
          -0.33640003204345703,
          1.4426720142364502
        ],
        [
          1.2881687879562378,
          0.6389979124069214,
          0.922356367111206,
          1.1943711042404175,
          1.0381584167480469,
          1.5363813638687134,
          1.173406720161438,
          -0.1374748796224594,
          0.22163152694702148,
          0.7925264835357666,
          1.7491378784179688,
          1.9620786905288696,
          0.9838767647743225,
          0.9564399123191833,
          2.785583019256592,
          1.342536449432373,
          2.161958932876587,
          1.164825201034546,
          0.4728712737560272,
          1.9084945917129517,
          -0.08268173784017563,
          1.79150390625,
          0.9979423880577087,
          0.18881136178970337,
          -1.2856963872909546
        ],
        [
          0.21146371960639954,
          1.8423489332199097,
          0.1493307650089264,
          1.0680898427963257,
          0.9610188603401184,
          -1.1064518690109253,
          0.9020189642906189,
          2.066601037979126,
          0.28666093945503235,
          0.8319934606552124,
          -0.23347017168998718,
          -0.6790499091148376,
          0.7246385812759399,
          0.43363896012306213,
          -0.7544878721237183,
          0.7246118783950806,
          0.9593077898025513,
          2.5266435146331787,
          -0.44001054763793945,
          -0.057081252336502075,
          -1.340897560119629,
          -1.2207592725753784,
          0.7986549139022827,
          2.3773703575134277,
          -0.9891531467437744
        ],
        [
          2.1159727573394775,
          0.5201846957206726,
          1.7422430515289307,
          0.8860617280006409,
          2.036571741104126,
          0.9674405455589294,
          -0.89124995470047,
          1.5906648635864258,
          0.9526265263557434,
          1.5926446914672852,
          1.9069535732269287,
          1.3259719610214233,
          2.050854444503784,
          0.7840075492858887,
          0.4109949767589569,
          0.916266143321991,
          1.2388203144073486,
          -0.27025824785232544,
          1.396588921546936,
          2.0519418716430664,
          -0.27596592903137207,
          -1.5224021673202515,
          0.8305244445800781,
          -0.1369929015636444,
          -0.51961350440979
        ],
        [
          0.31889453530311584,
          1.1263306140899658,
          1.2411690950393677,
          0.12749411165714264,
          0.5492230653762817,
          2.369513750076294,
          0.9689781069755554,
          -0.5646506547927856,
          0.45836469531059265,
          1.4626586437225342,
          1.8026010990142822,
          -0.20567619800567627,
          1.4271682500839233,
          0.49078798294067383,
          0.9449424147605896,
          1.8664541244506836,
          0.6458098292350769,
          1.0092073678970337,
          0.3189445436000824,
          3.3559370040893555,
          -0.3041498064994812,
          0.7692966461181641,
          1.5467185974121094,
          -0.2341296523809433,
          0.2794393002986908
        ],
        [
          1.7281612157821655,
          2.1262171268463135,
          1.442104697227478,
          0.1796475350856781,
          1.2237215042114258,
          0.7511696815490723,
          0.8778534531593323,
          0.6767911911010742,
          -0.7398338913917542,
          0.3171740472316742,
          -1.3546555042266846,
          -1.9619059562683105,
          1.498691439628601,
          -0.08427955955266953,
          0.2641947269439697,
          0.4617958962917328,
          -0.2563925087451935,
          1.0333765745162964,
          0.8610111474990845,
          1.9003267288208008,
          -0.2610452473163605,
          0.7813317775726318,
          1.7061854600906372,
          0.5263440012931824,
          2.931762456893921
        ],
        [
          0.002484371419996023,
          -0.009847797453403473,
          2.3886306285858154,
          0.7085677981376648,
          0.2715906798839569,
          1.8137307167053223,
          -0.9764759540557861,
          0.6933844089508057,
          -0.5359808206558228,
          0.9413384795188904,
          1.0008031129837036,
          0.7126186490058899,
          0.8393630385398865,
          0.45000818371772766,
          -1.6370998620986938,
          1.99992036819458,
          1.4011080265045166,
          0.22866947948932648,
          -0.6719459295272827,
          -0.4681178629398346,
          -0.42558470368385315,
          0.1112503930926323,
          1.2195814847946167,
          1.6771249771118164,
          -0.1463165432214737
        ],
        [
          0.7158660888671875,
          1.7069319486618042,
          2.032052755355835,
          1.0248057842254639,
          1.1595063209533691,
          1.7696908712387085,
          0.12196751683950424,
          1.5694468021392822,
          1.3324613571166992,
          0.058624327182769775,
          -1.2633764743804932,
          1.3729584217071533,
          1.062194585800171,
          -0.42443302273750305,
          -1.4073772430419922,
          1.795647382736206,
          -0.13209010660648346,
          0.2699151337146759,
          1.3553074598312378,
          0.07494060695171356,
          -0.41006678342819214,
          2.855400562286377,
          -1.0841964483261108,
          1.5794271230697632,
          0.41666120290756226
        ],
        [
          1.704906940460205,
          1.4866784811019897,
          1.1673182249069214,
          0.5301138162612915,
          1.150937557220459,
          1.9792485237121582,
          1.335260033607483,
          1.1890861988067627,
          0.23630306124687195,
          0.9147919416427612,
          -0.3393271863460541,
          0.9687408804893494,
          0.08330437541007996,
          -1.0027483701705933,
          1.798031210899353,
          2.435875654220581,
          -0.5500444769859314,
          0.8022401332855225,
          -0.10207583755254745,
          0.8192601203918457,
          1.15303373336792,
          0.7105183005332947,
          1.3730000257492065,
          1.0623489618301392,
          -0.07894492894411087
        ]
      ]
    },
    {
      "name": "activation_7",
      "type": "tanh"
    },
    {
      "has_bias": true,
      "bias": [
        1.2507641315460205,
        0.9833618402481079
      ],
      "in_features": 25,
      "type": "dense",
      "name": "trainable_8",
      "out_features": 2,
      "weights": [
        [
          0.07492884248495102,
          -0.08261001110076904
        ],
        [
          0.1364038586616516,
          -0.09098714590072632
        ],
        [
          0.07266299426555634,
          -0.05700572952628136
        ],
        [
          0.020763549953699112,
          0.006555031053721905
        ],
        [
          0.11526785790920258,
          -0.040678754448890686
        ],
        [
          0.256815105676651,
          -0.0602957047522068
        ],
        [
          0.041757721453905106,
          0.012760288082063198
        ],
        [
          -0.06941481679677963,
          -0.03001207858324051
        ],
        [
          -0.16290172934532166,
          0.021767597645521164
        ],
        [
          -0.034860387444496155,
          0.06378661841154099
        ],
        [
          -0.15068356692790985,
          0.0941694900393486
        ],
        [
          -0.06507022678852081,
          0.04199019446969032
        ],
        [
          -0.03464408218860626,
          0.06962087750434875
        ],
        [
          -0.02484520711004734,
          -0.04487257078289986
        ],
        [
          -0.02077517844736576,
          0.051941461861133575
        ],
        [
          0.035471659153699875,
          -0.04396393150091171
        ],
        [
          0.0016027847304940224,
          -0.0005252757691778243
        ],
        [
          0.0555167980492115,
          -0.0009128021774813533
        ],
        [
          -0.05142572522163391,
          0.039384957402944565
        ],
        [
          0.0739886611700058,
          -0.056029628962278366
        ],
        [
          0.0266431774944067,
          -0.6300554275512695
        ],
        [
          0.12611687183380127,
          -0.016707511618733406
        ],
        [
          -0.11242326349020004,
          0.06478729844093323
        ],
        [
          -0.008459151722490788,
          0.006795545108616352
        ],
        [
          0.1060142070055008,
          -0.11448229849338531
        ]
      ]
    },
    {
      "name": "activation_9",
      "type": "tanh"
    },
    {
      "name": "criterion_10",
      "type": "mse"
    }
  ]
}