{
  "test_accuracy": 0.8131,
  "layers": [
    {
      "type": "dense",
      "has_bias": true,
      "in_features": 2,
      "weights": [
        [
          -9.590968132019043,
          -4.308533668518066,
          8.40117073059082,
          0.4817005395889282,
          -18.51902198791504,
          5.234287738800049,
          -0.4583481550216675,
          1.6568026542663574,
          -11.948627471923828,
          1.800419569015503,
          -7.72426176071167,
          1.6066222190856934,
          4.942075729370117,
          7.908977508544922,
          12.956603050231934,
          -8.543553352355957,
          1.1741585731506348,
          6.659903049468994,
          8.932218551635742,
          0.5081536173820496,
          -1.5809156894683838,
          -1.4750452041625977,
          9.708128929138184,
          7.059566497802734,
          -5.138000011444092
        ],
        [
          7.896198272705078,
          -12.694426536560059,
          7.547834873199463,
          -0.9924191832542419,
          -1.1760417222976685,
          4.1982808113098145,
          -0.134103924036026,
          -0.6584256291389465,
          4.950891971588135,
          2.6070404052734375,
          -2.6979246139526367,
          0.14921487867832184,
          4.644250392913818,
          -10.727577209472656,
          6.583681106567383,
          0.1940920054912567,
          1.8862831592559814,
          0.8018121123313904,
          8.6912202835083,
          -0.7573779821395874,
          -8.473706245422363,
          -0.8885667324066162,
          9.559599876403809,
          5.8762946128845215,
          -2.5376620292663574
        ]
      ],
      "name": "trainable_0",
      "bias": [
        6.493729114532471,
        5.4120330810546875,
        6.892533779144287,
        8.524089813232422,
        6.278548717498779,
        7.3440937995910645,
        6.902682781219482,
        7.777182102203369,
        5.342938423156738,
        5.215351104736328,
        8.694210052490234,
        7.930929660797119,
        7.147034168243408,
        7.3852858543396,
        7.457779407501221,
        6.3296427726745605,
        7.0877814292907715,
        7.835836887359619,
        6.1317267417907715,
        5.69363260269165,
        8.344001770019531,
        7.686957836151123,
        6.371179103851318,
        6.013730525970459,
        4.102290630340576
      ],
      "out_features": 25
    },
    {
      "type": "tanh",
      "name": "activation_1"
    },
    {
      "type": "dense",
      "has_bias": true,
      "in_features": 25,
      "weights": [
        [
          5.77142858505249,
          4.073594570159912,
          1.9898968935012817,
          2.9470059871673584,
          6.582986831665039,
          1.6803290843963623,
          2.909130811691284,
          7.858877658843994,
          3.598761558532715,
          -0.5253655910491943,
          8.259264945983887,
          6.41580057144165,
          3.114046335220337,
          5.0528459548950195,
          4.961366653442383,
          7.704179286956787,
          8.034963607788086,
          9.140509605407715,
          2.319934129714966,
          4.598855495452881,
          5.831061363220215,
          3.7458810806274414,
          3.368992567062378,
          4.281673431396484,
          6.290055274963379
        ],
        [
          -8.34335994720459,
          -1.8047412633895874,
          -3.320850372314453,
          -0.9973905682563782,
          -2.8151581287384033,
          0.5459433197975159,
          -2.138521432876587,
          -5.104850769042969,
          -2.6538846492767334,
          1.0545989274978638,
          -9.911237716674805,
          -2.952688217163086,
          -4.261729717254639,
          -5.919054985046387,
          -3.2986860275268555,
          -6.597720146179199,
          -8.330360412597656,
          -6.592632293701172,
          -3.9993321895599365,
          -3.440105438232422,
          -7.767569541931152,
          -4.352344512939453,
          -5.258855819702148,
          -3.4759702682495117,
          -4.723084926605225
        ],
        [
          0.6772179007530212,
          -1.4431164264678955,
          0.1821606159210205,
          -0.03945862501859665,
          -2.8442633152008057,
          0.6780012249946594,
          -0.18974588811397552,
          -0.4446202218532562,
          -2.1423323154449463,
          1.5003751516342163,
          1.2287744283676147,
          0.5158230066299438,
          0.8668583631515503,
          0.9401865005493164,
          0.31985488533973694,
          -1.0918349027633667,
          -2.115161418914795,
          -2.701427459716797,
          -0.656995415687561,
          0.6910021305084229,
          0.17959646880626678,
          -2.0484766960144043,
          -1.4554119110107422,
          0.9363128542900085,
          -1.5189554691314697
        ],
        [
          2.1519858837127686,
          -0.7408141493797302,
          -1.075532078742981,
          -0.4110579788684845,
          0.05354489013552666,
          -1.3667248487472534,
          -0.6018187403678894,
          -1.9021549224853516,
          -0.059400059282779694,
          1.523708462715149,
          1.06679105758667,
          -0.7082815170288086,
          0.4740847945213318,
          0.13661064207553864,
          -0.5027679800987244,
          -1.6844844818115234,
          -1.194300889968872,
          -1.6157938241958618,
          0.01981942728161812,
          0.06726481765508652,
          0.20643770694732666,
          -1.0012816190719604,
          -0.6046842336654663,
          1.8862380981445312,
          0.26310262084007263
        ],
        [
          -8.590978622436523,
          -4.641794204711914,
          -3.265619993209839,
          -4.946258068084717,
          -3.7551403045654297,
          -1.761903166770935,
          -4.518045425415039,
          -6.570667266845703,
          -6.360240459442139,
          -0.6315981149673462,
          -7.531682014465332,
          -7.876882076263428,
          -3.562540292739868,
          -3.7262771129608154,
          -5.253809928894043,
          -4.661197185516357,
          -6.6284661293029785,
          -8.283970832824707,
          -2.239741563796997,
          -3.3448116779327393,
          -9.020305633544922,
          -6.202871799468994,
          -3.947277545928955,
          -5.499941349029541,
          -5.251180171966553
        ],
        [
          0.5286282896995544,
          -1.3948763608932495,
          1.2239400148391724,
          0.4499204158782959,
          -0.9170160889625549,
          2.4591729640960693,
          0.34468260407447815,
          0.14718592166900635,
          -1.780035138130188,
          0.29207056760787964,
          -0.6041227579116821,
          -0.35102662444114685,
          0.858345627784729,
          -0.4795056879520416,
          0.08587248623371124,
          -0.9855777025222778,
          -1.112805962562561,
          -1.3898576498031616,
          1.1658642292022705,
          -0.07601170241832733,
          0.9457044005393982,
          -0.0043222298845648766,
          -1.791377067565918,
          -0.5476202368736267,
          -3.2926628589630127
        ],
        [
          2.9313058853149414,
          -2.3842289447784424,
          -2.2965118885040283,
          -0.11786828935146332,
          -0.7996776700019836,
          1.6793259382247925,
          -0.3318096995353699,
          -1.7316570281982422,
          -0.5325297117233276,
          1.2995946407318115,
          0.020298685878515244,
          1.1400141716003418,
          -0.3443433940410614,
          -2.6122591495513916,
          1.1904531717300415,
          -1.130120873451233,
          -0.7084828019142151,
          -1.0389719009399414,
          0.7656891942024231,
          -0.7752347588539124,
          2.844326972961426,
          -1.02226722240448,
          1.3277673721313477,
          1.4134600162506104,
          -0.20775923132896423
        ],
        [
          3.2893035411834717,
          -1.1175968647003174,
          -1.343964695930481,
          1.2710959911346436,
          -1.1814433336257935,
          1.085146188735962,
          -0.8985711932182312,
          -0.8249261379241943,
          -1.2790100574493408,
          2.620288133621216,
          -0.22608429193496704,
          0.5480307936668396,
          2.343318223953247,
          -1.8887282609939575,
          0.898344874382019,
          -1.6423375606536865,
          -0.509685754776001,
          -3.040424346923828,
          -0.2779834270477295,
          2.8058347702026367,
          0.7246041297912598,
          0.26824289560317993,
          -0.66813725233078,
          2.110193967819214,
          -0.1824979931116104
        ],
        [
          -3.686756134033203,
          1.074342131614685,
          -2.0646796226501465,
          0.04628244787454605,
          -1.587615728378296,
          -1.15773344039917,
          -1.0565836429595947,
          -1.8355700969696045,
          -1.5964329242706299,
          -2.9662389755249023,
          -1.4051787853240967,
          -1.4696177244186401,
          -1.5222649574279785,
          -1.2456377744674683,
          -4.177151679992676,
          -1.9504485130310059,
          -0.7972725629806519,
          0.5533300638198853,
          -0.5297557711601257,
          -1.1720917224884033,
          -4.4061808586120605,
          -1.7833051681518555,
          1.2609530687332153,
          -0.8791888356208801,
          -1.1908053159713745
        ],
        [
          0.5233666896820068,
          0.7696629166603088,
          -0.1361328661441803,
          -0.2063508927822113,
          -1.5491079092025757,
          1.7174961566925049,
          -0.7311266660690308,
          -1.84685480594635,
          -0.8722038269042969,
          1.8400169610977173,
          -0.9381726980209351,
          -0.22295114398002625,
          0.7567318677902222,
          -2.1089541912078857,
          -0.31085866689682007,
          -2.004119396209717,
          0.127339169383049,
          -0.5270854234695435,
          -0.41246289014816284,
          2.1700282096862793,
          -1.464730143547058,
          -1.3580397367477417,
          -1.0164726972579956,
          -0.8290212750434875,
          -0.48491209745407104
        ],
        [
          5.1892218589782715,
          0.5433838367462158,
          2.3239216804504395,
          3.3720855712890625,
          0.03971116989850998,
          3.0553433895111084,
          1.2994115352630615,
          1.1136815547943115,
          0.42150771617889404,
          0.32534897327423096,
          5.949719429016113,
          1.5071178674697876,
          2.0493242740631104,
          2.8593196868896484,
          2.612165927886963,
          1.3094515800476074,
          5.444665908813477,
          2.15047550201416,
          1.826931357383728,
          1.8687427043914795,
          4.413995742797852,
          2.439279794692993,
          2.5933427810668945,
          2.3303627967834473,
          3.088874340057373
        ],
        [
          2.8244259357452393,
          -1.0028706789016724,
          -1.9070690870285034,
          -0.5203815698623657,
          0.6767677664756775,
          1.174552083015442,
          -0.7767143249511719,
          -2.3118345737457275,
          -2.7096900939941406,
          1.725604772567749,
          -0.4780599772930145,
          0.8825381994247437,
          1.790295958518982,
          -0.2526409327983856,
          0.5341547727584839,
          -1.0604240894317627,
          -0.4828839898109436,
          -1.3927125930786133,
          2.5064172744750977,
          2.0649325847625732,
          2.3400330543518066,
          -1.278761386871338,
          -0.5264575481414795,
          3.358858823776245,
          -2.594257354736328
        ],
        [
          -0.056539759039878845,
          -1.6979161500930786,
          -2.7005701065063477,
          2.442605495452881,
          -1.441351056098938,
          1.11201810836792,
          -0.277169793844223,
          -1.126508355140686,
          -1.726476788520813,
          1.6407414674758911,
          -0.08136767148971558,
          2.2481937408447266,
          0.1909613162279129,
          -1.6572167873382568,
          0.7567061185836792,
          -1.1592715978622437,
          -0.48659101128578186,
          -0.6180750727653503,
          1.140878677368164,
          1.188720703125,
          0.6082878708839417,
          -1.6649950742721558,
          -0.3554938733577728,
          1.254866361618042,
          -2.425537109375
        ],
        [
          5.054910659790039,
          2.701481342315674,
          2.358119487762451,
          1.384986400604248,
          3.360018491744995,
          2.1574244499206543,
          2.520908832550049,
          1.6700685024261475,
          4.817526340484619,
          -0.03475281596183777,
          5.891779899597168,
          2.743445873260498,
          1.2042406797409058,
          2.5972304344177246,
          3.098978042602539,
          3.5914063453674316,
          5.257339954376221,
          5.070284366607666,
          2.6732850074768066,
          1.2936549186706543,
          4.086677074432373,
          2.598576307296753,
          4.485623359680176,
          2.8617236614227295,
          3.6657261848449707
        ],
        [
          0.25333666801452637,
          -0.2432011365890503,
          -0.7128239870071411,
          -0.7384833693504333,
          -0.9979695081710815,
          -0.7192304730415344,
          -1.3669735193252563,
          -1.992811679840088,
          0.37202370166778564,
          2.378288745880127,
          -1.393009066581726,
          1.452292561531067,
          0.20734988152980804,
          0.003896673209965229,
          1.8080713748931885,
          -1.106198787689209,
          -3.3781352043151855,
          -1.7410820722579956,
          2.068619966506958,
          1.5036463737487793,
          2.0608413219451904,
          -2.073803186416626,
          -0.08225899934768677,
          1.6269809007644653,
          -3.2969882488250732
        ],
        [
          1.993769884109497,
          -0.26158303022384644,
          -0.7550448775291443,
          0.8829506635665894,
          -0.036538586020469666,
          1.2411646842956543,
          -0.06385638564825058,
          0.8599442839622498,
          -1.3018611669540405,
          -1.126274824142456,
          3.5184671878814697,
          1.4362987279891968,
          1.0480080842971802,
          2.0320277214050293,
          -0.6094998717308044,
          0.21747878193855286,
          2.438027858734131,
          0.5894606113433838,
          0.6385807991027832,
          2.745588541030884,
          3.115964412689209,
          -0.8062455058097839,
          2.3029987812042236,
          0.5179808139801025,
          0.11450821906328201
        ],
        [
          1.996338963508606,
          -0.4985596537590027,
          -0.4545130133628845,
          -0.49061137437820435,
          -0.13789710402488708,
          -0.3250674307346344,
          -1.7937217950820923,
          -0.031673137098550797,
          -2.5626001358032227,
          -0.3346255123615265,
          0.020228125154972076,
          3.878411054611206,
          1.648249626159668,
          -0.5912464261054993,
          1.09532630443573,
          -3.343336820602417,
          -1.5584536790847778,
          -2.502387285232544,
          0.024776410311460495,
          0.3171464800834656,
          0.5425972938537598,
          -0.3789045214653015,
          -0.380285382270813,
          0.614475429058075,
          -0.12183438241481781
        ],
        [
          1.2234036922454834,
          -0.033698149025440216,
          0.4146387279033661,
          1.4900859594345093,
          -1.505264163017273,
          1.2063024044036865,
          -0.6712697148323059,
          -0.952769935131073,
          -0.6388164758682251,
          2.529932975769043,
          -0.1498192697763443,
          3.4885501861572266,
          -1.063809871673584,
          -0.6035565137863159,
          2.711118459701538,
          -3.2033753395080566,
          -2.3594143390655518,
          -4.045562744140625,
          0.8328037261962891,
          2.1551671028137207,
          2.126185178756714,
          -0.6831580400466919,
          -0.7216315865516663,
          1.777987003326416,
          -0.17613177001476288
        ],
        [
          1.455726981163025,
          -0.8200938105583191,
          -0.16386720538139343,
          1.6259211301803589,
          -0.12761248648166656,
          0.6505003571510315,
          -1.9873353242874146,
          -2.664541482925415,
          -0.3026295006275177,
          0.8127701282501221,
          -0.4754912257194519,
          0.26711273193359375,
          1.0221970081329346,
          -0.0017040516249835491,
          1.280397653579712,
          -2.367314577102661,
          -2.7796905040740967,
          -0.5119697451591492,
          -0.02698390930891037,
          1.2597259283065796,
          0.4676002562046051,
          -1.3095993995666504,
          -0.4021773338317871,
          1.2367850542068481,
          -2.5330700874328613
        ],
        [
          0.5377563238143921,
          1.1610052585601807,
          -1.154289960861206,
          1.0611226558685303,
          -2.113128662109375,
          0.19877004623413086,
          -0.07442581653594971,
          -1.451124668121338,
          -1.5395313501358032,
          -0.4851022958755493,
          1.1534146070480347,
          2.5843710899353027,
          -1.1597306728363037,
          0.14247272908687592,
          1.315090298652649,
          -1.0949556827545166,
          -2.043179988861084,
          0.6102785468101501,
          0.7349533438682556,
          1.0078957080841064,
          1.0577348470687866,
          -1.156118392944336,
          -0.7481731176376343,
          0.7970714569091797,
          -1.1934832334518433
        ],
        [
          5.330470561981201,
          1.8688488006591797,
          0.7659889459609985,
          2.2634828090667725,
          4.2780961990356445,
          0.951205849647522,
          0.538218080997467,
          2.404329776763916,
          2.1509015560150146,
          0.6459376811981201,
          5.643119812011719,
          2.270020008087158,
          2.1672720909118652,
          3.8561952114105225,
          2.8643579483032227,
          2.1816647052764893,
          5.180164813995361,
          3.857382297515869,
          1.5796326398849487,
          3.659158706665039,
          5.120995044708252,
          1.5764172077178955,
          3.037994384765625,
          3.8805043697357178,
          3.8325283527374268
        ],
        [
          0.5387529134750366,
          -2.515421152114868,
          0.00632111681625247,
          0.5426180362701416,
          -0.1556769758462906,
          1.3114222288131714,
          -1.296046257019043,
          -2.197038412094116,
          -2.2492172718048096,
          0.413048654794693,
          -1.2687594890594482,
          0.33582353591918945,
          0.09059980511665344,
          0.5427104234695435,
          1.2651094198226929,
          -2.0010664463043213,
          -0.7951976656913757,
          0.6966149806976318,
          1.7841864824295044,
          0.011496815830469131,
          0.7654774785041809,
          -0.7902101278305054,
          1.1740351915359497,
          1.9019602537155151,
          -0.36557233333587646
        ],
        [
          1.3496451377868652,
          -1.3414279222488403,
          -1.8465663194656372,
          2.433166980743408,
          -0.8531555533409119,
          0.9393711686134338,
          -0.251382976770401,
          -2.0092620849609375,
          -0.602566123008728,
          -0.2340412735939026,
          1.4496521949768066,
          -1.897246241569519,
          1.2011518478393555,
          -1.6600733995437622,
          1.211120367050171,
          -1.238912582397461,
          -2.083740472793579,
          -2.643019676208496,
          0.9017935991287231,
          -0.7270282506942749,
          2.086596727371216,
          -2.06902813911438,
          -1.3499746322631836,
          -0.3170112073421478,
          -1.8791139125823975
        ],
        [
          1.716274619102478,
          -0.8928608298301697,
          0.7762526869773865,
          1.0913084745407104,
          -2.704205274581909,
          1.2068946361541748,
          0.5000836253166199,
          -1.6963326930999756,
          -0.3686792850494385,
          0.675580620765686,
          0.8071678876876831,
          0.09042772650718689,
          -0.4435669183731079,
          -2.1066482067108154,
          1.942781925201416,
          -1.534131646156311,
          -0.8710380792617798,
          -3.1071219444274902,
          -0.1714872121810913,
          1.9400148391723633,
          1.832931637763977,
          -0.1285121738910675,
          0.8081042170524597,
          -3.731111526489258,
          -2.2104811668395996
        ],
        [
          -1.315147042274475,
          -0.5369099974632263,
          2.588809013366699,
          -3.1742539405822754,
          1.887195348739624,
          -0.4551926851272583,
          0.7784464359283447,
          0.13730388879776,
          -0.19326859712600708,
          -2.080928325653076,
          0.6382911801338196,
          -2.3760929107666016,
          1.7616788148880005,
          1.4995497465133667,
          -1.8176600933074951,
          0.10232220590114594,
          1.7404356002807617,
          1.9947141408920288,
          -0.22207173705101013,
          1.963035225868225,
          -3.0092592239379883,
          1.1706421375274658,
          -0.6148858666419983,
          -1.3083800077438354,
          0.041486434638500214
        ]
      ],
      "name": "trainable_2",
      "bias": [
        -6.423389434814453,
        -6.251255989074707,
        -7.0375871658325195,
        -6.24144172668457,
        -8.429145812988281,
        -8.546709060668945,
        -6.4709062576293945,
        -6.764791488647461,
        -6.014209747314453,
        -5.874645233154297,
        -7.166207313537598,
        -5.974122047424316,
        -6.7096967697143555,
        -6.558723449707031,
        -6.4613142013549805,
        -6.732710838317871,
        -5.297146797180176,
        -6.117916107177734,
        -7.818549156188965,
        -7.563344478607178,
        -5.42562198638916,
        -7.373298645019531,
        -6.952571868896484,
        -6.318360328674316,
        -7.205523490905762
      ],
      "out_features": 25
    },
    {
      "type": "tanh",
      "name": "activation_3"
    },
    {
      "type": "dense",
      "has_bias": true,
      "in_features": 25,
      "weights": [
        [
          2.3623456954956055,
          3.003875255584717,
          0.8781210780143738,
          1.9935145378112793,
          0.7918006181716919,
          0.10560359060764313,
          -0.4899276793003082,
          0.9454770088195801,
          0.17297323048114777,
          1.0331722497940063,
          0.1269480288028717,
          1.0417174100875854,
          1.2206666469573975,
          0.7525290250778198,
          -0.2824583351612091,
          -0.2820735275745392,
          -0.2553674578666687,
          0.20218569040298462,
          0.710975706577301,
          -0.1019003763794899,
          3.1189699172973633,
          1.7219597101211548,
          1.215714931488037,
          2.2027578353881836,
          2.2624754905700684
        ],
        [
          0.6725559830665588,
          0.013410115614533424,
          0.5097655653953552,
          -0.5692185759544373,
          1.5488250255584717,
          0.9347875714302063,
          0.5818926692008972,
          2.295985460281372,
          1.8515472412109375,
          0.7400018572807312,
          0.7130012512207031,
          0.5868056416511536,
          0.4904307723045349,
          1.3220393657684326,
          3.1910643577575684,
          0.306976854801178,
          0.6014019846916199,
          0.2225332260131836,
          -0.11404288560152054,
          1.4049861431121826,
          -0.4769369065761566,
          3.3829104900360107,
          1.1509581804275513,
          2.0760810375213623,
          -0.10263726860284805
        ],
        [
          0.12955443561077118,
          -0.33393561840057373,
          -0.1634025275707245,
          0.10475531965494156,
          0.2917827069759369,
          2.1429502964019775,
          0.06017232686281204,
          0.9486557841300964,
          0.5557061433792114,
          0.49727514386177063,
          0.9174680709838867,
          0.8827322125434875,
          1.0659704208374023,
          -0.022822288796305656,
          -0.8101885914802551,
          0.6913981437683105,
          2.7589452266693115,
          1.6876559257507324,
          1.3922618627548218,
          1.8607126474380493,
          -0.09556850045919418,
          1.5712292194366455,
          0.580983579158783,
          2.004946231842041,
          -0.08592907339334488
        ],
        [
          0.7831612825393677,
          2.16986346244812,
          0.4889625906944275,
          1.8765673637390137,
          2.304443836212158,
          2.260528087615967,
          0.8944482803344727,
          1.0538026094436646,
          -0.9832434058189392,
          1.7518184185028076,
          -0.3861018717288971,
          -0.8614650964736938,
          -0.15464697778224945,
          0.7421532273292542,
          0.024953652173280716,
          1.6792218685150146,
          -0.20965014398097992,
          1.7238363027572632,
          0.7007356882095337,
          0.43982017040252686,
          0.7918860912322998,
          -0.12123280763626099,
          -0.8260774612426758,
          1.055621862411499,
          -0.1847759485244751
        ],
        [
          2.1027297973632812,
          -1.7829012870788574,
          0.9910405874252319,
          0.7502647638320923,
          1.8615400791168213,
          2.1130993366241455,
          0.7076290845870972,
          1.4663840532302856,
          1.5293598175048828,
          -0.18723538517951965,
          0.7559581995010376,
          1.9206112623214722,
          1.372522234916687,
          -0.5886902809143066,
          0.8690919280052185,
          -0.6409565210342407,
          0.5378397703170776,
          -1.9423644542694092,
          1.651097059249878,
          0.5886476635932922,
          1.2864172458648682,
          1.8612834215164185,
          0.23634691536426544,
          0.4477536678314209,
          -0.5402055978775024
        ],
        [
          0.22746053338050842,
          0.41129687428474426,
          -0.27310121059417725,
          0.9652345776557922,
          -0.13160204887390137,
          0.9783626198768616,
          0.9931163787841797,
          0.035566337406635284,
          1.1137948036193848,
          0.3377107083797455,
          -0.5790309906005859,
          -2.0876502990722656,
          -2.2325282096862793,
          -0.7736687660217285,
          -0.3313598334789276,
          0.06098128482699394,
          -1.3528703451156616,
          1.4856998920440674,
          0.7478175163269043,
          0.9205455780029297,
          1.0212030410766602,
          -0.6957613825798035,
          0.5997540354728699,
          0.3193722665309906,
          0.7188311219215393
        ],
        [
          -0.003611776977777481,
          1.853484034538269,
          1.4443154335021973,
          0.44146692752838135,
          1.2250810861587524,
          1.2285605669021606,
          2.0074453353881836,
          1.9829341173171997,
          1.0698494911193848,
          1.032566785812378,
          1.2393088340759277,
          1.1787415742874146,
          2.1640565395355225,
          2.204664707183838,
          0.8041167259216309,
          0.1765095293521881,
          1.4589897394180298,
          -0.21664831042289734,
          0.9780540466308594,
          1.477522850036621,
          0.5719954967498779,
          0.40411248803138733,
          -0.378115713596344,
          0.12578906118869781,
          0.5895307660102844
        ],
        [
          0.6914107799530029,
          0.42207053303718567,
          0.7719443440437317,
          0.2426738440990448,
          0.9711741805076599,
          1.9460498094558716,
          1.1734126806259155,
          0.11701438575983047,
          -0.8206489086151123,
          1.3527017831802368,
          1.575197458267212,
          0.2569373548030853,
          1.6547000408172607,
          -1.361539602279663,
          0.9116199016571045,
          -0.14915841817855835,
          1.4455748796463013,
          -2.175691604614258,
          2.442718505859375,
          1.9822735786437988,
          0.27218809723854065,
          0.8248214721679688,
          0.7381635308265686,
          1.8866244554519653,
          -0.19653570652008057
        ],
        [
          0.8897460699081421,
          1.1005231142044067,
          2.2366724014282227,
          1.720894694328308,
          1.6040294170379639,
          0.9777056574821472,
          0.9942430853843689,
          -0.3244267702102661,
          1.9593709707260132,
          1.9588178396224976,
          2.380568265914917,
          2.2634942531585693,
          2.462425470352173,
          1.3004614114761353,
          2.245321035385132,
          1.6523642539978027,
          2.053781747817993,
          -0.9226150512695312,
          1.187388300895691,
          1.3028136491775513,
          0.8206632137298584,
          0.8211677074432373,
          -0.8139870762825012,
          1.5182139873504639,
          -0.9619855284690857
        ],
        [
          -1.0075000524520874,
          0.9185221195220947,
          1.1841609477996826,
          0.7777038216590881,
          2.0041353702545166,
          0.3989017903804779,
          1.7771790027618408,
          1.1517932415008545,
          2.553011178970337,
          -0.7689060568809509,
          -1.7753307819366455,
          0.8261495232582092,
          1.1986781358718872,
          1.1119016408920288,
          -0.8418322801589966,
          1.8508038520812988,
          -0.7050936222076416,
          2.063300848007202,
          0.8004372715950012,
          0.3448452949523926,
          1.7941679954528809,
          -0.02375529520213604,
          1.0299928188323975,
          1.28999662399292,
          2.1871345043182373
        ],
        [
          -0.2674211263656616,
          -1.8196542263031006,
          -0.02660488523542881,
          -1.5771383047103882,
          0.36752083897590637,
          1.1437240839004517,
          -0.2556920051574707,
          0.9776443243026733,
          -1.1498888731002808,
          4.435558319091797,
          2.0431270599365234,
          -0.7161213755607605,
          1.7555248737335205,
          1.3096611499786377,
          2.802037477493286,
          -1.1708612442016602,
          2.1293299198150635,
          -1.6532336473464966,
          1.553595781326294,
          2.044966459274292,
          2.069815158843994,
          1.4428274631500244,
          0.9962357878684998,
          0.4776644706726074,
          -0.18545618653297424
        ],
        [
          0.6111121773719788,
          1.2069921493530273,
          1.5888843536376953,
          3.1029269695281982,
          1.9651732444763184,
          -1.485328197479248,
          1.114936351776123,
          -0.29817429184913635,
          1.5600031614303589,
          0.7862578630447388,
          1.7716259956359863,
          0.2095405012369156,
          0.762676477432251,
          -1.3886953592300415,
          0.01821538805961609,
          0.39567431807518005,
          -0.059844519942998886,
          0.023619305342435837,
          0.645977795124054,
          1.5984129905700684,
          2.680070638656616,
          -0.7479901909828186,
          2.121103525161743,
          1.0539425611495972,
          0.39379894733428955
        ],
        [
          -0.2680066227912903,
          -1.904541254043579,
          0.09925350546836853,
          -0.4933774471282959,
          -0.48209047317504883,
          1.6372677087783813,
          1.4632625579833984,
          1.2005290985107422,
          1.8595622777938843,
          -0.9809485673904419,
          -0.7104882597923279,
          0.4918002486228943,
          -1.2615939378738403,
          0.7848422527313232,
          -0.8975872993469238,
          0.2802165150642395,
          -0.42018425464630127,
          0.7247239947319031,
          2.828977584838867,
          1.8636821508407593,
          1.7193559408187866,
          0.4179594814777374,
          2.4493155479431152,
          0.2692895233631134,
          2.1024935245513916
        ],
        [
          0.5723733305931091,
          -0.7456806898117065,
          -2.0758814811706543,
          -0.7367525100708008,
          1.8143470287322998,
          0.10027771443128586,
          0.38490670919418335,
          0.31273016333580017,
          1.4696108102798462,
          0.3756236732006073,
          1.044793725013733,
          -0.3645578920841217,
          1.5967692136764526,
          1.1985752582550049,
          0.6691171526908875,
          -0.4585390090942383,
          1.554805874824524,
          0.26155826449394226,
          0.4518376886844635,
          0.058794744312763214,
          1.0430190563201904,
          -0.7071159482002258,
          -1.0037797689437866,
          0.7553562521934509,
          1.6311700344085693
        ],
        [
          0.33918699622154236,
          2.0674946308135986,
          1.2806979417800903,
          2.7736423015594482,
          0.613400936126709,
          0.3752380907535553,
          0.9213614463806152,
          2.116739511489868,
          0.9219473004341125,
          1.4823044538497925,
          -0.40043026208877563,
          0.12265504151582718,
          1.5769832134246826,
          -0.17593136429786682,
          0.25062355399131775,
          -0.2026127129793167,
          -0.515673041343689,
          0.8810917735099792,
          1.6591761112213135,
          1.0811220407485962,
          1.1339360475540161,
          -2.2292511463165283,
          1.875154972076416,
          0.7199854850769043,
          1.5812723636627197
        ],
        [
          2.2637686729431152,
          -0.8560540080070496,
          2.213278293609619,
          -0.987019956111908,
          1.0996670722961426,
          0.563327968120575,
          -0.3686752915382385,
          2.180845022201538,
          2.6699838638305664,
          0.4452248215675354,
          1.1440790891647339,
          1.329836368560791,
          1.870783805847168,
          0.9625690579414368,
          0.2631518840789795,
          -0.024898318573832512,
          1.3115442991256714,
          0.34954676032066345,
          2.647036075592041,
          2.481328010559082,
          1.8419407606124878,
          -1.1932282447814941,
          1.3706557750701904,
          1.480029821395874,
          -0.12389169633388519
        ],
        [
          0.7123841643333435,
          -1.3124116659164429,
          0.622387170791626,
          -2.299877882003784,
          0.08636043220758438,
          2.5107779502868652,
          1.0065511465072632,
          -0.016408681869506836,
          -1.2516909837722778,
          3.7096431255340576,
          0.9223783612251282,
          -1.1497242450714111,
          -0.21702098846435547,
          0.7780807614326477,
          1.4493898153305054,
          -1.7289751768112183,
          0.8632805943489075,
          -0.11883670091629028,
          1.8574858903884888,
          -0.028008123859763145,
          0.08247069269418716,
          -0.7280462980270386,
          -1.1930978298187256,
          -0.18261639773845673,
          0.546798050403595
        ],
        [
          1.44442617893219,
          1.417651653289795,
          1.5072803497314453,
          0.021162493154406548,
          0.480829656124115,
          2.0598907470703125,
          0.0016851229593157768,
          0.30536845326423645,
          0.8478986024856567,
          2.691742420196533,
          0.7945798635482788,
          -0.6645979285240173,
          1.4156140089035034,
          1.6046853065490723,
          1.2412313222885132,
          -0.5187886357307434,
          2.0982553958892822,
          1.0313907861709595,
          0.7911908626556396,
          1.628836750984192,
          0.42442387342453003,
          1.5149962902069092,
          -0.06687998026609421,
          1.8208739757537842,
          1.271532654762268
        ],
        [
          -0.06822331994771957,
          -0.6921073198318481,
          0.4495220184326172,
          -0.3799102306365967,
          2.050407886505127,
          -0.7998221516609192,
          -1.4266728162765503,
          -1.131675124168396,
          -0.7581174373626709,
          -0.03240629658102989,
          -0.6813639998435974,
          0.8629888296127319,
          -1.1742652654647827,
          1.5373390913009644,
          1.8134509325027466,
          1.6119567155838013,
          -0.20043101906776428,
          -0.0626898854970932,
          0.8761806488037109,
          -1.0295193195343018,
          1.0357658863067627,
          1.3485008478164673,
          1.1739070415496826,
          -0.9240521192550659,
          0.9579848647117615
        ],
        [
          1.9762850999832153,
          0.1906312108039856,
          -0.8452925682067871,
          0.13309785723686218,
          -0.2113700658082962,
          2.3935887813568115,
          1.4891512393951416,
          2.206575393676758,
          -0.6949411630630493,
          -0.5750718712806702,
          0.27478739619255066,
          0.18667715787887573,
          -2.5041425228118896,
          1.0755951404571533,
          1.1016497611999512,
          -0.04481343552470207,
          0.31728988885879517,
          -0.267509788274765,
          0.9541134238243103,
          -0.4315366744995117,
          0.7304947972297668,
          1.4200977087020874,
          -0.5630473494529724,
          -0.5085703730583191,
          1.5096062421798706
        ],
        [
          1.0023058652877808,
          1.5970391035079956,
          0.43586093187332153,
          1.0116808414459229,
          1.397786259651184,
          -0.5934833288192749,
          4.144661903381348,
          -0.2255663275718689,
          -0.7163752317428589,
          2.318026542663574,
          1.6953519582748413,
          0.48202964663505554,
          -0.331381618976593,
          1.3450391292572021,
          0.2283252626657486,
          1.1868786811828613,
          -1.7719894647598267,
          -0.5504422783851624,
          -0.07118915766477585,
          0.3551763892173767,
          2.4349794387817383,
          1.798880934715271,
          2.0745632648468018,
          1.0832819938659668,
          0.6117202043533325
        ],
        [
          2.265645742416382,
          0.33555907011032104,
          1.6956697702407837,
          -0.9531915187835693,
          0.20596404373645782,
          0.010152294300496578,
          -0.19616860151290894,
          -0.30392786860466003,
          0.6956242918968201,
          1.295342206954956,
          1.3111422061920166,
          0.5764365196228027,
          0.32133960723876953,
          1.6722733974456787,
          1.658294439315796,
          1.8537684679031372,
          0.9056506752967834,
          1.3655630350112915,
          1.7410696744918823,
          1.0437883138656616,
          1.8867478370666504,
          1.694374442100525,
          -0.6963077783584595,
          1.2423218488693237,
          2.052412271499634
        ],
        [
          -1.5244576930999756,
          -0.6205514669418335,
          0.030258692800998688,
          -3.646510601043701,
          1.256273865699768,
          0.2015797197818756,
          -1.1080589294433594,
          0.2953556478023529,
          -3.710728168487549,
          1.4121512174606323,
          0.37869617342948914,
          1.0431632995605469,
          -0.000691124121658504,
          1.4404319524765015,
          3.26548433303833,
          -2.998854160308838,
          3.2078118324279785,
          0.3980545103549957,
          1.3720511198043823,
          -0.41563183069229126,
          0.30811721086502075,
          0.33043599128723145,
          0.8775091767311096,
          0.32783541083335876,
          -0.31296616792678833
        ],
        [
          -1.1066111326217651,
          1.0641001462936401,
          1.598688006401062,
          1.050070881843567,
          1.5224366188049316,
          0.7847622632980347,
          1.4913160800933838,
          0.9798896312713623,
          0.5763629674911499,
          1.6236302852630615,
          -0.728394091129303,
          1.6178228855133057,
          2.0508604049682617,
          -0.06511051952838898,
          1.442073941230774,
          0.021496860310435295,
          2.027362108230591,
          1.804908275604248,
          -0.5475195646286011,
          -0.6640611290931702,
          0.16227757930755615,
          1.1151458024978638,
          1.8170969486236572,
          0.1986522227525711,
          3.0664923191070557
        ],
        [
          -0.11771249771118164,
          1.4871243238449097,
          1.4147509336471558,
          0.7927438020706177,
          1.5547232627868652,
          3.449676275253296,
          0.13778099417686462,
          1.7400521039962769,
          0.25648096203804016,
          1.4729474782943726,
          0.6943840980529785,
          -0.4973658323287964,
          0.12908901274204254,
          2.4613282680511475,
          0.25927990674972534,
          -1.129314661026001,
          0.031690604984760284,
          -0.3675093352794647,
          0.745620846748352,
          -0.7759951949119568,
          -0.026147447526454926,
          0.6999936103820801,
          1.4121209383010864,
          2.3387463092803955,
          1.258589506149292
        ]
      ],
      "name": "trainable_4",
      "bias": [
        1.5064975023269653,
        0.9349418878555298,
        0.8795682191848755,
        0.48930010199546814,
        1.0241142511367798,
        0.40904730558395386,
        2.5281569957733154,
        -0.4099065065383911,
        0.6072173118591309,
        1.483995795249939,
        0.36514270305633545,
        0.2892122268676758,
        2.2623398303985596,
        1.8629695177078247,
        0.837157130241394,
        1.0428084135055542,
        1.8041595220565796,
        1.7150739431381226,
        2.3860108852386475,
        3.0216023921966553,
        1.785513997077942,
        1.5198789834976196,
        -0.42536503076553345,
        -1.0339328050613403,
        0.280570924282074
      ],
      "out_features": 25
    },
    {
      "type": "tanh",
      "name": "activation_5"
    },
    {
      "type": "dense",
      "has_bias": true,
      "in_features": 25,
      "weights": [
        [
          1.019991159439087,
          0.8106473088264465,
          1.2900471687316895,
          1.3460091352462769,
          -0.25269684195518494,
          2.8487696647644043,
          1.4327927827835083,
          0.8331847190856934,
          -0.11729519069194794,
          0.5383021235466003,
          1.747416377067566,
          0.3366338610649109,
          2.9439237117767334,
          0.35522162914276123,
          -0.4902583062648773,
          0.06784675270318985,
          2.5540215969085693,
          -0.06790731102228165,
          0.82794189453125,
          1.4019074440002441,
          2.101378917694092,
          0.6558614373207092,
          0.14765077829360962,
          0.7397638559341431,
          1.0786758661270142
        ],
        [
          1.091094732284546,
          1.6945927143096924,
          0.9828962683677673,
          1.9069807529449463,
          1.8456798791885376,
          1.4370049238204956,
          -0.5916197896003723,
          -0.4700181186199188,
          0.7579413056373596,
          0.4124465882778168,
          -0.1710663139820099,
          3.1075918674468994,
          -0.08255515992641449,
          1.4909496307373047,
          -0.44536808133125305,
          0.1542648822069168,
          1.7758393287658691,
          2.106926202774048,
          1.032180905342102,
          1.0189703702926636,
          2.941685199737549,
          1.9886207580566406,
          0.505469560623169,
          1.7436614036560059,
          1.5682170391082764
        ],
        [
          0.852124810218811,
          0.7825384140014648,
          1.2270877361297607,
          -1.0663635730743408,
          0.16989955306053162,
          0.12932340800762177,
          -0.5449630618095398,
          0.2904418110847473,
          -0.3712647557258606,
          1.6190261840820312,
          1.797370433807373,
          0.7785910964012146,
          0.07752431929111481,
          1.6288485527038574,
          0.35099905729293823,
          1.7181329727172852,
          -0.44857367873191833,
          1.4503024816513062,
          1.8686007261276245,
          0.5271152853965759,
          -0.7182556390762329,
          1.6339751482009888,
          1.3024920225143433,
          1.0230158567428589,
          3.1873409748077393
        ],
        [
          2.1030590534210205,
          -0.15364351868629456,
          1.0405763387680054,
          4.140647888183594,
          1.0353115797042847,
          2.798748731613159,
          1.9421043395996094,
          0.5164098143577576,
          -0.10348976403474808,
          3.237802505493164,
          2.454861640930176,
          1.5376484394073486,
          1.08231782913208,
          0.11938011646270752,
          0.5660995244979858,
          0.45814383029937744,
          2.031381368637085,
          1.9489936828613281,
          0.3738073706626892,
          -0.5162922739982605,
          1.0126526355743408,
          0.29667311906814575,
          0.7104926705360413,
          2.5031936168670654,
          -0.3189903199672699
        ],
        [
          0.4420918822288513,
          -0.9108187556266785,
          1.192658543586731,
          2.495729923248291,
          1.56819486618042,
          0.9711487293243408,
          -0.685791552066803,
          -0.5340395569801331,
          1.0217945575714111,
          -0.8737882375717163,
          1.4507068395614624,
          2.821279287338257,
          0.9834778308868408,
          -0.1214032843708992,
          2.3227856159210205,
          -0.00984717532992363,
          -0.3781659007072449,
          0.35879576206207275,
          -0.10983548313379288,
          -0.16318102180957794,
          -0.13873517513275146,
          1.7676301002502441,
          0.08995513617992401,
          2.6385886669158936,
          1.0408333539962769
        ],
        [
          1.0101830959320068,
          -1.070831537246704,
          0.7457813620567322,
          -0.2579324543476105,
          -0.4352138936519623,
          1.8324017524719238,
          -0.808339536190033,
          1.8902502059936523,
          1.5963317155838013,
          1.7281520366668701,
          0.7807413339614868,
          -0.25519686937332153,
          -0.06825778633356094,
          0.835472047328949,
          2.2234978675842285,
          0.5624714493751526,
          -1.3625868558883667,
          0.7331974506378174,
          0.6710332036018372,
          -0.14207029342651367,
          0.7229284048080444,
          0.7663614749908447,
          1.753339171409607,
          -0.3516031801700592,
          0.7071977257728577
        ],
        [
          0.3494465947151184,
          0.3929175138473511,
          1.1369647979736328,
          2.0835063457489014,
          0.9170665144920349,
          -1.16683030128479,
          -0.6700521111488342,
          -0.8304056525230408,
          0.7675178050994873,
          0.21384520828723907,
          0.8836742043495178,
          0.9155672192573547,
          -0.7127976417541504,
          0.7410210371017456,
          0.1706324964761734,
          1.1580642461776733,
          2.172003984451294,
          2.309725522994995,
          1.135508418083191,
          0.7708135843276978,
          1.05683171749115,
          -0.7424930334091187,
          1.2463009357452393,
          1.9626151323318481,
          1.8328678607940674
        ],
        [
          0.976650059223175,
          1.6878504753112793,
          0.6614927649497986,
          1.5099537372589111,
          -0.8126153349876404,
          0.002117436146363616,
          0.6738330125808716,
          0.5427761673927307,
          1.2331444025039673,
          2.084529399871826,
          1.671600341796875,
          0.788124680519104,
          1.3808252811431885,
          -0.6809713840484619,
          0.7561594843864441,
          0.8331332802772522,
          1.37663996219635,
          0.7010574340820312,
          0.09076261520385742,
          2.538722276687622,
          0.8062885403633118,
          0.6864044070243835,
          0.4589124023914337,
          2.057664394378662,
          0.37252044677734375
        ],
        [
          1.5786619186401367,
          3.157834529876709,
          0.6287352442741394,
          1.910266637802124,
          1.126333475112915,
          1.1321035623550415,
          0.08792051672935486,
          0.20627877116203308,
          1.558241844177246,
          2.2509632110595703,
          0.9358850121498108,
          0.9576647281646729,
          0.505058228969574,
          1.8493530750274658,
          0.8291590213775635,
          0.046953216195106506,
          2.9834017753601074,
          0.022515587508678436,
          1.917669415473938,
          -0.07659835368394852,
          1.2555279731750488,
          1.1159138679504395,
          2.2708518505096436,
          -0.7072829008102417,
          2.1255836486816406
        ],
        [
          1.0875910520553589,
          2.588618278503418,
          2.3898348808288574,
          1.0193363428115845,
          -0.11688842624425888,
          0.6979511976242065,
          0.8166729807853699,
          2.533817768096924,
          0.5536351799964905,
          0.18511846661567688,
          1.491780161857605,
          -0.4535449743270874,
          1.6741321086883545,
          0.6996778845787048,
          1.1590871810913086,
          2.5493807792663574,
          -0.22417835891246796,
          0.9785881042480469,
          0.7183866500854492,
          0.41394248604774475,
          0.24784468114376068,
          1.2127054929733276,
          1.7912654876708984,
          2.6241838932037354,
          -0.639070987701416
        ],
        [
          -0.41956081986427307,
          -0.3349023163318634,
          2.4378914833068848,
          1.6792305707931519,
          2.8680105209350586,
          1.1531141996383667,
          1.5099642276763916,
          0.8295965790748596,
          -0.3624209761619568,
          -0.9008781313896179,
          1.7121301889419556,
          1.0396430492401123,
          1.0277185440063477,
          1.4379678964614868,
          1.5840171575546265,
          1.3207361698150635,
          0.40098121762275696,
          -0.3391205072402954,
          0.6621451377868652,
          -0.14672137796878815,
          2.6552786827087402,
          0.9019232988357544,
          1.0759937763214111,
          0.4237278997898102,
          0.14159858226776123
        ],
        [
          1.5858756303787231,
          0.8239952325820923,
          0.8328025341033936,
          2.9676566123962402,
          1.34575355052948,
          0.6090392470359802,
          0.1723666936159134,
          -0.04769483208656311,
          -0.8326023817062378,
          0.496650755405426,
          -0.9303448796272278,
          0.5463070869445801,
          1.7116177082061768,
          1.617954134941101,
          1.7243478298187256,
          -0.6725417375564575,
          1.2078808546066284,
          2.127145528793335,
          1.892020344734192,
          -0.029102062806487083,
          0.9028104543685913,
          1.3694534301757812,
          0.8690884113311768,
          1.4965533018112183,
          0.15562446415424347
        ],
        [
          0.7431105971336365,
          -0.538123369216919,
          1.0988749265670776,
          0.7758052349090576,
          0.8444055914878845,
          2.0256810188293457,
          2.118976354598999,
          1.8240394592285156,
          0.8338072299957275,
          0.1665686070919037,
          -0.5667030811309814,
          0.3123191297054291,
          1.398308515548706,
          0.6388399600982666,
          2.245620012283325,
          0.32858362793922424,
          0.8470547795295715,
          0.4176945090293884,
          1.1234707832336426,
          0.9046560525894165,
          1.3187205791473389,
          2.059828758239746,
          2.2410411834716797,
          -1.022223949432373,
          0.5525158643722534
        ],
        [
          1.310983419418335,
          0.8537242412567139,
          2.2270045280456543,
          0.9649412631988525,
          1.4247270822525024,
          -0.04632372781634331,
          1.6225248575210571,
          -0.3034788966178894,
          0.3468647599220276,
          0.19369563460350037,
          0.3462024927139282,
          1.2531733512878418,
          -0.028309470042586327,
          2.501077651977539,
          2.3383002281188965,
          1.681422233581543,
          1.0305376052856445,
          0.14251543581485748,
          0.5964937806129456,
          1.3454179763793945,
          2.0028722286224365,
          1.1095564365386963,
          2.22580623626709,
          0.01238591130822897,
          2.715369462966919
        ],
        [
          0.7898567914962769,
          -0.7769467830657959,
          2.0227389335632324,
          -0.25366273522377014,
          0.013453252613544464,
          1.4107692241668701,
          0.46435829997062683,
          -0.0731297954916954,
          1.9938678741455078,
          0.1016029641032219,
          0.6158987283706665,
          0.29076817631721497,
          0.3683467507362366,
          1.4156136512756348,
          1.1614184379577637,
          0.6053600907325745,
          1.1165627241134644,
          1.1205154657363892,
          1.3714749813079834,
          0.0392279252409935,
          0.5874537229537964,
          1.8859753608703613,
          1.8236069679260254,
          -0.30269551277160645,
          1.6263188123703003
        ],
        [
          1.9738211631774902,
          1.084672451019287,
          2.3345375061035156,
          -0.06306810677051544,
          0.5555824637413025,
          2.2397079467773438,
          1.054024577140808,
          1.365898609161377,
          0.19991916418075562,
          0.38681891560554504,
          0.3474898636341095,
          2.397364854812622,
          0.3765169680118561,
          0.5334396362304688,
          1.0996614694595337,
          0.2795197069644928,
          2.00961971282959,
          0.16430655121803284,
          3.354480504989624,
          -0.6573038101196289,
          0.42612501978874207,
          1.8415534496307373,
          1.1078451871871948,
          1.983664870262146,
          2.4384865760803223
        ],
        [
          0.9001208543777466,
          -1.5690721273422241,
          2.0630269050598145,
          0.32240650057792664,
          0.207723468542099,
          2.141967296600342,
          -1.587734580039978,
          1.4252450466156006,
          1.7967727184295654,
          0.42140841484069824,
          1.115667462348938,
          0.42579907178878784,
          1.870917558670044,
          -0.1732388138771057,
          0.26968926191329956,
          1.6569292545318604,
          1.4252029657363892,
          0.41431140899658203,
          1.7798302173614502,
          1.534919023513794,
          -0.5716861486434937,
          -1.045973300933838,
          2.383105754852295,
          1.5890989303588867,
          1.269599199295044
        ],
        [
          2.642430067062378,
          1.2541369199752808,
          0.8338993787765503,
          1.6603525876998901,
          0.060486312955617905,
          0.9596718549728394,
          0.7765916585922241,
          -0.07355356961488724,
          0.8644579648971558,
          1.0078794956207275,
          1.1737732887268066,
          0.6784190535545349,
          0.29449501633644104,
          0.6052380204200745,
          1.6742384433746338,
          -0.4047733545303345,
          1.8499951362609863,
          0.27771541476249695,
          0.5862594842910767,
          -0.15903504192829132,
          0.8480690121650696,
          2.1568760871887207,
          2.1341681480407715,
          0.2310914248228073,
          0.39383745193481445
        ],
        [
          0.8111069798469543,
          1.047536849975586,
          1.0986568927764893,
          0.7301596403121948,
          -0.7410846948623657,
          -0.30773141980171204,
          0.2426268458366394,
          -2.2406928539276123,
          2.4021713733673096,
          0.5053343176841736,
          0.4187283217906952,
          0.9571336507797241,
          -0.6888787150382996,
          0.8026123642921448,
          1.4323749542236328,
          0.7211045026779175,
          -0.13379248976707458,
          1.633147120475769,
          1.3203599452972412,
          0.0677323266863823,
          1.9148911237716675,
          0.21954528987407684,
          3.2965784072875977,
          1.2128294706344604,
          1.7472891807556152
        ],
        [
          -0.2405477613210678,
          -0.1438274383544922,
          0.5717039704322815,
          1.1065597534179688,
          2.974102020263672,
          1.379223346710205,
          1.7413164377212524,
          -0.8236868977546692,
          1.369930624961853,
          0.7977578639984131,
          -2.225534677505493,
          -0.5323367118835449,
          0.7710040807723999,
          1.015289306640625,
          1.9067776203155518,
          3.31410551071167,
          0.7215713858604431,
          0.6973685026168823,
          2.1215460300445557,
          1.9455183744430542,
          1.42105233669281,
          0.10753563791513443,
          1.115281343460083,
          1.3670930862426758,
          1.1961538791656494
        ],
        [
          1.385263204574585,
          1.496137261390686,
          1.5584901571273804,
          2.4836347103118896,
          1.3959715366363525,
          1.4314485788345337,
          2.26212739944458,
          -0.703482449054718,
          2.065739154815674,
          -0.24500694870948792,
          1.3511524200439453,
          -0.2008800208568573,
          0.27607712149620056,
          0.03556710109114647,
          -0.9351500272750854,
          1.8996421098709106,
          -0.06443043798208237,
          1.193717360496521,
          3.3971986770629883,
          3.8009066581726074,
          1.2575695514678955,
          0.687516450881958,
          2.2345335483551025,
          0.644702136516571,
          1.3704991340637207
        ],
        [
          1.7581881284713745,
          -0.3976632058620453,
          -0.680340051651001,
          1.8001879453659058,
          2.319028615951538,
          1.8493744134902954,
          0.07707232981920242,
          2.4004030227661133,
          1.4795061349868774,
          -0.13953596353530884,
          1.1595237255096436,
          -0.5796587467193604,
          -0.09580860286951065,
          0.4070868194103241,
          3.3933122158050537,
          -0.28092625737190247,
          0.06670155376195908,
          -1.1221308708190918,
          1.7991565465927124,
          2.1805777549743652,
          -1.445968508720398,
          1.254423975944519,
          1.554999589920044,
          1.054730772972107,
          -0.054664552211761475
        ],
        [
          0.8848669528961182,
          3.163818836212158,
          0.6428685188293457,
          2.1622188091278076,
          0.9837903380393982,
          -1.1788183450698853,
          3.0108132362365723,
          0.43706169724464417,
          -1.3136656284332275,
          2.781822919845581,
          1.592669129371643,
          0.37089258432388306,
          0.7104219198226929,
          0.9769008159637451,
          0.5276767015457153,
          2.173572301864624,
          1.1155520677566528,
          2.241133451461792,
          0.023777706548571587,
          1.9588675498962402,
          2.784669876098633,
          1.4644402265548706,
          1.1712489128112793,
          1.1921361684799194,
          -0.8764145970344543
        ],
        [
          1.2504149675369263,
          0.41982772946357727,
          0.5604506134986877,
          1.29026460647583,
          2.426872968673706,
          1.5276987552642822,
          -0.684009850025177,
          -0.9861243963241577,
          -0.015285574831068516,
          1.4804269075393677,
          0.07100005447864532,
          1.8892982006072998,
          0.4733469784259796,
          1.987170696258545,
          1.5773425102233887,
          2.5822930335998535,
          0.1319086253643036,
          1.0935028791427612,
          0.6366685628890991,
          0.11846085637807846,
          -0.3429774343967438,
          -0.00031395454425364733,
          0.328634113073349,
          -0.612118661403656,
          1.6390846967697144
        ],
        [
          3.3943591117858887,
          -0.31231895089149475,
          0.09622412174940109,
          2.3142735958099365,
          0.1503685712814331,
          1.864427924156189,
          1.1421985626220703,
          0.3588658273220062,
          1.4846699237823486,
          -0.07593660801649094,
          1.5152523517608643,
          1.4543991088867188,
          0.9595550298690796,
          2.024125576019287,
          0.4566939175128937,
          0.13892661035060883,
          0.2055666297674179,
          1.8142191171646118,
          1.5136560201644897,
          1.248701572418213,
          2.5504419803619385,
          -1.3331787586212158,
          1.094651222229004,
          0.24702030420303345,
          1.6682798862457275
        ]
      ],
      "name": "trainable_6",
      "bias": [
        2.2301275730133057,
        1.0614044666290283,
        1.7719738483428955,
        1.6453535556793213,
        2.265970468521118,
        0.2668355107307434,
        0.9698360562324524,
        2.3672053813934326,
        0.8052316308021545,
        -1.4473762512207031,
        3.2513420581817627,
        0.7418830990791321,
        1.502882719039917,
        2.729252576828003,
        2.5425379276275635,
        0.9723554253578186,
        0.6699970364570618,
        0.8175684809684753,
        1.5501246452331543,
        1.1971068382263184,
        0.9813514351844788,
        1.0914065837860107,
        1.140817642211914,
        2.2225167751312256,
        2.902148962020874
      ],
      "out_features": 25
    },
    {
      "type": "tanh",
      "name": "activation_7"
    },
    {
      "type": "dense",
      "has_bias": true,
      "in_features": 25,
      "weights": [
        [
          0.40589839220046997,
          -0.11074201762676239
        ],
        [
          0.9532434344291687,
          2.7852818965911865
        ],
        [
          0.9141092300415039,
          0.8118926286697388
        ],
        [
          -0.017013058066368103,
          1.0820835828781128
        ],
        [
          1.346616268157959,
          0.5338338613510132
        ],
        [
          1.8555946350097656,
          1.9298193454742432
        ],
        [
          1.5080723762512207,
          1.0316979885101318
        ],
        [
          1.2623411417007446,
          1.3963607549667358
        ],
        [
          -0.2522630989551544,
          -0.49244341254234314
        ],
        [
          1.3081605434417725,
          -0.9687327742576599
        ],
        [
          -0.6019954085350037,
          2.222754716873169
        ],
        [
          0.41215384006500244,
          -1.0121923685073853
        ],
        [
          -0.21639874577522278,
          3.1686902046203613
        ],
        [
          1.1292508840560913,
          -0.9098543524742126
        ],
        [
          -0.3105120062828064,
          1.9023268222808838
        ],
        [
          -1.5393754243850708,
          2.437809944152832
        ],
        [
          1.5717694759368896,
          0.13568714261054993
        ],
        [
          0.31402066349983215,
          -0.21053023636341095
        ],
        [
          -0.5846916437149048,
          0.6637305021286011
        ],
        [
          0.20129726827144623,
          1.0037150382995605
        ],
        [
          -0.8337385654449463,
          1.3261735439300537
        ],
        [
          -0.14662522077560425,
          1.267706274986267
        ],
        [
          -1.3167192935943604,
          -0.8994883894920349
        ],
        [
          0.4265006184577942,
          0.2028832584619522
        ],
        [
          0.30908021330833435,
          -1.7360073328018188
        ]
      ],
      "name": "trainable_8",
      "bias": [
        2.5277976989746094,
        3.5334067344665527
      ],
      "out_features": 2
    },
    {
      "type": "tanh",
      "name": "activation_9"
    },
    {
      "type": "mse",
      "name": "criterion_10"
    }
  ]
}