{"test_accuracy": 0.8451, "layers": [{"has_bias": true, "bias": [7.7710723876953125, 8.518138885498047, 7.741843223571777, 6.040672302246094, 7.975118637084961, 7.938235759735107, 6.8766374588012695, 9.147442817687988, 5.751986503601074, 6.741123199462891, 9.627769470214844, 5.621563911437988, 7.32504940032959, 7.6286115646362305, 5.553750991821289, 7.924229145050049, 7.556697845458984, 6.544792175292969, 8.050461769104004, 6.528387069702148, 8.165597915649414, 8.582993507385254, 6.62894344329834, 10.942773818969727, 8.45489501953125], "in_features": 2, "type": "dense", "name": "trainable_0", "out_features": 25, "weights": [[-1.3362038135528564, -4.356349468231201, -12.597702026367188, -2.120133638381958, 3.344667911529541, -2.405484914779663, -14.61306381225586, -2.3881494998931885, 4.4701924324035645, 2.5153346061706543, -15.086105346679688, 2.4152612686157227, 4.355449676513672, 0.8702151775360107, 19.841835021972656, 2.3046483993530273, -3.630047559738159, 0.6351006031036377, 4.566648006439209, 15.904172897338867, 5.872000217437744, 1.7397550344467163, -4.248058795928955, -9.960149765014648, 2.0885965824127197], [0.6859333515167236, -3.1846728324890137, 4.5244574546813965, -1.6169346570968628, 7.631339073181152, 2.784283399581909, 19.096973419189453, -9.352739334106445, -10.54178524017334, 4.908873081207275, -15.51540470123291, -3.741389751434326, 14.555499076843262, 9.306672096252441, 22.609603881835938, 11.85837459564209, -6.004231929779053, -4.516912937164307, 13.40494155883789, -12.341192245483398, 8.367082595825195, 11.215822219848633, -2.182321310043335, -3.4830808639526367, 5.526365280151367]]}, {"name": "activation_1", "type": "tanh"}, {"has_bias": true, "bias": [4.785604476928711, 2.5433104038238525, 4.001256465911865, 2.3189213275909424, 3.9946017265319824, 4.832991600036621, 4.40883731842041, 3.0274932384490967, 4.199275493621826, 2.010006904602051, 3.3786427974700928, 5.550541877746582, 3.553741216659546, 3.6426360607147217, 4.574812889099121, 3.9253103733062744, 4.015130996704102, 2.6908457279205322, 4.908367156982422, 4.623067855834961, 4.752833366394043, 3.6172196865081787, 2.646257162094116, 2.662923574447632, 5.114933013916016], "in_features": 25, "type": "dense", "name": "trainable_2", "out_features": 25, "weights": [[1.0114339590072632, -0.07816894352436066, -1.9962263107299805, -0.437838077545166, -0.7300704121589661, -1.982120156288147, -0.37205755710601807, -1.3173580169677734, -1.3592911958694458, -0.5459573268890381, -1.7146108150482178, 2.216277837753296, 0.22320835292339325, -1.7438968420028687, -1.5835678577423096, 1.3424957990646362, 2.654419422149658, -1.0936260223388672, 1.8237030506134033, -1.443560004234314, -0.5969316959381104, -1.0173825025558472, -1.6742244958877563, 0.624940812587738, -0.7640843391418457], [-1.2779642343521118, -1.6124589443206787, 0.15214090049266815, -2.669135808944702, -2.3830525875091553, -1.1559085845947266, -1.4139822721481323, -0.3510598838329315, -0.7194541096687317, -1.0781604051589966, -0.774241030216217, -1.0381200313568115, -0.11467529833316803, 0.3077503442764282, -1.2098333835601807, -0.955107569694519, 1.4897912740707397, 0.6488755941390991, 0.06260515749454498, -0.16229170560836792, -1.853309988975525, -0.9357067346572876, 0.21255911886692047, 1.2442007064819336, 0.4926799237728119], [1.7021684646606445, 0.44962620735168457, 1.933455467224121, 1.5274511575698853, -0.4633636176586151, 4.192113399505615, -2.9376463890075684, -1.7343590259552002, -1.0514031648635864, 0.21438562870025635, 1.795055866241455, -0.9033775329589844, 2.885542631149292, -2.4296677112579346, 1.0726615190505981, -1.5739376544952393, -4.5144944190979, -0.4447915554046631, -2.2373733520507812, -2.8378281593322754, 3.3776462078094482, 3.1790499687194824, -0.2623857259750366, 0.8411176800727844, -2.5137994289398193], [0.9267427325248718, -0.8335112929344177, 0.3657996952533722, 3.4198641777038574, -0.5126150250434875, 1.2809193134307861, -0.8712301254272461, -2.3389313220977783, -0.04782269522547722, 1.2706793546676636, -1.3978626728057861, 0.32075756788253784, -0.3112125098705292, -1.6711457967758179, 0.5889202952384949, 0.804999589920044, 0.3787602484226227, -2.9146316051483154, -0.3357487916946411, -0.7272788286209106, -2.551276206970215, 0.7056015729904175, -0.6945069432258606, -1.9700226783752441, 1.0182133913040161], [-0.23945657908916473, 0.8848198056221008, -0.28363555669784546, 0.9244789481163025, -0.1198681890964508, -3.5495846271514893, -0.2181902527809143, 0.8779515027999878, 1.4591631889343262, -1.0743629932403564, -2.0905604362487793, 1.82895827293396, 0.26214438676834106, -0.07250736653804779, -1.3434135913848877, 0.7613599300384521, 2.1128883361816406, -1.2826296091079712, 1.529798984527588, 2.228607177734375, -5.122050762176514, -2.42455792427063, -0.32859745621681213, -2.257495880126953, -1.0667327642440796], [-1.515926480293274, -0.6011474132537842, -1.4960352182388306, 0.223817378282547, -0.6994809508323669, -1.1562485694885254, -1.0473203659057617, -0.4877232611179352, 1.140241026878357, -0.7622329592704773, -1.3622829914093018, 0.5089860558509827, -1.4700462818145752, 0.2321965992450714, 0.5332068204879761, -1.4221123456954956, -0.10195867717266083, -0.18579792976379395, 1.4123700857162476, 0.893482506275177, -1.4818116426467896, 0.056214336305856705, -0.2829882502555847, -0.5535083413124084, 0.06690458953380585], [1.6002821922302246, 0.9510906338691711, 3.2820804119110107, 3.5738985538482666, -0.8182702660560608, 10.912453651428223, -4.560956001281738, -3.7203824520111084, -5.5849432945251465, 6.532209396362305, 3.391603708267212, 1.9035619497299194, 7.168134689331055, 0.8899446129798889, 1.3418782949447632, -1.9184969663619995, -7.281904697418213, -1.3459872007369995, -7.432315349578857, -2.097400665283203, 7.849519729614258, 5.150513648986816, 1.0853395462036133, 3.7520906925201416, -3.0208044052124023], [0.6591245532035828, 2.454251289367676, 4.097759246826172, 0.12102411687374115, -1.091141939163208, 3.4140944480895996, -1.7259637117385864, -2.3977272510528564, -4.857515335083008, 1.8119450807571411, 2.056252956390381, 0.5629379749298096, 2.6883811950683594, 2.2681751251220703, -0.7993828654289246, -4.0721964836120605, -4.845633029937744, 0.6441699862480164, -3.626555919647217, -2.6825618743896484, 6.388899803161621, 1.0454944372177124, 2.6343460083007812, 3.937988758087158, -0.14108115434646606], [1.0221821069717407, -1.7288482189178467, -1.2526570558547974, 1.708440899848938, -2.625295639038086, 1.0570205450057983, 0.16564762592315674, -1.4096089601516724, -1.42686927318573, 3.734426498413086, 0.49246978759765625, -0.649569034576416, -0.4225268065929413, -2.528876781463623, 0.9975311756134033, 1.6124625205993652, -6.126347064971924, -0.547473669052124, -3.6347861289978027, -1.290864109992981, 2.148547410964966, 0.15112833678722382, -0.6388351917266846, 1.7145369052886963, 0.0030259632039815187], [1.0944483280181885, 2.048032760620117, -1.7474277019500732, 0.5173996090888977, 0.48766663670539856, -2.5764577388763428, -0.009162130765616894, -1.1742926836013794, 0.5852010846138, -0.8217133283615112, 1.285295844078064, 0.4354989528656006, -0.5531519651412964, 0.7720949053764343, 0.5052669644355774, 1.4919493198394775, 1.3053339719772339, 1.3347975015640259, 0.6227436661720276, 0.13741245865821838, -0.29191821813583374, -1.1756831407546997, -0.18367673456668854, -1.1831704378128052, 0.6269808411598206], [1.3191444873809814, 0.45486724376678467, -1.7125566005706787, -5.583268165588379, 0.003504969412460923, -13.991445541381836, 7.302801609039307, 0.5733221769332886, 4.043577194213867, -5.153641223907471, -7.281947135925293, -2.47298526763916, -4.579409122467041, 0.2749828100204468, -0.9411566257476807, 4.732997894287109, 8.206649780273438, -2.390064001083374, 7.21308708190918, 4.359268665313721, -10.391402244567871, -5.8284430503845215, -0.15809392929077148, -0.5428170561790466, 3.1988911628723145], [-0.2753538489341736, 0.7987677454948425, -2.347158908843994, 2.6868388652801514, 1.8723305463790894, -0.1244632676243782, 0.20620112121105194, 1.7147735357284546, 1.455291509628296, 1.8134841918945312, 1.5528062582015991, -1.4644685983657837, -3.2551000118255615, -0.05696869269013405, 0.8471419215202332, 0.007637545466423035, 1.712787389755249, 3.8716819286346436, 0.991919219493866, 1.826824426651001, 0.863074779510498, -1.0895233154296875, -1.8194077014923096, 0.16538019478321075, 0.7983660101890564], [-1.5680651664733887, -0.03466248884797096, -0.21798361837863922, -2.7352962493896484, 0.9107368588447571, -1.6528379917144775, 1.529727816581726, 1.0915601253509521, 2.108130693435669, -1.6181325912475586, -0.6022122502326965, 1.4939115047454834, -0.299033522605896, 1.1047496795654297, -0.6160938739776611, -1.1605641841888428, 2.2445433139801025, -1.272743582725525, 1.4500117301940918, 2.3616154193878174, -2.54567289352417, -2.1385762691497803, 0.46473079919815063, 0.31931883096694946, -0.03395867720246315], [-1.366574764251709, 0.8297420740127563, -1.3743773698806763, -1.0150914192199707, 0.8638455271720886, 0.07460440695285797, 1.4799246788024902, 0.4740656316280365, 0.007387625053524971, -3.094386577606201, -0.3681410849094391, 0.370047926902771, -1.0730129480361938, 2.5750341415405273, 3.207888126373291, 0.3160420060157776, 1.3583626747131348, 0.2909008264541626, 0.7817979454994202, 1.4922078847885132, -1.94646418094635, -2.550884962081909, 1.1509712934494019, -1.7507129907608032, -0.17899848520755768], [-2.5092129707336426, -2.115438461303711, -3.8527326583862305, -1.1837157011032104, 1.6607908010482788, -3.2965009212493896, 2.824059009552002, 0.7078261375427246, 3.5788803100585938, -1.2713303565979004, 1.7802287340164185, -1.5398664474487305, -1.4267510175704956, -1.3547691106796265, 0.8110360503196716, 4.400006294250488, 6.59835147857666, 2.186335325241089, 5.753165245056152, 3.305473566055298, -2.4247288703918457, -0.3814391791820526, 2.2789177894592285, -1.8401495218276978, 1.8225834369659424], [-0.28742721676826477, 0.9737493991851807, -0.5939183831214905, -2.0288846492767334, 0.541696310043335, -2.0849335193634033, 1.6504145860671997, -0.6941753625869751, 0.8953385949134827, -0.4930248260498047, 0.426259309053421, 1.1982698440551758, -0.9237996339797974, 0.9388932585716248, -0.40217000246047974, 0.6450679302215576, 2.689882755279541, 0.2178613841533661, -0.5572301745414734, 2.3492279052734375, -2.5681982040405273, -0.7506289482116699, -0.41142746806144714, -1.473323941230774, 0.7038225531578064], [0.7620039582252502, -1.0145212411880493, 0.7267733216285706, 1.1531243324279785, 1.603639841079712, 1.7553184032440186, -0.1388135552406311, 0.9755010604858398, -1.6760506629943848, 0.3826174736022949, 3.8939566612243652, 0.8338330984115601, 1.530877947807312, 2.132127523422241, -0.12680302560329437, -3.3251121044158936, -1.824096441268921, 0.3526323139667511, 0.3861047625541687, -1.351427435874939, 1.3598461151123047, 0.08502630144357681, 0.10282957553863525, 1.1845362186431885, -2.054344892501831], [0.9194703102111816, 1.6147427558898926, -2.036113977432251, 0.10498606413602829, 1.6547073125839233, 0.039337318390607834, 1.176603078842163, 2.7770001888275146, 1.5571876764297485, 1.218454122543335, 0.7047966718673706, -0.9161268472671509, -1.6965245008468628, 2.7077231407165527, -0.4386393427848816, 1.0580761432647705, 3.2272591590881348, 2.7841079235076904, -0.11624328047037125, 1.599132776260376, 2.527207374572754, -0.05390867218375206, -0.271862268447876, 0.6876058578491211, 1.4755699634552002], [-1.9616316556930542, 0.2772486209869385, -1.0128446817398071, -1.5077683925628662, -0.5196112394332886, -1.3270189762115479, 0.8654140830039978, 2.2199296951293945, 1.296010971069336, 0.05668546259403229, -0.6309117078781128, -2.1268093585968018, 0.14315403997898102, 0.611116349697113, -1.0102559328079224, 0.6481513977050781, 3.5770070552825928, -1.9001413583755493, 1.11455237865448, 0.5780730843544006, -0.2934551537036896, -2.842367172241211, 1.0186477899551392, -1.0125913619995117, 0.31420761346817017], [0.6811979413032532, -0.27674591541290283, 2.7683486938476562, 4.482723236083984, -1.1621149778366089, 8.128962516784668, -6.6084184646606445, -1.0358387231826782, -6.762126445770264, 4.287320613861084, 2.9923648834228516, 0.9605380296707153, 2.5889952182769775, -0.6828132271766663, 1.3875881433486938, -4.222888469696045, -5.246208190917969, -1.3154234886169434, -6.592634677886963, -2.5581023693084717, 8.645514488220215, 5.096219539642334, 0.10358921438455582, 3.6409690380096436, -2.990926504135132], [-0.037671420723199844, 0.9026114344596863, -1.1710954904556274, -2.3556976318359375, 0.7613356709480286, -2.956059694290161, 0.8657553791999817, 1.2862416505813599, 0.16645647585391998, -2.9606096744537354, -1.7013083696365356, 0.8304758667945862, -0.7492364645004272, -1.252258062362671, -1.8552522659301758, 0.854145884513855, 3.0579135417938232, -0.09939290583133698, 1.9954580068588257, -0.19683243334293365, -3.7221879959106445, -2.5068798065185547, -1.65241277217865, -0.7675146460533142, 0.20899084210395813], [1.0845893621444702, -0.22188536822795868, -1.5091572999954224, -2.2749860286712646, 0.41736093163490295, -0.7946281433105469, -0.9291926026344299, 0.8002856969833374, 0.5972134470939636, -2.243269681930542, -2.8656110763549805, -0.17252999544143677, -0.45724886655807495, 1.7665421962738037, 1.545400857925415, 1.6720860004425049, 2.5689728260040283, -0.42151546478271484, 1.807260513305664, 0.14420075714588165, -0.9999217391014099, -1.7358932495117188, 0.17891545593738556, -1.3833205699920654, -2.424168348312378], [0.262561172246933, 1.1378257274627686, -1.2865179777145386, -1.7026442289352417, 0.16716833412647247, -0.7869912981987, 0.04931357130408287, 1.1491953134536743, -0.24696382880210876, -1.3444349765777588, -0.6977845430374146, -0.35875606536865234, -1.6244317293167114, 1.1217831373214722, -1.0035741329193115, -2.0149435997009277, -0.3368474543094635, 0.2241983711719513, -0.5347020030021667, -0.4310266673564911, -0.9202271699905396, 2.014051675796509, -0.31622380018234253, -1.6764103174209595, -0.10760189592838287], [2.578134536743164, 0.6204431653022766, 5.556498050689697, 1.3033064603805542, -0.6365771293640137, 3.951359510421753, 0.016579575836658478, -2.6515941619873047, -5.982679843902588, 1.735269546508789, 2.4308865070343018, 0.7803398370742798, 5.211463928222656, 2.5591952800750732, 0.4065270721912384, -4.250181674957275, -7.071617603302002, -2.5531513690948486, -5.294212341308594, -3.824248790740967, 2.9160351753234863, 3.9964354038238525, -0.427643358707428, 2.550852060317993, 1.095750331878662], [-0.15953437983989716, -0.8629521727561951, 0.3760116696357727, 0.2225106805562973, -2.933443546295166, -1.2029376029968262, -1.0739799737930298, 0.3483118712902069, -1.7539607286453247, -0.40010106563568115, -3.141310214996338, 0.11522093415260315, -1.0239756107330322, -1.310220718383789, -1.194671392440796, 1.0110304355621338, 3.2057759761810303, -0.7918940782546997, 0.7842389345169067, -0.7904322743415833, -3.618387222290039, -0.8936070203781128, -0.3946302533149719, -1.0923420190811157, 0.5206617712974548]]}, {"name": "activation_3", "type": "tanh"}, {"has_bias": true, "bias": [-0.9877949357032776, -1.9057250022888184, -3.1659250259399414, -1.0400137901306152, 1.4188973903656006, -0.06242266297340393, 1.1149704456329346, -1.3753056526184082, -0.19597390294075012, -1.6611037254333496, 0.026183418929576874, -1.0415441989898682, -3.0036916732788086, -1.5051486492156982, -0.44907522201538086, -0.2628198266029358, 0.26551616191864014, -1.4739818572998047, -1.0753289461135864, -1.6767182350158691, -0.4344902038574219, -2.2446961402893066, -1.2022632360458374, -2.6834635734558105, 0.7167755961418152], "in_features": 25, "type": "dense", "name": "trainable_4", "out_features": 25, "weights": [[-0.6210614442825317, 1.8240033388137817, -0.4862014055252075, 0.4422984719276428, 0.5699516534805298, -0.046789221465587616, 2.1689932346343994, -0.29971131682395935, 2.2007808685302734, -1.3272932767868042, 2.074378490447998, 0.9184107184410095, -0.2442893534898758, -0.5095415115356445, -0.22139011323451996, 1.0236550569534302, 0.48635080456733704, 0.894966185092926, 0.8367034196853638, 2.1031525135040283, -1.8339600563049316, -1.2838850021362305, -0.5173409581184387, -1.0194215774536133, -1.48545503616333], [0.6940957307815552, 0.8722405433654785, 0.009614339098334312, 0.4052005708217621, 2.337632656097412, 1.1272685527801514, 0.35000312328338623, 1.8322328329086304, 1.2726061344146729, -0.8678941130638123, 0.642791748046875, -1.7502200603485107, 0.2603699862957001, -0.501930296421051, -0.06857361644506454, 3.183480739593506, 0.07823201268911362, 0.550334632396698, 1.4972325563430786, -0.05833427980542183, -0.499004602432251, -0.8207970857620239, -0.6044765710830688, -1.764920949935913, -2.213582754135132], [0.0003313220222480595, 1.469560146331787, -1.3679434061050415, -0.3637005686759949, -0.4402836561203003, -1.4304829835891724, 1.6354714632034302, 1.4153213500976562, 1.2251900434494019, -1.0476595163345337, -0.23113757371902466, -0.6917025446891785, -0.6399487257003784, 0.25671911239624023, 0.8704003691673279, -0.010138443671166897, -2.017843008041382, -0.20097129046916962, 2.54390549659729, 1.6306941509246826, -0.6052806973457336, 0.03704531118273735, 1.8281621932983398, -2.2235450744628906, -0.3021523356437683], [-1.1651105880737305, 1.1035220623016357, 0.32303446531295776, -0.5977464318275452, -2.20023775100708, -2.309840202331543, 0.45032304525375366, -0.5909825563430786, 1.6629310846328735, -1.9726238250732422, 0.7048443555831909, 0.26594382524490356, -0.062264811247587204, -1.1928086280822754, 1.0881712436676025, -1.2393784523010254, -0.05807110667228699, -1.8629202842712402, 0.09643171727657318, 1.001792311668396, 0.4475676417350769, 0.9023097157478333, 0.7928075790405273, 0.18896204233169556, 0.34469759464263916], [1.5010390281677246, 1.0294764041900635, 1.390402913093567, -0.17910777032375336, 1.039995551109314, -0.7326995134353638, -0.7936921119689941, -1.0607528686523438, 0.8777292370796204, -0.4781897962093353, 0.9335392117500305, 0.27744027972221375, 0.7755046486854553, -1.3092983961105347, 1.9760228395462036, -0.8028843402862549, 0.5850035548210144, 0.8517201542854309, 0.12054085731506348, -1.1826821565628052, 0.33478379249572754, 0.03947873041033745, 2.4038808345794678, -0.04937397688627243, 1.2879444360733032], [-0.05380868911743164, 0.019072117283940315, 0.9274739623069763, -1.8339979648590088, -2.532353162765503, -1.213246464729309, -0.8627038598060608, -2.006178855895996, 1.579945683479309, -1.6730668544769287, -0.23460043966770172, -0.29171696305274963, -0.17492015659809113, 0.5509278178215027, 1.2196438312530518, 1.2471414804458618, -2.0474283695220947, -1.256965160369873, 4.019196033477783, 2.3398566246032715, 0.37289026379585266, -0.6702015399932861, 1.4178614616394043, -1.9839942455291748, -2.9200382232666016], [-0.13080710172653198, -0.6806197762489319, -0.7793282866477966, -0.9477916359901428, 1.879536509513855, 2.3804516792297363, 0.9074686765670776, 0.5757891535758972, -1.0023531913757324, 2.0805857181549072, 1.2998406887054443, 0.1301245540380478, -0.051416099071502686, 2.5977330207824707, -0.45927494764328003, 0.746316134929657, 1.5077846050262451, 0.08234076201915741, -0.6271002292633057, -1.5239282846450806, 0.4569769501686096, 1.085165023803711, 0.8362501263618469, -0.9701659083366394, 1.015793800354004], [0.2796289622783661, 1.2202712297439575, 1.1621205806732178, -0.3571183383464813, 1.3710963726043701, 1.8994436264038086, -0.5877283215522766, -0.2652221918106079, 1.3728642463684082, 0.07697934657335281, -0.691791832447052, -0.4021008610725403, 0.5470871329307556, -0.5037869215011597, 0.7587090730667114, 0.5138583779335022, 1.0270317792892456, 3.0588629245758057, -0.6381997466087341, -1.241003155708313, -2.0115809440612793, 1.4680075645446777, 0.3847945034503937, -0.3949171304702759, 0.8479599952697754], [1.0335851907730103, -1.8333790302276611, 0.6656323075294495, 0.1642470806837082, 0.9007425904273987, 0.39314019680023193, -0.4761994779109955, 1.172951102256775, -0.7440342903137207, -0.4435774087905884, 0.16219104826450348, 0.2676703631877899, 0.9771576523780823, 1.664486289024353, -1.8453272581100464, -1.272260308265686, -0.3576546311378479, -0.06200501322746277, -0.18352356553077698, -0.9665472507476807, -0.691254734992981, 0.6444293856620789, -0.028403567150235176, -0.33457499742507935, 1.8297646045684814], [-0.07838211953639984, 1.147591233253479, 2.622683525085449, -0.1536702960729599, -1.9500672817230225, 0.02666231244802475, 0.22652240097522736, -0.3963564336299896, 1.9524283409118652, -1.4268869161605835, -1.433599829673767, -1.8815929889678955, 1.1385300159454346, -0.8689133524894714, 1.5940462350845337, -0.29250046610832214, -1.1337183713912964, -0.06342992931604385, -0.2326507717370987, 2.9908039569854736, 1.0075414180755615, 0.22127404808998108, 0.653793215751648, 0.6630793213844299, -0.6605896949768066], [-0.5727947950363159, -1.3668550252914429, 0.9433783292770386, 1.223382592201233, -0.07546277344226837, -1.6496719121932983, 1.1016881465911865, -1.0224800109863281, 0.8253544569015503, 0.21489089727401733, -0.6820651292800903, 1.2700084447860718, -1.0701444149017334, -0.6580688953399658, 0.9441864490509033, -0.3474538326263428, -1.5889164209365845, -0.210828959941864, 0.3822212219238281, -0.023871229961514473, -0.21905608475208282, -2.2689623832702637, 0.8168535828590393, -0.5925512313842773, -0.17362481355667114], [-0.20012524724006653, 1.5354684591293335, -0.3137596547603607, -0.5841492414474487, -0.02446528524160385, 0.934631884098053, -0.1631937175989151, 0.6832818388938904, 0.9894699454307556, -0.7489489912986755, 2.3294992446899414, -3.287764072418213, -1.0113825798034668, -0.27590450644493103, -2.198990821838379, -1.4287546873092651, -1.125428557395935, -0.21705201268196106, 1.7417922019958496, 1.5225781202316284, -1.0073089599609375, 1.0028610229492188, -1.290081262588501, 0.4547368884086609, -0.6817349195480347], [-0.6851005554199219, 1.544622540473938, 1.442254900932312, 0.515250563621521, -1.4936633110046387, -0.34141072630882263, -2.5341708660125732, -1.1789811849594116, -0.0955006405711174, -2.35200572013855, 0.121721550822258, 1.022378921508789, -0.14630049467086792, -0.1960105299949646, -0.8288826942443848, -0.9587454795837402, -0.8094435334205627, -0.35111311078071594, 1.8382465839385986, 1.5039753913879395, -1.4192062616348267, -0.1964808702468872, 1.3871444463729858, -0.4269445836544037, -2.5790650844573975], [-0.6752209663391113, -1.208283543586731, 0.9157373905181885, 1.886973261833191, 0.4247440993785858, 0.7171097993850708, -1.7781816720962524, 0.5252068042755127, 0.11311239004135132, 0.16276082396507263, 0.5230417251586914, -1.659905195236206, -0.46785303950309753, -1.2652682065963745, 1.6553397178649902, 0.644309937953949, -1.3274390697479248, 1.5823386907577515, 0.2135505974292755, -0.2790282070636749, -0.7010282874107361, -0.27095142006874084, 0.9428194165229797, -1.116244912147522, -2.3865256309509277], [2.032761573791504, 0.37251779437065125, 1.3993343114852905, -1.7354414463043213, -1.5881842374801636, 0.7089589238166809, -1.3530210256576538, -0.1689237803220749, 0.9193665981292725, 0.22270996868610382, 0.8814914226531982, 0.09324157238006592, 1.2948395013809204, -0.8846615552902222, 1.0397589206695557, -0.5269992351531982, -0.4985009729862213, -0.9174692034721375, -0.170511394739151, 0.12447788566350937, 0.9864324331283569, 2.6869852542877197, -1.3002982139587402, -1.0578265190124512, -0.5230648517608643], [0.7593523263931274, 1.2734260559082031, -0.19107359647750854, 1.0727540254592896, 1.7528882026672363, 0.33766379952430725, -1.3199771642684937, -1.0802212953567505, 1.0260257720947266, 0.6936846375465393, 0.05209260433912277, 1.0353302955627441, 1.1905839443206787, -0.16375404596328735, -2.3412036895751953, 0.4281167685985565, 0.2858038544654846, 0.26675811409950256, -1.1316256523132324, -1.5112015008926392, 0.3978404104709625, -0.049647342413663864, 0.2166678011417389, -0.42391887307167053, 0.25269874930381775], [3.9011268615722656, 0.5377031564712524, -0.785525918006897, 0.4157165586948395, 1.1398941278457642, 2.179574966430664, -3.2772276401519775, 0.05106088146567345, -1.3946460485458374, 0.9457326531410217, 0.9689102172851562, -1.7110408544540405, -0.3099263608455658, 0.03467489778995514, -2.4728827476501465, 0.5769978165626526, -0.39959123730659485, 0.5513632297515869, -0.2634086608886719, -1.3655976057052612, -1.4163050651550293, 2.2415013313293457, -2.947084903717041, -0.09158109873533249, -0.43022891879081726], [1.207527756690979, -0.839798629283905, -0.23083996772766113, -0.09974420070648193, 1.4769721031188965, -0.10973399132490158, 0.7809779644012451, -0.2630709707736969, 1.0432568788528442, 0.46637141704559326, 1.1250457763671875, 0.21703429520130157, 1.1240111589431763, 1.5697232484817505, -1.7079508304595947, 2.0179762840270996, 0.17692546546459198, -2.027205467224121, 1.6844382286071777, -0.32101714611053467, 1.3376818895339966, -0.796565592288971, 1.053749442100525, 0.4616294801235199, -0.8658172488212585], [1.7158979177474976, 0.544277012348175, -0.1490103304386139, -0.6815362572669983, 1.842766284942627, 0.9975107908248901, 0.5215355753898621, 0.21636326611042023, -1.8078958988189697, 0.7701618671417236, 2.5200047492980957, 0.36702126264572144, 0.20311309397220612, 0.9488858580589294, -0.18682076036930084, 0.2686816155910492, 1.7037135362625122, 2.0283687114715576, -2.0640971660614014, -0.9985105395317078, -0.81078040599823, 0.1595981866121292, 0.6890442967414856, 1.3818495273590088, 0.2394273430109024], [1.5632678270339966, -1.4003174304962158, -1.3795788288116455, 0.03767513856291771, 1.6177129745483398, 1.7019473314285278, -2.009018898010254, 1.3883121013641357, 0.05557040870189667, -0.9022961854934692, 0.4931880235671997, -1.124442219734192, 0.5117643475532532, 0.05334875360131264, -0.3210866451263428, -0.470706045627594, -1.748417615890503, -0.3235534131526947, -1.6371941566467285, -1.1724475622177124, -0.5918998718261719, 1.2123867273330688, 0.7265400886535645, -0.5630699396133423, -0.07013856619596481], [-2.178105592727661, 0.3288193643093109, 0.6753104329109192, -0.8858360052108765, -0.700444221496582, -0.5685300230979919, -0.061570849269628525, -0.8397096991539001, 0.7334760427474976, -1.0985207557678223, -0.6937540769577026, -0.7106314897537231, 1.0521320104599, 1.8643132448196411, 1.9644157886505127, -2.2214226722717285, -0.050830449908971786, -0.0885552316904068, 1.6494357585906982, -1.0038185119628906, 0.43462496995925903, -0.5323740243911743, 2.4070301055908203, -2.8436176776885986, -3.597311019897461], [-0.5410794615745544, -0.4946451187133789, 0.2020542025566101, 1.1417449712753296, -2.0276668071746826, -0.0445629321038723, 1.0703606605529785, -1.8906810283660889, 1.2222827672958374, -0.787682831287384, -0.04794199392199516, 1.720852017402649, 0.4659827947616577, 0.2857697308063507, 1.563790202140808, -0.861571729183197, -0.8690662384033203, -1.279848337173462, 2.1292569637298584, 0.6635839939117432, -0.5734344124794006, -0.39660683274269104, 0.2447119802236557, 0.5910515785217285, -2.712904691696167], [0.8785972595214844, 1.4582337141036987, 2.014460325241089, 0.20490975677967072, 0.9823893308639526, 2.751612901687622, -0.6900059580802917, -1.1565595865249634, 1.30085027217865, -0.5524967312812805, 0.21648263931274414, 0.4380388557910919, 0.061845481395721436, -1.933678388595581, 1.1305071115493774, -1.387323021888733, -0.30495813488960266, -1.474288821220398, -0.7448504567146301, -0.4056575298309326, -0.33918020129203796, 0.3535686433315277, 0.8522926568984985, 0.1952584683895111, 0.26975521445274353], [-0.1841360330581665, 0.9901376962661743, 0.7096823453903198, -0.7009139657020569, -0.060435701161623, -2.433922529220581, 0.9878458380699158, -0.2529140114784241, 2.411879062652588, 0.22154127061367035, -0.4170187711715698, -0.5279809236526489, -0.7353788614273071, -1.5482046604156494, 0.8303036689758301, 0.9789521098136902, 1.022681713104248, -1.0711021423339844, 1.0403608083724976, 0.09746392071247101, -0.48301005363464355, -0.11889437586069107, -1.4495031833648682, -1.246904969215393, 0.08892310410737991], [-0.08456055074930191, 0.5225484371185303, 0.014469195157289505, -0.4893610179424286, 1.0633976459503174, -0.35966193675994873, -0.1765502691268921, 1.7354907989501953, -0.52791827917099, -1.6188510656356812, -0.6614478230476379, -0.9783542156219482, 1.2675647735595703, 2.3791210651397705, -1.1270434856414795, 1.3184181451797485, 1.50580632686615, 1.9155802726745605, -0.19831639528274536, -0.6072826385498047, 0.035412512719631195, 0.5831478834152222, 0.6993818283081055, -0.17287608981132507, -0.535461962223053]]}, {"name": "activation_5", "type": "tanh"}, {"has_bias": true, "bias": [-1.011347770690918, 0.9979413747787476, 1.5925039052963257, 2.324953079223633, 1.898166537284851, 0.5066238045692444, 2.3365936279296875, 1.0343934297561646, 3.0655083656311035, 2.399829864501953, 0.5350455641746521, 3.3203892707824707, 1.7880901098251343, 2.739461898803711, 1.244921326637268, 2.0888547897338867, 1.0944262742996216, 2.0971102714538574, 1.7577158212661743, 0.6331643462181091, 2.8028383255004883, 0.43135136365890503, 1.9018725156784058, 2.0536136627197266, 2.049254894256592], "in_features": 25, "type": "dense", "name": "trainable_6", "out_features": 25, "weights": [[1.797104835510254, 1.6594624519348145, 1.3215292692184448, 0.6306580305099487, -0.23309293389320374, 0.0801507756114006, 2.953552722930908, 2.244415044784546, -1.2839362621307373, 0.19439399242401123, 0.7784470915794373, 0.325379878282547, 2.3441739082336426, 0.3353322446346283, 2.089510679244995, 0.88263338804245, 0.6307095885276794, 0.32187601923942566, 0.24918586015701294, 1.0121657848358154, 0.525071382522583, 3.416440010070801, 0.8278620839118958, 1.13380765914917, 1.744838833808899], [2.424365282058716, -0.16444264352321625, -0.8461379408836365, 2.5951576232910156, 1.4843798875808716, -0.14190857112407684, 1.336213231086731, 2.1163504123687744, 1.3273648023605347, -0.2880774438381195, 1.844694972038269, -0.11365488916635513, 1.6921285390853882, 0.5029391050338745, 0.7232494950294495, 1.5639681816101074, 0.4919661283493042, 1.4111517667770386, 0.8322584629058838, 1.0544471740722656, 1.1568634510040283, -0.038051292300224304, -0.20357251167297363, 0.9488944411277771, -0.051955901086330414], [0.36057087779045105, 1.192993402481079, 1.1875859498977661, 0.45971912145614624, 1.8625890016555786, -0.7113046646118164, 0.7130826711654663, 2.2420501708984375, 1.2708306312561035, -0.08758637309074402, 0.31943386793136597, 1.4666550159454346, 0.014098434709012508, -0.09002366662025452, 0.9748275279998779, 0.824234664440155, 1.2867730855941772, 0.15488998591899872, 0.8483663201332092, 2.7960398197174072, -2.1545989513397217, -0.27877163887023926, 3.012084722518921, -0.42738160490989685, 2.60113525390625], [1.605209469795227, 1.9920246601104736, 0.5813271403312683, 0.9967082142829895, 0.5910559296607971, 0.057057395577430725, 0.9999586939811707, 1.4373979568481445, 1.8726301193237305, 0.28120437264442444, 0.4588233232498169, 1.698589563369751, 1.077140212059021, 0.5564292073249817, 0.921631932258606, 0.7514411211013794, 0.39938220381736755, 0.47430065274238586, 1.3289607763290405, 0.4891428053379059, -1.805987000465393, 1.4926488399505615, 0.9290834069252014, 0.2834758460521698, 1.1013771295547485], [1.9227157831192017, -0.06682731956243515, 1.0449845790863037, 1.3074209690093994, 0.11155498772859573, -0.1791069507598877, -0.10177237540483475, -0.8556066751480103, 1.0158092975616455, 1.1351405382156372, -0.5543112754821777, 2.6489920616149902, 2.1871497631073, 0.783519446849823, 1.1704504489898682, 0.8652050495147705, 2.1473348140716553, -0.7430915236473083, -0.9603967666625977, 0.6962088346481323, 1.303164005279541, 2.458845853805542, 1.324637770652771, 2.238187074661255, 0.41686105728149414], [1.255991816520691, 1.1017818450927734, 0.6492552757263184, 0.3607836067676544, 1.4853010177612305, 0.6384491920471191, -0.27967116236686707, -0.2584018111228943, 1.8362681865692139, 0.046810559928417206, 0.3911014497280121, -1.1842105388641357, 0.29999083280563354, -0.14698053896427155, 1.534425973892212, 1.417906403541565, 0.378074586391449, 1.8876078128814697, 1.6622974872589111, 0.5381137728691101, 1.697629451751709, 1.7177833318710327, 1.7972780466079712, -0.06205368414521217, -0.5183078050613403], [1.5306531190872192, -0.5906047224998474, 0.7199071049690247, -0.19360993802547455, 1.2344670295715332, 3.3154749870300293, 1.9213244915008545, 1.4364097118377686, 0.012209764681756496, 2.3442022800445557, 0.6066171526908875, 0.35959866642951965, 1.3149019479751587, 2.7827656269073486, -1.1975667476654053, 0.3751848042011261, 0.8709794878959656, 1.369266152381897, 1.3972965478897095, 1.5635435581207275, 0.00019599348888732493, -0.05951422080397606, -0.3479636609554291, -0.19106614589691162, 0.731585681438446], [-0.9930436611175537, 1.2254923582077026, 0.22315792739391327, 1.2394436597824097, -0.730445384979248, 1.371743083000183, 2.091169834136963, 1.313366413116455, 0.279958575963974, 0.16915357112884521, 0.9641761183738708, 0.8878864645957947, 0.05040518566966057, -0.6832126379013062, 2.205533504486084, 1.0813740491867065, 3.707425594329834, -0.5133535861968994, -0.1554384082555771, 3.2669811248779297, 0.26837602257728577, -0.005105244927108288, 1.186087965965271, 1.3119536638259888, 1.1093302965164185], [1.1705797910690308, -1.0325813293457031, 0.5042902231216431, 2.0414321422576904, 2.2820141315460205, 0.041256383061409, 1.1753579378128052, 1.0841128826141357, 0.08652321249246597, 1.0990172624588013, 2.157013177871704, -0.13844642043113708, 0.16048741340637207, 0.12325800210237503, 0.3698737323284149, 2.051823616027832, 1.0138636827468872, 1.056822419166565, 2.3314623832702637, -0.8526860475540161, 0.5356165766716003, -1.7421942949295044, 1.2100807428359985, -1.5668549537658691, -0.06311429291963577], [0.6754558682441711, 0.1650136411190033, 0.7764257788658142, 1.8736745119094849, 0.7547495365142822, 1.579124927520752, 0.2634364366531372, -0.6217830181121826, -0.5847091674804688, 0.40753161907196045, -0.8342671394348145, 2.349929094314575, 1.5437939167022705, 1.5478386878967285, 0.44891053438186646, -1.0092746019363403, -0.041824694722890854, 2.5485687255859375, 0.5455262660980225, 1.3577970266342163, -2.0368614196777344, 2.2942967414855957, 1.2764440774917603, -0.9771944284439087, 1.1426241397857666], [-0.0031537229660898447, 1.6420862674713135, 0.22922392189502716, 0.4578763544559479, 2.424316883087158, -0.4601626396179199, 1.375187635421753, -0.20165269076824188, -0.33994680643081665, 0.2586935758590698, -1.4133800268173218, 0.38860243558883667, -0.1944112479686737, 0.18427135050296783, 2.815793991088867, 1.115052580833435, 1.277718424797058, 0.6644156575202942, -0.3611527383327484, 0.34254807233810425, 1.9085313081741333, -1.0532212257385254, 0.4883156716823578, 1.6856428384780884, 0.5942003726959229], [1.4213104248046875, -0.06061195582151413, 2.4621706008911133, 1.4269896745681763, -0.18492718040943146, 3.878082036972046, 1.8102596998214722, 1.9646780490875244, 0.4068622291088104, 0.6423125267028809, 0.5856775641441345, 0.213438019156456, -0.3322699964046478, 0.14405404031276703, -0.4856983423233032, 1.2719733715057373, 0.4608912169933319, 1.4024077653884888, 0.7718819975852966, 2.3853261470794678, -0.8850451707839966, 0.8959242105484009, 1.1391979455947876, 0.12601448595523834, 0.007904156111180782], [0.5118429660797119, 0.22718526422977448, 0.2504670023918152, 2.569746971130371, -1.4575437307357788, 0.7220553755760193, 4.045958995819092, -0.5222235321998596, -0.33079224824905396, 0.6787154674530029, 1.108978509902954, -0.8681411147117615, -0.3031218647956848, 0.30639228224754333, 1.0628737211227417, 1.5907832384109497, -0.2811078131198883, 1.1515954732894897, 1.0615986585617065, -0.25562840700149536, -0.8111926317214966, 1.060596227645874, 1.3458671569824219, 1.3068907260894775, 0.4002099633216858], [1.5284004211425781, -0.06870835274457932, 0.32851436734199524, 0.9027649760246277, 0.013166239485144615, 1.5722107887268066, 1.7118653059005737, -1.0010465383529663, 1.7364325523376465, 0.3153586685657501, 1.8257819414138794, -0.5258524417877197, 0.37754639983177185, -0.2548682987689972, -0.1840154379606247, 0.18464811146259308, 1.05219304561615, 0.523436963558197, 0.46797290444374084, 2.179138660430908, -1.196462631225586, 1.6438604593276978, 1.2041562795639038, 1.9027893543243408, 1.5811926126480103], [1.1201950311660767, 1.285925030708313, 0.9549214243888855, 2.6676204204559326, 1.623230218887329, -0.2766222357749939, 1.3198503255844116, 1.346461534500122, 2.3194711208343506, 2.1479179859161377, 2.104871988296509, 1.8587312698364258, 0.10724294930696487, -0.9672063589096069, 0.5032119750976562, 0.30049610137939453, 2.0404627323150635, 0.9924638867378235, 1.781855583190918, 0.20371955633163452, -1.9556735754013062, 0.3167456090450287, 2.4645862579345703, 1.5425642728805542, -1.5426338911056519], [-1.1415287256240845, -1.8875452280044556, 1.522408366203308, 1.2474857568740845, 1.045594334602356, 0.3402276039123535, 1.9274990558624268, 0.9350278973579407, 1.396267056465149, -0.20303288102149963, -0.8815699219703674, 2.2658772468566895, -1.121027946472168, -0.64168781042099, -0.21204398572444916, -0.14195796847343445, 1.3506404161453247, 0.6450413465499878, 1.4792068004608154, 0.974048912525177, 0.9346559047698975, 0.6118882894515991, 1.2987765073776245, 1.9540833234786987, 1.9691346883773804], [0.13261643052101135, -0.9762402176856995, 0.1294388324022293, 1.2679307460784912, 1.7199100255966187, 1.3738113641738892, -0.8690011501312256, 2.769432306289673, -1.0896270275115967, 0.6894309520721436, 0.27051621675491333, -0.9512162804603577, 0.6907141804695129, 0.1572800874710083, 1.0088258981704712, 2.660153865814209, 1.336074709892273, 1.1926548480987549, 1.0003975629806519, -0.09666329622268677, 1.032982587814331, 2.077646017074585, 0.45409730076789856, -0.2767907679080963, 1.4700391292572021], [1.2776172161102295, 0.43994566798210144, 0.951781153678894, 1.2885360717773438, 0.919392466545105, 0.9296267032623291, 1.2881592512130737, -0.05983224883675575, 0.32690396904945374, 0.8563719987869263, 1.7051900625228882, 2.0536885261535645, 1.087971806526184, 0.9786723256111145, 2.6215734481811523, 1.4161796569824219, 2.2654643058776855, 1.283527135848999, 0.44077372550964355, 2.002811908721924, -0.45513051748275757, 1.8552567958831787, 1.0496833324432373, 0.24630221724510193, -1.306391716003418], [0.2093324065208435, 2.059765100479126, 0.10807619243860245, 1.0430892705917358, 1.1111750602722168, -0.6907128095626831, 0.8105924129486084, 2.055833578109741, 0.2676752209663391, 0.7765729427337646, -0.17563891410827637, -0.7220778465270996, 0.6135448813438416, 0.45819225907325745, -0.5102625489234924, 0.6397435665130615, 0.8935673236846924, 2.4730358123779297, -0.4118410646915436, -0.15990066528320312, -0.818750262260437, -1.330952525138855, 0.7929719090461731, 2.3668742179870605, -1.006932258605957], [2.0821034908294678, 0.562142014503479, 1.6879903078079224, 0.8974351286888123, 2.2210867404937744, 1.068870186805725, -1.0541555881500244, 1.7302682399749756, 1.0103470087051392, 1.6485415697097778, 2.0682449340820312, 1.3604600429534912, 1.9860363006591797, 0.816268801689148, 0.41370540857315063, 0.8674482107162476, 1.1808568239212036, -0.3484954237937927, 1.53182053565979, 2.00870418548584, -0.4343532621860504, -1.6982148885726929, 0.7885536551475525, -0.23214922845363617, -0.6422374844551086], [0.30430296063423157, 1.175489068031311, 1.3494817018508911, 0.07415605336427689, 0.5188413262367249, 2.3312981128692627, 0.9374343156814575, -0.6051992177963257, 0.4340275824069977, 1.6302052736282349, 1.9136874675750732, -0.23136478662490845, 1.3735628128051758, 0.5129894018173218, 0.9857233166694641, 1.8559274673461914, 0.5478405952453613, 1.0265363454818726, 0.34052449464797974, 3.375779151916504, -0.37249836325645447, 0.7357786893844604, 1.5643205642700195, -0.35085371136665344, 0.16364966332912445], [1.761569857597351, 2.088240623474121, 1.510404109954834, 0.19209806621074677, 1.155153751373291, 0.47797176241874695, 1.0325608253479004, 0.6116570234298706, -0.7661774158477783, 0.2776625156402588, -1.516829490661621, -2.065825939178467, 1.629388451576233, -0.0702839270234108, 0.26313501596450806, 0.531234085559845, -0.2189938724040985, 1.106358289718628, 0.8314695954322815, 1.9253883361816406, -0.3191784918308258, 0.8496025800704956, 1.7827599048614502, 0.6581156253814697, 3.1046669483184814], [0.0945148915052414, 0.04063727334141731, 2.474818229675293, 0.7248506546020508, 0.3289950489997864, 1.829798698425293, -1.08038330078125, 0.7083096504211426, -0.6303436160087585, 1.083898901939392, 1.129562258720398, 0.7567174434661865, 0.8285560607910156, 0.5474601984024048, -1.6662863492965698, 2.0562381744384766, 1.4322317838668823, 0.21265488862991333, -0.7418127655982971, -0.5066734552383423, 0.08197798579931259, 0.08227773010730743, 1.3280318975448608, 1.5965102910995483, -0.19730637967586517], [0.7907828092575073, 1.6177105903625488, 2.1583950519561768, 1.0526081323623657, 0.928672730922699, 1.7993417978286743, 0.173915833234787, 1.580789566040039, 1.326107144355774, 0.06528870016336441, -1.3098783493041992, 1.4301834106445312, 1.1369611024856567, -0.5482487678527832, -1.3874789476394653, 1.8416414260864258, -0.11632973700761795, 0.37512868642807007, 1.335108995437622, 0.27049943804740906, -0.3584526777267456, 2.959017038345337, -1.1084909439086914, 1.5819486379623413, 0.37567296624183655], [1.7858562469482422, 1.3790688514709473, 1.2822221517562866, 0.5745177865028381, 0.9083496332168579, 1.8641905784606934, 1.4082839488983154, 1.195582628250122, 0.17995378375053406, 1.0188441276550293, -0.38718894124031067, 1.0329618453979492, 0.1530282199382782, -1.1015435457229614, 1.6690046787261963, 2.501410484313965, -0.5092469453811646, 0.9408770799636841, -0.19300280511379242, 1.0445307493209839, 0.9504666328430176, 0.8262031078338623, 1.4099465608596802, 1.0717803239822388, -0.11916341632604599]]}, {"name": "activation_7", "type": "tanh"}, {"has_bias": true, "bias": [1.656324028968811, 1.3889249563217163], "in_features": 25, "type": "dense", "name": "trainable_8", "out_features": 2, "weights": [[-3.1540519557893276e-05, -0.06101473793387413], [0.029797669500112534, -0.05579540878534317], [-0.11311924457550049, -0.008817299269139767], [-0.036901429295539856, 0.012570571154356003], [-0.026934221386909485, 0.04780871048569679], [1.6323543787002563, 0.0073172287084162235], [0.027427177876234055, -0.023037778213620186], [-0.07814346998929977, 0.03652235493063927], [-0.13739092648029327, 0.0621587373316288], [0.0522591657936573, 0.1120053231716156], [-0.09631858021020889, 0.02287372760474682], [0.04531355947256088, -0.013715259730815887], [0.04345487803220749, -0.04548101872205734], [-0.027027824893593788, 0.03329663723707199], [0.14323462545871735, -0.5355043411254883], [-0.041714925318956375, 0.022824754938483238], [-0.0014640609733760357, -0.01316174864768982], [-0.02590889297425747, 0.008627563714981079], [-0.006018470041453838, 0.001766416011378169], [0.22673435509204865, 0.007258138153702021], [0.875091552734375, -0.29888710379600525], [0.033097438514232635, 0.03046887367963791], [-0.04510710760951042, 0.0021280848886817694], [0.14370350539684296, -0.0716656744480133], [0.13478556275367737, -0.11333657056093216]]}, {"name": "activation_9", "type": "tanh"}, {"name": "criterion_10", "type": "mse"}]}